/*!
 * The following copyright notice may not be removed under any circumstances.
 * 
 * Copyright:
 * Copyright (c) 2003 by Bitstream, Inc. All Rights Reserved.
 * DejaVu changes are in public domain
 * 
 * 
 * Manufacturer:
 * DejaVu fonts team
 * 
 * Vendor URL:
 * http://dejavu.sourceforge.net
 * 
 * License information:
 * http://dejavu.sourceforge.net/wiki/index.php/License
 */
Cufon.registerFont({"w":1425,"face":{"font-family":"DejaVu Serif","font-weight":700,"font-style":"italic","font-stretch":"normal","units-per-em":"2048","panose-1":"2 6 8 3 5 3 5 11 2 4","ascent":"1556","descent":"-492","x-height":"29","bbox":"-340 -1923 2469 483","underline-thickness":"90","underline-position":"-85","slope":"-11","unicode-range":"U+0020-U+2122"},"glyphs":{" ":{"w":713},"!":{"d":"149,-162v17,-95,119,-190,226,-190v99,0,172,86,153,190v-18,96,-120,191,-227,191v-100,0,-171,-86,-152,-191xm410,-1493r375,0r-283,842r-37,190r-139,0r37,-190","w":899},"\"":{"d":"432,-1493r0,555r-237,0r0,-555r237,0xm872,-1493r0,555r-237,0r0,-555r237,0","w":1067},"#":{"d":"1024,-872r-264,0r-70,274r264,0xm911,-1470r-96,385r264,0r97,-385r221,0r-97,385r277,0r0,213r-330,0r-69,274r284,0r0,215r-336,0r-96,383r-221,0r96,-383r-264,0r-96,383r-223,0r96,-383r-279,0r0,-215r328,0r70,-274r-283,0r0,-213r338,0r96,-385r223,0","w":1716},"$":{"d":"261,-350v-12,190,86,270,280,266r79,-405v-159,-37,-268,-87,-328,-150v-60,-63,-79,-149,-58,-258v46,-243,255,-388,541,-393r53,-269r121,0r-53,269v153,9,282,37,397,88r-53,272r-121,0v10,-159,-86,-246,-245,-247r-72,372v172,39,288,93,348,159v60,66,77,159,54,279v-49,253,-262,390,-564,396r-53,270r-121,0r53,-270v-165,-4,-305,-37,-435,-88r57,-291r120,0xm754,-1178v-105,12,-197,66,-215,156v-9,47,-2,84,21,113v23,29,65,52,127,71xm662,-84v126,-13,215,-64,238,-172v10,-49,2,-90,-24,-122v-26,-32,-74,-58,-142,-79"},"%":{"d":"573,-1419v-43,0,-74,25,-105,69v-42,61,-113,372,-92,473v10,47,35,70,78,70v43,0,78,-23,106,-70v28,-47,53,-126,75,-237v21,-111,27,-190,17,-236v-10,-46,-36,-69,-79,-69xm593,-1520v251,-1,366,141,315,406v-47,244,-199,405,-473,407v-250,1,-366,-142,-315,-407v47,-243,200,-404,473,-406xm1505,-1520r172,0r-1236,1549r-172,0xm1510,-784v250,-1,366,141,315,405v-47,244,-199,406,-473,408v-250,2,-364,-143,-313,-408v47,-242,199,-403,471,-405xm1491,-684v-43,0,-76,26,-107,70v-42,61,-113,371,-91,472v10,47,36,70,79,70v43,0,78,-23,106,-70v28,-47,53,-126,75,-237v21,-111,27,-189,17,-235v-10,-46,-36,-70,-79,-70","w":1946},"&":{"d":"1628,-795v-60,190,-147,339,-272,459r165,215r170,0r-24,121r-479,0r-101,-131v-139,96,-301,160,-517,160v-200,0,-348,-43,-444,-128v-96,-85,-130,-201,-101,-352v21,-109,67,-202,140,-279v73,-77,176,-143,310,-198v-40,-76,-72,-144,-54,-246v19,-110,84,-194,187,-255v139,-82,356,-109,575,-79v64,8,136,20,215,35r-60,312r-129,0v6,-156,-46,-239,-195,-238v-139,1,-254,71,-254,201v0,61,43,145,128,251v11,13,20,22,25,29r366,482v98,-92,166,-209,207,-359r23,-120r318,0r-23,120r-176,0xm382,-427v0,179,130,302,311,298v130,-3,224,-43,319,-100r-451,-588v-97,99,-179,211,-179,390","w":1849},"'":{"d":"432,-1493r0,555r-237,0r0,-555r237,0","w":627},"(":{"d":"680,319v-209,-83,-354,-203,-434,-358v-80,-155,-99,-349,-53,-579v99,-495,393,-773,851,-938r-23,120v-118,64,-212,158,-283,284v-71,126,-128,304,-173,534v-45,229,-56,406,-34,532v22,126,79,221,172,285","w":969},")":{"d":"-78,319r23,-120v118,-64,212,-159,283,-285v71,-126,128,-303,173,-532v45,-230,56,-408,34,-534v-22,-126,-79,-220,-172,-284r23,-120v211,88,356,209,436,362v80,153,98,346,52,576v-97,490,-397,781,-852,937","w":969},"*":{"d":"1026,-1212r-360,168r360,170r-98,155r-328,-239r27,389r-183,0r27,-389r-328,239r-98,-155r361,-170r-361,-168r98,-158r328,242r-27,-392r183,0r-27,392r328,-242","w":1071},"+":{"d":"973,-1284r0,526r526,0r0,230r-526,0r0,526r-230,0r0,-526r-526,0r0,-230r526,0r0,-526r230,0","w":1716},",":{"d":"-9,197v150,-105,244,-229,285,-430r17,-86r285,0v-64,322,-237,520,-505,657","w":713},"-":{"d":"137,-684r628,0r-52,270r-628,0","w":850},".":{"d":"166,-162v17,-95,120,-190,227,-190v100,0,173,86,154,190v-18,96,-120,191,-228,191v-100,0,-172,-86,-153,-191","w":713},"\/":{"d":"690,-1493r222,0r-855,1683r-221,0","w":748},"0":{"d":"585,-88v80,0,142,-36,186,-109v44,-73,94,-255,151,-548v57,-291,77,-473,62,-547v-15,-74,-63,-111,-143,-111v-80,0,-142,36,-186,109v-44,73,-94,256,-151,549v-57,293,-77,475,-62,548v15,73,63,109,143,109xm562,29v-199,0,-339,-66,-419,-199v-80,-133,-96,-325,-47,-575v49,-250,139,-442,271,-575v132,-133,298,-200,497,-200v199,0,338,67,418,200v80,133,96,325,47,575v-49,250,-139,442,-271,575v-132,133,-297,199,-496,199"},"1":{"d":"133,0r24,-121r280,0r235,-1208r-347,184r29,-149r419,-226r315,0r-272,1399r281,0r-24,121r-940,0"},"2":{"d":"341,-1124r-120,0r62,-322v157,-44,312,-73,498,-74v190,0,330,38,421,116v91,78,124,186,97,325v-19,99,-65,187,-139,265v-74,78,-205,171,-391,279r-469,273r707,0r34,-176r137,0r-85,438r-1104,0r48,-244r250,-153v214,-130,361,-241,442,-332v81,-91,132,-198,156,-320v43,-217,-18,-353,-211,-354v-79,0,-146,23,-203,71v-57,48,-100,117,-130,208"},"3":{"d":"695,-1403v-175,2,-275,105,-319,252r-121,0r58,-299v164,-41,327,-70,512,-70v180,0,311,32,395,96v84,64,114,157,91,277v-38,192,-185,297,-390,332v125,21,214,65,265,133v51,68,64,161,41,279v-27,139,-103,245,-227,321v-169,104,-476,136,-742,91v-81,-13,-164,-33,-250,-60r64,-328r121,0v-23,190,65,292,248,291v216,-1,344,-133,381,-324v42,-219,-59,-340,-266,-338r-66,0r23,-120v122,4,219,-14,287,-68v58,-46,96,-113,113,-203v34,-174,-51,-264,-218,-262"},"4":{"d":"1159,0r-822,0r24,-121r222,0r53,-272r-623,0r22,-115r822,-1012r376,0r-194,998r256,0r-25,129r-256,0r-53,272r222,0xm661,-522r141,-725r-586,725r445,0"},"5":{"d":"611,-883v-125,0,-198,55,-271,129r-100,0r144,-739r919,0r-51,262r-799,0r-64,328v90,-61,201,-103,338,-103v184,0,320,47,409,140v89,93,116,219,86,379v-60,321,-326,518,-708,516v-184,-1,-329,-31,-478,-82r63,-326r120,0v-29,195,44,291,229,291v98,0,177,-32,237,-98v60,-66,103,-166,129,-301v26,-133,22,-231,-12,-297v-34,-66,-97,-99,-191,-99"},"6":{"d":"1204,-1196v-8,-137,-88,-207,-234,-207v-119,0,-213,41,-282,122v-69,81,-121,213,-157,396v91,-63,199,-103,341,-104v299,-4,453,188,393,502v-61,318,-296,517,-666,516v-420,-1,-570,-266,-479,-727v54,-271,150,-476,294,-614v181,-175,436,-240,750,-193v67,10,137,25,212,45r-51,264r-121,0xm599,-88v69,0,123,-30,164,-88v41,-58,75,-159,103,-303v28,-144,33,-245,15,-303v-18,-58,-61,-88,-130,-88v-69,0,-123,30,-163,88v-40,58,-75,159,-103,303v-28,144,-33,245,-15,303v18,58,60,88,129,88"},"7":{"d":"1351,-1239r-857,1239r-203,0r835,-1210r-737,0r-39,202r-137,0r94,-485r1093,0"},"8":{"d":"962,-795v209,34,331,156,285,398v-55,291,-321,426,-687,426v-195,0,-338,-37,-428,-110v-90,-73,-121,-179,-94,-316v43,-225,204,-362,441,-398v-100,-24,-171,-65,-212,-121v-41,-56,-53,-127,-36,-214v54,-268,293,-390,631,-390v180,0,311,33,393,100v82,67,112,164,86,290v-39,190,-178,292,-379,335xm953,-1126v21,-105,23,-178,5,-218v-18,-40,-58,-59,-119,-59v-62,0,-109,19,-142,59v-33,40,-59,113,-80,218v-21,105,-23,177,-5,216v18,39,58,58,120,58v62,0,110,-19,142,-58v32,-39,58,-111,79,-216xm854,-414v23,-122,24,-206,2,-252v-22,-46,-71,-69,-147,-69v-77,0,-135,23,-175,69v-40,46,-71,130,-94,252v-24,123,-26,209,-4,256v22,47,71,70,147,70v75,0,133,-23,174,-70v41,-47,73,-133,97,-256"},"9":{"d":"826,-1403v-69,0,-124,29,-164,87v-40,58,-74,160,-102,304v-28,144,-34,246,-16,304v18,58,61,87,130,87v69,0,123,-29,164,-87v41,-58,75,-160,103,-304v28,-144,33,-246,15,-304v-18,-58,-61,-87,-130,-87xm221,-295v8,137,89,207,235,207v117,0,211,-40,280,-122v69,-82,122,-215,158,-398v-91,64,-199,105,-341,106v-298,3,-452,-187,-392,-502v61,-319,293,-516,664,-516v420,0,571,267,480,727v-54,271,-151,477,-295,615v-181,175,-435,239,-749,192v-67,-10,-137,-25,-212,-45r51,-264r121,0"},":":{"d":"280,-680v-101,-137,46,-324,197,-324v99,0,172,87,153,191v-18,95,-118,189,-226,188v-53,0,-96,-17,-124,-55xm125,-162v18,-95,119,-190,226,-190v99,0,173,86,153,190v-18,95,-119,191,-227,191v-100,0,-172,-86,-152,-191","w":756},";":{"d":"281,-813v18,-96,119,-191,226,-191v99,0,173,87,153,191v-18,95,-119,188,-227,188v-100,0,-172,-83,-152,-188xm-49,188v151,-104,245,-227,286,-428r17,-88r285,0v-64,321,-238,522,-505,658","w":756},"<":{"d":"1499,-979r-979,338r979,336r0,239r-1282,-464r0,-226r1282,-463r0,240","w":1716},"=":{"d":"217,-528r1282,0r0,227r-1282,0r0,-227xm217,-983r1282,0r0,227r-1282,0r0,-227","w":1716},">":{"d":"217,-979r0,-240r1282,463r0,226r-1282,464r0,-239r979,-336","w":1716},"?":{"d":"229,-162v18,-95,120,-190,227,-190v100,0,174,86,154,190v-18,96,-120,191,-229,191v-100,0,-172,-86,-152,-191xm621,-1407v-169,0,-250,111,-289,262r-121,0r59,-307v152,-39,297,-68,467,-68v168,0,289,36,365,110v76,74,101,179,74,316v-55,277,-276,432,-594,453r-40,205r-139,0r58,-299v196,-58,302,-172,344,-381v36,-184,-18,-291,-184,-291","w":1200},"@":{"d":"1162,-296v67,-66,96,-168,117,-284v29,-160,-27,-286,-169,-286v-66,0,-124,30,-176,88v-52,58,-88,136,-107,235v-19,99,-14,177,15,236v29,59,76,88,142,88v67,0,126,-26,178,-77xm1445,188v-165,97,-351,168,-582,168v-275,0,-467,-94,-596,-252v-125,-153,-185,-371,-131,-647v53,-273,196,-493,383,-647v184,-152,400,-250,709,-250v245,0,422,69,547,195v132,134,203,306,154,569v-66,356,-324,594,-744,584r28,-148v-68,85,-167,146,-305,148v-256,2,-377,-175,-322,-451v28,-140,86,-251,174,-331v88,-80,196,-119,323,-119v124,0,211,57,248,147r24,-125r219,0r-144,742v207,-53,344,-224,386,-449v40,-220,-20,-359,-131,-473v-97,-99,-256,-163,-448,-162v-195,1,-349,56,-477,139v-206,132,-365,357,-418,631v-41,212,-6,403,83,531v103,147,266,241,502,241v191,0,344,-57,479,-135","w":2048},"A":{"d":"-161,0r23,-121r122,0r829,-1372r239,0r296,1372r142,0r-23,121r-699,0r23,-121r146,0r-63,-305r-561,0r-185,305r178,0r-23,121r-444,0xm385,-547r463,0r-119,-571","w":1589},"B":{"d":"-49,0r23,-121r191,0r244,-1251r-191,0r23,-121r885,0v182,0,313,31,392,92v79,61,108,154,83,277v-39,196,-206,286,-435,309v147,14,255,54,322,120v67,66,90,154,69,263v-29,148,-106,257,-231,327v-125,70,-307,105,-545,105r-830,0xm696,-870r131,0v221,0,351,-75,387,-254v17,-87,3,-150,-43,-189v-46,-39,-128,-59,-246,-59r-131,0xm550,-121r143,0v255,-1,396,-98,436,-311v44,-232,-81,-318,-313,-318r-143,0","w":1731},"C":{"d":"1412,-1024v-2,-241,-106,-374,-341,-375v-145,0,-264,54,-355,161v-91,107,-159,271,-202,493v-43,222,-40,386,10,493v50,107,148,160,295,160v99,0,185,-28,259,-83v74,-55,136,-139,187,-251r199,0v-69,154,-162,268,-279,343v-117,75,-261,112,-433,112v-252,0,-437,-70,-556,-209v-119,-139,-156,-327,-110,-565v46,-239,157,-428,330,-567v231,-186,556,-254,908,-176v92,21,187,54,286,97r-71,367r-127,0","w":1630},"D":{"d":"550,-121r139,0v156,0,280,-50,372,-150v92,-100,159,-259,201,-477v42,-217,36,-374,-16,-474v-52,-100,-156,-150,-313,-150r-139,0xm-49,0r23,-121r191,0r244,-1251r-191,0r23,-121r766,0v268,0,460,64,577,192v117,128,151,312,106,553v-88,469,-426,748,-973,748r-766,0","w":1776},"E":{"d":"-49,0r23,-121r191,0r244,-1251r-191,0r23,-121r1342,0r-68,352r-138,0r41,-215r-628,0r-93,479r391,0r37,-190r137,0r-100,516r-137,0r37,-190r-391,0r-117,604r647,0r41,-215r137,0r-68,352r-1360,0","w":1561},"F":{"d":"-49,0r23,-121r191,0r244,-1251r-191,0r23,-121r1331,0r-68,352r-137,0r41,-215r-616,0r-93,479r379,0r37,-190r137,0r-100,516r-137,0r37,-190r-379,0r-121,620r235,0r-23,121r-813,0","w":1454},"G":{"d":"1463,-1024v-9,-260,-110,-375,-373,-375v-155,0,-278,52,-371,157v-93,105,-161,271,-205,497v-43,224,-41,389,8,495v49,106,146,158,293,158v122,-1,220,-29,302,-76r79,-410r-180,0r24,-120r538,0r-112,573v-215,91,-432,154,-708,154v-256,0,-444,-69,-563,-207v-119,-138,-153,-327,-109,-567v84,-458,446,-777,974,-775v237,1,426,50,601,129r-71,367r-127,0","w":1749},"H":{"d":"-49,0r23,-121r191,0r244,-1251r-191,0r23,-121r768,0r-23,121r-192,0r-98,502r594,0r98,-502r-191,0r23,-121r768,0r-23,121r-192,0r-244,1251r192,0r-23,121r-768,0r23,-121r191,0r119,-612r-594,0r-119,612r192,0r-23,121r-768,0","w":1935},"I":{"d":"-49,0r23,-121r191,0r244,-1251r-191,0r23,-121r768,0r-23,121r-192,0r-244,1251r192,0r-23,121r-768,0","w":958},"J":{"d":"-323,358r45,-235r130,0v-15,119,16,181,124,182v65,0,115,-25,150,-75v35,-50,66,-142,93,-279r257,-1323r-217,0r24,-121r795,0r-24,121r-191,0r-259,1331v-63,317,-234,467,-603,467v-125,0,-228,-27,-324,-68","w":969},"K":{"d":"-49,0r23,-121r191,0r244,-1251r-191,0r23,-121r768,0r-23,121r-192,0r-106,545r739,-545r-160,0r23,-121r557,0r-23,121r-199,0r-626,461r575,790r147,0r-23,121r-506,0r-524,-725r-118,604r192,0r-23,121r-768,0","w":1780},"L":{"d":"-49,0r23,-121r191,0r244,-1251r-191,0r23,-121r768,0r-23,121r-192,0r-240,1235r588,0r45,-236r135,0r-72,373r-1299,0","w":1440},"M":{"d":"-59,0r23,-121r190,0r244,-1251r-190,0r23,-121r616,0r240,958r614,-958r615,0r-23,121r-191,0r-244,1251r191,0r-23,121r-768,0r23,-121r190,0r222,-1139r-666,1041r-253,0r-258,-1041r-222,1139r190,0r-23,121r-520,0","w":2267},"N":{"d":"-55,0r23,-121r191,0r244,-1251r-191,0r23,-121r467,0r696,1057r182,-936r-190,0r23,-121r522,0r-23,121r-191,0r-267,1372r-262,0r-705,-1079r-187,958r190,0r-23,121r-522,0","w":1872},"O":{"d":"764,-92v127,0,233,-54,316,-161v83,-107,145,-271,188,-492v43,-221,43,-386,2,-493v-41,-107,-125,-161,-252,-161v-127,0,-232,55,-315,163v-83,108,-146,272,-189,491v-43,219,-43,383,-2,491v41,108,125,162,252,162xm740,29v-481,0,-751,-277,-654,-774v47,-241,155,-431,325,-569v170,-138,380,-206,631,-206v482,0,751,277,654,775v-47,241,-155,431,-325,568v-170,137,-380,206,-631,206","w":1784},"P":{"d":"-49,0r23,-121r191,0r244,-1251r-191,0r23,-121r850,0v166,0,290,40,373,119v83,79,110,184,85,317v-50,266,-306,443,-628,439r-274,0r-97,497r241,0r-23,121r-817,0xm671,-739r112,0v189,-1,313,-145,346,-318v36,-188,-48,-317,-223,-315r-112,0","w":1540},"Q":{"d":"771,29v-251,-4,-433,-75,-548,-210v-117,-138,-145,-342,-101,-564v47,-241,156,-431,326,-569v170,-138,379,-206,630,-206v251,0,434,69,551,206v119,139,147,344,103,569v-81,413,-358,699,-781,761v28,38,66,65,113,82v110,39,210,58,300,58r193,0r-48,246r-171,0v-169,0,-305,-38,-408,-115v-75,-55,-128,-141,-159,-258xm800,-92v127,0,233,-54,316,-161v83,-107,145,-271,188,-492v22,-113,33,-212,33,-295v0,-79,-10,-145,-30,-198v-41,-107,-126,-161,-253,-161v-127,0,-232,55,-315,163v-83,108,-146,272,-189,491v-21,111,-32,207,-32,290v0,80,10,147,30,201v41,108,125,162,252,162","w":1784},"R":{"d":"1084,-729v122,19,182,81,218,192r137,416r153,0r-23,121r-491,0r-150,-451v-28,-93,-57,-152,-83,-179v-36,-36,-111,-41,-188,-38r-107,547r192,0r-23,121r-768,0r23,-121r191,0r244,-1251r-191,0r23,-121r852,0v173,0,300,35,381,105v81,70,110,168,84,296v-45,226,-218,331,-474,363xm680,-788r131,0v198,-1,315,-118,348,-293v36,-191,-52,-292,-234,-291r-131,0","w":1702},"S":{"d":"1204,-1102v-1,-218,-119,-296,-348,-297v-185,0,-309,60,-339,205v-12,62,-2,109,25,142v48,60,318,121,448,155v132,35,222,89,270,162v48,73,60,174,35,303v-62,313,-318,463,-705,461v-216,-1,-393,-39,-563,-101r69,-354r127,0v-4,235,128,334,371,334v197,0,331,-73,362,-232v12,-60,2,-106,-28,-140v-57,-66,-296,-113,-422,-148v-139,-37,-232,-90,-278,-156v-46,-66,-57,-160,-34,-283v56,-294,301,-471,653,-469v201,1,379,36,548,88r-64,330r-127,0","w":1479},"T":{"d":"226,0r23,-121r198,0r240,-1235r-409,0r-45,236r-137,0r72,-373r1480,0r-72,373r-135,0r45,-236r-412,0r-240,1235r199,0r-23,121r-784,0","w":1524},"U":{"d":"384,-1372r-190,0r24,-121r768,0r-24,121r-191,0r-145,747v-36,186,-32,317,12,391v44,74,135,111,276,111v137,0,242,-38,314,-113v72,-75,126,-204,162,-389r145,-747r-190,0r24,-121r520,0r-24,121r-191,0r-149,768v-44,228,-125,391,-243,488v-118,97,-292,145,-525,145v-231,0,-387,-49,-467,-147v-80,-98,-98,-261,-54,-488","w":1786},"V":{"d":"1763,-1493r-23,121r-125,0r-830,1372r-238,0r-296,-1372r-141,0r23,-121r700,0r-23,121r-145,0r210,989r599,-989r-178,0r23,-121r444,0","w":1589},"W":{"d":"1600,0r-258,0r-127,-1087r-549,1087r-258,0r-159,-1372r-145,0r23,-121r708,0r-23,121r-160,0r106,917r524,-1038r284,0r123,1055r473,-934r-178,0r23,-121r462,0r-23,121r-153,0","w":2300},"X":{"d":"661,-575r-400,454r184,0r-23,121r-530,0r23,-121r184,0r504,-571r-334,-680r-137,0r23,-121r742,0r-23,121r-164,0r207,420r368,-420r-174,0r23,-121r520,0r-23,121r-184,0r-474,536r351,715r141,0r-23,121r-745,0r23,-121r166,0","w":1589},"Y":{"d":"207,0r23,-121r201,0r97,-497r-297,-754r-127,0r23,-121r716,0r-23,121r-166,0r225,569r445,-569r-149,0r23,-121r428,0r-23,121r-127,0r-551,702r-107,549r201,0r-23,121r-789,0","w":1462},"Z":{"d":"-69,0r27,-141r1127,-1215r-715,0r-43,223r-137,0r70,-360r1296,0r-27,141r-1117,1215r754,0r40,-209r137,0r-67,346r-1345,0","w":1495},"[":{"d":"433,-1556r567,0r-23,120r-213,0r-308,1586r213,0r-23,120r-567,0","w":969},"\\":{"d":"385,-1493r199,1683r-222,0r-198,-1683r221,0","w":748},"]":{"d":"890,-1556r-354,1826r-568,0r23,-120r213,0r308,-1586r-213,0r23,-120r568,0","w":969},"^":{"d":"973,-1493r536,557r-213,0r-438,-315r-438,315r-213,0r543,-557r223,0","w":1716},"_":{"d":"1024,293r0,190r-1024,0r0,-190r1024,0","w":1024},"`":{"d":"542,-1638r184,376r-164,0r-299,-376r279,0","w":1024},"a":{"d":"841,-876v-2,-40,-22,-60,-60,-60v-89,0,-178,53,-265,160v-41,49,-77,156,-109,321v-24,123,-27,209,-10,257v17,48,58,71,121,71v62,0,113,-28,152,-83v39,-55,70,-145,94,-269xm1181,-1031r-175,910r133,-2r-24,123r-444,0r26,-135v-73,109,-175,164,-305,164v-262,2,-379,-191,-321,-477v30,-148,107,-287,235,-416v151,-152,328,-228,531,-228v200,0,315,20,344,61","w":1327},"b":{"d":"708,29v-150,0,-238,-53,-277,-164r-26,135r-354,0r279,-1436r-152,0r23,-120r506,0r-122,628v75,-102,176,-162,341,-164v249,-3,396,148,396,398v0,249,-94,448,-228,573v-106,100,-235,150,-386,150xm935,-761v2,-113,-41,-175,-147,-175v-71,0,-127,28,-170,83v-43,55,-76,145,-100,269v-15,80,-40,199,-40,275v0,114,43,183,152,182v73,0,129,-29,170,-88v41,-59,77,-164,107,-317v19,-95,28,-171,28,-229","w":1432},"c":{"d":"652,-84v163,0,256,-108,298,-248r166,0v-90,225,-251,361,-545,361v-189,0,-325,-50,-411,-147v-87,-99,-107,-250,-76,-414v62,-333,311,-560,691,-560v167,1,307,34,438,84r-58,295r-112,0v14,-164,-45,-266,-204,-266v-99,0,-175,33,-230,100v-55,67,-98,182,-130,347v-17,86,-25,159,-25,218v-2,149,57,230,198,230","w":1247},"d":{"d":"407,-304v0,115,41,176,147,177v70,0,127,-28,170,-83v43,-55,76,-145,100,-269v15,-80,39,-197,39,-274v0,-115,-43,-183,-151,-183v-73,0,-131,30,-172,88v-41,58,-76,163,-106,316v-18,94,-27,170,-27,228xm633,-1092v150,0,239,53,278,164r99,-508r-152,0r23,-120r506,0r-302,1556r-354,0r26,-135v-75,102,-177,162,-342,164v-248,4,-393,-150,-393,-398v0,-249,92,-450,226,-574v106,-99,234,-149,385,-149","w":1432},"e":{"d":"478,-519v242,4,382,-92,382,-313v0,-98,-41,-147,-124,-147v-63,0,-114,29,-151,89v-37,60,-73,184,-107,371xm1143,-322v-101,233,-275,351,-597,351v-184,0,-315,-49,-395,-145v-82,-99,-97,-252,-67,-413v62,-331,303,-562,675,-563v127,0,235,23,323,74v104,60,151,140,127,266v-41,216,-294,333,-755,352v-4,23,-6,58,-6,105v1,141,69,211,206,211v171,0,274,-100,323,-238r166,0","w":1303},"f":{"d":"1016,-1290v11,-96,-28,-154,-122,-154v-53,0,-94,21,-127,58v-52,59,-78,214,-99,323r267,0r-23,121r-267,0r-189,971v-27,139,-82,230,-165,269v-128,61,-266,91,-412,91r23,-112v53,0,96,-19,127,-57v31,-38,55,-101,72,-187r190,-975r-158,0r23,-121r158,0r26,-133v45,-238,228,-361,515,-360v118,0,222,14,318,38r-45,228r-112,0","w":881},"g":{"d":"987,-876v-3,-40,-26,-60,-69,-60v-121,0,-220,53,-296,160v-47,67,-85,174,-114,321v-24,123,-26,209,-6,257v20,48,67,71,140,71v69,0,125,-28,168,-83v43,-55,76,-145,100,-269xm209,135v-8,152,85,208,243,207v109,0,191,-26,246,-78v55,-52,96,-145,122,-278r23,-121v-81,109,-197,164,-347,164v-288,0,-446,-176,-386,-477v35,-181,137,-337,306,-468v151,-117,338,-176,560,-176v179,0,309,32,389,96r-191,982v-32,164,-108,279,-227,346v-201,114,-422,146,-686,106v-71,-11,-142,-27,-215,-49r50,-254r113,0","w":1432},"h":{"d":"932,-804v1,-86,-34,-122,-121,-122v-71,0,-129,26,-173,78v-44,52,-76,136,-98,250r-116,598r-354,0r279,-1436r-158,0r23,-120r512,0r-125,643v102,-113,195,-179,388,-179v192,0,294,91,295,281v0,41,-5,86,-14,135r-108,555r152,0r-23,121r-506,0r133,-686v9,-47,14,-86,14,-118","w":1489},"i":{"d":"458,-1174v-102,0,-176,-80,-156,-190v18,-99,118,-192,230,-192v100,0,173,82,153,192v-17,96,-119,190,-227,190xm447,-121r152,0r-23,121r-506,0r183,-942r-151,0r23,-121r505,0","w":778},"j":{"d":"492,-1174v-102,0,-176,-80,-156,-190v18,-99,117,-192,230,-192v99,0,173,82,153,192v-18,96,-119,190,-227,190xm-188,245v0,69,32,96,103,97v49,0,86,-16,111,-47v25,-31,46,-88,62,-170r207,-1067r-151,0r24,-121r505,0r-231,1188v-46,228,-235,331,-520,330v-93,-1,-182,-17,-262,-39r44,-226r113,1v-3,20,-5,38,-5,54","w":741},"k":{"d":"424,0r-354,0r279,-1436r-151,0r23,-120r505,0r-194,999r504,-385r-127,0r23,-121r288,0r-23,121r-322,246r336,575r115,0r-23,121r-391,0r-292,-500r-116,88","w":1419},"l":{"d":"447,-121r152,0r-23,121r-506,0r279,-1436r-151,0r23,-120r505,0","w":778},"m":{"d":"1013,-1092v173,0,264,63,297,203v63,-71,126,-123,190,-155v64,-32,133,-48,210,-48v195,1,297,85,298,277v0,42,-5,88,-15,139r-108,555r152,0r-23,121r-506,0r121,-623v17,-87,25,-153,25,-198v1,-79,-32,-105,-110,-105v-63,0,-116,24,-160,72v-44,48,-75,118,-92,207r-126,647r-354,0r121,-623v17,-86,25,-151,25,-196v0,-81,-33,-107,-110,-107v-63,0,-117,24,-161,72v-44,48,-75,118,-92,207r-126,647r-354,0r183,-942r-151,0r23,-121r505,0r-29,150v94,-108,191,-179,367,-179","w":2167},"n":{"d":"977,-804v1,-86,-34,-122,-121,-122v-71,0,-128,26,-172,78v-44,52,-77,136,-99,250r-116,598r-354,0r183,-942r-151,0r23,-121r505,0r-29,150v102,-113,195,-177,388,-179v192,-2,295,92,296,281v0,41,-5,86,-15,135r-108,555r152,0r-23,121r-506,0r133,-686v9,-47,14,-86,14,-118","w":1489},"o":{"d":"447,-270v0,118,42,186,150,186v75,0,133,-32,176,-96v43,-64,81,-181,114,-352v22,-111,33,-200,33,-266v0,-115,-41,-181,-149,-181v-75,0,-135,33,-178,97v-43,64,-81,181,-114,350v-21,109,-32,197,-32,262xm575,29v-187,0,-324,-50,-411,-149v-89,-101,-111,-247,-80,-412v62,-335,323,-561,709,-560v188,0,325,50,412,148v89,100,110,248,79,412v-63,333,-324,562,-709,561","w":1366},"p":{"d":"1018,-761v0,-114,-42,-174,-147,-175v-71,0,-127,28,-169,83v-42,55,-76,145,-100,269v-16,79,-40,198,-40,275v0,114,43,183,152,182v73,0,129,-29,170,-88v41,-59,77,-164,107,-317v18,-95,27,-171,27,-229xm792,29v-149,0,-239,-53,-277,-164r-110,561r-354,0r266,-1368r-152,0r24,-121r506,0r-26,135v75,-102,176,-162,341,-164v249,-3,396,148,396,398v0,249,-94,448,-228,573v-106,100,-235,150,-386,150","w":1432},"q":{"d":"1362,-996r-252,1296r161,2r-24,122r-516,2r110,-561v-82,109,-198,164,-347,164v-288,0,-445,-176,-386,-477v36,-181,136,-337,305,-468v151,-117,338,-176,560,-176v179,0,309,32,389,96xm985,-876v-4,-40,-27,-60,-70,-60v-121,0,-220,53,-296,160v-47,67,-85,174,-114,321v-24,123,-26,209,-5,257v21,48,67,71,139,71v69,0,125,-28,168,-83v43,-55,76,-145,100,-269","w":1432},"r":{"d":"639,-874v95,-146,231,-238,463,-214v29,3,63,8,101,13r-62,317r-113,0v15,-103,-26,-168,-129,-168v-77,0,-145,34,-203,102v-58,68,-99,162,-122,283r-105,541r-354,0r183,-942r-162,0r23,-121r516,0","w":1079},"s":{"d":"169,-328v-11,158,77,244,236,244v155,0,242,-48,261,-145v7,-40,6,-73,-22,-104v-37,-41,-186,-72,-264,-93v-104,-29,-174,-63,-207,-106v-48,-62,-60,-128,-43,-218v45,-235,242,-342,525,-342v145,0,297,21,456,64r-53,268r-113,0v18,-145,-59,-219,-223,-219v-151,0,-236,45,-253,135v-2,11,-3,24,-3,39v0,43,41,76,123,98r138,37v133,35,217,76,254,120v52,63,66,134,47,228v-23,120,-83,209,-180,266v-97,57,-235,85,-416,85v-131,0,-276,-20,-433,-60r57,-297r113,0","w":1153},"t":{"d":"854,-260v-57,213,-150,289,-414,289v-146,0,-240,-23,-284,-69v-49,-51,-47,-157,-29,-251r127,-651r-154,0r23,-121r154,0r64,-330r354,0r-64,330r295,0r-23,121r-295,0r-127,651v-11,59,-17,104,-17,134v-2,58,24,73,79,73v104,0,138,-76,162,-176r149,0","w":946},"u":{"d":"514,-250v-1,85,34,113,119,113v71,0,129,-26,172,-79v43,-53,76,-136,98,-251r116,-596r355,0r-183,942r151,0r-23,121r-506,0r29,-150v-101,114,-194,177,-387,179v-193,2,-295,-92,-296,-281v0,-41,5,-86,15,-135r108,-555r-152,0r23,-121r506,0r-121,621v-16,83,-24,147,-24,192","w":1489},"v":{"d":"638,0r-284,0r-194,-942r-117,0r23,-121r433,0r163,793v17,0,81,-70,187,-214v99,-135,169,-289,212,-458r-117,0r24,-123r237,2v2,166,-64,360,-199,583v-127,211,-249,371,-368,480","w":1190},"w":{"d":"1317,-300v6,-5,57,-65,150,-182v96,-121,161,-275,199,-460r-140,2r24,-123r272,0v-38,255,-99,447,-182,578v-129,203,-258,365,-385,485r-244,0r-96,-666r-356,666r-242,0r-139,-942r-116,0r23,-121r436,0r102,696r373,-696r211,0","w":1763},"x":{"d":"747,-678r349,-385r143,0r-455,500r230,442r141,0r-23,121r-453,0r-208,-401r-366,401r-142,0r468,-518r-222,-424r-119,0r23,-121r433,0","w":1221},"y":{"d":"113,235v-3,93,68,110,159,110v74,0,149,-24,224,-72r-284,-1215r-115,0r24,-121r434,0r238,1028v186,-279,253,-471,345,-905r-142,-1r23,-121r287,-1r-61,293v-59,271,-125,469,-200,594v-195,327,-371,520,-528,580v-89,34,-197,51,-325,51v-63,0,-140,-14,-231,-43r43,-222r113,1v-3,16,-4,31,-4,44","w":1190},"z":{"d":"902,-1005v64,0,160,-40,196,-60r99,2r-23,119r-700,749v22,8,42,18,62,29v84,46,153,68,206,68v80,0,180,-48,300,-145r-31,158v-118,112,-230,168,-337,168v-55,0,-126,-25,-211,-68v-96,-48,-162,-73,-199,-73v-64,0,-160,40,-196,60r-99,-2r23,-121r698,-748v-21,-7,-41,-18,-60,-28v-84,-46,-153,-68,-206,-68v-80,0,-180,48,-300,145r31,-158v118,-112,230,-168,337,-168v55,0,126,25,211,68v96,48,162,73,199,73","w":1163},"{":{"d":"973,213r-24,121v-146,1,-403,-2,-461,-24v-78,-30,-139,-77,-139,-178v0,-116,49,-298,69,-417v36,-204,-6,-263,-197,-266r-61,0r24,-121v112,4,216,-10,266,-58v42,-40,75,-107,95,-208v27,-129,53,-315,93,-416v37,-92,114,-148,208,-178v68,-22,320,-25,471,-24r-24,120r-103,0v-75,0,-129,16,-162,47v-33,31,-59,92,-76,183r-53,270v-43,207,-98,277,-291,324v83,23,136,56,160,100v24,44,26,119,5,225r-53,271v-31,176,-8,225,150,229r103,0","w":1317},"|":{"d":"479,-1565r0,2048r-215,0r0,-2048r215,0","w":745},"}":{"d":"26,213r101,0v74,0,127,-16,161,-47v34,-31,60,-92,77,-182r53,-271v44,-208,99,-273,293,-325v-164,-44,-210,-106,-167,-324r53,-270v31,-176,8,-226,-150,-230r-101,0r24,-120v145,-1,402,2,459,24v78,30,139,78,139,178v0,115,-47,298,-68,416v-36,204,6,263,195,266r62,0r-24,121v-112,-4,-217,9,-267,57v-42,40,-73,109,-93,209v-26,129,-54,315,-94,417v-37,92,-114,147,-208,178v-67,22,-318,25,-469,24","w":1317},"~":{"d":"1499,-625v-105,96,-211,162,-381,168v-68,2,-200,-39,-292,-75v-114,-45,-204,-66,-269,-66v-51,0,-105,12,-161,36v-56,24,-115,60,-179,109r0,-206v64,-58,127,-101,189,-127v156,-64,263,-52,438,16v102,40,247,84,315,84v51,0,105,-12,161,-36v56,-24,115,-60,179,-109r0,206","w":1716},"\u00a0":{"w":713},"\u00a1":{"d":"720,-1464v102,139,-46,323,-197,323v-100,0,-172,-83,-152,-188v18,-96,119,-192,226,-191v52,0,94,17,123,56xm489,0r-375,0r281,-842r37,-190r139,0r-37,190","w":899},"\u00a2":{"d":"655,-94r170,-875v-69,17,-125,58,-167,125v-42,67,-77,171,-104,312v-27,141,-34,244,-18,311v16,67,56,109,119,127xm774,-88v136,-25,215,-114,255,-244r166,0v-77,193,-217,325,-442,355r-54,276r-121,0r53,-270v-349,-4,-539,-195,-470,-561v64,-337,306,-551,688,-560r51,-264r121,0r-52,269v115,11,204,41,322,79r-57,295r-113,0v11,-161,-37,-249,-173,-266"},"\u00a3":{"d":"1333,-1202r-120,0v18,-124,-34,-205,-149,-205v-78,0,-138,25,-182,75v-44,50,-77,132,-100,249r-52,268r352,0r-24,121r-352,0r-108,557r420,0r44,-228r137,0r-71,365r-1129,0r24,-121r193,0r111,-573r-193,0r24,-121r193,0r54,-277v58,-294,266,-429,624,-428v120,0,233,17,359,35"},"\u00a4":{"d":"434,-641v0,121,98,219,219,219v119,0,219,-100,219,-219v0,-120,-99,-219,-219,-219v-119,0,-219,100,-219,219xm653,-213v-87,-1,-156,-23,-217,-55r-209,207r-151,-154r209,-209v-39,-58,-60,-125,-60,-217v0,-90,23,-160,60,-217r-209,-205r153,-158r207,211v59,-37,127,-59,217,-59v88,0,155,25,221,59r205,-211r152,154r-209,205v35,64,59,134,59,221v0,91,-22,156,-59,215r209,211r-156,154r-207,-211v-58,38,-124,59,-215,59","w":1303},"\u00a5":{"d":"181,0r23,-121r190,0r68,-346r-403,0r22,-117r403,0r12,-59r-35,-135r-342,0r23,-117r286,0r-130,-477r-137,0r23,-121r694,0r-23,121r-170,0r150,551r364,-551r-151,0r23,-121r436,0r-23,121r-135,0r-314,477r292,0r-23,117r-350,0r-75,116r-16,78r403,0r-22,117r-403,0r-68,346r190,0r-23,121r-759,0"},"\u00a6":{"d":"479,-1432r0,758r-215,0r0,-758r215,0xm479,-408r0,758r-215,0r0,-758r215,0","w":745},"\u00a7":{"d":"1055,-1475r-47,240r-119,0v15,-121,-51,-172,-173,-172v-106,0,-184,52,-200,141v-6,31,-2,58,12,80v32,49,157,113,222,152v112,67,188,126,224,182v77,120,24,295,-60,377v-49,48,-112,88,-193,117v87,57,134,125,108,264v-37,195,-228,292,-474,289v-129,-1,-241,-19,-357,-45r47,-240r118,0v-13,130,52,171,184,172v113,1,191,-50,208,-143v6,-31,2,-58,-11,-80v-31,-49,-159,-113,-223,-152v-112,-68,-187,-127,-223,-183v-36,-56,-48,-122,-33,-198v31,-154,139,-240,287,-293v-87,-55,-136,-127,-110,-264v36,-192,228,-292,470,-289v122,1,229,20,343,45xm441,-901v-58,38,-105,85,-120,156v-9,41,-1,78,23,112v48,71,198,143,286,197v58,-39,107,-86,122,-156v9,-40,0,-77,-24,-111v-49,-70,-199,-143,-287,-198","w":1071},"\u00a8":{"d":"359,-1365v-81,-107,36,-249,152,-249v76,0,133,65,117,146v-14,72,-91,148,-173,147v-40,0,-73,-14,-96,-44xm806,-1365v-80,-107,35,-249,151,-249v76,0,135,66,120,146v-13,71,-95,148,-176,147v-40,0,-73,-14,-95,-44","w":1024},"\u00a9":{"d":"740,-1430v172,-72,396,-72,568,0v171,72,332,232,403,404v70,171,71,397,0,568v-71,171,-232,332,-403,403v-172,72,-396,72,-568,0v-171,-72,-332,-232,-403,-403v-71,-171,-70,-397,0,-568v71,-172,232,-332,403,-404xm1248,-1288v-136,-56,-313,-57,-449,0v-135,57,-264,184,-320,320v-56,135,-56,317,0,452v57,136,183,263,319,319v136,56,317,57,452,1v135,-55,263,-185,319,-320v56,-135,56,-317,0,-452v-56,-136,-187,-264,-321,-320xm1059,-399v113,0,168,-78,194,-181r138,0v-35,181,-153,277,-365,279v-251,2,-420,-185,-420,-440v0,-263,169,-446,430,-443v128,2,226,31,326,76r0,223r-105,0v-13,-114,-80,-199,-198,-200v-69,0,-121,31,-163,91v-77,110,-78,394,-1,504v41,59,94,91,164,91","w":2048},"\u00aa":{"d":"328,-1106v-25,116,-12,273,114,249v116,-22,197,-150,220,-279v7,-44,21,-100,21,-145v0,-87,-43,-154,-132,-136v-51,10,-96,43,-137,99v-41,56,-68,127,-86,212xm532,-1520v93,-18,163,18,187,88r17,-89r161,0r-115,592r115,0r-29,150r-276,0r25,-129v-65,96,-155,172,-301,175v-122,2,-188,-89,-185,-219v4,-175,65,-322,152,-422v69,-79,152,-127,249,-146xm40,-639r798,0r-26,135r-798,0","w":997},"\u00ab":{"d":"1178,-1069r-28,147r-302,322r177,321r-29,148r-394,-385r32,-168xm718,-1069r-28,147r-303,322r178,321r-29,148r-394,-385r32,-168","w":1280},"\u00ac":{"d":"217,-903r1282,0r0,616r-229,0r0,-389r-1053,0r0,-227","w":1716},"\u00ad":{"d":"137,-684r628,0r-52,270r-628,0","w":850},"\u00ae":{"d":"1360,-954v0,125,-74,190,-194,200v55,16,95,54,118,105r100,215r60,0r0,82r-223,0r-117,-254v-21,-45,-42,-76,-62,-90v-23,-18,-64,-23,-110,-21r0,283r86,0r0,82r-369,0r0,-82r86,0r0,-643r-86,0r0,-82r453,0v147,-2,258,69,258,205xm1163,-938v0,-94,-65,-140,-164,-139r-67,0r0,278r67,0v99,1,164,-45,164,-139xm740,-1430v172,-72,396,-72,568,0v171,72,332,232,403,404v70,171,71,397,0,568v-71,171,-232,332,-403,403v-172,72,-396,72,-568,0v-171,-72,-332,-232,-403,-403v-71,-171,-70,-397,0,-568v71,-172,232,-332,403,-404xm1248,-1288v-136,-56,-313,-57,-449,0v-135,57,-264,184,-320,320v-56,135,-56,317,0,452v57,136,183,263,319,319v136,56,317,57,452,1v135,-55,263,-185,319,-320v56,-135,56,-317,0,-452v-56,-136,-187,-264,-321,-320","w":2048},"\u00af":{"d":"355,-1548r630,0r-36,188r-630,0","w":1024},"\u00b0":{"d":"178,-1200v0,-226,231,-404,461,-308v115,48,205,150,205,308v0,156,-90,259,-204,306v-231,95,-462,-78,-462,-306xm684,-1200v0,-93,-80,-172,-172,-172v-94,0,-172,78,-172,172v0,94,77,170,172,170v93,0,172,-77,172,-170","w":1024},"\u00b1":{"d":"217,-227r1282,0r0,227r-1282,0r0,-227xm973,-1284r0,358r526,0r0,228r-526,0r0,358r-230,0r0,-358r-526,0r0,-228r526,0r0,-358r230,0","w":1716},"\u00b2":{"d":"411,-1436v-94,1,-164,72,-188,152r-94,0r38,-195v231,-65,696,-88,645,201v-10,55,-38,103,-83,146v-97,93,-360,214,-512,294r414,0r18,-96r100,0r-48,250r-696,0r26,-133r145,-84v141,-82,232,-146,274,-193v42,-47,70,-101,82,-163v22,-108,-22,-180,-121,-179","w":897},"\u00b3":{"d":"150,-911v-11,108,37,159,142,159v121,0,193,-63,213,-168v22,-114,-43,-168,-156,-167r-41,0r16,-84v122,6,206,-35,225,-132v17,-89,-36,-134,-125,-133v-94,1,-157,58,-177,137r-96,1r35,-183v104,-21,201,-39,309,-39v120,0,208,17,263,52v55,35,77,87,63,153v-22,108,-118,164,-242,182v77,11,133,34,167,71v34,37,46,87,34,149v-16,81,-63,141,-138,183v-142,80,-450,76,-626,19r38,-200r96,0","w":897},"\u00b4":{"d":"797,-1638r279,0r-447,376r-164,0","w":1024},"\u00b5":{"d":"564,-251v0,87,37,114,120,114v71,0,128,-26,171,-79v43,-53,76,-137,98,-251r116,-596r354,0r-183,942r152,0r-24,121r-506,0r24,-125v-47,55,-91,95,-132,119v-41,24,-87,35,-136,35v-50,-1,-81,-17,-115,-41r-85,438r-354,0r266,-1368r-152,0r24,-121r506,0r-116,596v-19,95,-28,167,-28,216","w":1499},"\u00b6":{"d":"787,-1493r555,0r-24,125r-113,0r-304,1565r-152,0r304,-1565r-163,0r-304,1565r-152,0r164,-846v-141,-11,-244,-53,-308,-127v-64,-74,-83,-172,-61,-295v45,-245,270,-422,558,-422","w":1303},"\u00b7":{"d":"196,-578v-103,-138,46,-323,197,-323v100,0,173,86,154,190v-18,95,-120,191,-228,189v-52,0,-94,-18,-123,-56","w":713},"\u00b8":{"d":"258,219v94,44,283,63,300,-57v3,-19,3,-39,-4,-61v-7,-22,-23,-56,-48,-101r127,0v33,43,59,81,69,118v52,184,-85,286,-276,283v-71,-1,-137,-10,-197,-26","w":1024},"\u00b9":{"d":"81,-684r18,-94r164,0r119,-613r-202,101r20,-105r246,-125r227,0r-144,742r164,0r-18,94r-594,0","w":897},"\u00ba":{"d":"40,-639r798,0r-26,135r-798,0xm475,-823v51,0,91,-24,123,-71v32,-47,59,-125,80,-234v21,-109,25,-188,12,-235v-13,-47,-45,-71,-96,-71v-51,0,-93,23,-124,70v-31,47,-56,125,-78,236v-22,110,-27,188,-14,235v13,47,46,70,97,70xm459,-737v-141,0,-245,-35,-311,-104v-66,-69,-87,-165,-64,-287v45,-239,244,-394,527,-392v141,0,245,34,311,104v66,70,87,166,64,288v-45,239,-244,393,-527,391","w":1024},"\u00bb":{"d":"284,-1069r394,385r-32,168r-544,385r29,-148r301,-321r-176,-322xm744,-1069r394,385r-32,168r-544,385r29,-148r302,-321r-177,-322","w":1280},"\u00bc":{"d":"81,-684r18,-94r164,0r119,-613r-202,101r20,-105r246,-125r227,0r-144,742r164,0r-18,94r-594,0xm1833,-16r-518,0r18,-94r125,0r24,-121r-363,0r17,-88r482,-533r252,0r-102,527r147,0r-18,94r-147,0r-24,121r125,0xm1500,-325r65,-334r-305,334r240,0xm1601,-1520r170,0r-1236,1549r-170,0","w":2136},"\u00bd":{"d":"1520,-768v-94,1,-164,72,-188,152r-94,0r38,-195v231,-65,696,-88,645,201v-10,55,-38,103,-83,146v-97,93,-360,214,-512,294r414,0r18,-96r100,0r-48,250r-696,0r26,-133r145,-84v141,-82,233,-146,275,-193v42,-47,69,-101,81,-163v22,-108,-22,-180,-121,-179xm81,-684r18,-94r164,0r119,-613r-202,101r20,-105r246,-125r227,0r-144,742r164,0r-18,94r-594,0xm1601,-1520r170,0r-1236,1549r-170,0","w":2136},"\u00be":{"d":"150,-911v-11,108,37,159,142,159v121,0,193,-63,213,-168v22,-114,-43,-168,-156,-167r-41,0r16,-84v122,6,206,-35,225,-132v17,-89,-36,-134,-125,-133v-94,1,-157,58,-177,137r-96,1r35,-183v104,-21,201,-39,309,-39v120,0,208,17,263,52v55,35,77,87,63,153v-22,108,-118,164,-242,182v77,11,133,34,167,71v34,37,46,87,34,149v-16,81,-63,141,-138,183v-142,80,-450,76,-626,19r38,-200r96,0xm1833,-16r-518,0r18,-94r125,0r24,-121r-363,0r17,-88r482,-533r252,0r-102,527r147,0r-18,94r-147,0r-24,121r125,0xm1500,-325r65,-334r-305,334r240,0xm1601,-1520r170,0r-1236,1549r-170,0","w":2136},"\u00bf":{"d":"942,-1464v102,139,-46,323,-197,323v-101,0,-173,-83,-153,-188v18,-96,119,-192,227,-191v52,0,94,17,123,56xm580,-84v169,0,249,-111,289,-262r120,0r-59,307v-152,39,-297,68,-467,68v-168,0,-289,-37,-365,-111v-76,-74,-101,-178,-74,-315v55,-277,276,-432,594,-453r40,-205r139,0r-58,299v-194,57,-302,173,-344,381v-36,185,18,291,185,291","w":1200},"\u00c0":{"d":"-161,0r23,-121r122,0r829,-1372r239,0r296,1372r142,0r-23,121r-699,0r23,-121r146,0r-63,-305r-561,0r-185,305r178,0r-23,121r-444,0xm385,-547r463,0r-119,-571xm949,-1899r130,264r-164,0r-245,-264r279,0","w":1589},"\u00c1":{"d":"-161,0r23,-121r122,0r829,-1372r239,0r296,1372r142,0r-23,121r-699,0r23,-121r146,0r-63,-305r-561,0r-185,305r178,0r-23,121r-444,0xm385,-547r463,0r-119,-571xm1026,-1899r279,0r-349,264r-164,0","w":1589},"\u00c2":{"d":"-161,0r23,-121r122,0r829,-1372r239,0r296,1372r142,0r-23,121r-699,0r23,-121r146,0r-63,-305r-561,0r-185,305r178,0r-23,121r-444,0xm385,-547r463,0r-119,-571xm833,-1899r308,0r171,264r-164,0r-181,-161r-245,161r-164,0","w":1589},"\u00c3":{"d":"-161,0r23,-121r122,0r829,-1372r239,0r296,1372r142,0r-23,121r-699,0r23,-121r146,0r-63,-305r-561,0r-185,305r178,0r-23,121r-444,0xm385,-547r463,0r-119,-571xm852,-1726v-79,-25,-142,23,-152,91r-110,0v25,-150,103,-264,260,-268v86,-2,178,74,254,96v76,22,135,-28,144,-94r110,0v-26,150,-102,264,-260,268v-103,2,-161,-67,-246,-93","w":1589},"\u00c4":{"d":"-161,0r23,-121r122,0r829,-1372r239,0r296,1372r142,0r-23,121r-699,0r23,-121r146,0r-63,-305r-561,0r-185,305r178,0r-23,121r-444,0xm385,-547r463,0r-119,-571xm638,-1673v-82,-106,37,-250,152,-250v75,0,133,67,117,147v-14,72,-90,147,-173,146v-40,0,-73,-13,-96,-43xm1084,-1673v-53,-68,-15,-159,41,-206v62,-52,158,-64,207,0v82,106,-36,251,-152,249v-40,0,-73,-14,-96,-43","w":1589},"\u00c5":{"d":"943,-1747v-73,0,-145,66,-157,131v-13,72,38,131,106,131v75,0,146,-65,158,-131v14,-72,-38,-131,-107,-131xm-201,0r24,-121r122,0r764,-1263v-63,-44,-94,-124,-76,-232v24,-143,179,-285,340,-285v150,0,262,129,229,285v-22,106,-82,183,-166,232r273,1263r142,0r-24,121r-699,0r24,-121r146,0r-64,-305r-561,0r-184,305r178,0r-24,121r-444,0xm346,-547r463,0r-117,-571","w":1589},"\u00c6":{"d":"362,-545r465,0r161,-827r-75,0xm531,0r23,-121r190,0r59,-303r-522,0r-202,303r164,0r-23,121r-428,0r23,-121r114,0r836,-1251r-201,0r23,-121r1551,0r-68,352r-138,0r41,-215r-602,0r-93,479r367,0r37,-190r135,0r-100,516r-135,0r37,-190r-367,0r-117,604r623,0r41,-215r135,0r-68,352r-1335,0","w":2118},"\u00c7":{"d":"460,219v94,44,283,63,300,-57v3,-19,3,-39,-4,-61v-7,-22,-23,-56,-48,-101r127,0v33,43,59,81,69,118v52,184,-85,286,-276,283v-71,-1,-137,-10,-197,-26xm1412,-1024v-2,-241,-106,-374,-341,-375v-145,0,-264,54,-355,161v-91,107,-159,271,-202,493v-43,222,-40,386,10,493v50,107,148,160,295,160v99,0,185,-28,259,-83v74,-55,136,-139,187,-251r199,0v-69,154,-162,268,-279,343v-117,75,-261,112,-433,112v-252,0,-437,-70,-556,-209v-119,-139,-156,-327,-110,-565v46,-239,157,-428,330,-567v231,-186,556,-254,908,-176v92,21,187,54,286,97r-71,367r-127,0","w":1630},"\u00c8":{"d":"-49,0r23,-121r191,0r244,-1251r-191,0r23,-121r1342,0r-68,352r-138,0r41,-215r-628,0r-93,479r391,0r37,-190r137,0r-100,516r-137,0r37,-190r-391,0r-117,604r647,0r41,-215r137,0r-68,352r-1360,0xm993,-1899r130,264r-164,0r-245,-264r279,0","w":1561},"\u00c9":{"d":"-49,0r23,-121r191,0r244,-1251r-191,0r23,-121r1342,0r-68,352r-138,0r41,-215r-628,0r-93,479r391,0r37,-190r137,0r-100,516r-137,0r37,-190r-391,0r-117,604r647,0r41,-215r137,0r-68,352r-1360,0xm1070,-1899r279,0r-349,264r-164,0","w":1561},"\u00ca":{"d":"-49,0r23,-121r191,0r244,-1251r-191,0r23,-121r1342,0r-68,352r-138,0r41,-215r-628,0r-93,479r391,0r37,-190r137,0r-100,516r-137,0r37,-190r-391,0r-117,604r647,0r41,-215r137,0r-68,352r-1360,0xm877,-1899r308,0r171,264r-164,0r-181,-161r-245,161r-164,0","w":1561},"\u00cb":{"d":"-49,0r23,-121r191,0r244,-1251r-191,0r23,-121r1342,0r-68,352r-138,0r41,-215r-628,0r-93,479r391,0r37,-190r137,0r-100,516r-137,0r37,-190r-391,0r-117,604r647,0r41,-215r137,0r-68,352r-1360,0xm724,-1673v-82,-106,37,-250,152,-250v75,0,133,67,117,147v-14,72,-90,147,-173,146v-40,0,-73,-13,-96,-43xm1170,-1673v-53,-68,-15,-159,41,-206v62,-52,158,-64,207,0v82,106,-36,251,-152,249v-40,0,-73,-14,-96,-43","w":1561},"\u00cc":{"d":"-49,0r23,-121r191,0r244,-1251r-191,0r23,-121r768,0r-23,121r-192,0r-244,1251r192,0r-23,121r-768,0xm657,-1899r130,264r-164,0r-245,-264r279,0","w":958},"\u00cd":{"d":"-49,0r23,-121r191,0r244,-1251r-191,0r23,-121r768,0r-23,121r-192,0r-244,1251r192,0r-23,121r-768,0xm734,-1899r279,0r-349,264r-164,0","w":958},"\u00ce":{"d":"-49,0r23,-121r191,0r244,-1251r-191,0r23,-121r768,0r-23,121r-192,0r-244,1251r192,0r-23,121r-768,0xm541,-1899r308,0r171,264r-164,0r-181,-161r-245,161r-164,0","w":958},"\u00cf":{"d":"-49,0r23,-121r191,0r244,-1251r-191,0r23,-121r768,0r-23,121r-192,0r-244,1251r192,0r-23,121r-768,0xm311,-1673v-82,-106,37,-250,152,-250v75,0,133,67,117,147v-14,72,-90,147,-173,146v-40,0,-73,-13,-96,-43xm757,-1673v-53,-68,-15,-159,41,-206v62,-52,158,-64,207,0v82,106,-36,251,-152,249v-40,0,-73,-14,-96,-43","w":958},"\u00d0":{"d":"564,-121r139,0v156,0,280,-49,371,-149v91,-100,158,-259,200,-478v42,-217,38,-376,-14,-475v-52,-99,-157,-149,-313,-149r-139,0r-102,522r332,0r-27,137r-332,0xm-36,0r23,-121r192,0r115,-592r-213,0r27,-137r213,0r102,-522r-192,0r23,-121r768,0v267,0,459,63,576,191v117,128,150,312,104,554v-89,469,-424,748,-970,748r-768,0","w":1790},"\u00d1":{"d":"-55,0r23,-121r191,0r244,-1251r-191,0r23,-121r467,0r696,1057r182,-936r-190,0r23,-121r522,0r-23,121r-191,0r-267,1372r-262,0r-705,-1079r-187,958r190,0r-23,121r-522,0xm1016,-1726v-79,-25,-142,23,-152,91r-110,0v25,-150,103,-264,260,-268v86,-2,178,74,254,96v76,22,135,-28,144,-94r110,0v-26,150,-102,264,-260,268v-103,2,-161,-67,-246,-93","w":1872},"\u00d2":{"d":"764,-92v127,0,233,-54,316,-161v83,-107,145,-271,188,-492v43,-221,43,-386,2,-493v-41,-107,-125,-161,-252,-161v-127,0,-232,55,-315,163v-83,108,-146,272,-189,491v-43,219,-43,383,-2,491v41,108,125,162,252,162xm740,29v-481,0,-751,-277,-654,-774v47,-241,155,-431,325,-569v170,-138,380,-206,631,-206v482,0,751,277,654,775v-47,241,-155,431,-325,568v-170,137,-380,206,-631,206xm1071,-1899r130,264r-164,0r-245,-264r279,0","w":1784},"\u00d3":{"d":"764,-92v127,0,233,-54,316,-161v83,-107,145,-271,188,-492v43,-221,43,-386,2,-493v-41,-107,-125,-161,-252,-161v-127,0,-232,55,-315,163v-83,108,-146,272,-189,491v-43,219,-43,383,-2,491v41,108,125,162,252,162xm740,29v-481,0,-751,-277,-654,-774v47,-241,155,-431,325,-569v170,-138,380,-206,631,-206v482,0,751,277,654,775v-47,241,-155,431,-325,568v-170,137,-380,206,-631,206xm1148,-1899r279,0r-349,264r-164,0","w":1784},"\u00d4":{"d":"764,-92v127,0,233,-54,316,-161v83,-107,145,-271,188,-492v43,-221,43,-386,2,-493v-41,-107,-125,-161,-252,-161v-127,0,-232,55,-315,163v-83,108,-146,272,-189,491v-43,219,-43,383,-2,491v41,108,125,162,252,162xm740,29v-481,0,-751,-277,-654,-774v47,-241,155,-431,325,-569v170,-138,380,-206,631,-206v482,0,751,277,654,775v-47,241,-155,431,-325,568v-170,137,-380,206,-631,206xm955,-1899r308,0r171,264r-164,0r-181,-161r-245,161r-164,0","w":1784},"\u00d5":{"d":"764,-92v127,0,233,-54,316,-161v83,-107,145,-271,188,-492v43,-221,43,-386,2,-493v-41,-107,-125,-161,-252,-161v-127,0,-232,55,-315,163v-83,108,-146,272,-189,491v-43,219,-43,383,-2,491v41,108,125,162,252,162xm740,29v-481,0,-751,-277,-654,-774v47,-241,155,-431,325,-569v170,-138,380,-206,631,-206v482,0,751,277,654,775v-47,241,-155,431,-325,568v-170,137,-380,206,-631,206xm974,-1726v-79,-25,-142,23,-152,91r-110,0v25,-150,103,-264,260,-268v86,-2,178,74,254,96v76,22,135,-28,144,-94r110,0v-26,150,-102,264,-260,268v-103,2,-161,-67,-246,-93","w":1784},"\u00d6":{"d":"764,-92v127,0,233,-54,316,-161v83,-107,145,-271,188,-492v43,-221,43,-386,2,-493v-41,-107,-125,-161,-252,-161v-127,0,-232,55,-315,163v-83,108,-146,272,-189,491v-43,219,-43,383,-2,491v41,108,125,162,252,162xm740,29v-481,0,-751,-277,-654,-774v47,-241,155,-431,325,-569v170,-138,380,-206,631,-206v482,0,751,277,654,775v-47,241,-155,431,-325,568v-170,137,-380,206,-631,206xm802,-1673v-82,-106,37,-250,152,-250v75,0,133,67,117,147v-14,72,-90,147,-173,146v-40,0,-73,-13,-96,-43xm1248,-1673v-53,-68,-15,-159,41,-206v62,-52,158,-64,207,0v82,106,-36,251,-152,249v-40,0,-73,-14,-96,-43","w":1784},"\u00d7":{"d":"1452,-1081r-440,440r440,440r-154,154r-440,-440r-440,440r-154,-154r441,-440r-441,-440r154,-156r440,440r440,-440","w":1716},"\u00d8":{"d":"1292,-1157v-23,-149,-110,-241,-274,-242v-127,0,-232,55,-315,163v-83,108,-146,272,-189,491v-17,88,-30,172,-31,266xm491,-334v26,152,106,242,273,242v130,0,237,-56,320,-167v83,-111,147,-286,193,-525v14,-73,23,-133,16,-209xm1042,-1520v216,0,383,53,500,154r242,-203r73,90r-237,199v93,138,119,315,76,535v-47,241,-155,431,-325,568v-170,137,-380,206,-631,206v-216,0,-380,-54,-498,-156r-244,205r-73,-90r239,-201v-94,-135,-121,-313,-78,-532v47,-241,155,-431,325,-569v170,-138,380,-206,631,-206","w":1784},"\u00d9":{"d":"384,-1372r-190,0r24,-121r768,0r-24,121r-191,0r-145,747v-36,186,-32,317,12,391v44,74,135,111,276,111v137,0,242,-38,314,-113v72,-75,126,-204,162,-389r145,-747r-190,0r24,-121r520,0r-24,121r-191,0r-149,768v-44,228,-125,391,-243,488v-118,97,-292,145,-525,145v-231,0,-387,-49,-467,-147v-80,-98,-98,-261,-54,-488xm1121,-1899r130,264r-164,0r-245,-264r279,0","w":1786},"\u00da":{"d":"384,-1372r-190,0r24,-121r768,0r-24,121r-191,0r-145,747v-36,186,-32,317,12,391v44,74,135,111,276,111v137,0,242,-38,314,-113v72,-75,126,-204,162,-389r145,-747r-190,0r24,-121r520,0r-24,121r-191,0r-149,768v-44,228,-125,391,-243,488v-118,97,-292,145,-525,145v-231,0,-387,-49,-467,-147v-80,-98,-98,-261,-54,-488xm1198,-1899r279,0r-349,264r-164,0","w":1786},"\u00db":{"d":"384,-1372r-190,0r24,-121r768,0r-24,121r-191,0r-145,747v-36,186,-32,317,12,391v44,74,135,111,276,111v137,0,242,-38,314,-113v72,-75,126,-204,162,-389r145,-747r-190,0r24,-121r520,0r-24,121r-191,0r-149,768v-44,228,-125,391,-243,488v-118,97,-292,145,-525,145v-231,0,-387,-49,-467,-147v-80,-98,-98,-261,-54,-488xm1005,-1899r308,0r171,264r-164,0r-181,-161r-245,161r-164,0","w":1786},"\u00dc":{"d":"384,-1372r-190,0r24,-121r768,0r-24,121r-191,0r-145,747v-36,186,-32,317,12,391v44,74,135,111,276,111v137,0,242,-38,314,-113v72,-75,126,-204,162,-389r145,-747r-190,0r24,-121r520,0r-24,121r-191,0r-149,768v-44,228,-125,391,-243,488v-118,97,-292,145,-525,145v-231,0,-387,-49,-467,-147v-80,-98,-98,-261,-54,-488xm852,-1673v-82,-106,37,-250,152,-250v75,0,133,67,117,147v-14,72,-90,147,-173,146v-40,0,-73,-13,-96,-43xm1298,-1673v-53,-68,-15,-159,41,-206v62,-52,158,-64,207,0v82,106,-36,251,-152,249v-40,0,-73,-14,-96,-43","w":1786},"\u00dd":{"d":"207,0r23,-121r201,0r97,-497r-297,-754r-127,0r23,-121r716,0r-23,121r-166,0r225,569r445,-569r-149,0r23,-121r428,0r-23,121r-127,0r-551,702r-107,549r201,0r-23,121r-789,0xm986,-1899r279,0r-349,264r-164,0","w":1462},"\u00de":{"d":"-49,0r23,-121r191,0r244,-1251r-191,0r23,-121r815,0r-23,121r-239,0r-33,170r274,0v166,0,291,39,373,118v82,79,109,185,84,318v-49,265,-306,442,-627,438r-274,0r-41,207r241,0r-23,121r-817,0xm614,-449r112,0v189,-1,314,-144,347,-317v36,-188,-49,-317,-224,-315r-112,0","w":1550},"\u00df":{"d":"686,-289v-10,138,34,204,165,205v104,1,185,-70,201,-160v13,-70,-27,-144,-121,-222r-104,-87v-58,-49,-97,-100,-117,-153v-20,-52,-24,-113,-10,-183v39,-194,180,-292,386,-332v21,-164,-18,-223,-172,-223v-169,0,-225,95,-256,254r-237,1219v-27,139,-82,230,-165,269v-128,61,-266,91,-412,91r23,-112v53,0,96,-19,127,-57v31,-38,55,-101,72,-187r230,-1180v55,-278,285,-411,628,-409v333,1,494,115,474,440v-109,-2,-204,13,-266,46v-59,30,-94,75,-105,134v-5,27,-3,51,8,74v19,43,115,116,164,157v101,84,162,153,185,207v23,53,27,115,13,187v-43,223,-259,343,-539,340v-128,-1,-234,-26,-343,-60r50,-258r121,0","w":1556},"\u00e0":{"d":"630,-1638r184,376r-164,0r-299,-376r279,0xm841,-876v-2,-40,-22,-60,-60,-60v-89,0,-178,53,-265,160v-41,49,-77,156,-109,321v-24,123,-27,209,-10,257v17,48,58,71,121,71v62,0,113,-28,152,-83v39,-55,70,-145,94,-269xm1181,-1031r-175,910r133,-2r-24,123r-444,0r26,-135v-73,109,-175,164,-305,164v-262,2,-379,-191,-321,-477v30,-148,107,-287,235,-416v151,-152,328,-228,531,-228v200,0,315,20,344,61","w":1327},"\u00e1":{"d":"885,-1638r279,0r-447,376r-164,0xm841,-876v-2,-40,-22,-60,-60,-60v-89,0,-178,53,-265,160v-41,49,-77,156,-109,321v-24,123,-27,209,-10,257v17,48,58,71,121,71v62,0,113,-28,152,-83v39,-55,70,-145,94,-269xm1181,-1031r-175,910r133,-2r-24,123r-444,0r26,-135v-73,109,-175,164,-305,164v-262,2,-379,-191,-321,-477v30,-148,107,-287,235,-416v151,-152,328,-228,531,-228v200,0,315,20,344,61","w":1327},"\u00e2":{"d":"634,-1638r242,0r182,376r-164,0r-169,-225r-257,225r-164,0xm841,-876v-2,-40,-22,-60,-60,-60v-89,0,-178,53,-265,160v-41,49,-77,156,-109,321v-24,123,-27,209,-10,257v17,48,58,71,121,71v62,0,113,-28,152,-83v39,-55,70,-145,94,-269xm1181,-1031r-175,910r133,-2r-24,123r-444,0r26,-135v-73,109,-175,164,-305,164v-262,2,-379,-191,-321,-477v30,-148,107,-287,235,-416v151,-152,328,-228,531,-228v200,0,315,20,344,61","w":1327},"\u00e3":{"d":"587,-1440v-66,0,-103,64,-115,131r-110,0v18,-101,52,-185,99,-237v59,-65,146,-96,240,-64v45,15,98,61,137,92v26,19,51,29,75,29v66,0,103,-64,115,-131r110,0v-18,101,-51,186,-99,238v-59,65,-146,94,-240,62v-45,-16,-97,-61,-137,-90v-26,-20,-51,-30,-75,-30xm841,-876v-2,-40,-22,-60,-60,-60v-89,0,-178,53,-265,160v-41,49,-77,156,-109,321v-24,123,-27,209,-10,257v17,48,58,71,121,71v62,0,113,-28,152,-83v39,-55,70,-145,94,-269xm1181,-1031r-175,910r133,-2r-24,123r-444,0r26,-135v-73,109,-175,164,-305,164v-262,2,-379,-191,-321,-477v30,-148,107,-287,235,-416v151,-152,328,-228,531,-228v200,0,315,20,344,61","w":1327},"\u00e4":{"d":"447,-1365v-81,-107,36,-249,152,-249v76,0,133,65,117,146v-14,72,-91,148,-173,147v-40,0,-73,-14,-96,-44xm894,-1365v-80,-107,35,-249,151,-249v76,0,135,66,120,146v-13,71,-95,148,-176,147v-40,0,-73,-14,-95,-44xm841,-876v-2,-40,-22,-60,-60,-60v-89,0,-178,53,-265,160v-41,49,-77,156,-109,321v-24,123,-27,209,-10,257v17,48,58,71,121,71v62,0,113,-28,152,-83v39,-55,70,-145,94,-269xm1181,-1031r-175,910r133,-2r-24,123r-444,0r26,-135v-73,109,-175,164,-305,164v-262,2,-379,-191,-321,-477v30,-148,107,-287,235,-416v151,-152,328,-228,531,-228v200,0,315,20,344,61","w":1327},"\u00e5":{"d":"841,-876v-2,-40,-22,-60,-60,-60v-89,0,-178,53,-265,160v-41,49,-77,156,-109,321v-24,123,-27,209,-10,257v17,48,58,71,121,71v62,0,113,-28,152,-83v39,-55,70,-145,94,-269xm1181,-1031r-175,910r133,-2r-24,123r-444,0r26,-135v-73,109,-175,164,-305,164v-262,2,-379,-191,-321,-477v30,-148,107,-287,235,-416v151,-152,328,-228,531,-228v200,0,315,20,344,61xm475,-1534v27,-143,177,-285,340,-285v151,0,260,127,230,285v-27,143,-177,285,-340,285v-151,0,-260,-127,-230,-285xm785,-1665v-75,0,-143,65,-156,131v-14,74,37,131,106,131v75,0,144,-65,156,-131v13,-72,-38,-131,-106,-131","w":1327},"\u00e6":{"d":"1083,-519v250,-3,382,-95,382,-312v0,-99,-41,-148,-124,-148v-63,0,-110,30,-147,85v-37,56,-87,227,-111,375xm387,-288v0,114,32,161,130,161v63,0,114,-28,153,-83v39,-55,70,-145,94,-269r77,-397v-2,-40,-22,-60,-60,-60v-89,0,-178,53,-265,160v-41,49,-72,132,-95,249v-23,117,-34,197,-34,239xm392,29v-212,0,-336,-126,-336,-339v0,-202,79,-382,238,-542v159,-160,340,-240,543,-240v145,0,245,11,300,32v175,-54,415,-39,551,42v103,62,150,140,126,266v-41,216,-293,333,-754,352v-5,23,-7,45,-7,66v0,167,69,250,206,250v171,0,274,-100,323,-238r166,0v-102,234,-275,349,-602,351v-157,0,-277,-37,-358,-111v-98,74,-230,111,-396,111","w":1908},"\u00e7":{"d":"293,219v94,44,283,63,300,-57v3,-19,3,-39,-4,-61v-7,-22,-23,-56,-48,-101r127,0v33,43,58,81,68,118v52,184,-84,286,-275,283v-71,-1,-137,-10,-197,-26xm652,-84v163,0,256,-108,298,-248r166,0v-90,225,-251,361,-545,361v-189,0,-325,-50,-411,-147v-87,-99,-107,-250,-76,-414v62,-333,311,-560,691,-560v167,1,307,34,438,84r-58,295r-112,0v14,-164,-45,-266,-204,-266v-99,0,-175,33,-230,100v-55,67,-98,182,-130,347v-17,86,-25,159,-25,218v-2,149,57,230,198,230","w":1247},"\u00e8":{"d":"681,-1638r184,376r-164,0r-299,-376r279,0xm478,-519v242,4,382,-92,382,-313v0,-98,-41,-147,-124,-147v-63,0,-114,29,-151,89v-37,60,-73,184,-107,371xm1143,-322v-101,233,-275,351,-597,351v-184,0,-315,-49,-395,-145v-82,-99,-97,-252,-67,-413v62,-331,303,-562,675,-563v127,0,235,23,323,74v104,60,151,140,127,266v-41,216,-294,333,-755,352v-4,23,-6,58,-6,105v1,141,69,211,206,211v171,0,274,-100,323,-238r166,0","w":1303},"\u00e9":{"d":"936,-1638r279,0r-447,376r-164,0xm478,-519v242,4,382,-92,382,-313v0,-98,-41,-147,-124,-147v-63,0,-114,29,-151,89v-37,60,-73,184,-107,371xm1143,-322v-101,233,-275,351,-597,351v-184,0,-315,-49,-395,-145v-82,-99,-97,-252,-67,-413v62,-331,303,-562,675,-563v127,0,235,23,323,74v104,60,151,140,127,266v-41,216,-294,333,-755,352v-4,23,-6,58,-6,105v1,141,69,211,206,211v171,0,274,-100,323,-238r166,0","w":1303},"\u00ea":{"d":"685,-1638r242,0r182,376r-164,0r-169,-225r-257,225r-164,0xm478,-519v242,4,382,-92,382,-313v0,-98,-41,-147,-124,-147v-63,0,-114,29,-151,89v-37,60,-73,184,-107,371xm1143,-322v-101,233,-275,351,-597,351v-184,0,-315,-49,-395,-145v-82,-99,-97,-252,-67,-413v62,-331,303,-562,675,-563v127,0,235,23,323,74v104,60,151,140,127,266v-41,216,-294,333,-755,352v-4,23,-6,58,-6,105v1,141,69,211,206,211v171,0,274,-100,323,-238r166,0","w":1303},"\u00eb":{"d":"498,-1365v-81,-107,36,-249,152,-249v76,0,133,65,117,146v-14,72,-91,148,-173,147v-40,0,-73,-14,-96,-44xm945,-1365v-80,-107,35,-249,151,-249v76,0,135,66,120,146v-13,71,-95,148,-176,147v-40,0,-73,-14,-95,-44xm478,-519v242,4,382,-92,382,-313v0,-98,-41,-147,-124,-147v-63,0,-114,29,-151,89v-37,60,-73,184,-107,371xm1143,-322v-101,233,-275,351,-597,351v-184,0,-315,-49,-395,-145v-82,-99,-97,-252,-67,-413v62,-331,303,-562,675,-563v127,0,235,23,323,74v104,60,151,140,127,266v-41,216,-294,333,-755,352v-4,23,-6,58,-6,105v1,141,69,211,206,211v171,0,274,-100,323,-238r166,0","w":1303},"\u00ec":{"d":"419,-1638r184,376r-164,0r-299,-376r279,0xm495,-121r152,0r-23,121r-506,0r183,-942r-151,0r23,-121r505,0","w":778},"\u00ed":{"d":"674,-1638r279,0r-447,376r-164,0xm495,-121r152,0r-23,121r-506,0r183,-942r-151,0r23,-121r505,0","w":778},"\u00ee":{"d":"423,-1638r242,0r182,376r-164,0r-169,-225r-257,225r-164,0xm495,-121r152,0r-23,121r-506,0r183,-942r-151,0r23,-121r505,0","w":778},"\u00ef":{"d":"236,-1365v-81,-107,36,-249,152,-249v76,0,133,65,117,146v-14,72,-91,148,-173,147v-40,0,-73,-14,-96,-44xm683,-1365v-80,-107,35,-249,151,-249v76,0,135,66,120,146v-13,71,-95,148,-176,147v-40,0,-73,-14,-95,-44xm495,-121r152,0r-23,121r-506,0r183,-942r-151,0r23,-121r505,0","w":778},"\u00f0":{"d":"472,-1556v174,21,324,68,437,145r360,-154r27,103r-290,125v106,99,179,217,220,351v41,134,45,277,17,429v-63,345,-321,586,-714,586v-183,0,-320,-49,-409,-147v-89,-98,-118,-227,-87,-390v30,-153,107,-282,234,-381v148,-116,306,-169,517,-145v28,4,56,10,83,18v-14,-92,-43,-160,-89,-225r-348,149r-31,-100r305,-131v-70,-58,-169,-96,-281,-123xm862,-891v-48,-21,-90,-37,-147,-37v-74,0,-133,32,-177,96v-44,64,-80,171,-110,324v-30,156,-35,266,-16,329v19,63,65,95,139,95v74,0,130,-33,175,-94v60,-82,126,-353,137,-532v4,-64,4,-124,-1,-181","w":1366},"\u00f1":{"d":"714,-1440v-66,0,-103,64,-115,131r-110,0v18,-101,52,-185,99,-237v59,-65,146,-96,240,-64v45,15,98,61,137,92v26,19,51,29,75,29v66,0,103,-64,115,-131r110,0v-18,101,-51,186,-99,238v-59,65,-146,94,-240,62v-45,-16,-97,-61,-137,-90v-26,-20,-51,-30,-75,-30xm977,-804v1,-86,-34,-122,-121,-122v-71,0,-128,26,-172,78v-44,52,-77,136,-99,250r-116,598r-354,0r183,-942r-151,0r23,-121r505,0r-29,150v102,-113,195,-177,388,-179v192,-2,295,92,296,281v0,41,-5,86,-15,135r-108,555r152,0r-23,121r-506,0r133,-686v9,-47,14,-86,14,-118","w":1489},"\u00f2":{"d":"714,-1638r184,376r-164,0r-299,-376r279,0xm447,-270v0,118,42,186,150,186v75,0,133,-32,176,-96v43,-64,81,-181,114,-352v22,-111,33,-200,33,-266v0,-115,-41,-181,-149,-181v-75,0,-135,33,-178,97v-43,64,-81,181,-114,350v-21,109,-32,197,-32,262xm575,29v-187,0,-324,-50,-411,-149v-89,-101,-111,-247,-80,-412v62,-335,323,-561,709,-560v188,0,325,50,412,148v89,100,110,248,79,412v-63,333,-324,562,-709,561","w":1366},"\u00f3":{"d":"969,-1638r279,0r-447,376r-164,0xm447,-270v0,118,42,186,150,186v75,0,133,-32,176,-96v43,-64,81,-181,114,-352v22,-111,33,-200,33,-266v0,-115,-41,-181,-149,-181v-75,0,-135,33,-178,97v-43,64,-81,181,-114,350v-21,109,-32,197,-32,262xm575,29v-187,0,-324,-50,-411,-149v-89,-101,-111,-247,-80,-412v62,-335,323,-561,709,-560v188,0,325,50,412,148v89,100,110,248,79,412v-63,333,-324,562,-709,561","w":1366},"\u00f4":{"d":"718,-1638r242,0r182,376r-164,0r-169,-225r-257,225r-164,0xm447,-270v0,118,42,186,150,186v75,0,133,-32,176,-96v43,-64,81,-181,114,-352v22,-111,33,-200,33,-266v0,-115,-41,-181,-149,-181v-75,0,-135,33,-178,97v-43,64,-81,181,-114,350v-21,109,-32,197,-32,262xm575,29v-187,0,-324,-50,-411,-149v-89,-101,-111,-247,-80,-412v62,-335,323,-561,709,-560v188,0,325,50,412,148v89,100,110,248,79,412v-63,333,-324,562,-709,561","w":1366},"\u00f5":{"d":"671,-1440v-66,0,-103,64,-115,131r-110,0v18,-101,52,-185,99,-237v59,-65,146,-96,240,-64v45,15,98,61,137,92v26,19,51,29,75,29v66,0,103,-64,115,-131r110,0v-18,101,-51,186,-99,238v-59,65,-146,94,-240,62v-45,-16,-97,-61,-137,-90v-26,-20,-51,-30,-75,-30xm447,-270v0,118,42,186,150,186v75,0,133,-32,176,-96v43,-64,81,-181,114,-352v22,-111,33,-200,33,-266v0,-115,-41,-181,-149,-181v-75,0,-135,33,-178,97v-43,64,-81,181,-114,350v-21,109,-32,197,-32,262xm575,29v-187,0,-324,-50,-411,-149v-89,-101,-111,-247,-80,-412v62,-335,323,-561,709,-560v188,0,325,50,412,148v89,100,110,248,79,412v-63,333,-324,562,-709,561","w":1366},"\u00f6":{"d":"531,-1365v-81,-107,36,-249,152,-249v76,0,133,65,117,146v-14,72,-91,148,-173,147v-40,0,-73,-14,-96,-44xm978,-1365v-80,-107,35,-249,151,-249v76,0,135,66,120,146v-13,71,-95,148,-176,147v-40,0,-73,-14,-95,-44xm447,-270v0,118,42,186,150,186v75,0,133,-32,176,-96v43,-64,81,-181,114,-352v22,-111,33,-200,33,-266v0,-115,-41,-181,-149,-181v-75,0,-135,33,-178,97v-43,64,-81,181,-114,350v-21,109,-32,197,-32,262xm575,29v-187,0,-324,-50,-411,-149v-89,-101,-111,-247,-80,-412v62,-335,323,-561,709,-560v188,0,325,50,412,148v89,100,110,248,79,412v-63,333,-324,562,-709,561","w":1366},"\u00f7":{"d":"858,-862v-79,0,-149,-70,-149,-150v0,-79,70,-149,149,-149v80,0,150,70,150,149v0,80,-70,150,-150,150xm858,-123v-79,0,-149,-70,-149,-149v0,-80,70,-150,149,-150v80,0,150,70,150,150v0,79,-70,149,-150,149xm217,-756r1282,0r0,228r-1282,0r0,-228","w":1716},"\u00f8":{"d":"921,-801v0,-114,-41,-177,-150,-178v-73,0,-132,31,-175,95v-43,64,-80,174,-110,331r-27,137xm448,-262v-3,113,41,177,149,178v73,0,130,-31,173,-94v43,-63,80,-173,111,-330r27,-141xm793,-1092v152,0,274,33,358,99r201,-168r69,86r-195,162v69,95,87,222,58,381v-61,334,-324,562,-709,561v-153,0,-266,-34,-357,-99r-206,172r-67,-86r196,-163v-67,-98,-87,-226,-57,-385v62,-335,323,-561,709,-560","w":1366},"\u00f9":{"d":"737,-1638r184,376r-164,0r-299,-376r279,0xm514,-250v-1,85,34,113,119,113v71,0,129,-26,172,-79v43,-53,76,-136,98,-251r116,-596r355,0r-183,942r151,0r-23,121r-506,0r29,-150v-101,114,-194,177,-387,179v-193,2,-295,-92,-296,-281v0,-41,5,-86,15,-135r108,-555r-152,0r23,-121r506,0r-121,621v-16,83,-24,147,-24,192","w":1489},"\u00fa":{"d":"992,-1638r279,0r-447,376r-164,0xm514,-250v-1,85,34,113,119,113v71,0,129,-26,172,-79v43,-53,76,-136,98,-251r116,-596r355,0r-183,942r151,0r-23,121r-506,0r29,-150v-101,114,-194,177,-387,179v-193,2,-295,-92,-296,-281v0,-41,5,-86,15,-135r108,-555r-152,0r23,-121r506,0r-121,621v-16,83,-24,147,-24,192","w":1489},"\u00fb":{"d":"741,-1638r242,0r182,376r-164,0r-169,-225r-257,225r-164,0xm514,-250v-1,85,34,113,119,113v71,0,129,-26,172,-79v43,-53,76,-136,98,-251r116,-596r355,0r-183,942r151,0r-23,121r-506,0r29,-150v-101,114,-194,177,-387,179v-193,2,-295,-92,-296,-281v0,-41,5,-86,15,-135r108,-555r-152,0r23,-121r506,0r-121,621v-16,83,-24,147,-24,192","w":1489},"\u00fc":{"d":"554,-1365v-81,-107,36,-249,152,-249v76,0,133,65,117,146v-14,72,-91,148,-173,147v-40,0,-73,-14,-96,-44xm1001,-1365v-80,-107,35,-249,151,-249v76,0,135,66,120,146v-13,71,-95,148,-176,147v-40,0,-73,-14,-95,-44xm514,-250v-1,85,34,113,119,113v71,0,129,-26,172,-79v43,-53,76,-136,98,-251r116,-596r355,0r-183,942r151,0r-23,121r-506,0r29,-150v-101,114,-194,177,-387,179v-193,2,-295,-92,-296,-281v0,-41,5,-86,15,-135r108,-555r-152,0r23,-121r506,0r-121,621v-16,83,-24,147,-24,192","w":1489},"\u00fd":{"d":"881,-1638r279,0r-447,376r-164,0xm113,235v-3,93,68,110,159,110v74,0,149,-24,224,-72r-284,-1215r-115,0r24,-121r434,0r238,1028v186,-279,253,-471,345,-905r-142,-1r23,-121r287,-1r-61,293v-59,271,-125,469,-200,594v-195,327,-371,520,-528,580v-89,34,-197,51,-325,51v-63,0,-140,-14,-231,-43r43,-222r113,1v-3,16,-4,31,-4,44","w":1190},"\u00fe":{"d":"973,-761v0,-114,-42,-174,-147,-175v-71,0,-128,28,-170,83v-42,55,-75,145,-99,269v-16,79,-40,198,-40,275v0,116,44,182,152,182v73,0,130,-29,171,-88v41,-59,76,-164,106,-317v18,-95,27,-171,27,-229xm747,29v-150,0,-239,-53,-278,-164r-109,561r-354,0r362,-1862r-152,0r24,-120r506,0r-122,628v75,-102,175,-162,340,-164v248,-3,396,147,396,398v0,251,-92,448,-226,573v-106,100,-236,150,-387,150","w":1432},"\u00ff":{"d":"443,-1365v-81,-107,36,-249,152,-249v76,0,133,65,117,146v-14,72,-91,148,-173,147v-40,0,-73,-14,-96,-44xm890,-1365v-80,-107,35,-249,151,-249v76,0,135,66,120,146v-13,71,-95,148,-176,147v-40,0,-73,-14,-95,-44xm113,235v-3,93,68,110,159,110v74,0,149,-24,224,-72r-284,-1215r-115,0r24,-121r434,0r238,1028v186,-279,253,-471,345,-905r-142,-1r23,-121r287,-1r-61,293v-59,271,-125,469,-200,594v-195,327,-371,520,-528,580v-89,34,-197,51,-325,51v-63,0,-140,-14,-231,-43r43,-222r113,1v-3,16,-4,31,-4,44","w":1190},"\u0152":{"d":"1043,-121r244,-1251r-127,0v-176,0,-318,52,-428,157v-110,105,-185,260,-226,467v-79,404,43,625,410,627r127,0xm2167,0r-1321,0v-250,-1,-415,-23,-558,-109v-180,-108,-263,-337,-202,-639v78,-384,311,-647,700,-720v93,-17,209,-25,350,-25r1303,0r-68,352r-137,0r41,-215r-605,0r-93,479r367,0r37,-190r137,0r-100,516r-137,0r37,-190r-367,0r-117,604r623,0r41,-215r137,0","w":2417},"\u0153":{"d":"1947,-322v-102,234,-275,349,-602,351v-157,0,-275,-37,-356,-110v-115,73,-260,110,-434,110v-174,0,-304,-50,-391,-149v-89,-101,-113,-247,-80,-412v34,-175,114,-313,240,-412v126,-99,276,-148,451,-148v175,0,306,37,393,112v111,-75,236,-112,376,-112v140,0,251,22,332,68v114,64,160,155,137,272v-42,216,-294,333,-755,352v-4,23,-6,58,-6,105v1,141,69,211,206,211v171,0,274,-100,323,-238r166,0xm1657,-762v24,-118,-9,-217,-118,-217v-63,0,-113,28,-148,86v-38,62,-74,187,-110,374v218,6,343,-75,376,-243xm920,-774v0,-136,-31,-205,-149,-205v-75,0,-135,33,-178,97v-43,64,-78,166,-105,305v-27,139,-41,234,-41,285v0,51,3,88,10,111v18,65,65,97,140,97v75,0,133,-32,176,-96v43,-64,77,-167,105,-308v28,-141,42,-236,42,-286","w":2105},"\u0178":{"d":"207,0r23,-121r201,0r97,-497r-297,-754r-127,0r23,-121r716,0r-23,121r-166,0r225,569r445,-569r-149,0r23,-121r428,0r-23,121r-127,0r-551,702r-107,549r201,0r-23,121r-789,0xm640,-1673v-82,-106,37,-250,152,-250v75,0,133,67,117,147v-14,72,-90,147,-173,146v-40,0,-73,-13,-96,-43xm1086,-1673v-53,-68,-15,-159,41,-206v62,-52,158,-64,207,0v82,106,-36,251,-152,249v-40,0,-73,-14,-96,-43","w":1462},"\u02c6":{"d":"546,-1638r242,0r182,376r-164,0r-169,-225r-257,225r-164,0","w":1024},"\u02dc":{"d":"499,-1440v-66,0,-103,64,-115,131r-110,0v18,-101,52,-185,99,-237v59,-65,146,-96,240,-64v45,15,98,61,137,92v26,19,51,29,75,29v66,0,103,-64,115,-131r110,0v-18,101,-51,186,-99,238v-59,65,-146,94,-240,62v-45,-16,-97,-61,-137,-90v-26,-20,-51,-30,-75,-30","w":1024},"\u2013":{"d":"133,-664r804,0r-46,240r-804,0","w":1024},"\u2014":{"d":"133,-664r1828,0r-46,240r-1828,0","w":2048},"\u2018":{"d":"625,-1384v-160,94,-237,234,-272,450r-269,0v69,-290,216,-462,462,-586","w":713},"\u2019":{"d":"67,-1042v159,-95,236,-234,271,-451r270,0v-70,292,-216,460,-462,586","w":713},"\u201a":{"d":"30,131v159,-95,236,-234,271,-450r270,0v-69,290,-216,461,-462,585","w":713},"\u201c":{"d":"1090,-1384v-159,95,-238,234,-273,450r-270,0v69,-291,218,-461,464,-586xm625,-1384v-160,94,-237,234,-272,450r-269,0v69,-290,216,-462,462,-586","w":1178},"\u201d":{"d":"532,-1042v159,-95,235,-234,270,-451r271,0v-70,292,-216,460,-462,586xm67,-1042v159,-95,236,-234,271,-451r270,0v-70,292,-216,460,-462,586","w":1178},"\u201e":{"d":"493,131v158,-95,239,-234,273,-450r270,0v-69,290,-216,461,-462,585xm30,131v159,-95,236,-234,271,-450r270,0v-69,290,-216,461,-462,585","w":1178},"\u2022":{"d":"322,-622v-35,-86,-35,-193,0,-279v35,-86,110,-159,195,-193v86,-35,192,-36,277,1v124,53,220,162,220,331v0,170,-99,281,-222,334v-85,37,-191,36,-277,0v-86,-36,-157,-108,-193,-194","w":1309},"\u2026":{"d":"1501,-162v17,-95,120,-190,228,-190v99,0,172,86,153,190v-18,96,-120,191,-227,191v-101,0,-173,-86,-154,-191xm834,-162v17,-95,120,-190,227,-190v99,0,172,86,153,190v-18,96,-120,191,-227,191v-100,0,-172,-86,-153,-191xm166,-162v17,-95,120,-190,227,-190v100,0,173,86,154,190v-18,96,-120,191,-228,191v-100,0,-172,-86,-153,-191","w":2048},"\u2039":{"d":"718,-1069r-28,147r-303,322r178,321r-29,148r-394,-385r32,-168","w":819},"\u203a":{"d":"284,-1069r394,385r-32,168r-544,385r29,-148r301,-321r-176,-322","w":819},"\u20ac":{"d":"672,29v-342,1,-535,-211,-532,-559r-190,0r76,-119r121,0v11,-69,14,-104,34,-177v2,-7,3,-12,4,-16r-174,0r76,-119r137,0v69,-178,169,-316,300,-413v182,-136,415,-184,667,-115v73,21,151,53,234,98r-71,367r-118,0v-1,-131,-20,-227,-56,-288v-36,-61,-94,-91,-171,-91v-87,0,-161,36,-225,109v-64,73,-118,184,-162,333r471,0r-77,119r-423,0v-8,29,-13,52,-17,68v-10,39,-15,82,-22,125r338,0r-76,119r-276,0v-15,148,-5,259,30,332v35,73,97,110,185,110v75,0,141,-28,201,-86v60,-58,110,-142,149,-252r162,0v-54,149,-132,262,-233,339v-101,77,-222,116,-362,116"},"\u2122":{"d":"238,-1493r565,0r0,180r-76,0r0,-98r-131,0r0,416r86,0r0,80r-324,0r0,-80r86,0r0,-416r-131,0r0,98r-75,0r0,-180xm1143,-1493r166,293r166,-293r245,0r0,82r-86,0r0,416r86,0r0,80r-323,0r0,-80r86,0r0,-359r-162,285r-113,0r-161,-285r0,359r86,0r0,80r-256,0r0,-80r84,0r0,-416r-84,0r0,-82r266,0","w":2048}}});
