/*!
 * The following copyright notice may not be removed under any circumstances.
 * 
 * Copyright:
 * Copyright (c) 2003 by Bitstream, Inc. All Rights Reserved.
 * DejaVu changes are in public domain
 * 
 * 
 * Manufacturer:
 * DejaVu fonts team
 * 
 * Vendor URL:
 * http://dejavu.sourceforge.net
 * 
 * License information:
 * http://dejavu.sourceforge.net/wiki/index.php/License
 */
Cufon.registerFont({"w":1172,"face":{"font-family":"DejaVu Serif Condensed","font-weight":400,"font-stretch":"semi-condensed","units-per-em":"2048","panose-1":"2 6 6 6 5 6 5 2 2 4","ascent":"1556","descent":"-492","x-height":"29","bbox":"-177 -1901 1948 483","underline-thickness":"90","underline-position":"-85","unicode-range":"U+0020-U+2122"},"glyphs":{" ":{"w":585},"!":{"d":"371,29v-69,0,-120,-63,-120,-133v0,-71,51,-134,120,-134v66,0,119,65,119,134v0,69,-53,133,-119,133xm255,-1493r232,0r-61,821r0,252r-111,0r0,-252","w":740},"\"":{"d":"324,-1493r0,555r-143,0r0,-555r143,0xm667,-1493r0,555r-143,0r0,-555r143,0","w":847},"#":{"d":"938,-901r-254,0r-76,334r257,0xm811,-1470r-92,415r254,0r93,-415r154,0r-94,415r277,0r0,154r-312,0r-74,334r283,0r0,153r-317,0r-93,414r-155,0r95,-414r-255,0r-93,414r-154,0r92,-414r-278,0r0,-153r313,0r74,-334r-284,0r0,-154r319,0r94,-415r153,0","w":1544},"$":{"d":"621,-68v128,-12,209,-81,209,-215v0,-134,-91,-202,-209,-237r0,452xm531,-1187v-118,8,-195,78,-195,200v0,130,81,181,195,219r0,-419xm531,31v-143,-6,-260,-47,-373,-103r0,-276r98,0v4,182,94,276,275,280r0,-485v-138,-43,-235,-91,-291,-147v-56,-56,-83,-130,-83,-222v0,-223,154,-354,374,-366r0,-268r90,0r0,268v131,12,239,47,339,98r0,262r-98,0v-13,-149,-95,-247,-241,-259r0,452v147,45,251,95,310,153v59,58,89,135,89,232v-1,236,-165,366,-399,381r0,270r-90,0r0,-270"},"%":{"d":"534,-1344v-58,-109,-186,-108,-244,0v-55,102,-56,361,0,463v59,109,185,110,244,1v55,-102,54,-362,0,-464xm1462,-610v-58,-110,-186,-109,-244,0v-55,103,-55,361,0,464v59,109,186,109,244,0v55,-103,54,-361,0,-464xm1340,-784v95,0,168,38,226,110v110,135,110,460,0,594v-59,71,-132,109,-226,109v-96,0,-170,-38,-228,-109v-109,-134,-108,-460,1,-594v58,-71,132,-110,227,-110xm1228,-1520r136,0r-840,1549r-137,0xm411,-1520v95,0,168,39,227,110v111,134,110,461,0,594v-59,71,-132,109,-227,109v-95,0,-169,-38,-226,-109v-108,-134,-108,-460,1,-594v58,-71,130,-110,225,-110","w":1751},"&":{"d":"315,-483v-5,211,155,394,362,391v140,-2,245,-59,318,-139r-523,-613v-92,91,-154,200,-157,361xm1366,-741v-22,184,-85,332,-179,452r155,183r211,0r0,106r-361,0r-123,-145v-111,104,-240,171,-433,174v-303,4,-507,-189,-504,-490v0,-89,23,-172,69,-249v46,-77,116,-149,209,-216v-53,-71,-89,-141,-90,-248v-2,-218,158,-351,384,-346v116,2,215,33,325,68r0,258r-102,0v-16,-133,-86,-217,-227,-219v-120,-1,-210,84,-208,203v0,41,10,82,31,122v21,40,63,98,128,173r464,544v77,-99,128,-217,142,-370r-162,0r0,-107r426,0r0,107r-155,0","w":1640},"'":{"d":"324,-1493r0,555r-143,0r0,-555r143,0","w":506},"(":{"d":"588,319v-300,-150,-442,-478,-442,-937v0,-461,142,-788,442,-938r0,98v-93,71,-157,171,-200,298v-78,230,-78,852,0,1082v43,127,107,228,200,299r0,98","w":719},")":{"d":"130,-1556v301,150,443,477,443,938v0,460,-142,787,-443,937r0,-98v93,-71,157,-172,200,-299v79,-230,78,-852,0,-1082v-44,-127,-107,-227,-200,-298r0,-98","w":719},"*":{"d":"892,-1237r-352,182r352,185r-68,118r-314,-217r12,381r-122,0r11,-381r-313,217r-68,-118r352,-183r-352,-184r68,-119r313,217r-11,-381r122,0r-12,381r314,-217","w":921},"+":{"d":"844,-1284r0,561r505,0r0,162r-505,0r0,561r-144,0r0,-561r-505,0r0,-162r505,0r0,-561r144,0","w":1544},",":{"d":"67,199v115,-93,168,-219,163,-426r178,0v-14,248,-106,393,-269,506","w":585},"-":{"d":"81,-627r461,0r0,156r-461,0r0,-156","w":622},".":{"d":"293,29v-69,0,-119,-63,-119,-133v0,-71,50,-134,119,-134v67,0,120,64,120,134v0,69,-53,133,-120,133","w":585},"\/":{"d":"477,-1493r144,0r-477,1683r-144,0","w":621},"0":{"d":"586,-70v92,0,161,-56,206,-168v45,-112,68,-281,68,-507v0,-227,-23,-396,-68,-508v-45,-112,-114,-168,-206,-168v-92,0,-160,56,-206,168v-46,112,-69,281,-69,508v0,226,23,395,69,507v46,112,114,168,206,168xm586,29v-146,0,-260,-68,-342,-204v-82,-136,-122,-326,-122,-570v0,-245,40,-435,122,-571v82,-136,196,-204,342,-204v147,0,261,68,342,204v81,136,122,326,122,571v0,244,-41,434,-122,570v-81,136,-195,204,-342,204"},"1":{"d":"262,0r0,-106r234,0r0,-1242r-271,195r0,-131r328,-236r124,0r0,1414r234,0r0,106r-649,0"},"2":{"d":"518,-1421v-183,0,-268,106,-282,284r-101,0r0,-266v109,-65,233,-114,385,-117v270,-4,455,157,453,420v0,146,-92,321,-275,524r-33,35r-339,377r560,0r0,-184r106,0r0,348r-867,0r0,-109r408,-452v90,-100,155,-191,193,-275v38,-84,57,-172,57,-264v0,-187,-90,-321,-265,-321"},"3":{"d":"547,-1421v-169,1,-252,94,-267,254r-101,0r0,-263v117,-49,241,-87,383,-90v248,-3,419,122,419,357v0,195,-122,311,-293,348v210,31,348,177,348,412v0,290,-189,434,-491,432v-161,-1,-288,-41,-405,-101r0,-290r101,0v11,187,114,292,308,292v189,1,297,-135,297,-331v0,-226,-104,-356,-322,-357r-86,0r0,-102v229,10,360,-74,360,-291v0,-170,-85,-270,-251,-270"},"4":{"d":"644,-506r0,-794r-460,794r460,0xm1040,0r-612,0r0,-106r216,0r0,-293r-587,0r0,-109r588,-1012r179,0r0,1014r256,0r0,107r-256,0r0,293r216,0r0,106"},"5":{"d":"545,-874v-124,0,-195,51,-252,131r-77,0r0,-750r711,0r0,164r-616,0r0,428v61,-47,144,-72,250,-72v293,-2,469,201,469,500v0,311,-176,505,-485,502v-150,-1,-274,-43,-388,-101r0,-290r101,0v9,181,104,292,287,292v95,0,168,-35,219,-104v51,-69,77,-169,77,-299v0,-129,-26,-228,-77,-297v-51,-69,-124,-104,-219,-104"},"6":{"d":"603,-70v85,0,147,-37,195,-104v89,-124,89,-470,0,-594v-48,-67,-110,-104,-195,-104v-86,0,-150,35,-197,100v-90,124,-84,472,2,595v48,69,110,107,195,107xm885,-1214v-13,-129,-90,-207,-227,-207v-117,0,-203,49,-260,147v-57,98,-87,249,-88,452v73,-90,165,-148,313,-149v278,-2,434,209,434,500v0,291,-177,500,-461,500v-152,0,-268,-63,-350,-189v-82,-126,-123,-305,-123,-538v0,-261,48,-464,145,-607v97,-143,233,-215,409,-215v114,0,215,26,309,60r0,246r-101,0"},"7":{"d":"1040,-1391r-526,1391r-134,0r501,-1329r-621,0r0,184r-105,0r0,-348r885,0r0,102"},"8":{"d":"586,-70v185,0,273,-140,273,-338v0,-198,-88,-337,-273,-337v-185,0,-273,140,-273,337v0,199,87,338,273,338xm586,-844v159,0,236,-120,236,-289v0,-169,-77,-288,-236,-288v-157,0,-236,120,-236,288v0,169,78,289,236,289xm1004,-1133v-1,192,-110,306,-280,338v197,27,324,169,324,387v1,284,-172,437,-462,437v-289,0,-463,-153,-463,-437v0,-218,129,-360,325,-387v-170,-32,-280,-146,-281,-338v-2,-244,169,-387,419,-387v251,0,419,143,418,387"},"9":{"d":"287,-279v14,128,90,209,227,209v116,0,203,-48,260,-146v57,-98,87,-249,88,-453v-72,90,-167,148,-315,149v-278,2,-431,-209,-431,-500v0,-291,177,-500,461,-500v152,0,268,62,349,188v81,126,122,306,122,539v0,261,-48,464,-144,607v-96,143,-233,215,-408,215v-114,0,-216,-26,-310,-60r0,-248r101,0xm570,-1421v-85,0,-148,36,-196,103v-88,124,-88,472,0,596v48,68,111,104,196,104v85,0,149,-35,196,-100v90,-124,84,-472,-1,-596v-48,-70,-110,-107,-195,-107"},":":{"d":"311,29v-69,0,-119,-63,-119,-133v0,-70,51,-134,119,-134v69,0,120,64,120,134v0,71,-50,133,-120,133xm311,-623v-68,0,-119,-63,-119,-133v0,-70,51,-133,119,-133v70,0,120,61,120,133v0,72,-50,133,-120,133","w":621},";":{"d":"67,199v115,-93,168,-219,163,-426r178,0v-14,248,-106,393,-269,506xm315,-623v-67,0,-120,-63,-120,-133v0,-70,53,-133,120,-133v67,0,120,64,120,133v0,70,-53,133,-120,133","w":621},"<":{"d":"1349,-1020r-934,379r934,377r0,170r-1154,-465r0,-166r1154,-465r0,170","w":1544},"=":{"d":"195,-926r1154,0r0,160r-1154,0r0,-160xm195,-518r1154,0r0,160r-1154,0r0,-160","w":1544},">":{"d":"195,-1020r0,-170r1154,465r0,166r-1154,465r0,-170r935,-377","w":1544},"?":{"d":"445,29v-70,0,-121,-62,-121,-133v0,-71,51,-134,121,-134v66,0,119,65,119,134v0,69,-53,133,-119,133xm464,-1421v-152,0,-231,108,-252,254r-87,0r0,-260v106,-52,210,-91,343,-93v256,-5,432,148,431,396v0,124,-33,225,-99,304v-66,79,-167,135,-300,169r0,254r-111,0r0,-328v194,-52,317,-172,320,-401v2,-170,-85,-295,-245,-295","w":988},"@":{"d":"1425,170v-118,114,-275,186,-491,186v-392,0,-640,-247,-752,-546v-80,-213,-79,-486,0,-700v80,-215,240,-394,445,-484v212,-93,482,-90,681,15v169,89,308,253,370,452v24,77,35,156,35,239v4,348,-208,581,-547,582r-1,-162v-61,94,-135,162,-269,162v-105,0,-188,-43,-256,-125v-128,-155,-129,-497,0,-651v68,-81,151,-125,256,-125v133,0,208,69,269,162r0,-142r140,0r0,772v202,-47,323,-226,322,-475v-1,-163,-48,-291,-121,-393v-112,-157,-286,-274,-531,-274v-124,0,-226,32,-317,77v-232,116,-384,378,-384,717v1,366,160,615,408,733v89,42,187,62,291,62v176,0,302,-62,404,-152xm934,-203v144,1,234,-129,231,-282r0,-105v3,-154,-88,-281,-233,-280v-72,0,-126,31,-169,88v-79,106,-79,387,0,492v43,57,98,87,171,87","w":1843},"A":{"d":"369,-541r493,0r-246,-710xm-11,0r0,-106r118,0r479,-1387r151,0r480,1387r132,0r0,106r-489,0r0,-106r150,0r-113,-328r-565,0r-112,328r147,0r0,106r-378,0","w":1331},"B":{"d":"1036,-432v0,-224,-91,-324,-312,-324r-269,0r0,650r269,0v221,-1,312,-102,312,-326xm968,-1124v0,-189,-91,-261,-284,-262r-229,0r0,524r229,0v193,-1,284,-74,284,-262xm1242,-432v0,317,-184,432,-519,432r-621,0r0,-106r171,0r0,-1280r-171,0r0,-107r663,0v261,-1,409,115,409,369v0,186,-107,288,-280,309v215,29,348,151,348,383","w":1354},"C":{"d":"746,-78v222,0,337,-126,388,-317r166,0v-73,258,-244,424,-554,424v-199,0,-341,-82,-444,-197v-126,-141,-198,-321,-198,-577v0,-232,60,-419,180,-561v120,-142,280,-214,477,-214v192,0,344,58,502,129r0,344r-102,0v-42,-235,-154,-366,-415,-366v-143,0,-252,56,-326,169v-74,113,-110,280,-110,499v0,219,36,384,110,497v74,113,183,170,326,170","w":1410},"D":{"d":"1165,-748v0,-390,-172,-636,-542,-638r-168,0r0,1280r168,0v368,-1,542,-254,542,-642xm1372,-748v0,463,-275,748,-736,748r-534,0r0,-106r171,0r0,-1280r-171,0r0,-107r534,0v462,-4,736,282,736,745","w":1477},"E":{"d":"102,0r0,-106r171,0r0,-1280r-171,0r0,-107r1082,0r0,332r-111,0r0,-209r-618,0r0,500r441,0r0,-187r110,0r0,496r-110,0r0,-187r-441,0r0,625r632,0r0,-209r111,0r0,332r-1096,0","w":1345},"F":{"d":"102,0r0,-106r171,0r0,-1280r-171,0r0,-107r1100,0r0,332r-111,0r0,-209r-636,0r0,500r459,0r0,-187r111,0r0,496r-111,0r0,-187r-459,0r0,642r215,0r0,106r-568,0","w":1278},"G":{"d":"781,-1520v192,0,344,52,500,119r0,354r-101,0v-41,-234,-152,-366,-410,-366v-155,0,-270,55,-346,166v-76,111,-114,278,-114,502v0,219,40,385,118,498v78,113,193,169,346,169v154,0,271,-45,371,-112r0,-385r-253,0r0,-107r436,0r0,557v-149,95,-324,154,-554,154v-203,0,-365,-70,-487,-211v-122,-141,-183,-329,-183,-563v0,-236,62,-425,184,-565v122,-140,286,-210,493,-210","w":1472},"H":{"d":"102,0r0,-106r171,0r0,-1280r-171,0r0,-107r524,0r0,107r-171,0r0,516r697,0r0,-516r-171,0r0,-107r525,0r0,107r-171,0r0,1280r171,0r0,106r-525,0r0,-106r171,0r0,-642r-697,0r0,642r171,0r0,106r-524,0","w":1607},"I":{"d":"455,-106r171,0r0,106r-524,0r0,-106r171,0r0,-1280r-171,0r0,-107r524,0r0,107r-171,0r0,1280","w":728},"J":{"d":"107,426v-102,0,-186,-29,-262,-68r0,-235r103,0v2,122,46,196,161,196v71,0,121,-25,149,-75v28,-50,43,-148,43,-293r0,-1337r-209,0r0,-107r562,0r0,107r-171,0r0,1345v0,165,-30,284,-89,357v-59,73,-155,110,-287,110","w":738},"K":{"d":"102,0r0,-106r171,0r0,-1280r-171,0r0,-107r524,0r0,107r-171,0r0,565r579,-565r-146,0r0,-107r447,0r0,107r-151,0r-577,563r645,717r153,0r0,106r-312,0r-638,-709r0,603r171,0r0,106r-524,0","w":1377},"L":{"d":"102,0r0,-106r171,0r0,-1280r-171,0r0,-107r524,0r0,107r-171,0r0,1263r614,0r0,-250r111,0r0,373r-1078,0","w":1224},"M":{"d":"102,0r0,-106r171,0r0,-1280r-181,0r0,-107r391,0r472,1063r471,-1063r368,0r0,107r-179,0r0,1280r171,0r0,106r-525,0r0,-106r171,0r0,-1154r-461,1041r-127,0r-461,-1041r0,1154r171,0r0,106r-452,0","w":1887},"N":{"d":"90,0r0,-106r181,0r0,-1280r-181,0r0,-107r345,0r805,1178r0,-1071r-180,0r0,-107r472,0r0,107r-181,0r0,1415r-109,0r-860,-1258r0,1123r180,0r0,106r-472,0","w":1612},"O":{"d":"756,-78v147,0,258,-56,333,-168v75,-112,113,-279,113,-499v0,-221,-38,-387,-113,-499v-75,-112,-186,-169,-333,-169v-147,0,-259,57,-334,169v-75,112,-112,278,-112,499v0,220,37,387,112,499v75,112,187,168,334,168xm1007,-20v-147,66,-355,64,-503,-1v-163,-72,-291,-228,-351,-401v-64,-183,-64,-463,0,-646v60,-173,189,-332,351,-402v75,-33,159,-50,252,-50v195,0,352,71,472,213v120,142,180,329,180,562v-1,254,-72,438,-199,577v-59,65,-127,115,-202,148","w":1511},"P":{"d":"968,-1073v0,-194,-88,-312,-275,-313r-238,0r0,626r238,0v186,0,275,-120,275,-313xm1174,-1073v0,257,-175,420,-437,420r-282,0r0,547r208,0r0,106r-561,0r0,-106r171,0r0,-1280r-171,0r0,-107r635,0v262,-3,437,162,437,420","w":1240},"Q":{"d":"1215,328v-224,-14,-355,-126,-437,-299v-206,0,-370,-71,-492,-211v-122,-140,-182,-328,-182,-563v1,-256,71,-437,198,-578v107,-119,246,-197,454,-197v195,0,352,71,472,213v120,142,180,329,180,562v0,390,-194,684,-507,757v66,91,159,135,314,131r0,185xm756,-78v147,0,258,-56,333,-168v75,-112,113,-279,113,-499v0,-221,-38,-387,-113,-499v-75,-112,-186,-169,-333,-169v-147,0,-259,57,-334,169v-75,112,-112,278,-112,499v0,220,37,387,112,499v75,112,187,168,334,168","w":1511},"R":{"d":"1192,-1094v-1,215,-113,326,-309,353v97,31,147,94,190,192r195,443r164,0r0,106r-317,0r-210,-475v-40,-92,-78,-151,-111,-179v-69,-59,-216,-35,-339,-40r0,588r190,0r0,106r-543,0r0,-106r171,0r0,-1280r-171,0r0,-107r681,0v258,-2,410,144,409,399xm986,-1094v0,-194,-77,-292,-265,-292r-266,0r0,585r266,0v188,-1,265,-99,265,-293","w":1387},"S":{"d":"630,29v-176,-1,-321,-42,-459,-101r0,-340r103,1v7,226,113,332,345,333v201,1,328,-86,329,-276v0,-72,-19,-126,-51,-166v-54,-67,-270,-131,-392,-172v-129,-43,-219,-97,-271,-162v-52,-65,-79,-153,-79,-266v0,-264,186,-403,462,-400v160,2,304,41,443,88r0,318r-102,0v-21,-208,-113,-297,-337,-299v-180,-1,-290,80,-291,252v0,71,19,127,56,168v37,41,116,81,237,121r166,55v122,41,209,92,261,155v52,63,78,148,78,254v-1,303,-183,439,-498,437","w":1262},"T":{"d":"352,0r0,-106r172,0r0,-1268r-395,0r0,233r-111,0r0,-352r1193,0r0,352r-110,0r0,-233r-395,0r0,1268r172,0r0,106r-526,0","w":1229},"U":{"d":"258,-1386r-172,0r0,-107r526,0r0,107r-172,0r0,772v0,191,28,324,84,399v56,75,153,113,290,113v138,0,235,-38,291,-113v56,-75,84,-208,84,-399r0,-772r-172,0r0,-107r454,0r0,107r-171,0r0,792v0,227,-39,388,-118,482v-79,94,-212,141,-401,141v-188,0,-323,-47,-403,-142v-80,-95,-120,-255,-120,-481r0,-792","w":1553},"V":{"d":"322,-1386r397,1146r396,-1146r-151,0r0,-107r394,0r0,107r-130,0r-480,1386r-155,0r-477,-1386r-134,0r0,-107r490,0r0,107r-150,0","w":1331},"W":{"d":"1405,0r-148,0r-307,-1214r-308,1214r-148,0r-352,-1386r-133,0r0,-107r491,0r0,107r-168,0r280,1103r306,-1210r146,0r311,1223r282,-1116r-155,0r0,-107r387,0r0,107r-132,0","w":1894},"X":{"d":"610,-639r-328,533r173,0r0,106r-444,0r0,-106r155,0r387,-627r-393,-653r-144,0r0,-107r533,0r0,107r-158,0r288,481r296,-481r-173,0r0,-107r440,0r0,107r-151,0r-356,575r424,705r144,0r0,106r-533,0r0,-106r161,0","w":1312},"Y":{"d":"348,0r0,-106r172,0r0,-537r-415,-743r-126,0r0,-107r500,0r0,107r-157,0r336,604r336,-604r-152,0r0,-107r391,0r0,107r-127,0r-404,724r0,556r172,0r0,106r-526,0","w":1216},"Z":{"d":"83,0r0,-72r837,-1298r-695,0r0,223r-111,0r0,-346r1062,0r0,72r-837,1298r760,0r0,-209r110,0r0,332r-1126,0","w":1280},"[":{"d":"158,-1556r419,0r0,106r-247,0r0,1614r247,0r0,106r-419,0r0,-1826","w":719},"\\":{"d":"144,-1493r477,1683r-144,0r-477,-1683r144,0","w":621},"]":{"d":"561,-1556r0,1826r-419,0r0,-106r247,0r0,-1614r-247,0r0,-106r419,0","w":719},"^":{"d":"860,-1493r489,557r-138,0r-439,-381r-438,381r-139,0r489,-557r176,0","w":1544},"_":{"d":"922,403r0,80r-922,0r0,-80r922,0","w":921},"`":{"d":"330,-1636r234,376r-105,0r-306,-376r177,0","w":921},"a":{"d":"503,-78v141,0,231,-111,231,-256r0,-225r-214,0v-164,0,-243,77,-244,240v-1,143,87,241,227,241xm492,-1092v269,-2,407,155,407,428r0,558r148,0r0,106r-313,0r0,-115v-67,90,-151,142,-296,144v-210,2,-347,-138,-346,-348v2,-231,165,-350,409,-347r233,0r0,-73v1,-159,-94,-255,-252,-254v-139,0,-212,73,-231,198r-85,0r0,-215v98,-47,200,-81,326,-82","w":1098},"b":{"d":"688,29v-166,0,-250,-74,-310,-195r0,166r-325,0r0,-106r159,0r0,-1344r-159,0r0,-106r325,0r0,659v60,-121,144,-195,310,-195v117,0,214,52,288,155v74,103,111,238,111,405v0,167,-37,302,-111,406v-74,104,-171,155,-288,155xm378,-479v0,128,22,226,66,293v44,67,108,100,192,100v85,0,145,-39,192,-113v84,-133,84,-534,0,-666v-47,-73,-107,-112,-192,-112v-84,0,-148,34,-192,101v-44,67,-66,165,-66,292r0,105","w":1179},"c":{"d":"556,-70v160,0,231,-100,258,-249r134,0v-42,208,-162,348,-394,348v-139,0,-250,-51,-335,-153v-85,-102,-127,-239,-127,-408v0,-170,42,-306,127,-408v85,-102,196,-152,335,-152v144,0,257,39,362,95r0,272r-96,0v-24,-170,-88,-268,-264,-268v-89,0,-156,38,-202,115v-46,77,-69,193,-69,346v0,153,23,269,68,346v45,77,113,116,203,116","w":1032},"d":{"d":"492,-1092v166,0,250,74,310,195r0,-553r-157,0r0,-106r323,0r0,1450r158,0r0,106r-324,0r0,-166v-60,121,-144,195,-310,195v-117,0,-213,-51,-288,-155v-75,-104,-112,-239,-112,-406v0,-167,38,-302,112,-405v74,-103,170,-155,288,-155xm802,-479r0,-105v0,-127,-22,-225,-66,-292v-44,-67,-108,-101,-192,-101v-85,0,-150,37,-194,112v-44,75,-65,186,-65,333v0,147,21,258,65,333v44,75,109,113,194,113v84,0,148,-33,192,-100v44,-67,66,-165,66,-293","w":1179},"e":{"d":"983,-322v-49,217,-176,351,-427,351v-140,0,-252,-51,-337,-153v-85,-102,-127,-239,-127,-408v0,-168,42,-303,125,-406v83,-103,193,-154,328,-154v145,0,256,49,333,148v77,99,118,243,121,432r-714,0v-1,145,23,258,73,332v49,73,120,110,215,110v164,0,244,-104,277,-252r133,0xm804,-618v-4,-124,-28,-217,-71,-280v-43,-63,-106,-95,-188,-95v-76,0,-135,32,-179,95v-44,63,-71,157,-81,280r519,0","w":1090},"f":{"d":"553,-1556v91,1,170,19,240,49r0,202r-87,0v-1,-97,-50,-153,-147,-153v-62,0,-104,20,-131,56v-40,54,-38,222,-37,339r267,0r0,107r-267,0r0,850r212,0r0,106r-536,0r0,-106r158,0r0,-850r-158,0r0,-107r158,0r0,-133v-1,-229,106,-359,328,-360","w":682},"g":{"d":"492,-1092v166,0,250,74,310,195r0,-166r324,0r0,107r-158,0r0,933v2,295,-150,478,-437,478v-138,-1,-248,-29,-347,-76r0,-223r87,0v21,136,95,199,249,200v97,0,169,-31,214,-92v45,-61,68,-156,68,-287r0,-143v-60,121,-144,195,-310,195v-117,0,-213,-51,-288,-155v-75,-104,-112,-239,-112,-406v0,-167,38,-302,112,-405v74,-103,170,-155,288,-155xm802,-584v0,-127,-22,-225,-66,-292v-44,-67,-108,-101,-192,-101v-85,0,-150,37,-194,112v-44,75,-65,186,-65,333v0,147,21,258,65,333v44,75,109,113,194,113v84,0,148,-33,192,-100v44,-67,66,-165,66,-293r0,-105","w":1179},"h":{"d":"391,-874v52,-124,136,-218,289,-218v106,0,184,34,234,101v50,67,74,172,74,315r0,570r148,0r0,106r-457,0r0,-106r143,0r0,-512v0,-130,-14,-218,-43,-266v-29,-48,-80,-72,-153,-72v-77,0,-135,31,-175,93v-40,62,-60,152,-60,271r0,486r144,0r0,106r-459,0r0,-106r149,0r0,-1344r-158,0r0,-106r324,0r0,682","w":1187},"i":{"d":"282,-1280v-58,0,-103,-54,-103,-113v0,-58,46,-114,103,-114v55,0,101,57,101,114v0,59,-44,113,-101,113xm391,-106r156,0r0,106r-480,0r0,-106r158,0r0,-850r-158,0r0,-107r324,0r0,957","w":589},"j":{"d":"287,-1280v-56,0,-103,-54,-103,-113v0,-58,47,-114,103,-114v55,0,102,57,102,114v0,59,-44,113,-102,113xm-92,170v8,116,46,186,157,186v55,0,95,-21,121,-62v26,-41,39,-104,39,-190r0,-1060r-157,0r0,-107r323,0r0,1167v2,212,-122,352,-330,351v-98,-1,-172,-26,-238,-66r0,-219r85,0","w":571},"k":{"d":"527,0r-464,0r0,-106r149,0r0,-1344r-159,0r0,-106r325,0r0,1013r403,-413r-137,0r0,-107r432,0r0,107r-163,0r-285,292r364,558r138,0r0,106r-472,0r0,-106r137,0r-287,-437r-130,135r0,302r149,0r0,106","w":1116},"l":{"d":"378,-106r157,0r0,106r-482,0r0,-106r159,0r0,-1344r-159,0r0,-106r325,0r0,1450","w":589},"m":{"d":"669,-1092v159,1,257,97,286,236v32,-78,73,-136,122,-176v49,-40,107,-60,173,-60v100,0,175,35,224,104v49,69,74,173,74,312r0,570r149,0r0,106r-459,0r0,-106r144,0r0,-549v0,-109,-14,-186,-43,-232v-29,-46,-76,-69,-143,-69v-74,0,-130,31,-169,93v-39,62,-58,152,-58,271r0,486r144,0r0,106r-453,0r0,-106r144,0r0,-556v0,-106,-15,-181,-44,-226v-29,-45,-76,-68,-143,-68v-73,0,-129,31,-168,93v-39,62,-58,152,-58,271r0,486r144,0r0,106r-459,0r0,-106r149,0r0,-852r-158,0r0,-105r324,0r0,189v30,-71,69,-125,117,-162v48,-37,101,-56,161,-56","w":1747},"n":{"d":"391,-874v52,-124,136,-218,289,-218v106,0,184,34,234,101v50,67,74,172,74,315r0,570r148,0r0,106r-457,0r0,-106r143,0r0,-512v0,-130,-15,-220,-44,-268v-29,-48,-79,-72,-152,-72v-77,0,-135,32,-175,94v-40,62,-60,153,-60,272r0,486r144,0r0,106r-459,0r0,-106r149,0r0,-850r-158,0r0,-107r324,0r0,189","w":1187},"o":{"d":"554,-70v89,0,157,-39,202,-117v45,-78,68,-193,68,-345v0,-152,-23,-266,-68,-344v-45,-78,-113,-117,-202,-117v-89,0,-156,39,-201,117v-45,78,-68,192,-68,344v0,152,23,267,69,345v46,78,112,117,200,117xm554,29v-139,0,-250,-51,-335,-153v-85,-102,-127,-239,-127,-408v0,-169,42,-305,126,-407v84,-102,197,-153,336,-153v140,0,252,51,336,153v84,102,127,238,127,407v0,169,-43,306,-127,408v-84,102,-196,153,-336,153","w":1109},"p":{"d":"378,-584r0,105v0,128,22,226,66,293v44,67,108,100,192,100v85,0,145,-39,192,-113v84,-133,84,-534,0,-666v-47,-73,-107,-112,-192,-112v-84,0,-148,34,-192,101v-44,67,-66,165,-66,292xm688,29v-166,0,-250,-74,-310,-195r0,485r157,0r0,107r-482,0r0,-107r159,0r0,-1275r-159,0r0,-107r325,0r0,166v60,-121,144,-195,310,-195v117,0,214,52,288,155v74,103,111,238,111,405v0,167,-37,302,-111,406v-74,104,-171,155,-288,155","w":1179},"q":{"d":"492,-1092v166,0,250,74,310,195r0,-166r324,0r0,107r-158,0r0,1275r158,0r0,107r-481,0r0,-107r157,0r0,-485v-60,121,-144,195,-310,195v-117,0,-213,-51,-288,-155v-75,-104,-112,-239,-112,-406v0,-167,38,-302,112,-405v74,-103,170,-155,288,-155xm802,-584v0,-127,-22,-225,-66,-292v-44,-67,-108,-101,-192,-101v-85,0,-150,37,-194,112v-44,75,-65,186,-65,333v0,147,21,258,65,333v44,75,109,113,194,113v84,0,148,-33,192,-100v44,-67,66,-165,66,-293r0,-105","w":1179},"r":{"d":"702,-1092v64,0,123,12,179,27r0,266r-95,0v-6,-98,-45,-157,-142,-157v-82,0,-145,31,-188,94v-43,63,-65,153,-65,270r0,486r191,0r0,106r-506,0r0,-106r149,0r0,-852r-158,0r0,-105r324,0r0,189v57,-131,142,-218,311,-218","w":881},"s":{"d":"461,29v-143,-1,-252,-36,-357,-88r0,-248r95,0v4,160,90,237,255,237v137,1,227,-54,228,-182v0,-47,-15,-83,-42,-113v-40,-45,-210,-103,-301,-137v-82,-30,-142,-66,-179,-110v-37,-44,-55,-100,-55,-168v0,-203,150,-315,363,-312v126,2,233,39,332,86r0,232r-95,0v-4,-136,-91,-219,-232,-219v-128,0,-209,45,-211,164v0,45,14,79,40,107v43,47,204,97,294,128v91,31,156,71,196,118v40,47,59,107,59,181v0,213,-164,327,-390,324","w":945},"t":{"d":"461,29v-204,0,-262,-95,-262,-310r0,-675r-146,0r0,-107r146,0r0,-330r166,0r0,330r312,0r0,107r-312,0r0,675v0,90,7,148,23,173v16,25,45,38,87,38v101,0,122,-69,126,-180r125,0v-9,184,-81,279,-265,279","w":740},"u":{"d":"796,-188v-52,122,-136,217,-288,217v-106,0,-184,-34,-234,-101v-50,-67,-75,-172,-75,-315r0,-569r-149,0r0,-107r315,0r0,619v0,129,14,218,43,266v29,48,80,72,153,72v77,0,135,-31,175,-94v40,-63,60,-154,60,-273r0,-483r-144,0r0,-107r310,0r0,957r157,0r0,106r-323,0r0,-188","w":1187},"v":{"d":"455,0r-351,-956r-109,0r0,-107r440,0r0,107r-153,0r269,731r269,-731r-143,0r0,-107r359,0r0,107r-107,0r-352,956r-122,0","w":1041},"w":{"d":"885,-1063r245,830r216,-723r-139,0r0,-107r346,0r0,107r-106,0r-284,956r-138,0r-236,-795r-236,795r-133,0r-283,-956r-107,0r0,-107r433,0r0,107r-155,0r214,723r247,-830r116,0","w":1577},"x":{"d":"536,-649r201,-307r-129,0r0,-107r368,0r0,107r-126,0r-257,393r299,457r125,0r0,106r-442,0r0,-106r122,0r-208,-318r-209,318r124,0r0,106r-364,0r0,-106r127,0r264,-404r-291,-446r-118,0r0,-107r428,0r0,107r-114,0","w":1039},"y":{"d":"144,221v7,83,30,125,111,127v33,0,59,-10,79,-30v50,-55,93,-211,127,-300r-357,-974r-109,0r0,-107r440,0r0,107r-153,0r269,731r269,-731r-143,0r0,-107r359,0r0,107r-107,0r-439,1196v-29,83,-63,139,-99,170v-73,64,-236,50,-332,14r0,-203r85,0","w":1041},"z":{"d":"74,0r0,-86r599,-870r-474,0r0,184r-95,0r0,-291r782,0r0,86r-599,871r520,0r0,-193r97,0r0,299r-830,0","w":971},"{":{"d":"677,0v5,186,24,224,204,229r61,0r0,105r-56,0v-304,-6,-370,-66,-376,-369r0,-258v-3,-192,-41,-262,-225,-266r-55,0r0,-105r55,0v183,-3,225,-74,225,-266r0,-258v6,-303,72,-361,376,-368r56,0r0,104r-61,0v-180,4,-204,43,-204,229r0,287v-2,210,-44,278,-207,324v163,51,207,112,207,325r0,287"},"|":{"d":"383,-1565r0,2048r-145,0r0,-2048r145,0","w":621},"}":{"d":"662,-35v-6,303,-71,362,-375,369r-57,0r0,-105r63,0v180,-5,203,-43,203,-229r0,-287v3,-212,44,-274,206,-325v-163,-46,-206,-114,-206,-324r0,-287v-5,-186,-23,-224,-203,-229r-63,0r0,-104r57,0v304,7,369,65,375,368r0,258v3,192,41,262,224,266r56,0r0,105r-56,0v-182,3,-224,75,-224,266r0,258"},"~":{"d":"1029,-657v142,0,232,-67,320,-150r0,148v-60,59,-117,102,-171,130v-54,28,-109,42,-165,42v-58,0,-190,-42,-281,-83v-88,-40,-161,-57,-218,-57v-143,0,-230,66,-319,150r0,-152v60,-58,117,-100,171,-127v54,-27,108,-41,165,-41v58,0,189,40,280,82v87,39,159,58,218,58","w":1544},"\u00a0":{"w":585},"\u00a1":{"d":"371,-1255v-69,0,-120,-64,-120,-134v0,-71,51,-133,120,-133v66,0,119,64,119,133v0,70,-53,134,-119,134xm255,0r60,-821r0,-252r111,0r0,252r61,821r-232,0","w":740},"\u00a2":{"d":"566,-991v-77,10,-133,55,-174,130v-75,137,-75,522,0,659v41,75,97,120,174,130r0,-919xm656,-72v120,-20,183,-118,204,-247r134,0v-40,193,-143,317,-338,346r0,270r-90,0r0,-270v-270,-24,-427,-254,-427,-559v0,-307,155,-536,427,-558r0,-266r90,0r0,266v120,12,216,44,306,93r0,272r-95,0v-21,-148,-76,-245,-211,-266r0,919"},"\u00a3":{"d":"702,-1520v109,0,206,19,290,50r0,245r-95,0v-10,-119,-74,-195,-197,-196v-76,0,-132,25,-168,77v-36,52,-55,133,-55,242r0,295r371,0r0,107r-371,0r0,579r430,0r0,-227r105,0r0,348r-889,0r0,-106r174,0r0,-594r-174,0r0,-107r174,0r0,-295v-1,-270,138,-418,405,-418"},"\u00a4":{"d":"588,-1067v96,0,161,34,223,82r188,-207r85,94r-188,209v45,71,75,144,75,248v0,106,-29,176,-77,244r186,207r-86,94r-187,-205v-59,51,-121,86,-219,86v-94,0,-163,-36,-225,-82r-184,205r-85,-94r184,-207v-43,-72,-74,-146,-74,-248v0,-106,30,-177,78,-246r-187,-207r86,-94r186,207v60,-51,123,-86,221,-86xm588,-373v136,0,242,-129,242,-270v0,-141,-105,-266,-242,-266v-136,0,-242,125,-242,266v0,143,104,270,242,270"},"\u00a5":{"d":"324,0r0,-106r172,0r0,-367r-364,0r0,-105r364,0r0,-65r-74,-141r-290,0r0,-105r237,0r-258,-497r-125,0r0,-107r497,0r0,107r-157,0r308,604r306,-604r-151,0r0,-107r389,0r0,107r-128,0r-255,497r245,0r0,105r-299,0r-64,122r0,84r363,0r0,105r-363,0r0,367r171,0r0,106r-524,0"},"\u00a6":{"d":"383,-408r0,758r-145,0r0,-758r145,0xm383,-1432r0,758r-145,0r0,-758r145,0","w":621},"\u00a7":{"d":"586,-401v60,-44,105,-100,105,-191v0,-50,-21,-97,-63,-142v-42,-45,-137,-112,-287,-202v-66,53,-111,87,-111,182v0,88,109,200,327,335xm472,-1520v105,2,194,22,274,56r0,202r-83,0v-1,-98,-73,-155,-174,-155v-116,0,-195,67,-194,180v0,65,74,143,222,234v108,67,230,155,265,206v36,51,57,108,57,174v0,150,-79,212,-197,265v86,59,135,129,136,264v1,183,-147,292,-340,289v-117,-2,-208,-20,-294,-56r0,-209r83,1v4,113,74,161,195,161v119,0,204,-67,203,-182v0,-75,-69,-155,-206,-240v-119,-74,-245,-167,-279,-215v-36,-51,-57,-108,-57,-174v2,-140,87,-222,204,-258v-86,-57,-143,-129,-145,-254v-2,-179,142,-292,330,-289","w":921},"\u00a8":{"d":"181,-1452v0,-60,47,-117,104,-117v58,0,106,57,106,117v0,64,-44,117,-106,117v-61,0,-104,-53,-104,-117xm531,-1452v0,-60,47,-117,105,-117v58,0,105,57,105,117v0,64,-44,117,-105,117v-62,0,-105,-53,-105,-117","w":921},"\u00a9":{"d":"923,-379v131,0,185,-74,208,-194r107,0v-28,163,-133,271,-315,272v-235,1,-369,-192,-369,-440v0,-248,136,-444,369,-443v117,1,200,32,290,76r0,213r-75,0v-20,-133,-72,-211,-213,-211v-71,0,-122,33,-161,92v-70,107,-71,437,-1,544v38,59,89,91,160,91xm666,-1430v155,-72,355,-72,510,0v157,73,302,235,364,404v63,171,64,397,0,568v-63,169,-207,330,-364,403v-156,72,-355,72,-510,0v-157,-73,-299,-234,-362,-403v-64,-171,-63,-397,0,-568v62,-169,205,-331,362,-404xm1142,-1335v-134,-62,-306,-62,-440,0v-136,63,-258,202,-313,349v-56,149,-57,339,0,488v55,146,177,285,313,348v134,62,306,62,440,0v135,-63,259,-201,313,-347v55,-148,54,-343,-1,-491v-55,-147,-176,-284,-312,-347","w":1843},"\u00aa":{"d":"429,-1520v207,-1,325,100,325,301r0,379r72,0r0,84r-205,0r0,-80v-54,64,-122,98,-234,99v-161,2,-276,-88,-275,-242v1,-166,142,-242,324,-242r185,0r0,-45v0,-116,-78,-179,-199,-178v-106,1,-166,49,-183,139r-68,0r0,-157v78,-33,161,-57,258,-58xm438,-821v107,0,183,-70,183,-176r0,-148r-169,0v-118,-1,-191,47,-192,158v-1,110,65,166,178,166xm149,-639r629,0r0,104r-629,0r0,-104","w":875},"\u00ab":{"d":"955,-1059r0,115r-267,344r267,344r0,115r-422,-418r0,-82xm564,-1059r0,115r-267,344r267,344r0,115r-422,-418r0,-82","w":1127},"\u00ac":{"d":"195,-862r1154,0r0,575r-144,0r0,-413r-1010,0r0,-162","w":1544},"\u00ad":{"d":"81,-627r461,0r0,156r-461,0r0,-156","w":622},"\u00ae":{"d":"1067,-942v0,-98,-50,-150,-149,-150r-112,0r0,301r112,0v100,0,149,-51,149,-151xm1202,-938v-1,117,-64,172,-175,184v53,20,86,53,109,105r104,229r69,0r0,68r-171,0r-118,-254v-21,-47,-42,-78,-60,-94v-33,-30,-94,-22,-154,-23r0,303r75,0r0,68r-285,0r0,-68r74,0r0,-672r-74,0r0,-67r373,0v150,0,233,73,233,221xm1142,-1335v-134,-62,-306,-62,-440,0v-136,63,-258,202,-313,349v-56,149,-57,339,0,488v55,146,177,285,313,348v134,62,306,62,440,0v135,-63,259,-201,313,-347v55,-148,54,-343,-1,-491v-55,-147,-176,-284,-312,-347xm666,-1430v155,-72,355,-72,510,0v157,73,302,235,364,404v63,171,64,397,0,568v-63,169,-207,330,-364,403v-156,72,-355,72,-510,0v-157,-73,-299,-234,-362,-403v-64,-171,-63,-397,0,-568v62,-169,205,-331,362,-404","w":1843},"\u00af":{"d":"192,-1526r538,0r0,148r-538,0r0,-148","w":921},"\u00b0":{"d":"623,-1200v0,-93,-73,-182,-162,-182v-93,0,-162,86,-162,182v0,96,69,178,162,178v91,0,162,-84,162,-178xm176,-1200v0,-206,188,-389,396,-296v36,16,64,41,91,71v50,55,81,127,83,225v4,167,-125,315,-287,315v-164,0,-283,-146,-283,-315","w":921},"\u00b1":{"d":"844,-1284r0,391r505,0r0,162r-505,0r0,391r-144,0r0,-391r-505,0r0,-162r505,0r0,-391r144,0xm195,-160r1154,0r0,160r-1154,0r0,-160","w":1544},"\u00b2":{"d":"319,-1446v-101,1,-153,58,-166,150r-63,0r0,-158v69,-38,151,-64,248,-66v153,-3,279,91,278,236v0,81,-58,180,-175,296r-231,232r346,0r0,-108r67,0r0,196r-542,0r0,-75r257,-254v51,-51,88,-97,110,-138v22,-41,34,-83,34,-127v2,-107,-60,-184,-163,-184","w":738},"\u00b3":{"d":"334,-1446v-97,0,-150,41,-158,129r-64,0r0,-151v74,-29,151,-51,240,-52v153,-1,258,65,258,207v0,108,-80,170,-181,189v133,19,216,92,216,235v0,165,-125,237,-304,236v-98,-1,-178,-22,-251,-56r0,-170r63,1v7,100,67,151,175,151v111,0,177,-60,177,-170v0,-123,-61,-188,-183,-188r-48,0r0,-74v122,5,201,-35,201,-148v0,-89,-51,-140,-141,-139","w":738},"\u00b4":{"d":"586,-1638r179,0r-306,376r-105,0","w":921},"\u00b5":{"d":"549,29v-77,-1,-129,-29,-171,-72r0,362r157,0r0,107r-482,0r0,-107r159,0r0,-1275r-149,0r0,-107r315,0r0,619v0,129,14,218,43,266v29,48,79,72,152,72v77,0,135,-31,175,-94v40,-63,61,-154,61,-273r0,-483r-144,0r0,-107r310,0r0,959r156,0r0,104r-322,0r0,-188v-31,71,-69,125,-113,162v-44,37,-93,55,-147,55","w":1197},"\u00b6":{"d":"142,-1071v-2,-251,175,-422,428,-422r484,0r0,107r-106,0r0,1583r-97,0r0,-1583r-207,0r0,1583r-97,0r0,-846v-245,-19,-403,-167,-405,-422"},"\u00b7":{"d":"292,-578v-70,0,-121,-61,-121,-133v0,-71,51,-133,121,-133v66,0,119,64,119,133v0,70,-52,133,-119,133","w":585},"\u00b8":{"d":"512,176v-4,-66,-42,-117,-79,-176r87,0v39,43,67,83,86,120v19,37,28,72,28,105v-1,116,-90,171,-214,170v-58,0,-109,-10,-158,-24r0,-131v41,19,87,33,139,34v65,1,114,-36,111,-98","w":921},"\u00b9":{"d":"158,-668r0,-84r155,0r0,-634r-181,106r0,-94r216,-129r92,0r0,751r156,0r0,84r-438,0","w":738},"\u00ba":{"d":"433,-813v63,0,109,-27,143,-79v63,-94,63,-378,0,-472v-35,-52,-80,-80,-143,-80v-63,0,-108,28,-143,81v-63,96,-63,375,0,470v34,52,80,80,143,80xm781,-1128v0,224,-132,391,-348,391v-216,0,-348,-168,-348,-391v0,-224,132,-392,348,-392v215,0,348,169,348,392xm123,-639r619,0r0,104r-619,0r0,-104","w":866},"\u00bb":{"d":"564,-1059r422,418r0,82r-422,418r0,-115r268,-344r-268,-344r0,-115xm174,-1059r422,418r0,82r-422,418r0,-115r266,-344r-266,-344r0,-115","w":1127},"\u00bc":{"d":"158,-668r0,-84r155,0r0,-634r-181,106r0,-94r216,-129r92,0r0,751r156,0r0,84r-438,0xm1453,-303r0,-407r-277,407r277,0xm1712,0r-391,0r0,-84r132,0r0,-137r-358,0r0,-84r360,-530r127,0r0,532r147,0r0,82r-147,0r0,137r130,0r0,84xm1249,-1520r135,0r-847,1549r-136,0","w":1786},"\u00bd":{"d":"1366,-778v-101,1,-153,58,-166,150r-63,0r0,-158v69,-38,151,-64,248,-66v153,-3,279,91,278,236v0,81,-58,180,-175,296r-231,232r346,0r0,-108r67,0r0,196r-542,0r0,-75r257,-254v51,-51,89,-97,111,-138v22,-41,33,-83,33,-127v2,-107,-60,-184,-163,-184xm158,-668r0,-84r155,0r0,-634r-181,106r0,-94r216,-129r92,0r0,751r156,0r0,84r-438,0xm1249,-1520r135,0r-847,1549r-136,0","w":1786},"\u00be":{"d":"334,-1446v-97,0,-150,41,-158,129r-64,0r0,-151v74,-29,151,-51,240,-52v153,-1,258,65,258,207v0,108,-80,170,-181,189v133,19,216,92,216,235v0,165,-125,237,-304,236v-98,-1,-178,-22,-251,-56r0,-170r63,1v7,100,67,151,175,151v111,0,177,-60,177,-170v0,-123,-61,-188,-183,-188r-48,0r0,-74v122,5,201,-35,201,-148v0,-89,-51,-140,-141,-139xm1453,-303r0,-407r-277,407r277,0xm1712,0r-391,0r0,-84r132,0r0,-137r-358,0r0,-84r360,-530r127,0r0,532r147,0r0,82r-147,0r0,137r130,0r0,84xm1249,-1520r135,0r-847,1549r-136,0","w":1786},"\u00bf":{"d":"580,-1522v70,0,120,62,120,133v0,71,-51,134,-120,134v-66,0,-119,-65,-119,-134v0,-69,53,-133,119,-133xm561,-72v151,0,231,-108,252,-254r86,0r0,260v-106,52,-210,91,-343,93v-255,4,-433,-149,-431,-396v0,-124,33,-225,100,-304v67,-79,167,-135,301,-169r0,-254r110,0r0,328v-194,52,-318,172,-321,401v-2,170,86,295,246,295","w":988},"\u00c0":{"d":"369,-541r493,0r-246,-710xm-11,0r0,-106r118,0r479,-1387r151,0r480,1387r132,0r0,106r-489,0r0,-106r150,0r-113,-328r-565,0r-112,328r147,0r0,106r-378,0xm602,-1899r165,264r-105,0r-236,-264r176,0","w":1331},"\u00c1":{"d":"369,-541r493,0r-246,-710xm-11,0r0,-106r118,0r479,-1387r151,0r480,1387r132,0r0,106r-489,0r0,-106r150,0r-113,-328r-565,0r-112,328r147,0r0,106r-378,0xm722,-1899r177,0r-236,264r-105,0","w":1331},"\u00c2":{"d":"369,-541r493,0r-246,-710xm-11,0r0,-106r118,0r479,-1387r151,0r480,1387r132,0r0,106r-489,0r0,-106r150,0r-113,-328r-565,0r-112,328r147,0r0,106r-378,0xm586,-1899r158,0r208,264r-104,0r-183,-161r-183,161r-104,0","w":1331},"\u00c3":{"d":"369,-541r493,0r-246,-710xm-11,0r0,-106r118,0r479,-1387r151,0r480,1387r132,0r0,106r-489,0r0,-106r150,0r-113,-328r-565,0r-112,328r147,0r0,106r-378,0xm962,-1886v-2,129,-57,216,-179,219v-74,2,-147,-69,-209,-96v-66,-29,-118,30,-119,96r-87,-1v-2,-141,88,-251,230,-209v43,13,113,67,162,86v69,27,118,-25,115,-95r87,0","w":1331},"\u00c4":{"d":"369,-541r493,0r-246,-710xm-11,0r0,-106r118,0r479,-1387r151,0r480,1387r132,0r0,106r-489,0r0,-106r150,0r-113,-328r-565,0r-112,328r147,0r0,106r-378,0xm385,-1768v0,-58,48,-116,105,-116v57,0,105,58,105,116v0,63,-44,117,-105,117v-60,0,-105,-55,-105,-117xm735,-1768v0,-58,49,-116,106,-116v56,0,104,59,104,116v0,62,-44,117,-104,117v-61,0,-106,-55,-106,-117","w":1331},"\u00c5":{"d":"662,-1475v76,0,136,-72,136,-151v0,-79,-60,-152,-136,-152v-79,0,-136,71,-136,152v0,80,58,151,136,151xm369,-541r491,0r-244,-710xm909,-1626v-2,115,-55,200,-135,242r443,1278r132,0r0,106r-489,0r0,-106r150,0r-113,-328r-565,0r-112,328r147,0r0,106r-378,0r0,-106r118,0r440,-1278v-81,-46,-130,-123,-132,-242v-3,-143,109,-275,247,-275v137,0,250,133,247,275","w":1331},"\u00c6":{"d":"383,-541r441,0r0,-845r-90,0xm652,0r0,-106r172,0r0,-328r-485,0r-137,328r148,0r0,106r-382,0r0,-106r118,0r531,-1280r-193,0r0,-107r1310,0r0,332r-110,0r0,-209r-620,0r0,500r443,0r0,-187r111,0r0,496r-111,0r0,-187r-443,0r0,625r635,0r0,-209r111,0r0,332r-1098,0","w":1845},"\u00c7":{"d":"811,176v-4,-66,-42,-117,-79,-176r87,0v39,43,67,83,86,120v19,37,28,72,28,105v-1,116,-90,171,-214,170v-58,0,-109,-10,-158,-24r0,-131v41,19,87,33,139,34v65,1,114,-36,111,-98xm746,-78v222,0,337,-126,388,-317r166,0v-73,258,-244,424,-554,424v-199,0,-341,-82,-444,-197v-126,-141,-198,-321,-198,-577v0,-232,60,-419,180,-561v120,-142,280,-214,477,-214v192,0,344,58,502,129r0,344r-102,0v-42,-235,-154,-366,-415,-366v-143,0,-252,56,-326,169v-74,113,-110,280,-110,499v0,219,36,384,110,497v74,113,183,170,326,170","w":1410},"\u00c8":{"d":"102,0r0,-106r171,0r0,-1280r-171,0r0,-107r1082,0r0,332r-111,0r0,-209r-618,0r0,500r441,0r0,-187r110,0r0,496r-110,0r0,-187r-441,0r0,625r632,0r0,-209r111,0r0,332r-1096,0xm610,-1899r165,264r-105,0r-236,-264r176,0","w":1345},"\u00c9":{"d":"102,0r0,-106r171,0r0,-1280r-171,0r0,-107r1082,0r0,332r-111,0r0,-209r-618,0r0,500r441,0r0,-187r110,0r0,496r-110,0r0,-187r-441,0r0,625r632,0r0,-209r111,0r0,332r-1096,0xm730,-1899r177,0r-236,264r-105,0","w":1345},"\u00ca":{"d":"102,0r0,-106r171,0r0,-1280r-171,0r0,-107r1082,0r0,332r-111,0r0,-209r-618,0r0,500r441,0r0,-187r110,0r0,496r-110,0r0,-187r-441,0r0,625r632,0r0,-209r111,0r0,332r-1096,0xm594,-1899r158,0r208,264r-104,0r-183,-161r-183,161r-104,0","w":1345},"\u00cb":{"d":"102,0r0,-106r171,0r0,-1280r-171,0r0,-107r1082,0r0,332r-111,0r0,-209r-618,0r0,500r441,0r0,-187r110,0r0,496r-110,0r0,-187r-441,0r0,625r632,0r0,-209r111,0r0,332r-1096,0xm393,-1768v0,-58,48,-116,105,-116v57,0,105,58,105,116v0,63,-44,117,-105,117v-60,0,-105,-55,-105,-117xm743,-1768v0,-58,49,-116,106,-116v56,0,104,59,104,116v0,62,-44,117,-104,117v-61,0,-106,-55,-106,-117","w":1345},"\u00cc":{"d":"455,-106r171,0r0,106r-524,0r0,-106r171,0r0,-1280r-171,0r0,-107r524,0r0,107r-171,0r0,1280xm302,-1899r165,264r-105,0r-236,-264r176,0","w":728},"\u00cd":{"d":"455,-106r171,0r0,106r-524,0r0,-106r171,0r0,-1280r-171,0r0,-107r524,0r0,107r-171,0r0,1280xm422,-1899r177,0r-236,264r-105,0","w":728},"\u00ce":{"d":"455,-106r171,0r0,106r-524,0r0,-106r171,0r0,-1280r-171,0r0,-107r524,0r0,107r-171,0r0,1280xm286,-1899r158,0r208,264r-104,0r-183,-161r-183,161r-104,0","w":728},"\u00cf":{"d":"455,-106r171,0r0,106r-524,0r0,-106r171,0r0,-1280r-171,0r0,-107r524,0r0,107r-171,0r0,1280xm85,-1768v0,-58,48,-116,105,-116v57,0,105,58,105,116v0,63,-44,117,-105,117v-60,0,-105,-55,-105,-117xm435,-1768v0,-58,49,-116,106,-116v56,0,104,59,104,116v0,62,-44,117,-104,117v-61,0,-106,-55,-106,-117","w":728},"\u00d0":{"d":"1174,-748v0,-390,-172,-636,-542,-638r-169,0r0,542r302,0r0,125r-302,0r0,613r169,0v368,-1,542,-254,542,-642xm1381,-748v0,463,-275,748,-736,748r-534,0r0,-106r171,0r0,-613r-180,0r0,-125r180,0r0,-542r-171,0r0,-107r534,0v462,-4,736,282,736,745","w":1487},"\u00d1":{"d":"90,0r0,-106r181,0r0,-1280r-181,0r0,-107r345,0r805,1178r0,-1071r-180,0r0,-107r472,0r0,107r-181,0r0,1415r-109,0r-860,-1258r0,1123r180,0r0,106r-472,0xm1104,-1886v-2,129,-57,216,-179,219v-74,2,-147,-69,-209,-96v-66,-29,-118,30,-119,96r-87,-1v-2,-141,88,-251,230,-209v43,13,113,67,162,86v69,27,118,-25,115,-95r87,0","w":1612},"\u00d2":{"d":"756,-78v147,0,258,-56,333,-168v75,-112,113,-279,113,-499v0,-221,-38,-387,-113,-499v-75,-112,-186,-169,-333,-169v-147,0,-259,57,-334,169v-75,112,-112,278,-112,499v0,220,37,387,112,499v75,112,187,168,334,168xm1007,-20v-147,66,-355,64,-503,-1v-163,-72,-291,-228,-351,-401v-64,-183,-64,-463,0,-646v60,-173,189,-332,351,-402v75,-33,159,-50,252,-50v195,0,352,71,472,213v120,142,180,329,180,562v-1,254,-72,438,-199,577v-59,65,-127,115,-202,148xm693,-1899r165,264r-105,0r-236,-264r176,0","w":1511},"\u00d3":{"d":"756,-78v147,0,258,-56,333,-168v75,-112,113,-279,113,-499v0,-221,-38,-387,-113,-499v-75,-112,-186,-169,-333,-169v-147,0,-259,57,-334,169v-75,112,-112,278,-112,499v0,220,37,387,112,499v75,112,187,168,334,168xm1007,-20v-147,66,-355,64,-503,-1v-163,-72,-291,-228,-351,-401v-64,-183,-64,-463,0,-646v60,-173,189,-332,351,-402v75,-33,159,-50,252,-50v195,0,352,71,472,213v120,142,180,329,180,562v-1,254,-72,438,-199,577v-59,65,-127,115,-202,148xm813,-1899r177,0r-236,264r-105,0","w":1511},"\u00d4":{"d":"756,-78v147,0,258,-56,333,-168v75,-112,113,-279,113,-499v0,-221,-38,-387,-113,-499v-75,-112,-186,-169,-333,-169v-147,0,-259,57,-334,169v-75,112,-112,278,-112,499v0,220,37,387,112,499v75,112,187,168,334,168xm1007,-20v-147,66,-355,64,-503,-1v-163,-72,-291,-228,-351,-401v-64,-183,-64,-463,0,-646v60,-173,189,-332,351,-402v75,-33,159,-50,252,-50v195,0,352,71,472,213v120,142,180,329,180,562v-1,254,-72,438,-199,577v-59,65,-127,115,-202,148xm677,-1899r158,0r208,264r-104,0r-183,-161r-183,161r-104,0","w":1511},"\u00d5":{"d":"756,-78v147,0,258,-56,333,-168v75,-112,113,-279,113,-499v0,-221,-38,-387,-113,-499v-75,-112,-186,-169,-333,-169v-147,0,-259,57,-334,169v-75,112,-112,278,-112,499v0,220,37,387,112,499v75,112,187,168,334,168xm1007,-20v-147,66,-355,64,-503,-1v-163,-72,-291,-228,-351,-401v-64,-183,-64,-463,0,-646v60,-173,189,-332,351,-402v75,-33,159,-50,252,-50v195,0,352,71,472,213v120,142,180,329,180,562v-1,254,-72,438,-199,577v-59,65,-127,115,-202,148xm1053,-1886v-2,129,-57,216,-179,219v-75,2,-147,-69,-210,-96v-66,-28,-118,29,-118,96r-87,-1v-2,-141,88,-251,231,-209v56,15,123,89,197,93v52,3,80,-46,79,-102r87,0","w":1511},"\u00d6":{"d":"756,-78v147,0,258,-56,333,-168v75,-112,113,-279,113,-499v0,-221,-38,-387,-113,-499v-75,-112,-186,-169,-333,-169v-147,0,-259,57,-334,169v-75,112,-112,278,-112,499v0,220,37,387,112,499v75,112,187,168,334,168xm1007,-20v-147,66,-355,64,-503,-1v-163,-72,-291,-228,-351,-401v-64,-183,-64,-463,0,-646v60,-173,189,-332,351,-402v75,-33,159,-50,252,-50v195,0,352,71,472,213v120,142,180,329,180,562v-1,254,-72,438,-199,577v-59,65,-127,115,-202,148xm476,-1768v0,-58,48,-116,105,-116v57,0,105,58,105,116v0,63,-44,117,-105,117v-61,0,-105,-55,-105,-117xm826,-1768v0,-58,50,-116,106,-116v56,0,104,59,104,116v0,62,-44,117,-104,117v-62,0,-106,-54,-106,-117","w":1511},"\u00d7":{"d":"1291,-1104r-417,463r417,461r-104,112r-415,-460r-415,460r-102,-112r414,-461r-414,-463r102,-113r415,461r415,-461","w":1544},"\u00d8":{"d":"1093,-1239v-72,-107,-171,-174,-337,-174v-147,0,-259,57,-334,169v-75,112,-112,278,-112,499v0,156,17,282,59,393xm417,-256v69,109,174,178,339,178v147,0,258,-56,333,-168v75,-112,113,-279,113,-499v0,-154,-19,-285,-61,-396xm756,-1520v188,0,326,68,429,168r161,-198r72,71r-166,203v99,137,155,305,156,531v0,230,-60,416,-180,559v-120,143,-277,215,-472,215v-192,0,-323,-70,-432,-172r-164,200r-70,-69r168,-207v-100,-134,-153,-301,-154,-526v0,-231,60,-418,180,-561v120,-143,278,-214,472,-214","w":1511},"\u00d9":{"d":"258,-1386r-172,0r0,-107r526,0r0,107r-172,0r0,772v0,191,28,324,84,399v56,75,153,113,290,113v138,0,235,-38,291,-113v56,-75,84,-208,84,-399r0,-772r-172,0r0,-107r454,0r0,107r-171,0r0,792v0,227,-39,388,-118,482v-79,94,-212,141,-401,141v-188,0,-323,-47,-403,-142v-80,-95,-120,-255,-120,-481r0,-792xm750,-1899r165,264r-105,0r-236,-264r176,0","w":1553},"\u00da":{"d":"258,-1386r-172,0r0,-107r526,0r0,107r-172,0r0,772v0,191,28,324,84,399v56,75,153,113,290,113v138,0,235,-38,291,-113v56,-75,84,-208,84,-399r0,-772r-172,0r0,-107r454,0r0,107r-171,0r0,792v0,227,-39,388,-118,482v-79,94,-212,141,-401,141v-188,0,-323,-47,-403,-142v-80,-95,-120,-255,-120,-481r0,-792xm870,-1899r177,0r-236,264r-105,0","w":1553},"\u00db":{"d":"258,-1386r-172,0r0,-107r526,0r0,107r-172,0r0,772v0,191,28,324,84,399v56,75,153,113,290,113v138,0,235,-38,291,-113v56,-75,84,-208,84,-399r0,-772r-172,0r0,-107r454,0r0,107r-171,0r0,792v0,227,-39,388,-118,482v-79,94,-212,141,-401,141v-188,0,-323,-47,-403,-142v-80,-95,-120,-255,-120,-481r0,-792xm734,-1899r158,0r208,264r-104,0r-183,-161r-183,161r-104,0","w":1553},"\u00dc":{"d":"258,-1386r-172,0r0,-107r526,0r0,107r-172,0r0,772v0,191,28,324,84,399v56,75,153,113,290,113v138,0,235,-38,291,-113v56,-75,84,-208,84,-399r0,-772r-172,0r0,-107r454,0r0,107r-171,0r0,792v0,227,-39,388,-118,482v-79,94,-212,141,-401,141v-188,0,-323,-47,-403,-142v-80,-95,-120,-255,-120,-481r0,-792xm533,-1768v0,-58,48,-116,105,-116v57,0,105,58,105,116v0,63,-44,117,-105,117v-60,0,-105,-55,-105,-117xm883,-1768v0,-58,49,-116,106,-116v56,0,104,59,104,116v0,62,-44,117,-104,117v-61,0,-106,-55,-106,-117","w":1553},"\u00dd":{"d":"348,0r0,-106r172,0r0,-537r-415,-743r-126,0r0,-107r500,0r0,107r-157,0r336,604r336,-604r-152,0r0,-107r391,0r0,107r-127,0r-404,724r0,556r172,0r0,106r-526,0xm665,-1899r177,0r-236,264r-105,0","w":1216},"\u00de":{"d":"968,-748v0,-193,-89,-313,-275,-313r-238,0r0,627r238,0v186,0,275,-120,275,-314xm1174,-748v0,259,-175,422,-437,422r-282,0r0,220r208,0r0,106r-561,0r0,-106r171,0r0,-1280r-171,0r0,-107r561,0r0,107r-208,0r0,219r282,0v262,-4,437,162,437,419","w":1245},"\u00df":{"d":"556,-899v2,-179,124,-283,290,-311v-7,-149,-89,-248,-239,-248v-168,0,-229,92,-229,268r0,1190r-325,0r0,-106r159,0r0,-1080v-1,-239,151,-372,395,-370v268,2,390,152,403,419v-165,-6,-301,57,-301,201v0,96,43,125,115,176v96,67,230,167,272,239v34,58,54,123,54,199v0,208,-162,354,-374,351v-116,-2,-215,-30,-299,-72r0,-233r98,0v4,128,68,205,195,206v134,1,217,-90,215,-225v0,-56,-14,-103,-36,-143v-30,-54,-147,-135,-219,-185v-63,-43,-107,-86,-134,-129v-27,-43,-40,-92,-40,-147","w":1231},"\u00e0":{"d":"381,-1636r234,376r-105,0r-306,-376r177,0xm503,-78v141,0,231,-111,231,-256r0,-225r-214,0v-164,0,-243,77,-244,240v-1,143,87,241,227,241xm492,-1092v269,-2,407,155,407,428r0,558r148,0r0,106r-313,0r0,-115v-67,90,-151,142,-296,144v-210,2,-347,-138,-346,-348v2,-231,165,-350,409,-347r233,0r0,-73v1,-159,-94,-255,-252,-254v-139,0,-212,73,-231,198r-85,0r0,-215v98,-47,200,-81,326,-82","w":1098},"\u00e1":{"d":"637,-1638r179,0r-306,376r-105,0xm503,-78v141,0,231,-111,231,-256r0,-225r-214,0v-164,0,-243,77,-244,240v-1,143,87,241,227,241xm492,-1092v269,-2,407,155,407,428r0,558r148,0r0,106r-313,0r0,-115v-67,90,-151,142,-296,144v-210,2,-347,-138,-346,-348v2,-231,165,-350,409,-347r233,0r0,-73v1,-159,-94,-255,-252,-254v-139,0,-212,73,-231,198r-85,0r0,-215v98,-47,200,-81,326,-82","w":1098},"\u00e2":{"d":"436,-1638r151,0r212,376r-104,0r-183,-260r-183,260r-104,0xm503,-78v141,0,231,-111,231,-256r0,-225r-214,0v-164,0,-243,77,-244,240v-1,143,87,241,227,241xm492,-1092v269,-2,407,155,407,428r0,558r148,0r0,106r-313,0r0,-115v-67,90,-151,142,-296,144v-210,2,-347,-138,-346,-348v2,-231,165,-350,409,-347r233,0r0,-73v1,-159,-94,-255,-252,-254v-139,0,-212,73,-231,198r-85,0r0,-215v98,-47,200,-81,326,-82","w":1098},"\u00e3":{"d":"633,-1309v-109,0,-144,-107,-215,-147v-36,-20,-72,-4,-90,32v-14,26,-24,64,-27,115r-86,0v1,-90,18,-159,47,-209v39,-66,117,-92,192,-59v40,18,81,69,113,102v23,25,34,39,70,39v26,0,47,-13,61,-40v14,-27,22,-65,24,-115r87,0v-1,90,-17,160,-48,209v-31,49,-73,73,-128,73xm503,-78v141,0,231,-111,231,-256r0,-225r-214,0v-164,0,-243,77,-244,240v-1,143,87,241,227,241xm492,-1092v269,-2,407,155,407,428r0,558r148,0r0,106r-313,0r0,-115v-67,90,-151,142,-296,144v-210,2,-347,-138,-346,-348v2,-231,165,-350,409,-347r233,0r0,-73v1,-159,-94,-255,-252,-254v-139,0,-212,73,-231,198r-85,0r0,-215v98,-47,200,-81,326,-82","w":1098},"\u00e4":{"d":"232,-1452v0,-60,47,-117,104,-117v58,0,106,57,106,117v0,64,-44,117,-106,117v-61,0,-104,-53,-104,-117xm582,-1452v0,-60,47,-117,105,-117v58,0,105,57,105,117v0,64,-44,117,-105,117v-62,0,-105,-53,-105,-117xm503,-78v141,0,231,-111,231,-256r0,-225r-214,0v-164,0,-243,77,-244,240v-1,143,87,241,227,241xm492,-1092v269,-2,407,155,407,428r0,558r148,0r0,106r-313,0r0,-115v-67,90,-151,142,-296,144v-210,2,-347,-138,-346,-348v2,-231,165,-350,409,-347r233,0r0,-73v1,-159,-94,-255,-252,-254v-139,0,-212,73,-231,198r-85,0r0,-215v98,-47,200,-81,326,-82","w":1098},"\u00e5":{"d":"503,-78v141,0,231,-111,231,-256r0,-225r-214,0v-164,0,-243,77,-244,240v-1,143,87,241,227,241xm492,-1092v269,-2,407,155,407,428r0,558r148,0r0,106r-313,0r0,-115v-67,90,-151,142,-296,144v-210,2,-347,-138,-346,-348v2,-231,165,-350,409,-347r233,0r0,-73v1,-159,-94,-255,-252,-254v-139,0,-212,73,-231,198r-85,0r0,-215v98,-47,200,-81,326,-82xm512,-1798v137,0,246,132,246,274v0,144,-108,275,-246,275v-140,0,-247,-131,-247,-275v0,-144,108,-274,247,-274xm512,-1372v77,0,137,-72,137,-152v0,-79,-60,-151,-137,-151v-79,0,-137,70,-137,151v0,81,58,152,137,152","w":1098},"\u00e6":{"d":"503,-78v141,0,231,-111,231,-256r0,-225r-214,0v-164,0,-243,77,-244,240v-1,143,87,241,227,241xm1198,29v-168,0,-284,-75,-366,-179v-89,107,-194,177,-369,179v-230,3,-372,-123,-371,-348v0,-231,166,-350,409,-347r233,0r0,-73v2,-157,-91,-255,-245,-254v-144,0,-219,70,-238,198r-85,0r0,-215v98,-47,200,-82,326,-82v175,0,287,60,350,177v79,-103,182,-177,345,-177v145,0,256,50,333,149v77,99,117,243,120,431r-713,0v-1,145,24,258,73,332v48,73,120,110,215,110v164,0,243,-104,276,-252r133,0v-48,217,-177,351,-426,351xm1445,-618v-3,-124,-27,-217,-70,-280v-43,-63,-106,-95,-188,-95v-76,0,-137,32,-181,95v-44,63,-70,157,-79,280r518,0","w":1732},"\u00e7":{"d":"602,176v-4,-66,-42,-117,-79,-176r87,0v39,43,67,83,86,120v19,37,28,72,28,105v-1,116,-90,171,-214,170v-58,0,-109,-10,-158,-24r0,-131v41,19,87,33,139,34v65,1,114,-36,111,-98xm556,-70v160,0,231,-100,258,-249r134,0v-42,208,-162,348,-394,348v-139,0,-250,-51,-335,-153v-85,-102,-127,-239,-127,-408v0,-170,42,-306,127,-408v85,-102,196,-152,335,-152v144,0,257,39,362,95r0,272r-96,0v-24,-170,-88,-268,-264,-268v-89,0,-156,38,-202,115v-46,77,-69,193,-69,346v0,153,23,269,68,346v45,77,113,116,203,116","w":1032},"\u00e8":{"d":"415,-1636r234,376r-105,0r-306,-376r177,0xm983,-322v-49,217,-176,351,-427,351v-140,0,-252,-51,-337,-153v-85,-102,-127,-239,-127,-408v0,-168,42,-303,125,-406v83,-103,193,-154,328,-154v145,0,256,49,333,148v77,99,118,243,121,432r-714,0v-1,145,23,258,73,332v49,73,120,110,215,110v164,0,244,-104,277,-252r133,0xm804,-618v-4,-124,-28,-217,-71,-280v-43,-63,-106,-95,-188,-95v-76,0,-135,32,-179,95v-44,63,-71,157,-81,280r519,0","w":1090},"\u00e9":{"d":"671,-1638r179,0r-306,376r-105,0xm983,-322v-49,217,-176,351,-427,351v-140,0,-252,-51,-337,-153v-85,-102,-127,-239,-127,-408v0,-168,42,-303,125,-406v83,-103,193,-154,328,-154v145,0,256,49,333,148v77,99,118,243,121,432r-714,0v-1,145,23,258,73,332v49,73,120,110,215,110v164,0,244,-104,277,-252r133,0xm804,-618v-4,-124,-28,-217,-71,-280v-43,-63,-106,-95,-188,-95v-76,0,-135,32,-179,95v-44,63,-71,157,-81,280r519,0","w":1090},"\u00ea":{"d":"470,-1638r151,0r212,376r-104,0r-183,-260r-183,260r-104,0xm983,-322v-49,217,-176,351,-427,351v-140,0,-252,-51,-337,-153v-85,-102,-127,-239,-127,-408v0,-168,42,-303,125,-406v83,-103,193,-154,328,-154v145,0,256,49,333,148v77,99,118,243,121,432r-714,0v-1,145,23,258,73,332v49,73,120,110,215,110v164,0,244,-104,277,-252r133,0xm804,-618v-4,-124,-28,-217,-71,-280v-43,-63,-106,-95,-188,-95v-76,0,-135,32,-179,95v-44,63,-71,157,-81,280r519,0","w":1090},"\u00eb":{"d":"266,-1452v0,-60,47,-117,104,-117v58,0,106,57,106,117v0,64,-44,117,-106,117v-61,0,-104,-53,-104,-117xm616,-1452v0,-60,47,-117,105,-117v58,0,105,57,105,117v0,64,-44,117,-105,117v-62,0,-105,-53,-105,-117xm983,-322v-49,217,-176,351,-427,351v-140,0,-252,-51,-337,-153v-85,-102,-127,-239,-127,-408v0,-168,42,-303,125,-406v83,-103,193,-154,328,-154v145,0,256,49,333,148v77,99,118,243,121,432r-714,0v-1,145,23,258,73,332v49,73,120,110,215,110v164,0,244,-104,277,-252r133,0xm804,-618v-4,-124,-28,-217,-71,-280v-43,-63,-106,-95,-188,-95v-76,0,-135,32,-179,95v-44,63,-71,157,-81,280r519,0","w":1090},"\u00ec":{"d":"164,-1636r234,376r-105,0r-306,-376r177,0xm391,-106r156,0r0,106r-480,0r0,-106r158,0r0,-850r-158,0r0,-107r324,0r0,957","w":589},"\u00ed":{"d":"420,-1638r179,0r-306,376r-105,0xm391,-106r156,0r0,106r-480,0r0,-106r158,0r0,-850r-158,0r0,-107r324,0r0,957","w":589},"\u00ee":{"d":"219,-1638r151,0r212,376r-104,0r-183,-260r-183,260r-104,0xm391,-106r156,0r0,106r-480,0r0,-106r158,0r0,-850r-158,0r0,-107r324,0r0,957","w":589},"\u00ef":{"d":"15,-1452v0,-60,47,-117,104,-117v58,0,106,57,106,117v0,64,-44,117,-106,117v-61,0,-104,-53,-104,-117xm365,-1452v0,-60,47,-117,105,-117v58,0,105,57,105,117v0,64,-44,117,-105,117v-62,0,-105,-53,-105,-117xm391,-106r156,0r0,106r-480,0r0,-106r158,0r0,-850r-158,0r0,-107r324,0r0,957","w":589},"\u00f0":{"d":"824,-512v0,-160,-33,-301,-85,-416v-50,-11,-94,-18,-149,-18v-104,0,-180,36,-230,107v-50,71,-75,182,-75,331v0,140,24,248,71,324v47,76,113,114,198,114v87,0,153,-38,200,-114v47,-76,70,-186,70,-328xm241,-1556v150,37,272,101,378,188r290,-150r33,78r-258,133v110,111,192,233,249,363v113,255,121,627,-43,820v-86,101,-196,153,-336,153v-286,2,-462,-245,-462,-547v0,-296,177,-528,459,-526v54,0,93,5,146,14v-31,-80,-77,-149,-131,-215r-290,149r-33,-78r264,-135v-72,-76,-166,-131,-282,-161","w":1109},"\u00f1":{"d":"714,-1309v-109,0,-143,-107,-214,-147v-36,-20,-74,-4,-92,32v-14,26,-23,64,-26,115r-86,0v1,-90,19,-159,48,-209v39,-66,115,-92,190,-59v40,18,82,69,114,102v23,25,34,39,70,39v26,0,46,-13,60,-40v14,-27,23,-65,25,-115r87,0v-1,90,-17,160,-48,209v-31,49,-73,73,-128,73xm391,-874v52,-124,136,-218,289,-218v106,0,184,34,234,101v50,67,74,172,74,315r0,570r148,0r0,106r-457,0r0,-106r143,0r0,-512v0,-130,-15,-220,-44,-268v-29,-48,-79,-72,-152,-72v-77,0,-135,32,-175,94v-40,62,-60,153,-60,272r0,486r144,0r0,106r-459,0r0,-106r149,0r0,-850r-158,0r0,-107r324,0r0,189","w":1187},"\u00f2":{"d":"424,-1636r234,376r-105,0r-306,-376r177,0xm554,-70v89,0,157,-39,202,-117v45,-78,68,-193,68,-345v0,-152,-23,-266,-68,-344v-45,-78,-113,-117,-202,-117v-89,0,-156,39,-201,117v-45,78,-68,192,-68,344v0,152,23,267,69,345v46,78,112,117,200,117xm554,29v-139,0,-250,-51,-335,-153v-85,-102,-127,-239,-127,-408v0,-169,42,-305,126,-407v84,-102,197,-153,336,-153v140,0,252,51,336,153v84,102,127,238,127,407v0,169,-43,306,-127,408v-84,102,-196,153,-336,153","w":1109},"\u00f3":{"d":"680,-1638r179,0r-306,376r-105,0xm554,-70v89,0,157,-39,202,-117v45,-78,68,-193,68,-345v0,-152,-23,-266,-68,-344v-45,-78,-113,-117,-202,-117v-89,0,-156,39,-201,117v-45,78,-68,192,-68,344v0,152,23,267,69,345v46,78,112,117,200,117xm554,29v-139,0,-250,-51,-335,-153v-85,-102,-127,-239,-127,-408v0,-169,42,-305,126,-407v84,-102,197,-153,336,-153v140,0,252,51,336,153v84,102,127,238,127,407v0,169,-43,306,-127,408v-84,102,-196,153,-336,153","w":1109},"\u00f4":{"d":"479,-1638r151,0r212,376r-104,0r-183,-260r-183,260r-104,0xm554,-70v89,0,157,-39,202,-117v45,-78,68,-193,68,-345v0,-152,-23,-266,-68,-344v-45,-78,-113,-117,-202,-117v-89,0,-156,39,-201,117v-45,78,-68,192,-68,344v0,152,23,267,69,345v46,78,112,117,200,117xm554,29v-139,0,-250,-51,-335,-153v-85,-102,-127,-239,-127,-408v0,-169,42,-305,126,-407v84,-102,197,-153,336,-153v140,0,252,51,336,153v84,102,127,238,127,407v0,169,-43,306,-127,408v-84,102,-196,153,-336,153","w":1109},"\u00f5":{"d":"676,-1309v-109,0,-143,-107,-214,-147v-36,-20,-74,-4,-92,32v-14,26,-23,64,-26,115r-86,0v1,-90,19,-159,48,-209v39,-66,115,-92,190,-59v40,18,82,69,114,102v23,25,34,39,70,39v26,0,46,-13,60,-40v14,-27,23,-65,25,-115r87,0v-1,90,-17,160,-48,209v-31,49,-73,73,-128,73xm554,-70v89,0,157,-39,202,-117v45,-78,68,-193,68,-345v0,-152,-23,-266,-68,-344v-45,-78,-113,-117,-202,-117v-89,0,-156,39,-201,117v-45,78,-68,192,-68,344v0,152,23,267,69,345v46,78,112,117,200,117xm554,29v-139,0,-250,-51,-335,-153v-85,-102,-127,-239,-127,-408v0,-169,42,-305,126,-407v84,-102,197,-153,336,-153v140,0,252,51,336,153v84,102,127,238,127,407v0,169,-43,306,-127,408v-84,102,-196,153,-336,153","w":1109},"\u00f6":{"d":"275,-1452v0,-60,47,-117,104,-117v58,0,106,57,106,117v0,64,-44,117,-106,117v-61,0,-104,-53,-104,-117xm625,-1452v0,-60,47,-117,105,-117v58,0,105,57,105,117v0,64,-44,117,-105,117v-62,0,-105,-53,-105,-117xm554,-70v89,0,157,-39,202,-117v45,-78,68,-193,68,-345v0,-152,-23,-266,-68,-344v-45,-78,-113,-117,-202,-117v-89,0,-156,39,-201,117v-45,78,-68,192,-68,344v0,152,23,267,69,345v46,78,112,117,200,117xm554,29v-139,0,-250,-51,-335,-153v-85,-102,-127,-239,-127,-408v0,-169,42,-305,126,-407v84,-102,197,-153,336,-153v140,0,252,51,336,153v84,102,127,238,127,407v0,169,-43,306,-127,408v-84,102,-196,153,-336,153","w":1109},"\u00f7":{"d":"772,-879v-69,0,-120,-61,-120,-133v0,-70,53,-133,120,-133v67,0,120,64,120,133v0,70,-53,133,-120,133xm772,-139v-69,0,-120,-63,-120,-133v0,-70,53,-134,120,-134v67,0,120,64,120,134v0,69,-53,133,-120,133xm195,-723r1154,0r0,162r-1154,0r0,-162","w":1544},"\u00f8":{"d":"756,-879v-41,-69,-102,-114,-202,-114v-88,0,-154,39,-200,117v-46,78,-69,193,-69,344v0,91,9,169,26,239xm352,-190v43,72,100,120,202,120v89,0,156,-40,202,-118v46,-78,68,-193,68,-344v0,-96,-8,-175,-28,-248xm554,-1092v124,1,216,40,287,101r125,-166r68,63r-130,172v71,95,113,228,113,390v0,169,-43,306,-127,408v-84,102,-196,153,-336,153v-126,0,-216,-42,-288,-107r-129,172r-69,-63r134,-178v-69,-98,-110,-224,-110,-385v0,-169,42,-305,126,-407v84,-102,197,-153,336,-153","w":1109},"\u00f9":{"d":"395,-1636r234,376r-105,0r-306,-376r177,0xm796,-188v-52,122,-136,217,-288,217v-106,0,-184,-34,-234,-101v-50,-67,-75,-172,-75,-315r0,-569r-149,0r0,-107r315,0r0,619v0,129,14,218,43,266v29,48,80,72,153,72v77,0,135,-31,175,-94v40,-63,60,-154,60,-273r0,-483r-144,0r0,-107r310,0r0,957r157,0r0,106r-323,0r0,-188","w":1187},"\u00fa":{"d":"651,-1638r179,0r-306,376r-105,0xm796,-188v-52,122,-136,217,-288,217v-106,0,-184,-34,-234,-101v-50,-67,-75,-172,-75,-315r0,-569r-149,0r0,-107r315,0r0,619v0,129,14,218,43,266v29,48,80,72,153,72v77,0,135,-31,175,-94v40,-63,60,-154,60,-273r0,-483r-144,0r0,-107r310,0r0,957r157,0r0,106r-323,0r0,-188","w":1187},"\u00fb":{"d":"450,-1638r151,0r212,376r-104,0r-183,-260r-183,260r-104,0xm796,-188v-52,122,-136,217,-288,217v-106,0,-184,-34,-234,-101v-50,-67,-75,-172,-75,-315r0,-569r-149,0r0,-107r315,0r0,619v0,129,14,218,43,266v29,48,80,72,153,72v77,0,135,-31,175,-94v40,-63,60,-154,60,-273r0,-483r-144,0r0,-107r310,0r0,957r157,0r0,106r-323,0r0,-188","w":1187},"\u00fc":{"d":"246,-1452v0,-60,47,-117,104,-117v58,0,106,57,106,117v0,64,-44,117,-106,117v-61,0,-104,-53,-104,-117xm596,-1452v0,-60,47,-117,105,-117v58,0,105,57,105,117v0,64,-44,117,-105,117v-62,0,-105,-53,-105,-117xm796,-188v-52,122,-136,217,-288,217v-106,0,-184,-34,-234,-101v-50,-67,-75,-172,-75,-315r0,-569r-149,0r0,-107r315,0r0,619v0,129,14,218,43,266v29,48,80,72,153,72v77,0,135,-31,175,-94v40,-63,60,-154,60,-273r0,-483r-144,0r0,-107r310,0r0,957r157,0r0,106r-323,0r0,-188","w":1187},"\u00fd":{"d":"647,-1638r179,0r-306,376r-105,0xm144,221v7,83,30,125,111,127v33,0,59,-10,79,-30v50,-55,93,-211,127,-300r-357,-974r-109,0r0,-107r440,0r0,107r-153,0r269,731r269,-731r-143,0r0,-107r359,0r0,107r-107,0r-439,1196v-29,83,-63,139,-99,170v-73,64,-236,50,-332,14r0,-203r85,0","w":1041},"\u00fe":{"d":"378,-584r0,105v0,128,22,226,66,293v44,67,108,100,192,100v85,0,145,-39,192,-113v84,-133,84,-534,0,-666v-47,-73,-107,-112,-192,-112v-84,0,-148,34,-192,101v-44,67,-66,165,-66,292xm688,29v-166,0,-250,-74,-310,-195r0,485r157,0r0,107r-482,0r0,-107r159,0r0,-1769r-159,0r0,-106r325,0r0,659v60,-121,144,-195,310,-195v117,0,214,52,288,155v74,103,111,238,111,405v0,167,-37,302,-111,406v-74,104,-171,155,-288,155","w":1179},"\u00ff":{"d":"242,-1452v0,-60,47,-117,104,-117v58,0,106,57,106,117v0,64,-44,117,-106,117v-61,0,-104,-53,-104,-117xm592,-1452v0,-60,47,-117,105,-117v58,0,105,57,105,117v0,64,-44,117,-105,117v-62,0,-105,-53,-105,-117xm144,221v7,83,30,125,111,127v33,0,59,-10,79,-30v50,-55,93,-211,127,-300r-357,-974r-109,0r0,-107r440,0r0,107r-153,0r269,731r269,-731r-143,0r0,-107r359,0r0,107r-107,0r-439,1196v-29,83,-63,139,-99,170v-73,64,-236,50,-332,14r0,-203r85,0","w":1041},"\u0152":{"d":"855,-1386v-369,1,-542,249,-542,636v0,207,47,367,140,478v93,111,227,166,402,166r168,0r0,-1280r-168,0xm107,-750v0,-463,274,-743,735,-743r1091,0r0,332r-111,0r0,-209r-617,0r0,500r443,0r0,-187r109,0r0,496r-109,0r0,-187r-443,0r0,625r633,0r0,-209r110,0r0,332r-1106,0v-461,3,-735,-285,-735,-750","w":2096},"\u0153":{"d":"554,-70v89,0,157,-39,202,-117v45,-78,68,-193,68,-345v0,-152,-23,-266,-68,-344v-45,-78,-113,-117,-202,-117v-89,0,-156,39,-201,117v-45,78,-68,192,-68,344v0,152,23,267,69,345v46,78,112,117,200,117xm922,-897v76,-113,185,-195,355,-195v145,0,256,49,333,148v77,99,118,243,121,432r-714,0v-1,145,23,258,73,332v49,73,120,110,215,110v164,0,243,-104,276,-252r133,0v-48,217,-176,351,-425,351v-176,0,-291,-79,-369,-195v-74,116,-192,195,-366,195v-139,0,-250,-51,-335,-153v-85,-102,-127,-239,-127,-408v0,-169,42,-305,126,-407v84,-102,197,-153,336,-153v176,0,293,79,368,195xm1535,-618v-3,-124,-27,-217,-70,-280v-43,-63,-106,-95,-188,-95v-76,0,-136,32,-180,95v-44,63,-71,157,-80,280r518,0","w":1822},"\u0178":{"d":"348,0r0,-106r172,0r0,-537r-415,-743r-126,0r0,-107r500,0r0,107r-157,0r336,604r336,-604r-152,0r0,-107r391,0r0,107r-127,0r-404,724r0,556r172,0r0,106r-526,0xm328,-1768v0,-58,48,-116,105,-116v57,0,105,58,105,116v0,63,-44,117,-105,117v-61,0,-105,-55,-105,-117xm678,-1768v0,-58,50,-116,106,-116v56,0,104,59,104,116v0,62,-44,117,-104,117v-62,0,-106,-54,-106,-117","w":1216},"\u02c6":{"d":"385,-1638r151,0r212,376r-104,0r-183,-260r-183,260r-104,0","w":921},"\u02dc":{"d":"582,-1309v-109,0,-143,-107,-214,-147v-36,-20,-74,-4,-92,32v-14,26,-23,64,-26,115r-86,0v1,-90,19,-159,48,-209v39,-66,115,-92,190,-59v40,18,82,69,114,102v23,25,34,39,70,39v26,0,46,-13,60,-40v14,-27,23,-65,25,-115r87,0v-1,90,-17,160,-48,209v-31,49,-73,73,-128,73","w":921},"\u2013":{"d":"81,-610r760,0r0,133r-760,0r0,-133","w":921},"\u2014":{"d":"81,-610r1681,0r0,133r-1681,0r0,-133","w":1843},"\u2018":{"d":"494,-1440v-104,93,-137,223,-131,426r-175,0v3,-252,83,-391,236,-506","w":585},"\u2019":{"d":"130,-1067v107,-91,140,-223,134,-426r174,0v-4,251,-83,391,-237,506","w":585},"\u201a":{"d":"81,199v116,-93,169,-219,164,-426r177,0v-12,248,-106,394,-269,506","w":585},"\u201c":{"d":"850,-1440v-104,93,-137,223,-131,426r-175,0v3,-252,82,-391,235,-506xm494,-1440v-104,93,-137,223,-131,426r-175,0v3,-252,83,-391,236,-506","w":942},"\u201d":{"d":"130,-1067v107,-91,140,-223,134,-426r174,0v-4,251,-83,391,-237,506xm489,-1067v103,-92,136,-224,130,-426r175,0v-3,252,-83,390,-235,506","w":942},"\u201e":{"d":"81,199v116,-93,169,-219,164,-426r177,0v-12,248,-106,394,-269,506xm436,199v117,-93,170,-218,165,-426r177,0v-13,249,-105,394,-270,506","w":954},"\u2022":{"d":"544,-465v-152,0,-268,-140,-268,-297v0,-156,117,-295,269,-295v151,0,266,139,266,295v0,157,-116,297,-267,297","w":1087},"\u2026":{"d":"1535,29v-69,0,-119,-63,-119,-133v0,-70,51,-134,119,-134v67,0,120,64,120,134v0,69,-53,133,-120,133xm922,29v-70,0,-120,-62,-120,-133v0,-71,51,-134,120,-134v66,0,119,65,119,134v0,69,-53,133,-119,133xm308,29v-70,0,-120,-62,-120,-133v0,-71,51,-134,120,-134v66,0,120,65,120,134v0,69,-54,133,-120,133","w":1843},"\u2039":{"d":"564,-1059r0,115r-267,344r267,344r0,115r-422,-418r0,-82","w":737},"\u203a":{"d":"174,-1059r422,418r0,82r-422,418r0,-115r266,-344r-266,-344r0,-115","w":737},"\u20ac":{"d":"341,-745r2,102r337,0r-42,104r-288,0v14,153,45,269,94,349v49,80,115,120,196,120v69,0,127,-28,172,-84v45,-56,76,-136,92,-241r119,0v-25,137,-73,242,-142,315v-69,73,-156,109,-260,109v-113,0,-211,-51,-293,-152v-82,-101,-136,-240,-164,-416r-171,0r40,-104r122,0r-4,-102v0,-23,0,-42,1,-58r3,-47r-162,0r40,-104r131,0v28,-176,83,-314,164,-415v81,-101,179,-151,293,-151v161,0,256,57,380,131r0,342r-96,0v-12,-120,-41,-212,-87,-277v-46,-65,-105,-97,-178,-97v-81,0,-146,40,-196,119v-50,79,-81,195,-94,348r454,0r-43,104r-416,0"},"\u2122":{"d":"1006,-1493r157,270r163,-270r197,0r0,66r-78,0r0,446r78,0r0,66r-257,0r0,-66r78,0r0,-426r-188,311r-39,0r-179,-311r0,426r75,0r0,66r-217,0r0,-66r78,0r0,-446r-78,0r0,-66r210,0xm218,-1493r501,0r0,170r-61,0r0,-104r-138,0r0,446r78,0r0,66r-259,0r0,-66r78,0r0,-446r-141,0r0,104r-58,0r0,-170","w":1843}}});
