/*!
 * The following copyright notice may not be removed under any circumstances.
 * 
 * Copyright:
 * Copyright (c) 2003 by Bitstream, Inc. All Rights Reserved.
 * DejaVu changes are in public domain
 * 
 * 
 * Manufacturer:
 * DejaVu fonts team
 * 
 * Vendor URL:
 * http://dejavu.sourceforge.net
 * 
 * License information:
 * http://dejavu.sourceforge.net/wiki/index.php/License
 */
Cufon.registerFont({"w":1172,"face":{"font-family":"DejaVu Serif Condensed","font-weight":400,"font-style":"italic","font-stretch":"semi-condensed","units-per-em":"2048","panose-1":"2 6 6 6 5 3 5 11 2 4","ascent":"1556","descent":"-492","x-height":"29","bbox":"-337 -1901 2064 483","underline-thickness":"90","underline-position":"-85","slope":"-11","unicode-range":"U+0020-U+2122"},"glyphs":{" ":{"w":585},"!":{"d":"158,-10v-60,-94,24,-228,126,-228v67,0,109,63,97,134v-11,65,-73,133,-143,133v-35,0,-63,-13,-80,-39xm388,-1493r232,0r-205,821r-44,252r-111,0r45,-252","w":740},"\"":{"d":"324,-1493r0,555r-143,0r0,-555r143,0xm667,-1493r0,555r-143,0r0,-555r143,0","w":847},"#":{"d":"938,-901r-254,0r-76,334r257,0xm811,-1470r-92,415r254,0r93,-415r154,0r-94,415r277,0r0,154r-312,0r-74,334r283,0r0,153r-317,0r-93,414r-155,0r95,-414r-255,0r-93,414r-154,0r92,-414r-278,0r0,-153r313,0r74,-334r-284,0r0,-154r319,0r94,-415r153,0","w":1544},"$":{"d":"523,-68v137,-13,227,-88,247,-215v22,-135,-58,-202,-168,-237xm629,-1187v-125,9,-213,84,-230,200v-19,131,51,181,157,219xm737,-1288v126,12,230,46,322,98r-46,262r-98,0v12,-154,-57,-248,-196,-259r-79,452v139,45,234,95,283,153v49,58,65,135,48,232v-38,224,-216,364,-465,381r-47,270r-90,0r47,-270v-139,-5,-250,-46,-355,-103r49,-276r97,0v-28,186,51,276,226,280r85,-485v-131,-43,-219,-91,-265,-147v-46,-56,-61,-130,-45,-222v35,-213,204,-352,439,-366r46,-268r90,0"},"%":{"d":"532,-1427v-53,0,-99,28,-138,83v-39,55,-68,133,-85,232v-17,98,-16,175,5,231v21,56,57,84,108,84v51,0,97,-27,136,-83v39,-56,68,-133,85,-232v17,-99,16,-176,-4,-232v-20,-56,-56,-83,-107,-83xm1331,-694v-52,0,-97,28,-137,84v-40,56,-69,134,-86,233v-17,98,-15,175,5,231v20,56,55,83,107,83v52,0,98,-27,137,-83v39,-56,67,-133,84,-231v17,-99,17,-177,-3,-233v-20,-56,-56,-84,-107,-84xm1347,-784v202,1,281,178,239,407v-23,124,-67,224,-136,297v-69,73,-151,109,-245,109v-204,0,-283,-177,-241,-406v23,-125,67,-224,136,-297v69,-73,152,-110,247,-110xm1363,-1520r137,0r-1112,1549r-136,0xm547,-1520v202,1,283,177,240,406v-23,126,-67,225,-136,298v-69,73,-151,109,-247,109v-204,-1,-281,-177,-238,-407v23,-124,67,-223,136,-296v69,-73,150,-110,245,-110","w":1751},"&":{"d":"269,-483v-41,221,92,395,293,391v145,-2,258,-61,343,-139r-416,-613v-109,93,-190,205,-220,361xm1365,-741v-53,181,-140,329,-258,452r123,183r212,0r-19,106r-361,0r-98,-145v-127,101,-263,169,-463,174v-294,7,-475,-186,-418,-490v17,-88,53,-172,112,-249v59,-77,141,-149,246,-216v-41,-72,-62,-147,-46,-248v38,-247,288,-399,583,-329v51,12,109,28,174,51r-45,258r-102,0v10,-138,-55,-220,-188,-219v-166,1,-287,149,-234,325v12,39,45,96,97,173r370,544v96,-101,167,-221,207,-370r18,-107r264,0r-19,107r-155,0","w":1640},"'":{"d":"324,-1493r0,555r-143,0r0,-555r143,0","w":506},"(":{"d":"424,319v-274,-150,-359,-478,-278,-937v41,-237,113,-434,215,-592v102,-158,232,-273,391,-346r-17,98v-105,71,-189,170,-252,298v-63,128,-114,309,-155,542v-40,232,-52,412,-34,540v18,128,67,228,147,299","w":719},")":{"d":"-34,319r18,-98v105,-71,189,-171,252,-299v63,-128,114,-308,155,-540v41,-233,51,-414,33,-542v-18,-128,-67,-227,-147,-298r18,-98v274,150,358,478,278,938v-77,444,-267,779,-607,937","w":719},"*":{"d":"892,-1237r-352,182r352,185r-68,118r-314,-217r12,381r-122,0r11,-381r-313,217r-68,-118r352,-183r-352,-184r68,-119r313,217r-11,-381r122,0r-12,381r314,-217","w":921},"+":{"d":"844,-1284r0,561r505,0r0,162r-505,0r0,561r-144,0r0,-561r-505,0r0,-162r505,0r0,-561r144,0","w":1544},",":{"d":"36,199v137,-96,209,-227,239,-426r177,0v-53,240,-170,390,-358,506","w":585},"-":{"d":"95,-627r460,0r-27,156r-461,0","w":622},".":{"d":"192,-10v-61,-94,22,-228,125,-228v66,0,109,63,97,134v-11,65,-73,133,-144,133v-34,0,-61,-13,-78,-39","w":585},"\/":{"d":"624,-1493r144,0r-771,1683r-144,0","w":621},"0":{"d":"468,-70v92,0,170,-56,235,-168v65,-112,118,-281,157,-507v40,-227,47,-396,21,-508v-26,-112,-85,-168,-177,-168v-92,0,-171,56,-236,168v-65,112,-117,281,-157,508v-39,226,-46,395,-20,507v26,112,85,168,177,168xm450,29v-145,0,-248,-68,-306,-204v-58,-136,-66,-326,-23,-570v43,-245,117,-435,223,-571v106,-136,232,-204,377,-204v147,0,249,68,307,204v58,136,65,326,22,571v-43,244,-117,434,-222,570v-105,136,-231,204,-378,204"},"1":{"d":"129,0r18,-106r234,0r218,-1242r-305,195r23,-131r369,-236r124,0r-248,1414r234,0r-18,106r-649,0"},"2":{"d":"633,-1421v-194,2,-287,115,-331,284r-101,0r46,-266v120,-63,249,-114,406,-117v265,-4,427,151,379,420v-25,146,-148,321,-367,524r-443,412r560,0r32,-184r106,0r-61,348r-867,0r19,-109r487,-452v107,-100,187,-191,240,-275v53,-84,87,-172,104,-264v35,-191,-37,-323,-209,-321"},"3":{"d":"666,-1421v-178,1,-273,101,-312,254r-101,0r46,-263v125,-48,252,-88,399,-90v242,-4,397,117,356,357v-32,186,-168,309,-354,348v203,30,318,173,276,412v-47,274,-246,433,-566,432v-157,-1,-278,-39,-387,-101r50,-290r101,0v-22,193,70,293,257,292v200,-2,324,-146,355,-331v39,-231,-46,-357,-260,-357r-86,0r18,-102v242,11,376,-86,411,-291v30,-173,-41,-271,-203,-270"},"4":{"d":"599,-506r139,-794r-598,794r459,0xm907,0r-612,0r18,-106r216,0r51,-293r-586,0r19,-109r765,-1012r178,0r-177,1014r257,0r-19,107r-257,0r-51,293r216,0"},"5":{"d":"570,-874v-129,0,-205,54,-275,131r-77,0r131,-750r711,0r-29,164r-615,0r-75,428v67,-46,153,-72,262,-72v288,-3,435,193,382,500v-51,294,-247,502,-573,502v-147,0,-264,-42,-371,-101r51,-290r102,0v-23,187,57,293,236,292v95,0,173,-35,236,-104v63,-69,106,-169,129,-299v23,-129,15,-228,-24,-297v-39,-69,-106,-104,-201,-104"},"6":{"d":"485,-70v85,0,155,-35,213,-104v58,-69,98,-168,121,-297v23,-129,17,-228,-17,-297v-34,-69,-92,-104,-177,-104v-86,0,-157,33,-214,100v-57,67,-96,163,-118,289v-23,133,-18,235,15,306v33,71,92,107,177,107xm967,-1214v10,-134,-60,-207,-191,-207v-117,0,-212,49,-286,147v-74,98,-130,249,-167,452v87,-87,186,-147,339,-149v274,-3,401,203,347,500v-28,151,-89,272,-189,363v-100,91,-220,137,-360,137v-151,0,-256,-63,-316,-189v-60,-126,-70,-305,-29,-538v46,-261,128,-465,251,-607v155,-179,332,-248,593,-200v51,10,101,25,152,45r-43,246r-101,0"},"7":{"d":"1152,-1391r-769,1391r-134,0r734,-1329r-621,0r-32,184r-105,0r60,-348r885,0"},"8":{"d":"800,-408v37,-201,-33,-337,-214,-337v-86,0,-159,30,-217,89v-58,59,-96,141,-115,248v-37,202,33,337,214,338v86,0,158,-29,216,-88v58,-59,97,-143,116,-250xm603,-844v168,0,259,-129,286,-289v29,-172,-29,-289,-185,-288v-167,2,-258,129,-286,288v-30,172,30,289,185,289xm733,-795v188,26,293,166,256,387v-46,270,-232,437,-539,437v-283,0,-435,-147,-386,-437v35,-208,182,-358,393,-387v-162,-32,-255,-143,-222,-338v38,-231,222,-387,487,-387v246,0,395,137,350,387v-32,183,-156,304,-339,338"},"9":{"d":"205,-279v-7,133,60,210,191,209v116,0,212,-48,286,-146v74,-98,130,-249,167,-453v-87,87,-187,147,-341,149v-273,3,-398,-203,-344,-500v28,-151,90,-273,190,-364v100,-91,219,-136,358,-136v152,0,258,62,317,188v59,126,69,306,28,539v-46,261,-128,465,-251,607v-155,179,-332,248,-592,200v-50,-10,-102,-25,-153,-45r44,-248r100,0xm688,-1421v-85,0,-157,34,-214,103v-57,69,-97,169,-120,298v-23,129,-17,229,16,298v33,69,93,104,178,104v85,0,155,-33,212,-100v57,-67,97,-164,119,-290v23,-133,18,-235,-15,-306v-33,-71,-91,-107,-176,-107"},":":{"d":"152,-10v-61,-94,24,-228,126,-228v67,0,109,62,96,134v-12,67,-70,133,-143,133v-34,0,-62,-13,-79,-39xm267,-662v-61,-93,23,-227,125,-227v68,0,109,60,96,133v-12,68,-70,133,-143,133v-33,0,-61,-13,-78,-39","w":621},";":{"d":"-22,199v137,-96,209,-227,239,-426r177,0v-54,241,-169,391,-358,506xm292,-662v-62,-93,24,-227,126,-227v67,0,108,62,96,133v-11,67,-72,133,-144,133v-34,0,-61,-13,-78,-39","w":621},"<":{"d":"1349,-1020r-934,379r934,377r0,170r-1154,-465r0,-166r1154,-465r0,170","w":1544},"=":{"d":"195,-926r1154,0r0,160r-1154,0r0,-160xm195,-518r1154,0r0,160r-1154,0r0,-160","w":1544},">":{"d":"195,-1020r0,-170r1154,465r0,166r-1154,465r0,-170r935,-377","w":1544},"?":{"d":"230,-10v-62,-94,24,-228,126,-228v65,0,109,63,96,134v-12,65,-72,133,-143,133v-34,0,-62,-13,-79,-39xm244,-1427v114,-51,223,-90,359,-93v251,-5,407,142,362,396v-47,264,-219,410,-482,473r-44,254r-111,0r57,-328v213,-54,351,-183,391,-401v33,-173,-37,-295,-193,-295v-69,0,-128,21,-179,65v-51,44,-91,107,-118,189r-87,0","w":988},"@":{"d":"1300,170v-136,111,-299,186,-523,186v-369,0,-593,-231,-657,-546v-22,-109,-21,-227,2,-353v47,-263,177,-481,347,-637v158,-145,373,-262,645,-262v275,0,463,130,561,322v63,122,90,275,60,452v-30,179,-105,320,-221,424v-116,104,-259,156,-428,158r27,-162v-76,91,-157,160,-297,162v-221,4,-321,-204,-275,-451v25,-134,75,-242,155,-325v80,-83,172,-125,277,-125v129,0,195,65,241,162r25,-142r140,0r-135,772v220,-50,364,-237,405,-475v49,-287,-73,-495,-249,-596v-124,-71,-288,-91,-450,-52v-220,53,-377,169,-498,340v-89,126,-149,270,-178,435v-64,352,53,620,280,733v82,42,176,62,280,62v182,0,315,-64,431,-152xm875,-203v151,-2,259,-137,279,-282r19,-105v31,-157,-41,-281,-183,-280v-73,0,-134,30,-185,88v-51,58,-85,140,-104,245v-19,106,-13,189,18,247v31,58,83,87,156,87","w":1843},"A":{"d":"333,-541r493,0r-122,-710xm-141,0r18,-106r118,0r721,-1387r152,0r237,1387r132,0r-18,106r-489,0r18,-106r150,0r-55,-328r-566,0r-169,328r147,0r-18,106r-378,0","w":1331},"B":{"d":"343,-106r269,0v234,-3,332,-114,369,-326v39,-228,-38,-324,-255,-324r-269,0xm476,-862r228,0v204,-1,299,-84,330,-262v33,-192,-50,-261,-238,-262r-229,0xm906,-815v206,29,322,148,281,383v-52,300,-240,431,-595,432r-621,0r19,-106r171,0r224,-1280r-171,0r18,-107r664,0v256,-1,390,110,345,369v-31,178,-148,286,-335,309","w":1354},"C":{"d":"1214,-1047v-2,-248,-105,-365,-351,-366v-143,0,-261,56,-355,169v-94,113,-160,280,-198,499v-38,219,-31,384,23,497v54,113,153,170,296,170v101,0,188,-27,262,-80v74,-53,135,-132,182,-237r165,0v-64,139,-149,244,-254,317v-158,110,-417,146,-608,57v-145,-68,-251,-223,-280,-401v-16,-95,-14,-203,7,-323v41,-232,133,-419,279,-561v198,-192,440,-261,744,-182v79,21,162,54,250,97r-61,344r-101,0","w":1410},"D":{"d":"343,-106r168,0v175,0,318,-55,431,-166v113,-111,186,-269,223,-476v71,-397,-68,-637,-430,-638r-168,0xm-29,0r19,-106r171,0r224,-1280r-171,0r18,-107r535,0v452,-5,690,273,605,745v-41,235,-138,418,-291,550v-153,132,-344,198,-575,198r-535,0","w":1477},"E":{"d":"-29,0r19,-106r171,0r224,-1280r-171,0r18,-107r1082,0r-58,332r-111,0r37,-209r-618,0r-87,500r440,0r33,-187r111,0r-87,496r-111,0r33,-187r-440,0r-110,625r632,0r37,-209r110,0r-58,332r-1096,0","w":1345},"F":{"d":"-29,0r19,-106r171,0r224,-1280r-171,0r18,-107r1100,0r-58,332r-111,0r37,-209r-636,0r-87,500r459,0r33,-187r110,0r-86,496r-111,0r33,-187r-459,0r-113,642r215,0r-18,106r-569,0","w":1278},"G":{"d":"1233,-1047v1,-246,-104,-365,-346,-366v-155,0,-279,55,-375,166v-96,111,-163,278,-202,502v-38,219,-29,385,30,498v59,113,165,169,317,169v158,0,281,-46,391,-112r67,-385r-253,0r19,-107r435,0r-97,557v-161,93,-345,154,-580,154v-203,0,-354,-70,-451,-211v-97,-141,-126,-329,-85,-563v41,-236,136,-425,283,-565v198,-189,455,-254,764,-180v78,20,160,49,245,89r-62,354r-100,0","w":1472},"H":{"d":"-29,0r19,-106r171,0r224,-1280r-171,0r18,-107r525,0r-19,107r-171,0r-90,516r697,0r90,-516r-171,0r19,-107r524,0r-18,107r-171,0r-224,1280r171,0r-19,106r-525,0r19,-106r171,0r112,-642r-696,0r-113,642r171,0r-18,106r-525,0","w":1607},"I":{"d":"343,-106r171,0r-18,106r-525,0r19,-106r171,0r224,-1280r-171,0r18,-107r525,0r-19,107r-171,0","w":728},"J":{"d":"-311,358r41,-235r103,0v-19,124,15,195,127,196v71,0,125,-25,162,-75v37,-50,69,-148,94,-293r234,-1337r-209,0r19,-107r562,0r-19,107r-171,0r-235,1345v-29,165,-80,283,-151,357v-92,96,-268,135,-434,93v-42,-11,-83,-28,-123,-51","w":738},"K":{"d":"-29,0r19,-106r171,0r224,-1280r-171,0r18,-107r525,0r-19,107r-171,0r-99,565r678,-565r-146,0r19,-107r446,0r-18,107r-152,0r-675,563r520,717r153,0r-19,106r-312,0r-513,-709r-106,603r171,0r-18,106r-525,0","w":1377},"L":{"d":"-29,0r19,-106r171,0r224,-1280r-171,0r18,-107r525,0r-19,107r-171,0r-221,1263r614,0r44,-250r111,0r-66,373r-1078,0","w":1224},"M":{"d":"-29,0r19,-106r171,0r224,-1280r-181,0r18,-107r392,0r286,1063r657,-1063r367,0r-18,107r-180,0r-223,1280r171,0r-18,106r-526,0r19,-106r171,0r202,-1154r-643,1041r-127,0r-279,-1041r-202,1154r171,0r-18,106r-453,0","w":1887},"N":{"d":"-38,0r18,-106r181,0r224,-1280r-181,0r19,-107r345,0r599,1178r188,-1071r-180,0r18,-107r472,0r-19,107r-181,0r-247,1415r-109,0r-640,-1258r-197,1123r181,0r-19,106r-472,0","w":1612},"O":{"d":"639,-78v147,0,268,-56,363,-168v95,-112,161,-279,199,-499v39,-221,30,-387,-25,-499v-55,-112,-156,-169,-303,-169v-148,0,-269,57,-364,169v-95,112,-161,278,-199,499v-38,220,-30,387,25,499v55,112,157,168,304,168xm880,-20v-152,63,-357,66,-502,-1v-147,-68,-253,-222,-282,-401v-36,-224,32,-492,113,-646v89,-169,242,-329,422,-402v81,-33,168,-50,260,-50v195,0,340,71,435,213v95,142,123,329,82,562v-43,247,-145,434,-300,577v-71,65,-147,114,-228,148","w":1511},"P":{"d":"458,-760r237,0v197,-3,299,-130,330,-313v34,-198,-37,-313,-220,-313r-238,0xm-29,0r19,-106r171,0r224,-1280r-171,0r18,-107r636,0v257,-4,408,156,364,420v-41,243,-235,420,-511,420r-282,0r-96,547r208,0r-18,106r-562,0","w":1240},"Q":{"d":"795,12v47,88,129,131,263,131r225,0r-33,185r-105,0v-159,0,-272,-27,-338,-82v-65,-54,-111,-127,-139,-217v-346,6,-563,-226,-557,-577v6,-346,128,-600,319,-775v125,-114,273,-193,488,-197v331,-6,540,237,535,578v-4,294,-96,521,-241,694v-114,134,-252,221,-417,260xm1251,-990v3,-258,-109,-423,-352,-423v-147,0,-268,57,-363,169v-95,112,-160,278,-200,499v-32,179,-39,368,25,499v55,112,157,168,304,168v147,0,268,-56,363,-168v95,-112,161,-279,200,-499v15,-91,23,-172,23,-245","w":1511},"R":{"d":"882,-741v89,30,130,91,156,192r118,443r164,0r-19,106r-316,0r-127,-475v-24,-92,-51,-152,-80,-179v-29,-27,-72,-40,-131,-40r-201,0r-103,588r190,0r-18,106r-544,0r19,-106r171,0r224,-1280r-171,0r18,-107r682,0v252,-2,386,138,339,399v-36,205,-160,324,-371,353xm465,-801r265,0v199,-3,285,-109,317,-293v34,-198,-30,-291,-214,-292r-266,0","w":1387},"S":{"d":"1023,-1114v15,-216,-71,-298,-285,-299v-190,0,-307,90,-335,252v-13,71,-3,127,27,168v30,41,102,81,215,121r157,55v115,41,192,92,233,155v41,63,52,148,34,254v-49,286,-241,437,-574,437v-171,0,-313,-41,-442,-101r60,-340r103,1v-33,232,62,333,286,333v212,1,347,-95,377,-276v13,-72,6,-127,-21,-166v-27,-39,-92,-76,-195,-113r-167,-59v-121,-43,-203,-97,-244,-162v-41,-65,-51,-153,-32,-266v43,-250,240,-402,533,-400v155,1,296,40,427,88r-55,318r-102,0","w":1262},"T":{"d":"221,0r19,-106r172,0r222,-1268r-396,0r-40,233r-111,0r62,-352r1193,0r-62,352r-110,0r40,-233r-395,0r-221,1268r171,0r-18,106r-526,0","w":1229},"U":{"d":"373,-1386r-172,0r19,-107r525,0r-19,107r-171,0r-136,772v-33,191,-28,324,15,399v43,75,133,113,270,113v137,0,241,-38,310,-113v69,-75,121,-208,154,-399r135,-772r-172,0r19,-107r454,0r-19,107r-171,0r-139,792v-39,227,-106,388,-201,482v-95,94,-237,141,-426,141v-397,0,-491,-186,-414,-623","w":1553},"V":{"d":"434,-1386r196,1146r597,-1146r-151,0r18,-107r395,0r-19,107r-131,0r-722,1386r-154,0r-235,-1386r-134,0r19,-107r489,0r-19,107r-149,0","w":1331},"W":{"d":"1274,0r-147,0r-96,-1214r-520,1214r-147,0r-110,-1386r-133,0r19,-107r490,0r-19,107r-167,0r87,1103r518,-1210r145,0r98,1223r477,-1116r-155,0r19,-107r387,0r-19,107r-132,0","w":1894},"X":{"d":"591,-639r-421,533r173,0r-18,106r-445,0r19,-106r155,0r496,-627r-278,-653r-144,0r19,-107r533,0r-19,107r-159,0r204,481r381,-481r-173,0r18,-107r441,0r-19,107r-151,0r-456,575r300,705r144,0r-18,106r-533,0r18,-106r161,0","w":1312},"Y":{"d":"218,0r18,-106r172,0r94,-537r-285,-743r-126,0r19,-107r499,0r-18,107r-157,0r230,604r441,-604r-151,0r19,-107r391,0r-19,107r-127,0r-531,724r-97,556r172,0r-19,106r-525,0","w":1216},"Z":{"d":"-48,0r13,-72r1064,-1298r-695,0r-39,223r-111,0r61,-346r1062,0r-13,72r-1064,1298r760,0r36,-209r110,0r-58,332r-1126,0","w":1280},"[":{"d":"318,-1556r419,0r-19,106r-247,0r-282,1614r247,0r-19,106r-418,0","w":719},"\\":{"d":"291,-1493r183,1683r-144,0r-183,-1683r144,0","w":621},"]":{"d":"720,-1556r-319,1826r-419,0r19,-106r247,0r282,-1614r-247,0r19,-106r418,0","w":719},"^":{"d":"860,-1493r489,557r-138,0r-439,-381r-438,381r-139,0r489,-557r176,0","w":1544},"_":{"d":"922,403r0,80r-922,0r0,-80r922,0","w":921},"`":{"d":"508,-1636r167,376r-105,0r-240,-376r178,0","w":921},"a":{"d":"357,29v-181,0,-297,-135,-295,-323v0,-34,3,-70,10,-108v41,-235,135,-414,282,-535v126,-104,265,-155,416,-155v102,0,171,10,206,29r-168,957r143,0r-19,106r-291,0r29,-166v-81,130,-185,195,-313,195xm237,-300v0,143,62,214,186,214v75,0,139,-33,191,-100v52,-67,88,-165,110,-293r85,-482v0,-19,-24,-29,-73,-29v-115,0,-218,50,-307,150v-89,100,-149,242,-181,425v-7,43,-11,81,-11,115","w":1098},"b":{"d":"549,29v-158,-1,-235,-69,-276,-195r-29,166r-165,0r253,-1450r-159,0r19,-106r325,0r-116,659v79,-117,170,-195,344,-195v117,0,204,52,261,155v59,107,68,257,41,405v-30,167,-90,302,-183,406v-93,104,-198,155,-315,155xm871,-712v3,-154,-57,-265,-197,-265v-84,0,-154,34,-210,101v-56,67,-95,165,-117,292v-13,74,-33,171,-33,247v0,150,64,251,204,251v85,0,153,-39,212,-113v77,-97,138,-322,141,-513","w":1179},"c":{"d":"267,-345v-2,162,60,277,208,275v72,0,133,-21,183,-62v50,-41,89,-104,119,-187r134,0v-43,113,-104,200,-181,259v-77,59,-168,89,-274,89v-236,0,-382,-171,-378,-414v4,-241,84,-428,212,-555v141,-141,321,-184,539,-128v57,16,114,39,169,71r-48,272r-96,0v5,-174,-51,-269,-217,-268v-89,0,-162,40,-223,115v-80,98,-144,334,-147,533","w":1032},"d":{"d":"550,-1092v157,1,236,69,275,195r97,-553r-157,0r19,-106r322,0r-272,1556r-166,0r29,-166v-78,117,-170,195,-343,195v-118,0,-205,-52,-262,-155v-60,-107,-68,-257,-41,-406v30,-167,91,-302,183,-405v92,-103,197,-155,316,-155xm227,-353v-3,155,57,267,198,267v84,0,154,-33,210,-100v56,-67,95,-165,117,-293v12,-74,32,-170,32,-246v0,-150,-63,-252,-203,-252v-85,0,-154,39,-213,112v-76,95,-138,322,-141,512","w":1179},"e":{"d":"434,29v-215,0,-362,-182,-356,-415v6,-239,84,-424,210,-552v101,-103,224,-154,368,-154v235,0,352,92,352,277v0,135,-61,236,-184,302v-126,67,-311,102,-554,105v-23,190,44,338,222,338v70,0,122,-12,156,-35v61,-42,99,-90,113,-144r122,0v-24,85,-81,157,-170,216v-63,41,-155,62,-279,62xm732,-632v67,-44,100,-107,100,-190v0,-114,-68,-171,-204,-171v-80,0,-148,34,-204,102v-56,68,-101,194,-135,377v193,-10,340,-49,443,-118","w":1090},"f":{"d":"831,-1305v16,-95,-26,-153,-120,-153v-62,0,-108,20,-141,56v-50,54,-77,226,-96,339r267,0r-19,107r-267,0r-179,1022v-37,217,-154,357,-390,360r10,-98v63,0,110,-19,141,-56v32,-40,56,-109,73,-206r179,-1022r-158,0r19,-107r158,0r23,-133v21,-119,66,-208,131,-269v88,-82,229,-109,378,-79v39,8,77,20,114,37r-36,202r-87,0","w":682},"g":{"d":"778,-166v-77,116,-170,191,-339,195v-173,4,-287,-124,-294,-298v-2,-41,1,-85,9,-133v41,-235,136,-414,283,-535v125,-103,261,-154,408,-155v134,-1,219,9,255,29r-182,1040v-27,159,-87,275,-175,353v-133,118,-319,150,-522,106v-55,-13,-107,-32,-156,-57r39,-223r86,0v-2,144,68,200,215,200v97,0,173,-31,229,-92v55,-60,96,-156,119,-287xm917,-956v0,-23,-33,-34,-98,-34v-117,0,-219,50,-307,150v-89,101,-149,242,-181,425v-17,96,-19,180,15,246v28,56,82,83,159,83v84,0,154,-33,210,-100v56,-67,95,-165,118,-293","w":1179},"h":{"d":"812,-790v2,-117,-42,-166,-154,-166v-77,0,-141,31,-192,93v-51,62,-87,152,-108,271r-104,592r-165,0r254,-1450r-159,0r19,-106r324,0r-120,682v43,-72,93,-126,148,-163v55,-37,115,-55,180,-55v173,1,251,88,250,264v0,45,-5,95,-15,152r-99,570r147,0r-18,106r-314,0r108,-618v12,-69,18,-126,18,-172","w":1187},"i":{"d":"289,-1370v0,-73,58,-134,125,-137v47,-2,84,44,83,92v0,73,-56,132,-123,135v-48,2,-86,-41,-85,-90xm277,-106r157,0r-19,106r-322,0r167,-956r-158,0r19,-107r324,0","w":589},"j":{"d":"334,-1370v0,-73,58,-134,125,-137v47,-2,84,44,83,92v0,73,-55,132,-123,135v-48,2,-86,-41,-85,-90xm-216,216v-1,93,38,139,127,140v54,0,98,-21,131,-62v33,-41,58,-104,73,-190r185,-1060r-156,0r18,-107r323,0r-205,1167v-32,238,-239,405,-511,334v-38,-10,-73,-27,-106,-49r38,-219r85,0v-1,17,-2,32,-2,46","w":571},"k":{"d":"608,-664r266,558r138,0r-19,106r-265,0r-261,-543r-154,135r-71,408r-166,0r254,-1450r-159,0r18,-106r325,0r-177,1013r475,-413r-137,0r18,-107r269,0r-18,107","w":1116},"l":{"d":"260,-106r157,0r-19,106r-322,0r254,-1450r-159,0r18,-106r325,0","w":589},"m":{"d":"764,-1092v151,-1,240,89,245,236v45,-78,96,-136,153,-176v57,-40,118,-60,184,-60v164,0,241,96,239,267v0,44,-5,94,-14,149r-100,570r149,0r-18,106r-315,0r114,-655v9,-52,14,-97,14,-134v2,-111,-41,-166,-147,-167v-74,0,-136,31,-186,93v-50,62,-84,152,-105,271r-103,592r-166,0r116,-662v9,-50,13,-93,13,-129v1,-110,-42,-164,-148,-165v-74,0,-136,31,-185,93v-49,62,-84,152,-105,271r-104,592r-166,0r168,-958r-158,0r18,-105r324,0r-33,189v43,-71,91,-125,145,-162v54,-37,111,-56,171,-56","w":1747},"n":{"d":"852,-790v2,-117,-42,-168,-154,-168v-77,0,-141,32,-192,94v-51,62,-86,153,-107,272r-104,592r-166,0r168,-956r-159,0r19,-107r324,0r-33,189v43,-72,93,-126,148,-163v55,-37,115,-55,180,-55v172,0,251,89,250,264v0,45,-5,95,-15,152r-100,570r148,0r-19,106r-314,0r108,-618v12,-69,18,-126,18,-172","w":1187},"o":{"d":"267,-348v-3,162,60,278,207,278v89,0,161,-41,222,-117v80,-100,143,-332,146,-530v3,-161,-61,-276,-207,-276v-89,0,-160,41,-221,117v-79,99,-143,331,-147,528xm652,-1092v237,0,383,168,379,413v-4,241,-83,427,-211,555v-102,102,-224,153,-364,153v-236,0,-382,-171,-378,-414v4,-241,84,-427,212,-554v102,-102,222,-153,362,-153","w":1109},"p":{"d":"946,-712v3,-155,-58,-265,-197,-265v-84,0,-154,34,-210,101v-56,67,-95,165,-117,292v-12,74,-32,171,-32,247v0,149,62,251,203,251v85,0,154,-39,212,-113v76,-97,138,-321,141,-513xm624,29v-157,-1,-236,-69,-275,-195r-104,592r-165,0r241,-1382r-159,0r19,-107r325,0r-29,166v78,-117,170,-195,343,-195v118,0,204,52,261,155v59,107,68,257,41,405v-30,167,-90,302,-182,406v-92,104,-198,155,-316,155","w":1179},"q":{"d":"773,-166v-73,114,-151,191,-313,195v-216,5,-330,-193,-285,-431v45,-235,135,-414,282,-535v125,-103,262,-154,409,-155v116,-1,192,9,229,29r-242,1383r159,0r-18,106r-325,0xm840,-990v-115,0,-218,50,-307,150v-89,100,-150,242,-182,425v-17,96,-18,180,16,246v29,56,82,83,159,83v76,0,140,-33,191,-100v51,-67,88,-165,110,-293r85,-482v1,-19,-23,-29,-72,-29","w":1179},"r":{"d":"830,-799v12,-96,-21,-157,-115,-157v-81,0,-149,31,-204,94v-55,63,-92,153,-112,270r-104,592r-166,0r168,-958r-158,0r18,-105r324,0r-33,189v45,-74,98,-127,154,-164v99,-65,247,-64,370,-27r-47,266r-95,0","w":881},"s":{"d":"815,-377v4,254,-188,406,-451,406v-121,0,-236,-29,-343,-88r43,-248r95,0v-20,156,49,238,219,237v149,0,237,-60,256,-182v7,-47,4,-82,-28,-118v-68,-77,-365,-134,-424,-232v-33,-55,-46,-105,-34,-178v30,-188,192,-313,408,-312v107,0,216,29,327,86r-41,232r-95,0v20,-134,-51,-222,-193,-219v-158,3,-240,66,-244,211v0,21,11,42,30,66v33,42,188,93,267,122v85,31,143,71,175,118v22,33,33,66,33,99","w":945},"t":{"d":"336,29v-152,0,-218,-49,-219,-194v0,-34,4,-73,12,-116r118,-675r-146,0r19,-107r146,0r57,-330r167,0r-58,330r311,0r-18,107r-312,0r-118,675v-9,53,-14,94,-14,125v-1,64,25,86,87,86v107,0,135,-74,158,-180r125,0v-41,175,-118,279,-315,279","w":740},"u":{"d":"335,-273v-2,117,41,167,154,167v77,0,140,-31,191,-94v51,-63,88,-154,109,-273r103,-590r166,0r-168,957r157,0r-19,106r-322,0r33,-188v-43,71,-92,125,-147,162v-55,37,-115,55,-179,55v-173,-1,-253,-87,-252,-264v0,-45,5,-95,15,-152r100,-569r-150,0r19,-107r316,0r-108,619v-12,69,-18,126,-18,171","w":1187},"v":{"d":"1022,-1063v-132,526,-231,732,-538,1063r-121,0r-185,-956r-109,0r18,-107r248,0r162,838v69,-67,126,-142,173,-227v96,-176,161,-344,195,-504r-110,0r19,-107r248,0","w":1041},"w":{"d":"1077,-233v80,-96,129,-162,147,-197v66,-133,131,-309,196,-526r-139,1r19,-108r240,0r-19,108r-1,0v-61,247,-120,431,-179,550v-85,170,-176,305,-270,405r-138,0r-98,-795r-375,795r-133,0r-116,-956r-107,2r19,-109r246,0r101,830r392,-830r116,0","w":1577},"x":{"d":"118,0r-113,0r422,-510r-212,-446r-118,0r18,-107r243,0r199,414r343,-414r113,0r-414,500r218,457r126,0r-19,106r-251,0r-203,-424","w":1039},"y":{"d":"52,221v-10,79,17,131,96,131v105,0,204,-51,296,-153r-226,-1155r-109,0r19,-107r247,0r213,1055v97,-161,157,-274,180,-340v75,-207,121,-407,136,-599r-109,0r19,-107r246,0v-59,381,-141,673,-246,874v-153,295,-294,483,-414,576v-72,56,-342,82,-468,28r36,-203r84,0","w":1041},"z":{"d":"733,-975v65,0,129,-29,192,-88r54,0r-15,86r-654,758v55,14,98,46,141,75v56,39,105,57,145,57v79,0,164,-50,257,-150r-21,121v-103,112,-194,168,-271,168v-47,0,-104,-25,-171,-71v-67,-46,-121,-69,-163,-69v-65,0,-129,29,-192,88r-54,0r15,-86r654,-757v-28,-11,-70,-25,-97,-46v-48,-37,-139,-87,-189,-87v-79,0,-164,50,-257,150r21,-121v103,-112,194,-168,272,-168v47,0,103,25,170,71v67,46,122,69,163,69","w":971},"{":{"d":"795,229r-18,105r-56,0v-149,0,-245,-25,-287,-74v-42,-49,-50,-148,-24,-295r45,-258v31,-196,0,-263,-179,-266r-55,0r19,-105v103,4,195,-10,241,-58v38,-40,68,-108,85,-208r45,-258v26,-147,70,-243,128,-294v63,-55,211,-78,369,-74r-19,104r-61,0v-85,0,-142,15,-173,44v-31,29,-54,91,-71,185r-50,287v-39,201,-85,276,-264,324v153,50,187,111,150,325r-50,287v-29,190,-12,224,164,229r61,0"},"|":{"d":"383,-1565r0,2048r-145,0r0,-2048r145,0","w":621},"}":{"d":"83,229r63,0v84,0,141,-14,172,-43v31,-29,54,-91,71,-186r50,-287v39,-203,84,-272,263,-325v-154,-45,-186,-113,-149,-324r50,-287v29,-190,13,-224,-162,-229r-63,0r18,-104r56,0v150,0,246,25,287,74v41,49,49,147,23,294r-45,258v-31,196,0,263,179,266r56,0r-19,105v-104,-4,-196,10,-242,58v-38,40,-68,108,-85,208r-45,258v-26,147,-70,244,-127,295v-62,56,-210,78,-369,74"},"~":{"d":"1029,-657v142,0,232,-67,320,-150r0,148v-60,59,-117,102,-171,130v-54,28,-109,42,-165,42v-58,0,-190,-42,-281,-83v-88,-40,-161,-57,-218,-57v-143,0,-230,66,-319,150r0,-152v60,-58,117,-100,171,-127v54,-27,108,-41,165,-41v58,0,189,40,280,82v87,39,159,58,218,58","w":1544},"\u00a0":{"w":585},"\u00a1":{"d":"378,-1294v-60,-94,23,-228,126,-228v65,0,108,63,96,133v-11,66,-72,134,-143,134v-34,0,-62,-12,-79,-39xm122,0r203,-821r45,-252r110,0r-44,252r-82,821r-232,0","w":740},"\u00a2":{"d":"647,-991v-79,10,-145,53,-197,130v-52,77,-91,186,-116,329v-25,143,-24,253,1,330v25,77,76,120,151,130xm576,-72v129,-22,205,-123,248,-247r133,0v-71,186,-190,314,-398,346r-47,270r-90,0r47,-270v-263,-23,-386,-249,-330,-559v29,-161,89,-292,183,-392v94,-100,208,-155,342,-166r47,-266r90,0r-47,266v116,12,208,44,290,93r-48,272r-95,0v5,-154,-38,-247,-164,-266"},"\u00a3":{"d":"979,-1225v10,-123,-46,-196,-163,-196v-76,0,-137,25,-182,77v-45,52,-78,133,-97,242r-52,295r371,0r-19,107r-370,0r-102,579r430,0r40,-227r105,0r-61,348r-889,0r19,-106r174,0r104,-594r-174,0r19,-107r173,0r52,-295v43,-256,195,-416,478,-418v107,0,202,18,281,50r-43,245r-94,0"},"\u00a4":{"d":"588,-1067v96,0,161,34,223,82r188,-207r85,94r-188,209v45,71,75,144,75,248v0,106,-29,176,-77,244r186,207r-86,94r-187,-205v-59,51,-121,86,-219,86v-94,0,-163,-36,-225,-82r-184,205r-85,-94r184,-207v-43,-72,-74,-146,-74,-248v0,-106,30,-177,78,-246r-187,-207r86,-94r186,207v60,-51,123,-86,221,-86xm588,-373v137,0,242,-129,242,-270v0,-141,-105,-266,-242,-266v-136,0,-242,125,-242,266v0,143,105,270,242,270"},"\u00a5":{"d":"193,0r19,-106r172,0r64,-367r-364,0r19,-105r363,0r12,-65r-49,-141r-290,0r18,-105r237,0r-171,-497r-126,0r19,-107r498,0r-19,107r-157,0r203,604r410,-604r-150,0r19,-107r389,0r-19,107r-128,0r-342,497r244,0r-18,105r-299,0r-85,122r-15,84r363,0r-18,105r-363,0r-64,367r171,0r-19,106r-524,0"},"\u00a6":{"d":"383,-408r0,758r-145,0r0,-758r145,0xm383,-1432r0,758r-145,0r0,-758r145,0","w":621},"\u00a7":{"d":"389,-936v-78,54,-124,90,-143,182v-18,87,74,200,269,335r25,18v70,-45,123,-103,139,-191v9,-50,-4,-97,-38,-142v-34,-45,-118,-112,-252,-202xm886,-1464r-35,202r-83,0v16,-100,-48,-155,-147,-155v-122,0,-208,74,-225,180v-10,65,48,143,180,234v96,66,203,156,230,206v59,108,20,261,-49,332v-40,41,-95,78,-169,107v76,59,112,130,90,264v-28,173,-186,291,-390,289v-114,-1,-202,-19,-284,-56r36,-209r83,1v-16,116,49,161,167,161v126,0,216,-73,234,-182v12,-76,-41,-155,-163,-240v-106,-73,-216,-167,-242,-215v-60,-112,-21,-261,55,-335v44,-43,99,-76,168,-97v-75,-57,-119,-129,-100,-254v26,-170,182,-291,380,-289v103,0,188,22,264,56","w":921},"\u00a8":{"d":"401,-1534v44,-43,114,-51,148,0v54,82,-18,199,-110,199v-60,0,-96,-53,-83,-117v6,-32,21,-59,45,-82xm752,-1534v43,-42,114,-51,147,0v54,82,-18,199,-109,199v-61,0,-97,-52,-84,-117v5,-32,22,-58,46,-82","w":921},"\u00a9":{"d":"923,-379v131,0,185,-74,208,-194r107,0v-28,163,-133,271,-315,272v-235,1,-369,-192,-369,-440v0,-248,136,-444,369,-443v117,1,200,32,290,76r0,213r-75,0v-20,-133,-72,-211,-213,-211v-71,0,-122,33,-161,92v-70,107,-71,437,-1,544v38,59,89,91,160,91xm666,-1430v155,-72,355,-72,510,0v157,73,302,235,364,404v63,171,64,397,0,568v-63,169,-207,330,-364,403v-155,72,-355,72,-510,0v-157,-73,-299,-234,-362,-403v-64,-171,-63,-397,0,-568v62,-169,205,-331,362,-404xm1142,-1335v-134,-62,-306,-62,-440,0v-136,63,-258,202,-313,349v-56,149,-57,339,0,488v55,146,177,285,313,348v134,62,306,62,440,0v135,-63,259,-201,313,-347v55,-148,54,-343,-1,-491v-55,-147,-176,-284,-312,-347","w":1843},"\u00aa":{"d":"475,-1499v97,-20,159,19,192,89r14,-84r113,0r-114,650r116,0r-16,88r-228,0r31,-178v-62,88,-130,152,-238,178v-145,34,-230,-72,-226,-213v5,-162,55,-285,135,-385v63,-79,137,-128,221,-145xm256,-1096v-24,125,-2,268,136,238v114,-25,206,-146,225,-272v7,-45,20,-95,20,-145v2,-93,-55,-155,-149,-134v-132,30,-203,163,-232,313xm83,-639r628,0r-18,104r-628,0","w":875},"\u00ab":{"d":"1035,-1059r-20,115r-327,344r207,344r-20,115r-349,-418r14,-82xm645,-1059r-21,115r-327,344r207,344r-20,115r-349,-418r14,-82","w":1127},"\u00ac":{"d":"195,-862r1154,0r0,575r-144,0r0,-413r-1010,0r0,-162","w":1544},"\u00ad":{"d":"95,-627r460,0r-27,156r-461,0","w":622},"\u00ae":{"d":"1067,-942v0,-98,-50,-150,-149,-150r-112,0r0,301r112,0v100,0,149,-51,149,-151xm1202,-938v-1,117,-64,172,-175,184v53,20,86,53,109,105r104,229r69,0r0,68r-171,0r-118,-254v-21,-47,-42,-78,-60,-94v-33,-30,-94,-22,-154,-23r0,303r75,0r0,68r-285,0r0,-68r74,0r0,-672r-74,0r0,-67r373,0v150,0,233,73,233,221xm1142,-1335v-134,-62,-306,-62,-440,0v-136,63,-258,202,-313,349v-56,149,-57,339,0,488v55,146,177,285,313,348v134,62,306,62,440,0v135,-63,259,-201,313,-347v55,-148,54,-343,-1,-491v-55,-147,-176,-284,-312,-347xm666,-1430v155,-72,355,-72,510,0v157,73,302,235,364,404v63,171,64,397,0,568v-63,169,-207,330,-364,403v-155,72,-355,72,-510,0v-157,-73,-299,-234,-362,-403v-64,-171,-63,-397,0,-568v62,-169,205,-331,362,-404","w":1843},"\u00af":{"d":"356,-1526r539,0r-26,148r-538,0","w":921},"\u00b0":{"d":"623,-1200v0,-93,-73,-182,-162,-182v-93,0,-162,86,-162,182v0,96,69,178,162,178v91,0,162,-84,162,-178xm176,-1200v0,-206,188,-389,396,-296v36,16,64,41,91,71v50,55,81,127,83,225v4,167,-125,315,-287,315v-164,0,-283,-146,-283,-315","w":921},"\u00b1":{"d":"844,-1284r0,391r505,0r0,162r-505,0r0,391r-144,0r0,-391r-505,0r0,-162r505,0r0,-391r144,0xm195,-160r1154,0r0,160r-1154,0r0,-160","w":1544},"\u00b2":{"d":"380,-1446v-105,2,-164,62,-192,150r-63,0r28,-158v75,-37,160,-64,259,-66v151,-3,262,88,237,236v-15,81,-90,180,-227,296r-271,232r346,0r19,-108r67,0r-35,196r-542,0r14,-75r301,-254v60,-51,105,-97,134,-138v29,-41,48,-83,56,-127v21,-110,-29,-185,-131,-184","w":738},"\u00b3":{"d":"397,-1446v-102,0,-159,45,-181,129r-63,0r26,-151v78,-29,158,-50,249,-52v150,-1,246,62,222,207v-17,103,-106,170,-214,189v128,19,199,90,175,235v-26,156,-157,237,-346,236v-96,0,-173,-22,-241,-56r30,-170r63,1v-12,104,44,152,149,151v117,0,188,-67,206,-170v21,-125,-30,-188,-150,-188r-48,0r13,-74v129,5,209,-41,227,-148v15,-91,-29,-140,-117,-139","w":738},"\u00b4":{"d":"772,-1638r179,0r-372,376r-106,0","w":921},"\u00b5":{"d":"382,-274v-1,116,41,168,154,168v77,0,141,-31,192,-94v51,-63,87,-154,108,-273r103,-590r166,0r-168,959r157,0r-18,104r-323,0r33,-188v-43,71,-90,125,-141,162v-51,37,-103,55,-157,55v-75,-1,-122,-28,-158,-72r-82,469r-166,0r242,-1382r-149,0r18,-107r315,0r-108,619v-12,68,-18,125,-18,170","w":1197},"\u00b6":{"d":"547,-649v-237,-18,-373,-162,-331,-422v39,-238,235,-422,502,-422r484,0r-19,107r-106,0r-277,1583r-96,0r277,-1583r-208,0r-277,1583r-97,0"},"\u00b7":{"d":"189,-616v-62,-93,23,-228,126,-228v65,0,108,63,96,133v-11,66,-72,133,-143,133v-34,0,-62,-12,-79,-38","w":585},"\u00b8":{"d":"254,240v59,31,162,54,220,8v39,-32,55,-77,35,-144v-8,-29,-22,-64,-42,-104r88,0v31,43,53,83,65,120v59,194,-104,305,-310,269v-26,-4,-52,-10,-78,-18","w":921},"\u00b9":{"d":"85,-668r15,-84r155,0r111,-634r-200,106r17,-94r238,-129r92,0r-131,751r155,0r-14,84r-438,0","w":738},"\u00ba":{"d":"395,-813v64,0,117,-26,158,-79v41,-53,71,-132,89,-236v18,-104,15,-183,-8,-236v-23,-53,-65,-80,-128,-80v-63,0,-115,27,-157,81v-42,54,-72,132,-90,235v-18,103,-16,182,7,235v23,53,66,80,129,80xm382,-737v-211,0,-322,-164,-280,-391v22,-118,70,-212,146,-284v76,-72,167,-108,272,-108v212,0,321,164,279,392v-22,118,-69,213,-145,284v-76,71,-167,107,-272,107xm55,-639r620,0r-19,104r-619,0","w":866},"\u00bb":{"d":"645,-1059r349,418r-15,82r-495,418r20,-115r328,-344r-208,-344xm254,-1059r349,418r-14,82r-496,418r21,-115r326,-344r-206,-344","w":1127},"\u00bc":{"d":"85,-668r15,-84r155,0r111,-634r-200,106r17,-94r238,-129r92,0r-131,751r155,0r-14,84r-438,0xm1316,-303r71,-407r-348,407r277,0xm1522,0r-391,0r15,-84r132,0r24,-137r-359,0r15,-84r453,-530r127,0r-93,532r147,0r-14,82r-148,0r-24,137r131,0xm1385,-1520r135,0r-1119,1549r-135,0","w":1786},"\u00bd":{"d":"1310,-778v-105,2,-164,62,-192,150r-63,0r28,-158v75,-37,160,-64,259,-66v151,-3,262,88,237,236v-15,81,-90,180,-227,296r-271,232r346,0r19,-108r67,0r-35,196r-542,0r14,-75r301,-254v60,-51,105,-97,134,-138v29,-41,48,-83,56,-127v21,-110,-29,-185,-131,-184xm85,-668r15,-84r155,0r111,-634r-200,106r17,-94r238,-129r92,0r-131,751r155,0r-14,84r-438,0xm1385,-1520r135,0r-1119,1549r-135,0","w":1786},"\u00be":{"d":"397,-1446v-102,0,-159,45,-181,129r-63,0r26,-151v78,-29,158,-50,249,-52v150,-1,246,62,222,207v-17,103,-106,170,-214,189v128,19,199,90,175,235v-26,156,-157,237,-346,236v-96,0,-173,-22,-241,-56r30,-170r63,1v-12,104,44,152,149,151v117,0,188,-67,206,-170v21,-125,-30,-188,-150,-188r-48,0r13,-74v129,5,209,-41,227,-148v15,-91,-29,-140,-117,-139xm1316,-303r71,-407r-348,407r277,0xm1522,0r-391,0r15,-84r132,0r24,-137r-359,0r15,-84r453,-530r127,0r-93,532r147,0r-14,82r-148,0r-24,137r131,0xm1385,-1520r135,0r-1119,1549r-135,0","w":1786},"\u00bf":{"d":"794,-1484v61,94,-23,229,-125,229v-65,0,-109,-63,-96,-134v12,-65,72,-133,143,-133v34,0,61,12,78,38xm780,-66v-114,51,-222,90,-359,93v-250,5,-407,-143,-362,-396v47,-264,221,-410,483,-473r45,-254r110,0r-57,328v-213,54,-352,183,-392,401v-33,173,38,295,195,295v67,0,127,-22,179,-66v52,-44,90,-106,117,-188r86,0","w":988},"\u00c0":{"d":"333,-541r493,0r-122,-710xm-141,0r18,-106r118,0r721,-1387r152,0r237,1387r132,0r-18,106r-489,0r18,-106r150,0r-55,-328r-566,0r-169,328r147,0r-18,106r-378,0xm779,-1899r117,264r-105,0r-189,-264r177,0","w":1331},"\u00c1":{"d":"333,-541r493,0r-122,-710xm-141,0r18,-106r118,0r721,-1387r152,0r237,1387r132,0r-18,106r-489,0r18,-106r150,0r-55,-328r-566,0r-169,328r147,0r-18,106r-378,0xm945,-1899r178,0r-283,264r-105,0","w":1331},"\u00c2":{"d":"333,-541r493,0r-122,-710xm-141,0r18,-106r118,0r721,-1387r152,0r237,1387r132,0r-18,106r-489,0r18,-106r150,0r-55,-328r-566,0r-169,328r147,0r-18,106r-378,0xm766,-1899r159,0r161,264r-104,0r-154,-161r-212,161r-104,0","w":1331},"\u00c3":{"d":"333,-541r493,0r-122,-710xm-141,0r18,-106r118,0r721,-1387r152,0r237,1387r132,0r-18,106r-489,0r18,-106r150,0r-55,-328r-566,0r-169,328r147,0r-18,106r-378,0xm1160,-1886v-23,122,-87,214,-217,219v-57,2,-119,-44,-160,-76v-17,-14,-39,-27,-65,-27v-54,0,-92,51,-103,103r-87,-1v13,-67,39,-119,76,-159v49,-52,114,-72,191,-50v40,12,101,68,147,86v71,28,123,-31,131,-95r87,0","w":1331},"\u00c4":{"d":"333,-541r493,0r-122,-710xm-141,0r18,-106r118,0r721,-1387r152,0r237,1387r132,0r-18,106r-489,0r18,-106r150,0r-55,-328r-566,0r-169,328r147,0r-18,106r-378,0xm595,-1849v44,-43,113,-51,148,0v56,82,-20,198,-109,198v-59,0,-97,-53,-84,-117v5,-31,20,-58,45,-81xm945,-1849v44,-43,113,-51,148,0v56,82,-20,198,-108,198v-59,0,-98,-52,-85,-117v6,-31,20,-58,45,-81","w":1331},"\u00c5":{"d":"753,-1475v81,0,150,-77,163,-151v14,-81,-35,-153,-110,-152v-82,1,-149,75,-162,152v-13,81,33,151,109,151xm297,-541r492,0r-121,-710xm-177,0r18,-106r118,0r664,-1278v-72,-46,-108,-123,-90,-242v20,-135,149,-275,295,-275v136,0,227,129,199,275v-21,110,-87,199,-177,242r219,1278r132,0r-18,106r-489,0r19,-106r149,0r-55,-328r-565,0r-170,328r147,0r-18,106r-378,0","w":1331},"\u00c6":{"d":"347,-541r441,0r147,-845r-90,0xm522,0r18,-106r171,0r58,-328r-484,0r-195,328r148,0r-18,106r-382,0r18,-106r118,0r755,-1280r-193,0r18,-107r1311,0r-58,332r-111,0r37,-209r-620,0r-87,500r443,0r33,-187r110,0r-87,496r-110,0r32,-187r-442,0r-110,625r635,0r36,-209r111,0r-58,332r-1097,0","w":1845},"\u00c7":{"d":"364,240v59,31,162,54,220,8v39,-32,55,-77,35,-144v-8,-29,-22,-64,-42,-104r88,0v31,43,53,83,65,120v59,194,-104,305,-310,269v-26,-4,-52,-10,-78,-18xm1214,-1047v-2,-248,-105,-365,-351,-366v-143,0,-261,56,-355,169v-94,113,-160,280,-198,499v-38,219,-31,384,23,497v54,113,153,170,296,170v101,0,188,-27,262,-80v74,-53,135,-132,182,-237r165,0v-64,139,-149,244,-254,317v-158,110,-417,146,-608,57v-145,-68,-251,-223,-280,-401v-16,-95,-14,-203,7,-323v41,-232,133,-419,279,-561v198,-192,440,-261,744,-182v79,21,162,54,250,97r-61,344r-101,0","w":1410},"\u00c8":{"d":"-29,0r19,-106r171,0r224,-1280r-171,0r18,-107r1082,0r-58,332r-111,0r37,-209r-618,0r-87,500r440,0r33,-187r111,0r-87,496r-111,0r33,-187r-440,0r-110,625r632,0r37,-209r110,0r-58,332r-1096,0xm852,-1899r117,264r-105,0r-189,-264r177,0","w":1345},"\u00c9":{"d":"-29,0r19,-106r171,0r224,-1280r-171,0r18,-107r1082,0r-58,332r-111,0r37,-209r-618,0r-87,500r440,0r33,-187r111,0r-87,496r-111,0r33,-187r-440,0r-110,625r632,0r37,-209r110,0r-58,332r-1096,0xm953,-1899r178,0r-283,264r-105,0","w":1345},"\u00ca":{"d":"-29,0r19,-106r171,0r224,-1280r-171,0r18,-107r1082,0r-58,332r-111,0r37,-209r-618,0r-87,500r440,0r33,-187r111,0r-87,496r-111,0r33,-187r-440,0r-110,625r632,0r37,-209r110,0r-58,332r-1096,0xm817,-1899r159,0r161,264r-104,0r-154,-161r-212,161r-104,0","w":1345},"\u00cb":{"d":"-29,0r19,-106r171,0r224,-1280r-171,0r18,-107r1082,0r-58,332r-111,0r37,-209r-618,0r-87,500r440,0r33,-187r111,0r-87,496r-111,0r33,-187r-440,0r-110,625r632,0r37,-209r110,0r-58,332r-1096,0xm651,-1849v44,-43,113,-51,148,0v56,82,-20,198,-109,198v-59,0,-97,-53,-84,-117v5,-31,20,-58,45,-81xm1001,-1849v44,-43,113,-51,148,0v56,82,-20,198,-108,198v-59,0,-98,-52,-85,-117v6,-31,20,-58,45,-81","w":1345},"\u00cc":{"d":"343,-106r171,0r-18,106r-525,0r19,-106r171,0r224,-1280r-171,0r18,-107r525,0r-19,107r-171,0xm512,-1899r117,264r-105,0r-189,-264r177,0","w":728},"\u00cd":{"d":"343,-106r171,0r-18,106r-525,0r19,-106r171,0r224,-1280r-171,0r18,-107r525,0r-19,107r-171,0xm645,-1899r178,0r-283,264r-105,0","w":728},"\u00ce":{"d":"343,-106r171,0r-18,106r-525,0r19,-106r171,0r224,-1280r-171,0r18,-107r525,0r-19,107r-171,0xm509,-1899r159,0r161,264r-104,0r-154,-161r-212,161r-104,0","w":728},"\u00cf":{"d":"343,-106r171,0r-18,106r-525,0r19,-106r171,0r224,-1280r-171,0r18,-107r525,0r-19,107r-171,0xm311,-1849v44,-43,113,-51,148,0v56,82,-20,198,-109,198v-59,0,-97,-53,-84,-117v5,-31,20,-58,45,-81xm661,-1849v44,-43,113,-51,148,0v56,82,-20,198,-108,198v-59,0,-98,-52,-85,-117v6,-31,20,-58,45,-81","w":728},"\u00d0":{"d":"351,-106r169,0v175,0,319,-55,432,-166v113,-111,186,-269,223,-476v71,-397,-69,-637,-431,-638r-170,0r-94,542r302,0r-22,125r-302,0xm-20,0r19,-106r171,0r107,-613r-180,0r22,-125r180,0r95,-542r-171,0r18,-107r535,0v452,-5,690,273,605,745v-41,235,-138,418,-291,550v-153,132,-344,198,-575,198r-535,0","w":1487},"\u00d1":{"d":"-38,0r18,-106r181,0r224,-1280r-181,0r19,-107r345,0r599,1178r188,-1071r-180,0r18,-107r472,0r-19,107r-181,0r-247,1415r-109,0r-640,-1258r-197,1123r181,0r-19,106r-472,0xm1334,-1886v-23,122,-87,214,-217,219v-57,2,-119,-44,-160,-76v-17,-14,-39,-27,-65,-27v-54,0,-92,51,-103,103r-87,-1v13,-67,39,-119,76,-159v49,-52,114,-72,191,-50v40,12,101,68,147,86v71,28,123,-31,131,-95r87,0","w":1612},"\u00d2":{"d":"639,-78v147,0,268,-56,363,-168v95,-112,161,-279,199,-499v39,-221,30,-387,-25,-499v-55,-112,-156,-169,-303,-169v-148,0,-269,57,-364,169v-95,112,-161,278,-199,499v-38,220,-30,387,25,499v55,112,157,168,304,168xm880,-20v-152,63,-357,66,-502,-1v-147,-68,-253,-222,-282,-401v-36,-224,32,-492,113,-646v89,-169,242,-329,422,-402v81,-33,168,-50,260,-50v195,0,340,71,435,213v95,142,123,329,82,562v-43,247,-145,434,-300,577v-71,65,-147,114,-228,148xm935,-1899r117,264r-105,0r-189,-264r177,0","w":1511},"\u00d3":{"d":"639,-78v147,0,268,-56,363,-168v95,-112,161,-279,199,-499v39,-221,30,-387,-25,-499v-55,-112,-156,-169,-303,-169v-148,0,-269,57,-364,169v-95,112,-161,278,-199,499v-38,220,-30,387,25,499v55,112,157,168,304,168xm880,-20v-152,63,-357,66,-502,-1v-147,-68,-253,-222,-282,-401v-36,-224,32,-492,113,-646v89,-169,242,-329,422,-402v81,-33,168,-50,260,-50v195,0,340,71,435,213v95,142,123,329,82,562v-43,247,-145,434,-300,577v-71,65,-147,114,-228,148xm1036,-1899r178,0r-283,264r-105,0","w":1511},"\u00d4":{"d":"639,-78v147,0,268,-56,363,-168v95,-112,161,-279,199,-499v39,-221,30,-387,-25,-499v-55,-112,-156,-169,-303,-169v-148,0,-269,57,-364,169v-95,112,-161,278,-199,499v-38,220,-30,387,25,499v55,112,157,168,304,168xm880,-20v-152,63,-357,66,-502,-1v-147,-68,-253,-222,-282,-401v-36,-224,32,-492,113,-646v89,-169,242,-329,422,-402v81,-33,168,-50,260,-50v195,0,340,71,435,213v95,142,123,329,82,562v-43,247,-145,434,-300,577v-71,65,-147,114,-228,148xm900,-1899r159,0r161,264r-104,0r-154,-161r-212,161r-104,0","w":1511},"\u00d5":{"d":"639,-78v147,0,268,-56,363,-168v95,-112,161,-279,199,-499v39,-221,30,-387,-25,-499v-55,-112,-156,-169,-303,-169v-148,0,-269,57,-364,169v-95,112,-161,278,-199,499v-38,220,-30,387,25,499v55,112,157,168,304,168xm880,-20v-152,63,-357,66,-502,-1v-147,-68,-253,-222,-282,-401v-36,-224,32,-492,113,-646v89,-169,242,-329,422,-402v81,-33,168,-50,260,-50v195,0,340,71,435,213v95,142,123,329,82,562v-43,247,-145,434,-300,577v-71,65,-147,114,-228,148xm1283,-1886v-23,122,-87,214,-217,219v-57,2,-119,-44,-160,-76v-17,-14,-39,-27,-65,-27v-54,0,-92,51,-103,103r-87,-1v13,-67,39,-119,76,-159v49,-52,114,-72,191,-50v40,12,101,68,147,86v71,28,123,-31,131,-95r87,0","w":1511},"\u00d6":{"d":"639,-78v147,0,268,-56,363,-168v95,-112,161,-279,199,-499v39,-221,30,-387,-25,-499v-55,-112,-156,-169,-303,-169v-148,0,-269,57,-364,169v-95,112,-161,278,-199,499v-38,220,-30,387,25,499v55,112,157,168,304,168xm880,-20v-152,63,-357,66,-502,-1v-147,-68,-253,-222,-282,-401v-36,-224,32,-492,113,-646v89,-169,242,-329,422,-402v81,-33,168,-50,260,-50v195,0,340,71,435,213v95,142,123,329,82,562v-43,247,-145,434,-300,577v-71,65,-147,114,-228,148xm734,-1849v44,-43,113,-51,148,0v56,82,-20,198,-109,198v-59,0,-97,-53,-84,-117v5,-31,20,-58,45,-81xm1084,-1849v44,-43,113,-51,148,0v56,82,-20,198,-108,198v-59,0,-98,-52,-85,-117v6,-31,20,-58,45,-81","w":1511},"\u00d7":{"d":"1291,-1104r-417,463r417,461r-104,112r-415,-460r-415,460r-102,-112r414,-461r-414,-463r102,-113r415,461r415,-461","w":1544},"\u00d8":{"d":"1179,-1239v-54,-111,-148,-173,-306,-174v-148,0,-269,57,-364,169v-95,112,-162,278,-200,499v-24,139,-33,263,-9,393xm331,-256v53,113,150,177,308,178v147,0,268,-56,363,-168v95,-112,161,-279,199,-499v25,-137,33,-266,9,-396xm891,-1520v182,1,311,65,400,168r195,-198r60,71r-201,203v79,144,100,317,63,531v-40,230,-133,416,-278,559v-145,143,-315,215,-510,215v-186,0,-309,-67,-402,-172r-198,200r-58,-69r204,-207v-80,-141,-100,-313,-63,-526v41,-231,133,-418,279,-561v146,-143,316,-214,509,-214","w":1511},"\u00d9":{"d":"373,-1386r-172,0r19,-107r525,0r-19,107r-171,0r-136,772v-33,191,-28,324,15,399v43,75,133,113,270,113v137,0,241,-38,310,-113v69,-75,121,-208,154,-399r135,-772r-172,0r19,-107r454,0r-19,107r-171,0r-139,792v-39,227,-106,388,-201,482v-95,94,-237,141,-426,141v-397,0,-491,-186,-414,-623xm992,-1899r117,264r-105,0r-189,-264r177,0","w":1553},"\u00da":{"d":"373,-1386r-172,0r19,-107r525,0r-19,107r-171,0r-136,772v-33,191,-28,324,15,399v43,75,133,113,270,113v137,0,241,-38,310,-113v69,-75,121,-208,154,-399r135,-772r-172,0r19,-107r454,0r-19,107r-171,0r-139,792v-39,227,-106,388,-201,482v-95,94,-237,141,-426,141v-397,0,-491,-186,-414,-623xm1093,-1899r178,0r-283,264r-105,0","w":1553},"\u00db":{"d":"373,-1386r-172,0r19,-107r525,0r-19,107r-171,0r-136,772v-33,191,-28,324,15,399v43,75,133,113,270,113v137,0,241,-38,310,-113v69,-75,121,-208,154,-399r135,-772r-172,0r19,-107r454,0r-19,107r-171,0r-139,792v-39,227,-106,388,-201,482v-95,94,-237,141,-426,141v-397,0,-491,-186,-414,-623xm957,-1899r159,0r161,264r-104,0r-154,-161r-212,161r-104,0","w":1553},"\u00dc":{"d":"373,-1386r-172,0r19,-107r525,0r-19,107r-171,0r-136,772v-33,191,-28,324,15,399v43,75,133,113,270,113v137,0,241,-38,310,-113v69,-75,121,-208,154,-399r135,-772r-172,0r19,-107r454,0r-19,107r-171,0r-139,792v-39,227,-106,388,-201,482v-95,94,-237,141,-426,141v-397,0,-491,-186,-414,-623xm791,-1849v44,-43,113,-51,148,0v56,82,-20,198,-109,198v-59,0,-97,-53,-84,-117v5,-31,20,-58,45,-81xm1141,-1849v44,-43,113,-51,148,0v56,82,-20,198,-108,198v-59,0,-98,-52,-85,-117v6,-31,20,-58,45,-81","w":1553},"\u00dd":{"d":"218,0r18,-106r172,0r94,-537r-285,-743r-126,0r19,-107r499,0r-18,107r-157,0r230,604r441,-604r-151,0r19,-107r391,0r-19,107r-127,0r-531,724r-97,556r172,0r-19,106r-525,0xm888,-1899r178,0r-283,264r-105,0","w":1216},"\u00de":{"d":"401,-434r237,0v198,-3,298,-130,330,-314v34,-197,-37,-313,-220,-313r-238,0xm-29,0r19,-106r171,0r224,-1280r-171,0r18,-107r562,0r-19,107r-208,0r-38,219r282,0v256,-4,408,156,364,419v-41,244,-235,423,-511,422r-282,0r-39,220r208,0r-18,106r-562,0","w":1245},"\u00df":{"d":"924,-1210v19,-154,-51,-250,-196,-248v-179,2,-245,101,-275,268r-220,1256v-37,218,-154,357,-391,360r11,-98v63,0,111,-18,141,-56v32,-40,57,-108,74,-206r218,-1252v37,-226,201,-370,459,-370v261,1,365,143,331,419v-173,-6,-313,63,-336,201v-16,96,19,126,83,176v83,66,201,167,231,239v24,58,31,123,19,199v-31,197,-211,353,-436,351v-112,-1,-208,-30,-286,-72r41,-233r98,0v-19,132,35,206,159,206v141,0,234,-97,254,-225v9,-56,4,-103,-11,-143v-21,-54,-124,-136,-186,-185v-55,-44,-93,-87,-112,-129v-19,-43,-24,-92,-14,-147v29,-170,166,-282,344,-311","w":1231},"\u00e0":{"d":"559,-1636r167,376r-105,0r-240,-376r178,0xm357,29v-181,0,-297,-135,-295,-323v0,-34,3,-70,10,-108v41,-235,135,-414,282,-535v126,-104,265,-155,416,-155v102,0,171,10,206,29r-168,957r143,0r-19,106r-291,0r29,-166v-81,130,-185,195,-313,195xm237,-300v0,143,62,214,186,214v75,0,139,-33,191,-100v52,-67,88,-165,110,-293r85,-482v0,-19,-24,-29,-73,-29v-115,0,-218,50,-307,150v-89,100,-149,242,-181,425v-7,43,-11,81,-11,115","w":1098},"\u00e1":{"d":"823,-1638r179,0r-372,376r-106,0xm357,29v-181,0,-297,-135,-295,-323v0,-34,3,-70,10,-108v41,-235,135,-414,282,-535v126,-104,265,-155,416,-155v102,0,171,10,206,29r-168,957r143,0r-19,106r-291,0r29,-166v-81,130,-185,195,-313,195xm237,-300v0,143,62,214,186,214v75,0,139,-33,191,-100v52,-67,88,-165,110,-293r85,-482v0,-19,-24,-29,-73,-29v-115,0,-218,50,-307,150v-89,100,-149,242,-181,425v-7,43,-11,81,-11,115","w":1098},"\u00e2":{"d":"642,-1638r151,0r145,376r-104,0r-137,-260r-228,260r-105,0xm357,29v-181,0,-297,-135,-295,-323v0,-34,3,-70,10,-108v41,-235,135,-414,282,-535v126,-104,265,-155,416,-155v102,0,171,10,206,29r-168,957r143,0r-19,106r-291,0r29,-166v-81,130,-185,195,-313,195xm237,-300v0,143,62,214,186,214v75,0,139,-33,191,-100v52,-67,88,-165,110,-293r85,-482v0,-19,-24,-29,-73,-29v-115,0,-218,50,-307,150v-89,100,-149,242,-181,425v-7,43,-11,81,-11,115","w":1098},"\u00e3":{"d":"799,-1309v-104,0,-126,-107,-189,-147v-37,-23,-72,-3,-97,32v-19,26,-35,64,-46,115r-87,0v17,-90,45,-160,84,-209v39,-49,86,-73,141,-73v85,0,116,66,156,116v19,25,29,39,63,39v26,0,49,-13,68,-40v19,-27,34,-65,45,-115r86,0v-17,90,-45,160,-84,209v-39,49,-85,73,-140,73xm357,29v-181,0,-297,-135,-295,-323v0,-34,3,-70,10,-108v41,-235,135,-414,282,-535v126,-104,265,-155,416,-155v102,0,171,10,206,29r-168,957r143,0r-19,106r-291,0r29,-166v-81,130,-185,195,-313,195xm237,-300v0,143,62,214,186,214v75,0,139,-33,191,-100v52,-67,88,-165,110,-293r85,-482v0,-19,-24,-29,-73,-29v-115,0,-218,50,-307,150v-89,100,-149,242,-181,425v-7,43,-11,81,-11,115","w":1098},"\u00e4":{"d":"452,-1534v44,-43,114,-51,148,0v54,82,-18,199,-110,199v-60,0,-96,-53,-83,-117v6,-32,21,-59,45,-82xm803,-1534v43,-42,114,-51,147,0v54,82,-18,199,-109,199v-61,0,-97,-52,-84,-117v5,-32,22,-58,46,-82xm357,29v-181,0,-297,-135,-295,-323v0,-34,3,-70,10,-108v41,-235,135,-414,282,-535v126,-104,265,-155,416,-155v102,0,171,10,206,29r-168,957r143,0r-19,106r-291,0r29,-166v-81,130,-185,195,-313,195xm237,-300v0,143,62,214,186,214v75,0,139,-33,191,-100v52,-67,88,-165,110,-293r85,-482v0,-19,-24,-29,-73,-29v-115,0,-218,50,-307,150v-89,100,-149,242,-181,425v-7,43,-11,81,-11,115","w":1098},"\u00e5":{"d":"357,29v-181,0,-297,-135,-295,-323v0,-34,3,-70,10,-108v41,-235,135,-414,282,-535v126,-104,265,-155,416,-155v102,0,171,10,206,29r-168,957r143,0r-19,106r-291,0r29,-166v-81,130,-185,195,-313,195xm237,-300v0,143,62,214,186,214v75,0,139,-33,191,-100v52,-67,88,-165,110,-293r85,-482v0,-19,-24,-29,-73,-29v-115,0,-218,50,-307,150v-89,100,-149,242,-181,425v-7,43,-11,81,-11,115xm930,-1524v-23,136,-148,273,-294,275v-138,2,-225,-127,-200,-275v23,-137,146,-272,294,-274v137,-2,225,126,200,274xm657,-1372v116,0,213,-152,142,-259v-42,-64,-141,-53,-195,-1v-51,48,-86,149,-37,216v21,29,51,44,90,44","w":1098},"\u00e6":{"d":"1373,-632v67,-44,101,-107,101,-190v0,-114,-68,-171,-204,-171v-81,0,-148,34,-204,102v-56,68,-101,194,-135,377v190,-9,337,-49,442,-118xm912,-408v-23,190,44,338,222,338v69,0,121,-12,156,-35v61,-42,99,-90,113,-144r122,0v-24,85,-81,157,-171,216v-62,41,-155,62,-278,62v-143,0,-247,-65,-310,-196v-90,134,-222,196,-410,196v-180,0,-296,-135,-294,-323v0,-34,3,-70,10,-108v41,-235,135,-414,283,-535v125,-103,264,-155,415,-155v102,0,171,10,206,29r-18,97v96,-84,209,-126,340,-126v235,0,352,92,352,277v0,266,-246,402,-738,407xm248,-415v-7,43,-11,83,-11,118v0,141,62,211,186,211v75,0,139,-33,190,-100v51,-67,88,-165,111,-293r84,-482v0,-19,-24,-29,-72,-29v-115,0,-218,50,-307,150v-89,100,-149,242,-181,425","w":1732},"\u00e7":{"d":"200,240v59,31,162,54,220,8v39,-32,55,-77,35,-144v-8,-29,-22,-64,-42,-104r88,0v31,43,53,83,65,120v59,194,-104,305,-310,269v-26,-4,-52,-10,-78,-18xm267,-345v-2,162,60,277,208,275v72,0,133,-21,183,-62v50,-41,89,-104,119,-187r134,0v-43,113,-104,200,-181,259v-77,59,-168,89,-274,89v-236,0,-382,-171,-378,-414v4,-241,84,-428,212,-555v141,-141,321,-184,539,-128v57,16,114,39,169,71r-48,272r-96,0v5,-174,-51,-269,-217,-268v-89,0,-162,40,-223,115v-80,98,-144,334,-147,533","w":1032},"\u00e8":{"d":"593,-1636r167,376r-105,0r-240,-376r178,0xm434,29v-215,0,-362,-182,-356,-415v6,-239,84,-424,210,-552v101,-103,224,-154,368,-154v235,0,352,92,352,277v0,135,-61,236,-184,302v-126,67,-311,102,-554,105v-23,190,44,338,222,338v70,0,122,-12,156,-35v61,-42,99,-90,113,-144r122,0v-24,85,-81,157,-170,216v-63,41,-155,62,-279,62xm732,-632v67,-44,100,-107,100,-190v0,-114,-68,-171,-204,-171v-80,0,-148,34,-204,102v-56,68,-101,194,-135,377v193,-10,340,-49,443,-118","w":1090},"\u00e9":{"d":"857,-1638r179,0r-372,376r-106,0xm434,29v-215,0,-362,-182,-356,-415v6,-239,84,-424,210,-552v101,-103,224,-154,368,-154v235,0,352,92,352,277v0,135,-61,236,-184,302v-126,67,-311,102,-554,105v-23,190,44,338,222,338v70,0,122,-12,156,-35v61,-42,99,-90,113,-144r122,0v-24,85,-81,157,-170,216v-63,41,-155,62,-279,62xm732,-632v67,-44,100,-107,100,-190v0,-114,-68,-171,-204,-171v-80,0,-148,34,-204,102v-56,68,-101,194,-135,377v193,-10,340,-49,443,-118","w":1090},"\u00ea":{"d":"676,-1638r151,0r145,376r-104,0r-137,-260r-228,260r-105,0xm434,29v-215,0,-362,-182,-356,-415v6,-239,84,-424,210,-552v101,-103,224,-154,368,-154v235,0,352,92,352,277v0,135,-61,236,-184,302v-126,67,-311,102,-554,105v-23,190,44,338,222,338v70,0,122,-12,156,-35v61,-42,99,-90,113,-144r122,0v-24,85,-81,157,-170,216v-63,41,-155,62,-279,62xm732,-632v67,-44,100,-107,100,-190v0,-114,-68,-171,-204,-171v-80,0,-148,34,-204,102v-56,68,-101,194,-135,377v193,-10,340,-49,443,-118","w":1090},"\u00eb":{"d":"486,-1534v44,-43,114,-51,148,0v54,82,-18,199,-110,199v-60,0,-96,-53,-83,-117v6,-32,21,-59,45,-82xm837,-1534v43,-42,114,-51,147,0v54,82,-18,199,-109,199v-61,0,-97,-52,-84,-117v5,-32,22,-58,46,-82xm434,29v-215,0,-362,-182,-356,-415v6,-239,84,-424,210,-552v101,-103,224,-154,368,-154v235,0,352,92,352,277v0,135,-61,236,-184,302v-126,67,-311,102,-554,105v-23,190,44,338,222,338v70,0,122,-12,156,-35v61,-42,99,-90,113,-144r122,0v-24,85,-81,157,-170,216v-63,41,-155,62,-279,62xm732,-632v67,-44,100,-107,100,-190v0,-114,-68,-171,-204,-171v-80,0,-148,34,-204,102v-56,68,-101,194,-135,377v193,-10,340,-49,443,-118","w":1090},"\u00ec":{"d":"342,-1636r167,376r-105,0r-240,-376r178,0xm316,-106r156,0r-18,106r-322,0r168,-956r-159,0r18,-107r324,0","w":589},"\u00ed":{"d":"606,-1638r179,0r-372,376r-106,0xm316,-106r156,0r-18,106r-322,0r168,-956r-159,0r18,-107r324,0","w":589},"\u00ee":{"d":"425,-1638r151,0r145,376r-104,0r-137,-260r-228,260r-105,0xm316,-106r156,0r-18,106r-322,0r168,-956r-159,0r18,-107r324,0","w":589},"\u00ef":{"d":"235,-1534v44,-43,114,-51,148,0v54,82,-18,199,-110,199v-60,0,-96,-53,-83,-117v6,-32,21,-59,45,-82xm586,-1534v43,-42,114,-51,147,0v54,82,-18,199,-109,199v-61,0,-97,-52,-84,-117v5,-32,22,-58,46,-82xm316,-106r156,0r-18,106r-322,0r168,-956r-159,0r18,-107r324,0","w":589},"\u00f0":{"d":"768,-928v-48,-11,-93,-18,-147,-18v-103,0,-186,36,-248,107v-62,71,-106,182,-132,331v-25,140,-21,248,13,324v34,76,94,114,179,114v87,0,158,-39,219,-114v115,-143,187,-495,116,-744xm380,-1556v140,36,253,100,345,188r316,-150r20,78r-282,133v91,111,152,233,185,363v33,130,37,267,12,412v-29,169,-96,306,-198,408v-102,102,-223,153,-362,153v-281,0,-425,-239,-367,-547v30,-157,91,-284,193,-381v134,-127,291,-170,501,-131v-16,-82,-51,-150,-93,-215r-316,149r-19,-78r287,-135v-60,-77,-145,-132,-253,-161","w":1109},"\u00f1":{"d":"826,-1309v-104,0,-126,-107,-189,-147v-37,-23,-72,-3,-97,32v-19,26,-35,64,-46,115r-87,0v17,-90,45,-160,84,-209v39,-49,86,-73,141,-73v85,0,116,66,156,116v19,25,29,39,63,39v26,0,48,-13,67,-40v19,-27,35,-65,46,-115r86,0v-17,90,-45,160,-84,209v-39,49,-85,73,-140,73xm852,-790v2,-117,-42,-168,-154,-168v-77,0,-141,32,-192,94v-51,62,-86,153,-107,272r-104,592r-166,0r168,-956r-159,0r19,-107r324,0r-33,189v43,-72,93,-126,148,-163v55,-37,115,-55,180,-55v172,0,251,89,250,264v0,45,-5,95,-15,152r-100,570r148,0r-19,106r-314,0r108,-618v12,-69,18,-126,18,-172","w":1187},"\u00f2":{"d":"602,-1636r167,376r-105,0r-240,-376r178,0xm267,-348v-3,162,60,278,207,278v89,0,161,-41,222,-117v80,-100,143,-332,146,-530v3,-161,-61,-276,-207,-276v-89,0,-160,41,-221,117v-79,99,-143,331,-147,528xm652,-1092v237,0,383,168,379,413v-4,241,-83,427,-211,555v-102,102,-224,153,-364,153v-236,0,-382,-171,-378,-414v4,-241,84,-427,212,-554v102,-102,222,-153,362,-153","w":1109},"\u00f3":{"d":"866,-1638r179,0r-372,376r-106,0xm267,-348v-3,162,60,278,207,278v89,0,161,-41,222,-117v80,-100,143,-332,146,-530v3,-161,-61,-276,-207,-276v-89,0,-160,41,-221,117v-79,99,-143,331,-147,528xm652,-1092v237,0,383,168,379,413v-4,241,-83,427,-211,555v-102,102,-224,153,-364,153v-236,0,-382,-171,-378,-414v4,-241,84,-427,212,-554v102,-102,222,-153,362,-153","w":1109},"\u00f4":{"d":"685,-1638r151,0r145,376r-104,0r-137,-260r-228,260r-105,0xm267,-348v-3,162,60,278,207,278v89,0,161,-41,222,-117v80,-100,143,-332,146,-530v3,-161,-61,-276,-207,-276v-89,0,-160,41,-221,117v-79,99,-143,331,-147,528xm652,-1092v237,0,383,168,379,413v-4,241,-83,427,-211,555v-102,102,-224,153,-364,153v-236,0,-382,-171,-378,-414v4,-241,84,-427,212,-554v102,-102,222,-153,362,-153","w":1109},"\u00f5":{"d":"842,-1309v-104,0,-126,-107,-189,-147v-37,-23,-72,-3,-97,32v-19,26,-35,64,-46,115r-87,0v17,-90,45,-160,84,-209v39,-49,86,-73,141,-73v85,0,116,66,156,116v19,25,29,39,63,39v26,0,48,-13,67,-40v19,-27,35,-65,46,-115r86,0v-17,90,-45,160,-84,209v-39,49,-85,73,-140,73xm267,-348v-3,162,60,278,207,278v89,0,161,-41,222,-117v80,-100,143,-332,146,-530v3,-161,-61,-276,-207,-276v-89,0,-160,41,-221,117v-79,99,-143,331,-147,528xm652,-1092v237,0,383,168,379,413v-4,241,-83,427,-211,555v-102,102,-224,153,-364,153v-236,0,-382,-171,-378,-414v4,-241,84,-427,212,-554v102,-102,222,-153,362,-153","w":1109},"\u00f6":{"d":"495,-1534v44,-43,114,-51,148,0v54,82,-18,199,-110,199v-60,0,-96,-53,-83,-117v6,-32,21,-59,45,-82xm846,-1534v43,-42,114,-51,147,0v54,82,-18,199,-109,199v-61,0,-97,-52,-84,-117v5,-32,22,-58,46,-82xm267,-348v-3,162,60,278,207,278v89,0,161,-41,222,-117v80,-100,143,-332,146,-530v3,-161,-61,-276,-207,-276v-89,0,-160,41,-221,117v-79,99,-143,331,-147,528xm652,-1092v237,0,383,168,379,413v-4,241,-83,427,-211,555v-102,102,-224,153,-364,153v-236,0,-382,-171,-378,-414v4,-241,84,-427,212,-554v102,-102,222,-153,362,-153","w":1109},"\u00f7":{"d":"772,-879v-69,0,-120,-61,-120,-133v0,-70,53,-133,120,-133v67,0,120,64,120,133v0,70,-53,133,-120,133xm772,-139v-69,0,-120,-63,-120,-133v0,-70,53,-134,120,-134v67,0,120,64,120,134v0,69,-53,133,-120,133xm195,-723r1154,0r0,162r-1154,0r0,-162","w":1544},"\u00f8":{"d":"817,-879v-30,-71,-86,-113,-182,-114v-88,0,-162,39,-221,117v-88,114,-155,353,-144,583xm292,-190v31,75,84,120,182,120v88,0,160,-41,221,-118v75,-95,133,-296,146,-480v3,-40,2,-78,-1,-112xm652,-1092v120,0,208,38,269,101r154,-166r58,63r-161,172v58,100,72,236,45,390v-30,169,-95,306,-197,408v-102,102,-224,153,-364,153v-122,-1,-207,-40,-270,-107r-159,172r-57,-63r165,-178v-55,-103,-70,-233,-43,-385v29,-169,96,-305,198,-407v102,-102,223,-153,362,-153","w":1109},"\u00f9":{"d":"573,-1636r167,376r-105,0r-240,-376r178,0xm335,-273v-2,117,41,167,154,167v77,0,140,-31,191,-94v51,-63,88,-154,109,-273r103,-590r166,0r-168,957r157,0r-19,106r-322,0r33,-188v-43,71,-92,125,-147,162v-55,37,-115,55,-179,55v-173,-1,-253,-87,-252,-264v0,-45,5,-95,15,-152r100,-569r-150,0r19,-107r316,0r-108,619v-12,69,-18,126,-18,171","w":1187},"\u00fa":{"d":"837,-1638r179,0r-372,376r-106,0xm335,-273v-2,117,41,167,154,167v77,0,140,-31,191,-94v51,-63,88,-154,109,-273r103,-590r166,0r-168,957r157,0r-19,106r-322,0r33,-188v-43,71,-92,125,-147,162v-55,37,-115,55,-179,55v-173,-1,-253,-87,-252,-264v0,-45,5,-95,15,-152r100,-569r-150,0r19,-107r316,0r-108,619v-12,69,-18,126,-18,171","w":1187},"\u00fb":{"d":"656,-1638r151,0r145,376r-104,0r-137,-260r-228,260r-105,0xm335,-273v-2,117,41,167,154,167v77,0,140,-31,191,-94v51,-63,88,-154,109,-273r103,-590r166,0r-168,957r157,0r-19,106r-322,0r33,-188v-43,71,-92,125,-147,162v-55,37,-115,55,-179,55v-173,-1,-253,-87,-252,-264v0,-45,5,-95,15,-152r100,-569r-150,0r19,-107r316,0r-108,619v-12,69,-18,126,-18,171","w":1187},"\u00fc":{"d":"466,-1534v44,-43,114,-51,148,0v54,82,-18,199,-110,199v-60,0,-96,-53,-83,-117v6,-32,21,-59,45,-82xm817,-1534v43,-42,114,-51,147,0v54,82,-18,199,-109,199v-61,0,-97,-52,-84,-117v5,-32,22,-58,46,-82xm335,-273v-2,117,41,167,154,167v77,0,140,-31,191,-94v51,-63,88,-154,109,-273r103,-590r166,0r-168,957r157,0r-19,106r-322,0r33,-188v-43,71,-92,125,-147,162v-55,37,-115,55,-179,55v-173,-1,-253,-87,-252,-264v0,-45,5,-95,15,-152r100,-569r-150,0r19,-107r316,0r-108,619v-12,69,-18,126,-18,171","w":1187},"\u00fd":{"d":"833,-1638r179,0r-372,376r-106,0xm52,221v-10,79,17,131,96,131v105,0,204,-51,296,-153r-226,-1155r-109,0r19,-107r247,0r213,1055v97,-161,157,-274,180,-340v75,-207,121,-407,136,-599r-109,0r19,-107r246,0v-59,381,-141,673,-246,874v-153,295,-294,483,-414,576v-72,56,-342,82,-468,28r36,-203r84,0","w":1041},"\u00fe":{"d":"906,-712v2,-154,-58,-265,-198,-265v-84,0,-154,34,-210,101v-56,67,-95,165,-117,292v-13,74,-32,171,-32,247v0,150,64,251,204,251v84,0,153,-39,211,-113v77,-97,138,-322,142,-513xm584,29v-158,-1,-237,-69,-276,-195r-103,592r-166,0r328,-1876r-159,0r18,-106r325,0r-115,659v79,-117,170,-195,344,-195v117,0,204,52,261,155v59,107,66,257,40,405v-30,166,-89,302,-182,406v-93,104,-198,155,-315,155","w":1179},"\u00ff":{"d":"462,-1534v44,-43,114,-51,148,0v54,82,-18,199,-110,199v-60,0,-96,-53,-83,-117v6,-32,21,-59,45,-82xm813,-1534v43,-42,114,-51,147,0v54,82,-18,199,-109,199v-61,0,-97,-52,-84,-117v5,-32,22,-58,46,-82xm52,221v-10,79,17,131,96,131v105,0,204,-51,296,-153r-226,-1155r-109,0r19,-107r247,0r213,1055v97,-161,157,-274,180,-340v75,-207,121,-407,136,-599r-109,0r19,-107r246,0v-59,381,-141,673,-246,874v-153,295,-294,483,-414,576v-72,56,-342,82,-468,28r36,-203r84,0","w":1041},"\u0152":{"d":"911,-106r224,-1280r-168,0v-175,0,-319,55,-431,164v-112,109,-185,267,-222,472v-72,397,67,644,429,644r168,0xm1818,0r-1106,0v-453,4,-689,-275,-604,-750v42,-234,138,-416,290,-547v152,-131,344,-196,575,-196r1091,0r-58,332r-111,0r37,-209r-618,0r-87,500r443,0r32,-187r109,0r-87,496r-109,0r33,-187r-443,0r-109,625r633,0r36,-209r111,0","w":2096},"\u0153":{"d":"474,-70v89,0,163,-39,222,-117v59,-78,102,-193,128,-345v26,-152,24,-266,-8,-344v-32,-78,-92,-117,-181,-117v-89,0,-162,39,-221,117v-59,78,-102,192,-128,344v-26,152,-24,267,8,345v32,78,91,117,180,117xm1463,-632v67,-44,101,-107,101,-190v0,-114,-68,-171,-204,-171v-81,0,-148,34,-204,102v-56,68,-101,194,-136,377v192,-10,340,-49,443,-118xm652,-1092v157,0,274,70,332,193v11,-13,23,-26,36,-39v101,-103,224,-154,368,-154v235,0,352,92,352,277v0,135,-62,236,-185,302v-125,67,-310,102,-553,105v-3,25,-4,49,-4,72v-2,163,73,268,226,266v70,0,122,-12,156,-35v61,-42,99,-90,113,-144r122,0v-24,85,-81,157,-171,216v-62,41,-154,62,-278,62v-140,0,-252,-78,-310,-194v-11,14,-24,28,-37,41v-102,102,-223,153,-363,153v-236,0,-382,-171,-378,-414v4,-241,84,-427,212,-554v102,-102,222,-153,362,-153","w":1822},"\u0178":{"d":"218,0r18,-106r172,0r94,-537r-285,-743r-126,0r19,-107r499,0r-18,107r-157,0r230,604r441,-604r-151,0r19,-107r391,0r-19,107r-127,0r-531,724r-97,556r172,0r-19,106r-525,0xm586,-1849v44,-43,113,-51,148,0v56,82,-20,198,-109,198v-59,0,-97,-53,-84,-117v5,-31,20,-58,45,-81xm936,-1849v44,-43,113,-51,148,0v56,82,-20,198,-108,198v-59,0,-98,-52,-85,-117v6,-31,20,-58,45,-81","w":1216},"\u02c6":{"d":"591,-1638r151,0r145,376r-104,0r-137,-260r-228,260r-105,0","w":921},"\u02dc":{"d":"748,-1309v-104,0,-126,-107,-189,-147v-37,-23,-72,-3,-97,32v-19,26,-35,64,-46,115r-87,0v17,-90,45,-160,84,-209v39,-49,86,-73,141,-73v85,0,116,66,156,116v19,25,29,39,63,39v26,0,48,-13,67,-40v19,-27,35,-65,46,-115r86,0v-17,90,-45,160,-84,209v-39,49,-85,73,-140,73","w":921},"\u2013":{"d":"93,-610r759,0r-23,133r-760,0","w":921},"\u2014":{"d":"93,-610r1681,0r-23,133r-1682,0","w":1843},"\u2018":{"d":"524,-1440v-124,96,-178,231,-206,426r-174,0v45,-244,146,-388,324,-506","w":585},"\u2019":{"d":"100,-1067v126,-94,180,-231,208,-426r175,0v-47,243,-147,388,-327,506","w":585},"\u201a":{"d":"51,199v136,-96,209,-226,238,-426r177,0v-53,240,-169,390,-357,506","w":585},"\u201c":{"d":"880,-1440v-124,96,-177,231,-205,426r-176,0v48,-244,144,-387,325,-506xm524,-1440v-124,96,-178,231,-206,426r-174,0v45,-244,146,-388,324,-506","w":942},"\u201d":{"d":"100,-1067v126,-94,180,-231,208,-426r175,0v-47,243,-147,388,-327,506xm458,-1067v124,-95,177,-231,205,-426r175,0v-44,244,-146,387,-323,506","w":942},"\u201e":{"d":"51,199v136,-96,209,-226,238,-426r177,0v-53,240,-169,390,-357,506xm406,199v137,-96,210,-225,239,-426r177,0v-52,241,-169,391,-358,506","w":954},"\u2022":{"d":"544,-465v-152,0,-268,-140,-268,-297v0,-156,117,-295,269,-295v151,0,266,139,266,295v0,157,-116,297,-267,297","w":1087},"\u2026":{"d":"1434,-10v-61,-94,23,-228,125,-228v65,0,109,63,96,134v-12,65,-72,133,-143,133v-34,0,-61,-13,-78,-39xm820,-10v-61,-94,24,-228,125,-228v65,0,108,63,96,134v-11,65,-72,133,-143,133v-34,0,-61,-13,-78,-39xm206,-10v-61,-94,24,-228,125,-228v66,0,108,62,96,134v-11,65,-72,133,-143,133v-34,0,-61,-13,-78,-39","w":1843},"\u2039":{"d":"645,-1059r-21,115r-327,344r207,344r-20,115r-349,-418r14,-82","w":737},"\u203a":{"d":"254,-1059r349,418r-14,82r-496,418r21,-115r326,-344r-206,-344","w":737},"\u20ac":{"d":"962,-395v-50,137,-116,242,-198,315v-82,73,-175,109,-278,109v-114,0,-202,-51,-266,-152v-64,-101,-95,-240,-92,-416r-171,0r58,-104r122,0r14,-102v4,-23,8,-42,11,-58v3,-16,7,-32,11,-47r-162,0r59,-104r130,0v59,-176,138,-314,237,-415v142,-144,293,-189,493,-120v56,19,117,54,183,100r-59,342r-96,0v9,-120,-3,-212,-38,-277v-35,-65,-89,-97,-162,-97v-81,0,-154,40,-217,119v-63,79,-115,195,-154,348r453,0r-60,104r-417,0r-22,105r-16,102r337,0r-60,104r-288,0v-13,153,-2,269,33,349v35,80,94,120,175,120v69,0,131,-28,186,-84v55,-56,100,-136,134,-241r120,0"},"\u2122":{"d":"1006,-1493r157,270r163,-270r197,0r0,66r-78,0r0,446r78,0r0,66r-257,0r0,-66r78,0r0,-426r-188,311r-39,0r-179,-311r0,426r75,0r0,66r-217,0r0,-66r78,0r0,-446r-78,0r0,-66r210,0xm218,-1493r501,0r0,170r-61,0r0,-104r-138,0r0,446r78,0r0,66r-259,0r0,-66r78,0r0,-446r-141,0r0,104r-58,0r0,-170","w":1843}}});
