/*!
 * The following copyright notice may not be removed under any circumstances.
 * 
 * Copyright:
 * Copyright (c) 2003 by Bitstream, Inc. All Rights Reserved.
 * DejaVu changes are in public domain
 * 
 * 
 * Manufacturer:
 * DejaVu fonts team
 * 
 * Vendor URL:
 * http://dejavu.sourceforge.net
 * 
 * License information:
 * http://dejavu.sourceforge.net/wiki/index.php/License
 */
Cufon.registerFont({"w":1303,"face":{"font-family":"DejaVu Serif","font-weight":400,"font-stretch":"normal","units-per-em":"2048","panose-1":"2 6 6 3 5 6 5 2 2 4","ascent":"1556","descent":"-492","x-height":"29","bbox":"-197 -1901 2165 483","underline-thickness":"90","underline-position":"-85","unicode-range":"U+0020-U+2122"},"glyphs":{" ":{"w":651},"!":{"d":"412,29v-74,0,-133,-60,-133,-133v0,-73,59,-134,133,-134v72,0,133,62,133,134v0,71,-62,133,-133,133xm283,-1493r258,0r-68,821r0,252r-123,0r0,-252","w":823},"\"":{"d":"360,-1493r0,555r-159,0r0,-555r159,0xm741,-1493r0,555r-159,0r0,-555r159,0","w":942},"#":{"d":"1042,-901r-282,0r-84,334r285,0xm901,-1470r-102,415r282,0r103,-415r172,0r-105,415r308,0r0,154r-347,0r-82,334r314,0r0,153r-352,0r-103,414r-172,0r105,-414r-283,0r-104,414r-170,0r102,-414r-309,0r0,-153r348,0r82,-334r-316,0r0,-154r355,0r104,-415r170,0","w":1716},"$":{"d":"690,-68v138,-11,230,-76,232,-215v0,-57,-20,-106,-59,-146v-39,-40,-97,-70,-173,-91r0,452xm590,-1187v-127,7,-216,74,-217,200v0,53,18,98,53,133v35,35,89,64,164,86r0,-419xm590,31v-157,-5,-287,-46,-414,-103r0,-276r108,0v6,188,111,277,306,280r0,-485v-153,-43,-261,-91,-323,-147v-62,-56,-93,-130,-93,-222v2,-232,179,-355,416,-366r0,-268r100,0r0,268v144,12,266,47,377,98r0,262r-109,0v-15,-153,-111,-248,-268,-259r0,452v164,45,278,95,344,153v66,58,99,135,99,232v0,111,-39,199,-116,266v-77,67,-186,105,-327,115r0,270r-100,0r0,-270"},"%":{"d":"594,-1344v-65,-109,-208,-107,-272,0v-61,103,-62,360,0,463v66,108,207,110,272,1v61,-103,61,-361,0,-464xm1624,-610v-65,-110,-208,-109,-272,0v-61,103,-61,361,1,464v65,108,207,109,271,0v61,-104,61,-361,0,-464xm1143,-377v0,-234,124,-407,346,-407v220,-1,344,175,344,407v0,233,-124,406,-344,406v-222,1,-346,-173,-346,-406xm1364,-1520r152,0r-934,1549r-152,0xm113,-1114v0,-232,124,-406,344,-406v220,-1,346,173,346,406v0,235,-123,407,-346,407v-222,0,-344,-173,-344,-407","w":1946},"&":{"d":"350,-483v-5,219,181,395,402,391v152,-3,270,-58,354,-139r-582,-613v-99,90,-170,197,-174,361xm1518,-741v-25,187,-96,333,-199,452r172,183r235,0r0,106r-401,0r-137,-145v-126,105,-271,171,-481,174v-325,5,-561,-178,-560,-490v0,-89,26,-172,77,-249v51,-77,128,-149,231,-216v-58,-70,-99,-139,-99,-248v0,-225,185,-350,426,-346v127,3,239,33,361,68r0,258r-113,0v-17,-138,-101,-217,-252,-219v-129,-1,-232,79,-231,203v0,41,11,82,34,122v23,40,70,98,142,173r516,544v84,-98,142,-215,158,-370r-180,0r0,-107r473,0r0,107r-172,0","w":1823},"'":{"d":"360,-1493r0,555r-159,0r0,-555r159,0","w":563},"(":{"d":"653,319v-325,-145,-491,-466,-491,-937v0,-472,166,-793,491,-938r0,98v-103,71,-173,171,-221,298v-86,230,-86,852,0,1082v48,127,118,228,221,299r0,98","w":799},")":{"d":"145,-1556v326,145,492,466,492,938v0,472,-166,792,-492,937r0,-98v103,-71,173,-172,221,-299v87,-231,87,-852,0,-1082v-48,-127,-118,-227,-221,-298r0,-98","w":799},"*":{"d":"991,-1237r-391,182r391,185r-76,118r-348,-217r13,381r-136,0r13,-381r-348,217r-76,-118r391,-183r-391,-184r76,-119r348,217r-13,-381r136,0r-13,381r348,-217","w":1024},"+":{"d":"938,-1284r0,561r561,0r0,162r-561,0r0,561r-160,0r0,-561r-561,0r0,-162r561,0r0,-561r160,0","w":1716},",":{"d":"74,199v125,-92,187,-213,182,-426r197,0v-15,254,-121,396,-299,506","w":651},"-":{"d":"90,-627r512,0r0,156r-512,0r0,-156","w":692},".":{"d":"326,29v-74,0,-133,-60,-133,-133v0,-73,59,-134,133,-134v72,0,133,62,133,134v0,71,-62,133,-133,133","w":651},"\/":{"d":"530,-1493r160,0r-530,1683r-160,0","w":690},"0":{"d":"651,-70v102,0,178,-56,229,-168v51,-112,76,-281,76,-507v0,-227,-25,-396,-76,-508v-51,-112,-127,-168,-229,-168v-102,0,-178,56,-229,168v-51,112,-76,281,-76,508v0,226,25,395,76,507v51,112,127,168,229,168xm651,29v-162,0,-288,-68,-379,-204v-91,-136,-137,-326,-137,-570v0,-245,46,-435,137,-571v91,-136,217,-204,379,-204v163,0,289,68,380,204v91,136,136,326,136,571v0,244,-45,434,-136,570v-91,136,-217,204,-380,204"},"1":{"d":"291,0r0,-106r260,0r0,-1242r-301,195r0,-131r364,-236r138,0r0,1414r260,0r0,106r-721,0"},"2":{"d":"575,-1421v-197,1,-295,100,-313,284r-112,0r0,-266v123,-65,261,-115,428,-117v289,-4,503,147,503,420v0,146,-102,321,-306,524r-413,412r623,0r0,-184r117,0r0,348r-963,0r0,-109r453,-452v100,-100,171,-191,214,-275v43,-84,64,-172,64,-264v0,-194,-107,-322,-295,-321"},"3":{"d":"608,-1421v-182,0,-280,88,-297,254r-112,0r0,-263v132,-49,269,-90,426,-90v146,0,260,31,342,94v82,63,123,151,123,263v0,201,-141,312,-326,348v227,30,386,168,387,412v0,139,-47,247,-141,321v-94,74,-228,111,-404,111v-177,0,-318,-40,-450,-101r0,-290r112,0v13,193,134,292,342,292v202,0,330,-128,330,-331v0,-234,-124,-357,-358,-357r-95,0r0,-102v243,10,400,-66,400,-291v1,-176,-102,-271,-279,-270"},"4":{"d":"715,-506r0,-794r-510,794r510,0xm1155,0r-680,0r0,-106r240,0r0,-293r-652,0r0,-109r654,-1012r198,0r0,1014r285,0r0,107r-285,0r0,293r240,0r0,106"},"5":{"d":"606,-874v-134,0,-216,50,-280,131r-86,0r0,-750r790,0r0,164r-684,0r0,428v69,-48,161,-71,277,-72v315,-3,522,189,522,500v0,322,-209,506,-539,502v-166,-2,-303,-43,-432,-101r0,-290r113,0v11,187,122,293,319,292v225,-1,328,-162,328,-403v0,-241,-102,-401,-328,-401"},"6":{"d":"670,-70v94,0,166,-35,217,-104v51,-69,76,-168,76,-297v0,-129,-25,-228,-76,-297v-51,-69,-123,-104,-217,-104v-95,0,-168,33,-218,100v-50,67,-75,163,-75,289v0,133,25,235,76,306v51,71,123,107,217,107xm983,-1214v-15,-133,-105,-207,-252,-207v-129,0,-226,49,-289,147v-63,98,-96,249,-98,452v83,-91,187,-147,348,-149v298,-3,482,198,482,500v0,301,-208,500,-512,500v-169,0,-298,-63,-389,-189v-91,-126,-136,-305,-136,-538v0,-261,54,-464,161,-607v107,-143,259,-215,454,-215v125,1,239,25,344,60r0,246r-113,0"},"7":{"d":"1155,-1391r-584,1391r-149,0r557,-1329r-690,0r0,184r-117,0r0,-348r983,0r0,102"},"8":{"d":"651,-70v198,0,303,-133,303,-338v0,-204,-105,-337,-303,-337v-198,0,-303,133,-303,337v0,205,105,338,303,338xm651,-844v170,1,262,-114,262,-289v0,-174,-93,-288,-262,-288v-168,0,-262,114,-262,288v0,175,93,289,262,289xm1116,-1133v0,198,-129,307,-311,338v211,26,360,162,360,387v0,295,-203,437,-514,437v-310,0,-514,-142,-514,-437v0,-225,150,-362,361,-387v-183,-31,-312,-139,-312,-338v0,-253,196,-387,465,-387v269,0,465,133,465,387"},"9":{"d":"319,-279v16,132,105,209,252,209v129,0,226,-48,289,-146v63,-98,96,-249,98,-453v-82,92,-189,147,-350,149v-297,3,-479,-199,-479,-500v0,-301,208,-500,512,-500v169,0,299,62,389,188v90,126,135,306,135,539v0,261,-54,464,-161,607v-107,143,-258,215,-453,215v-125,-1,-239,-25,-344,-60r0,-248r112,0xm633,-1421v-95,0,-167,34,-217,103v-50,69,-76,169,-76,298v0,129,26,229,76,298v50,69,122,104,217,104v95,0,167,-33,217,-100v50,-67,76,-164,76,-290v0,-133,-25,-235,-76,-306v-51,-71,-123,-107,-217,-107"},":":{"d":"346,29v-74,0,-133,-60,-133,-133v0,-73,60,-134,133,-134v73,0,133,61,133,134v0,73,-59,133,-133,133xm346,-623v-73,0,-133,-60,-133,-133v0,-73,60,-133,133,-133v74,0,133,59,133,133v0,74,-59,133,-133,133","w":690},";":{"d":"74,199v125,-92,187,-213,182,-426r197,0v-15,254,-121,396,-299,506xm350,-623v-73,0,-133,-60,-133,-133v0,-73,60,-133,133,-133v72,0,133,61,133,133v0,73,-60,133,-133,133","w":690},"<":{"d":"1499,-1020r-1038,379r1038,377r0,170r-1282,-465r0,-166r1282,-465r0,170","w":1716},"=":{"d":"217,-926r1282,0r0,160r-1282,0r0,-160xm217,-518r1282,0r0,160r-1282,0r0,-160","w":1716},">":{"d":"217,-1020r0,-170r1282,465r0,166r-1282,465r0,-170r1038,-377","w":1716},"?":{"d":"494,29v-74,0,-134,-60,-134,-133v0,-73,60,-134,134,-134v72,0,133,62,133,134v0,71,-62,133,-133,133xm516,-1421v-164,1,-256,103,-280,254r-97,0r0,-260v118,-52,237,-90,381,-93v274,-4,478,139,479,396v0,124,-37,225,-111,304v-74,79,-184,135,-333,169r0,254r-123,0r0,-328v118,-29,206,-77,266,-144v60,-67,90,-153,90,-257v0,-176,-101,-296,-272,-295","w":1098},"@":{"d":"1583,170v-134,116,-309,186,-545,186v-272,0,-493,-110,-641,-256v-154,-153,-262,-360,-262,-643v0,-276,111,-487,262,-637v153,-152,381,-262,666,-262v312,0,542,133,686,322v89,117,152,263,154,452v3,361,-244,583,-608,582r-1,-162v-70,96,-153,160,-299,162v-241,3,-393,-200,-393,-451v0,-252,152,-453,393,-450v145,2,230,67,299,162r0,-142r156,0r0,772v218,-45,359,-218,358,-475v-1,-166,-55,-292,-135,-393v-127,-160,-325,-274,-590,-274v-137,0,-249,31,-352,77v-252,113,-426,369,-426,717v0,377,186,619,453,733v99,42,208,62,323,62v192,-1,333,-60,449,-152xm1038,-203v154,2,259,-123,256,-282r0,-105v3,-160,-103,-282,-258,-280v-176,2,-256,142,-256,333v0,193,81,332,258,334","w":2048},"A":{"d":"410,-541r548,0r-274,-710xm-12,0r0,-106r131,0r532,-1387r168,0r533,1387r147,0r0,106r-543,0r0,-106r166,0r-125,-328r-628,0r-125,328r164,0r0,106r-420,0","w":1479},"B":{"d":"1151,-432v0,-232,-109,-323,-346,-324r-299,0r0,650r299,0v237,-1,346,-93,346,-326xm1075,-1124v0,-196,-109,-261,-315,-262r-254,0r0,524r254,0v206,-1,315,-67,315,-262xm1305,-1124v0,193,-125,288,-312,309v127,16,223,56,289,121v66,65,98,153,98,262v0,148,-47,257,-140,327v-93,70,-239,105,-437,105r-690,0r0,-106r190,0r0,-1280r-190,0r0,-107r737,0v281,-1,455,105,455,369","w":1505},"C":{"d":"829,-78v240,0,372,-121,431,-317r184,0v-82,265,-281,424,-615,424v-216,0,-377,-80,-493,-197v-139,-139,-218,-315,-221,-577v-6,-449,290,-781,731,-775v209,3,381,58,557,129r0,344r-113,0v-48,-242,-181,-366,-461,-366v-159,0,-280,56,-362,169v-82,113,-123,280,-123,499v0,219,41,384,123,497v82,113,203,170,362,170","w":1567},"D":{"d":"1294,-748v0,-403,-206,-638,-602,-638r-186,0r0,1280r186,0v395,1,602,-240,602,-642xm1524,-748v0,480,-324,748,-817,748r-594,0r0,-106r190,0r0,-1280r-190,0r0,-107r594,0v495,-5,817,265,817,745","w":1642},"E":{"d":"113,0r0,-106r190,0r0,-1280r-190,0r0,-107r1202,0r0,332r-123,0r0,-209r-686,0r0,500r489,0r0,-187r123,0r0,496r-123,0r0,-187r-489,0r0,625r702,0r0,-209r123,0r0,332r-1218,0","w":1495},"F":{"d":"113,0r0,-106r190,0r0,-1280r-190,0r0,-107r1222,0r0,332r-123,0r0,-209r-706,0r0,500r510,0r0,-187r123,0r0,496r-123,0r0,-187r-510,0r0,642r239,0r0,106r-632,0","w":1421},"G":{"d":"868,-1520v211,3,380,52,555,119r0,354r-112,0v-45,-240,-179,-366,-455,-366v-172,0,-300,55,-385,166v-85,111,-127,278,-127,502v0,219,44,385,131,498v87,113,216,169,385,169v168,0,300,-44,412,-112r0,-385r-281,0r0,-107r484,0r0,557v-166,97,-365,152,-615,154v-450,4,-745,-318,-745,-774v0,-462,295,-780,753,-775","w":1636},"H":{"d":"113,0r0,-106r190,0r0,-1280r-190,0r0,-107r583,0r0,107r-190,0r0,516r774,0r0,-516r-190,0r0,-107r583,0r0,107r-190,0r0,1280r190,0r0,106r-583,0r0,-106r190,0r0,-642r-774,0r0,642r190,0r0,106r-583,0","w":1786},"I":{"d":"506,-106r190,0r0,106r-583,0r0,-106r190,0r0,-1280r-190,0r0,-107r583,0r0,107r-190,0r0,1280","w":809},"J":{"d":"119,426v-111,0,-207,-28,-291,-68r0,-235r114,0v4,126,55,195,179,196v79,0,135,-25,166,-75v31,-50,47,-148,47,-293r0,-1337r-232,0r0,-107r625,0r0,107r-190,0r0,1345v-2,319,-110,467,-418,467","w":821},"K":{"d":"113,0r0,-106r190,0r0,-1280r-190,0r0,-107r583,0r0,107r-190,0r0,565r643,-565r-162,0r0,-107r496,0r0,107r-168,0r-641,563r717,717r170,0r0,106r-347,0r-708,-709r0,603r190,0r0,106r-583,0","w":1530},"L":{"d":"113,0r0,-106r190,0r0,-1280r-190,0r0,-107r583,0r0,107r-190,0r0,1263r682,0r0,-250r123,0r0,373r-1198,0","w":1360},"M":{"d":"113,0r0,-106r190,0r0,-1280r-201,0r0,-107r435,0r524,1063r524,-1063r408,0r0,107r-199,0r0,1280r191,0r0,106r-584,0r0,-106r190,0r0,-1154r-512,1041r-141,0r-512,-1041r0,1154r190,0r0,106r-503,0","w":2097},"N":{"d":"100,0r0,-106r201,0r0,-1280r-201,0r0,-107r383,0r895,1178r0,-1071r-200,0r0,-107r524,0r0,107r-201,0r0,1415r-121,0r-956,-1258r0,1123r201,0r0,106r-525,0","w":1792},"O":{"d":"840,-78v163,0,287,-56,370,-168v83,-112,125,-279,125,-499v0,-221,-42,-387,-125,-499v-83,-112,-207,-169,-370,-169v-164,0,-288,57,-371,169v-83,112,-125,278,-125,499v0,220,42,387,125,499v83,112,207,168,371,168xm1119,-20v-164,66,-394,64,-559,-1v-179,-70,-322,-226,-390,-401v-71,-183,-71,-463,0,-646v68,-176,212,-334,390,-402v84,-33,177,-50,280,-50v217,0,392,71,525,213v133,142,200,329,200,562v0,259,-83,440,-222,577v-65,65,-140,115,-224,148","w":1679},"P":{"d":"1075,-1073v0,-202,-105,-313,-305,-313r-264,0r0,626r264,0v199,1,305,-113,305,-313xm1305,-1073v0,266,-206,420,-486,420r-313,0r0,547r231,0r0,106r-624,0r0,-106r190,0r0,-1280r-190,0r0,-107r706,0v281,-4,486,152,486,420","w":1378},"Q":{"d":"1350,328v-244,-13,-392,-123,-486,-299v-456,5,-754,-314,-749,-774v3,-262,82,-439,221,-578v120,-120,279,-197,504,-197v217,0,392,71,525,213v133,142,200,329,200,562v0,402,-225,688,-564,757v74,93,182,135,349,131r0,185xm840,-78v163,0,287,-56,370,-168v83,-112,125,-279,125,-499v0,-221,-42,-387,-125,-499v-83,-112,-207,-169,-370,-169v-164,0,-288,57,-371,169v-83,112,-125,278,-125,499v0,220,42,387,125,499v83,112,207,168,371,168","w":1679},"R":{"d":"1325,-1094v0,222,-133,327,-344,353v106,31,162,93,211,192r217,443r182,0r0,106r-352,0r-233,-475v-45,-92,-86,-152,-123,-179v-37,-27,-89,-40,-154,-40r-223,0r0,588r211,0r0,106r-604,0r0,-106r190,0r0,-1280r-190,0r0,-107r757,0v276,-2,455,134,455,399xm1096,-1094v0,-201,-94,-291,-295,-292r-295,0r0,585r295,0v201,-1,295,-92,295,-293","w":1542},"S":{"d":"700,29v-192,0,-356,-41,-510,-101r0,-340r115,1v8,234,135,333,383,333v119,0,210,-23,272,-70v62,-47,93,-116,93,-206v0,-72,-21,-126,-57,-166v-60,-67,-302,-132,-435,-172v-143,-43,-243,-97,-301,-162v-58,-65,-88,-153,-88,-266v0,-127,45,-225,135,-295v90,-70,216,-105,379,-105v175,0,337,41,492,88r0,318r-113,0v-25,-215,-135,-298,-375,-299v-193,-1,-323,73,-323,252v0,71,21,127,62,168v41,41,129,81,263,121r185,55v135,41,231,92,289,155v58,63,87,148,87,254v0,145,-46,254,-139,327v-93,73,-231,110,-414,110","w":1403},"T":{"d":"391,0r0,-106r191,0r0,-1268r-439,0r0,233r-123,0r0,-352r1326,0r0,352r-123,0r0,-233r-439,0r0,1268r191,0r0,106r-584,0","w":1366},"U":{"d":"868,29v-434,0,-581,-178,-581,-623r0,-792r-191,0r0,-107r584,0r0,107r-191,0r0,772v0,191,31,324,93,399v62,75,170,113,323,113v153,0,261,-38,323,-113v62,-75,93,-208,93,-399r0,-772r-191,0r0,-107r504,0r0,107r-190,0r0,792v-4,447,-140,623,-576,623","w":1726},"V":{"d":"358,-1386r441,1146r440,-1146r-168,0r0,-107r438,0r0,107r-145,0r-533,1386r-172,0r-530,-1386r-149,0r0,-107r544,0r0,107r-166,0","w":1479},"W":{"d":"1561,0r-164,0r-342,-1214r-342,1214r-164,0r-391,-1386r-148,0r0,-107r545,0r0,107r-186,0r311,1103r340,-1210r162,0r346,1223r313,-1116r-172,0r0,-107r430,0r0,107r-147,0","w":2105},"X":{"d":"678,-639r-365,533r193,0r0,106r-494,0r0,-106r172,0r430,-627r-436,-653r-160,0r0,-107r592,0r0,107r-176,0r320,481r329,-481r-192,0r0,-107r489,0r0,107r-168,0r-395,575r471,705r160,0r0,106r-592,0r0,-106r178,0","w":1458},"Y":{"d":"387,0r0,-106r191,0r0,-537r-461,-743r-140,0r0,-107r555,0r0,107r-174,0r373,604r373,-604r-168,0r0,-107r434,0r0,107r-141,0r-449,724r0,556r191,0r0,106r-584,0","w":1352},"Z":{"d":"92,0r0,-72r930,-1298r-772,0r0,223r-123,0r0,-346r1180,0r0,72r-930,1298r844,0r0,-209r122,0r0,332r-1251,0","w":1423},"[":{"d":"176,-1556r465,0r0,106r-274,0r0,1614r274,0r0,106r-465,0r0,-1826","w":799},"\\":{"d":"160,-1493r530,1683r-160,0r-530,-1683r160,0","w":690},"]":{"d":"623,-1556r0,1826r-465,0r0,-106r274,0r0,-1614r-274,0r0,-106r465,0","w":799},"^":{"d":"956,-1493r543,557r-153,0r-488,-381r-487,381r-154,0r543,-557r196,0","w":1716},"_":{"d":"1024,403r0,80r-1024,0r0,-80r1024,0","w":1024},"`":{"d":"367,-1636r260,376r-117,0r-340,-376r197,0","w":1024},"a":{"d":"559,-78v151,0,256,-106,256,-256r0,-225r-237,0v-176,0,-270,70,-271,240v-1,149,101,241,252,241xm547,-1092v288,-2,452,145,452,428r0,558r164,0r0,106r-348,0r0,-115v-76,92,-171,143,-328,144v-225,3,-386,-130,-385,-348v0,-110,40,-195,119,-256v79,-61,191,-91,336,-91r258,0r0,-73v0,-166,-110,-254,-280,-254v-148,0,-235,69,-256,198r-95,0r0,-215v111,-47,224,-81,363,-82","w":1221},"b":{"d":"764,29v-179,0,-277,-71,-344,-195r0,166r-361,0r0,-106r177,0r0,-1344r-177,0r0,-106r361,0r0,659v68,-124,165,-195,344,-195v131,0,237,52,320,155v83,103,124,238,124,405v0,167,-41,302,-124,406v-83,104,-189,155,-320,155xm420,-479v0,128,25,226,74,293v49,67,120,100,213,100v94,0,165,-38,213,-113v48,-75,73,-186,73,-333v0,-147,-25,-258,-73,-333v-48,-75,-119,-112,-213,-112v-93,0,-164,34,-213,101v-49,67,-74,165,-74,292r0,105","w":1311},"c":{"d":"618,-70v173,0,255,-95,287,-249r148,0v-48,213,-188,346,-437,348v-314,2,-514,-237,-514,-561v0,-325,199,-563,514,-560v157,1,284,39,402,95r0,272r-107,0v-27,-175,-104,-268,-293,-268v-99,0,-174,38,-225,115v-51,77,-76,193,-76,346v0,153,25,269,75,346v50,77,126,116,226,116","w":1147},"d":{"d":"547,-1092v179,0,277,71,344,195r0,-553r-174,0r0,-106r358,0r0,1450r176,0r0,106r-360,0r0,-166v-68,124,-165,195,-344,195v-131,0,-238,-51,-321,-155v-83,-104,-124,-239,-124,-406v0,-167,41,-302,124,-405v83,-103,190,-155,321,-155xm891,-479r0,-105v0,-127,-24,-225,-73,-292v-49,-67,-121,-101,-214,-101v-95,0,-166,37,-214,112v-48,75,-73,186,-73,333v0,147,25,258,73,333v48,75,119,113,214,113v93,0,165,-33,214,-100v49,-67,73,-165,73,-293","w":1311},"e":{"d":"102,-532v0,-319,196,-562,504,-560v340,2,500,227,504,580r-793,0v-1,146,26,258,81,332v54,73,134,110,239,110v176,0,270,-99,307,-252r148,0v-56,223,-205,349,-474,351v-315,2,-516,-237,-516,-561xm893,-618v-4,-124,-31,-217,-79,-280v-48,-63,-117,-95,-208,-95v-85,0,-151,32,-200,95v-49,63,-78,157,-89,280r576,0","w":1212},"f":{"d":"614,-1556v101,1,188,19,267,49r0,202r-97,0v-1,-101,-59,-155,-163,-153v-157,3,-184,83,-187,258r0,137r297,0r0,107r-297,0r0,850r236,0r0,106r-596,0r0,-106r176,0r0,-850r-176,0r0,-107r176,0r0,-133v0,-237,126,-360,364,-360","w":758},"g":{"d":"547,-1092v179,0,277,71,344,195r0,-166r360,0r0,107r-176,0r0,933v1,305,-178,480,-485,478v-150,0,-275,-28,-385,-76r0,-223r96,0v25,141,111,200,277,200v232,0,312,-133,313,-379r0,-143v-68,124,-165,195,-344,195v-131,0,-238,-51,-321,-155v-83,-104,-124,-239,-124,-406v0,-167,41,-302,124,-405v83,-103,190,-155,321,-155xm891,-584v0,-127,-24,-225,-73,-292v-49,-67,-121,-101,-214,-101v-95,0,-166,37,-214,112v-48,75,-73,186,-73,333v0,147,25,258,73,333v48,75,119,113,214,113v93,0,165,-33,214,-100v49,-67,73,-165,73,-293r0,-105","w":1311},"h":{"d":"756,-1092v252,0,341,148,342,416r0,570r164,0r0,106r-508,0r0,-106r159,0r0,-512v0,-130,-15,-218,-47,-266v-32,-48,-89,-72,-170,-72v-85,0,-150,31,-195,93v-45,62,-67,152,-67,271r0,486r160,0r0,106r-510,0r0,-106r166,0r0,-1344r-176,0r0,-106r360,0r0,682v60,-127,156,-218,322,-218","w":1319},"i":{"d":"313,-1280v-61,0,-114,-52,-114,-113v0,-60,54,-114,114,-114v60,0,113,55,113,114v0,61,-52,113,-113,113xm434,-106r174,0r0,106r-534,0r0,-106r176,0r0,-850r-176,0r0,-107r360,0r0,957","w":655},"j":{"d":"319,-1280v-61,0,-114,-52,-114,-113v0,-60,54,-114,114,-114v60,0,113,55,113,114v0,61,-51,113,-113,113xm72,356v137,0,178,-99,178,-252r0,-1060r-174,0r0,-107r358,0r0,1167v2,220,-143,353,-366,351v-107,-1,-190,-26,-265,-66r0,-219r95,0v9,119,55,186,174,186","w":635},"k":{"d":"586,0r-516,0r0,-106r166,0r0,-1344r-177,0r0,-106r361,0r0,1013r448,-413r-153,0r0,-107r481,0r0,107r-182,0r-316,292r404,558r153,0r0,106r-524,0r0,-106r152,0r-318,-437r-145,135r0,302r166,0r0,106","w":1241},"l":{"d":"420,-106r174,0r0,106r-535,0r0,-106r177,0r0,-1344r-177,0r0,-106r361,0r0,1450","w":655},"m":{"d":"743,-1092v172,-2,284,93,318,236v35,-78,80,-136,135,-176v55,-40,120,-60,193,-60v241,3,331,158,331,416r0,570r166,0r0,106r-510,0r0,-106r160,0r0,-549v0,-109,-16,-186,-48,-232v-32,-46,-85,-69,-159,-69v-82,0,-144,31,-187,93v-43,62,-65,152,-65,271r0,486r160,0r0,106r-504,0r0,-106r160,0r0,-556v0,-106,-16,-181,-48,-226v-32,-45,-85,-68,-159,-68v-82,0,-145,31,-188,93v-43,62,-64,152,-64,271r0,486r160,0r0,106r-510,0r0,-106r166,0r0,-852r-176,0r0,-105r360,0r0,189v58,-122,151,-216,309,-218","w":1942},"n":{"d":"756,-1092v252,0,341,148,342,416r0,570r164,0r0,106r-508,0r0,-106r159,0r0,-512v0,-130,-16,-220,-48,-268v-32,-48,-88,-72,-169,-72v-85,0,-150,32,-195,94v-45,62,-67,153,-67,272r0,486r160,0r0,106r-510,0r0,-106r166,0r0,-850r-176,0r0,-107r360,0r0,189v60,-127,156,-218,322,-218","w":1319},"o":{"d":"616,-70v99,0,174,-39,224,-117v50,-78,75,-193,75,-345v0,-152,-25,-266,-75,-344v-50,-78,-125,-117,-224,-117v-99,0,-174,39,-224,117v-50,78,-75,192,-75,344v0,152,25,267,76,345v51,78,125,117,223,117xm1130,-532v0,325,-198,561,-514,561v-314,0,-514,-237,-514,-561v0,-325,198,-560,514,-560v316,0,514,236,514,560","w":1233},"p":{"d":"420,-584r0,105v0,128,25,226,74,293v49,67,120,100,213,100v94,0,165,-38,213,-113v48,-75,73,-186,73,-333v0,-147,-25,-258,-73,-333v-48,-75,-119,-112,-213,-112v-93,0,-164,34,-213,101v-49,67,-74,165,-74,292xm764,29v-179,0,-277,-71,-344,-195r0,485r174,0r0,107r-535,0r0,-107r177,0r0,-1275r-177,0r0,-107r361,0r0,166v68,-124,165,-195,344,-195v131,0,237,52,320,155v83,103,124,238,124,405v0,167,-41,302,-124,406v-83,104,-189,155,-320,155","w":1311},"q":{"d":"547,-1092v179,0,277,71,344,195r0,-166r360,0r0,107r-176,0r0,1275r176,0r0,107r-534,0r0,-107r174,0r0,-485v-68,124,-165,195,-344,195v-131,0,-238,-51,-321,-155v-83,-104,-124,-239,-124,-406v0,-167,41,-302,124,-405v83,-103,190,-155,321,-155xm891,-584v0,-127,-24,-225,-73,-292v-49,-67,-121,-101,-214,-101v-95,0,-166,37,-214,112v-48,75,-73,186,-73,333v0,147,25,258,73,333v48,75,119,113,214,113v93,0,165,-33,214,-100v49,-67,73,-165,73,-293r0,-105","w":1311},"r":{"d":"780,-1092v71,0,135,12,199,27r0,266r-106,0v-6,-101,-54,-157,-158,-157v-197,0,-281,150,-281,364r0,486r213,0r0,106r-563,0r0,-106r166,0r0,-852r-176,0r0,-105r360,0r0,189v66,-134,163,-218,346,-218","w":979},"s":{"d":"512,29v-156,-1,-280,-35,-397,-88r0,-248r106,0v6,165,106,237,283,237v148,1,254,-49,254,-182v0,-47,-18,-83,-48,-113v-45,-45,-233,-103,-333,-137v-91,-30,-158,-66,-199,-110v-41,-44,-61,-100,-61,-168v2,-211,174,-315,403,-312v138,2,258,39,369,86r0,232r-106,0v-5,-140,-107,-220,-257,-219v-138,1,-235,40,-235,164v0,45,16,79,45,107v48,47,227,97,326,128v101,31,174,71,218,118v44,47,66,107,66,181v0,101,-39,179,-116,237v-77,58,-183,87,-318,87","w":1051},"t":{"d":"512,29v-219,0,-291,-87,-291,-310r0,-675r-162,0r0,-107r162,0r0,-330r185,0r0,330r346,0r0,107r-346,0r0,675v0,90,9,148,26,173v17,25,49,38,96,38v107,0,137,-65,140,-180r139,0v-11,191,-97,279,-295,279","w":823},"u":{"d":"565,29v-253,0,-344,-147,-344,-416r0,-569r-166,0r0,-107r351,0r0,619v0,129,16,218,48,266v32,48,88,72,169,72v85,0,150,-31,195,-94v45,-63,67,-154,67,-273r0,-483r-160,0r0,-107r344,0r0,957r174,0r0,106r-358,0r0,-188v-60,124,-155,217,-320,217","w":1319},"v":{"d":"506,0r-391,-956r-121,0r0,-107r489,0r0,107r-170,0r299,731r299,-731r-159,0r0,-107r399,0r0,107r-119,0r-391,956r-135,0","w":1157},"w":{"d":"983,-1063r272,830r240,-723r-154,0r0,-107r385,0r0,107r-118,0r-316,956r-153,0r-262,-795r-263,795r-147,0r-315,-956r-119,0r0,-107r481,0r0,107r-172,0r238,723r274,-830r129,0","w":1753},"x":{"d":"596,-649r223,-307r-143,0r0,-107r409,0r0,107r-141,0r-285,393r332,457r139,0r0,106r-491,0r0,-106r135,0r-231,-318r-232,318r138,0r0,106r-404,0r0,-106r141,0r293,-404r-323,-446r-131,0r0,-107r475,0r0,107r-127,0","w":1155},"y":{"d":"160,221v8,85,36,125,123,127v37,0,67,-9,89,-30v56,-54,101,-211,140,-300r-397,-974r-121,0r0,-107r489,0r0,107r-170,0r299,731r299,-731r-159,0r0,-107r399,0r0,107r-119,0r-487,1196v-33,83,-71,139,-111,170v-81,64,-261,50,-368,14r0,-203r94,0","w":1157},"z":{"d":"82,0r0,-86r666,-870r-527,0r0,184r-106,0r0,-291r870,0r0,86r-666,871r578,0r0,-193r107,0r0,299r-922,0","w":1079},"{":{"d":"752,0v5,193,34,224,227,229r68,0r0,105r-62,0v-166,0,-277,-25,-333,-74v-56,-49,-85,-148,-85,-295r0,-258v-3,-199,-54,-263,-250,-266r-61,0r0,-105r61,0v196,-3,250,-67,250,-266r0,-258v0,-147,29,-245,85,-294v56,-49,167,-74,333,-74r62,0r0,104r-68,0v-193,5,-227,36,-227,229r0,287v-3,216,-55,280,-230,324v175,50,230,106,230,325r0,287"},"|":{"d":"426,-1565r0,2048r-162,0r0,-2048r162,0","w":690},"}":{"d":"985,-559v-196,3,-250,67,-250,266r0,258v0,147,-27,246,-83,295v-56,49,-167,74,-333,74r-63,0r0,-105r70,0v192,-5,225,-36,225,-229r0,-287v3,-218,55,-275,229,-325v-175,-44,-229,-108,-229,-324r0,-287v-5,-193,-32,-224,-225,-229r-70,0r0,-104r63,0v166,0,277,25,333,74v56,49,83,147,83,294r0,258v3,199,54,263,250,266r62,0r0,105r-62,0"},"~":{"d":"1143,-657v154,0,258,-66,356,-150r0,148v-67,59,-130,102,-190,130v-60,28,-121,42,-183,42v-65,0,-211,-42,-313,-83v-97,-39,-179,-57,-242,-57v-156,0,-254,65,-354,150r0,-152v67,-58,129,-100,189,-127v60,-27,121,-41,184,-41v65,0,209,41,311,82v96,39,177,58,242,58","w":1716},"\u00a0":{"w":651},"\u00a1":{"d":"412,-1255v-74,0,-133,-61,-133,-134v0,-73,59,-133,133,-133v71,0,133,62,133,133v0,72,-61,134,-133,134xm283,0r67,-821r0,-252r123,0r0,252r68,821r-258,0","w":823},"\u00a2":{"d":"629,-991v-86,10,-147,55,-193,130v-84,138,-83,522,0,659v46,75,107,120,193,130r0,-919xm729,-72v130,-19,202,-115,227,-247r148,0v-45,198,-165,319,-375,346r0,270r-100,0r0,-270v-291,-22,-475,-243,-475,-559v0,-317,183,-538,475,-558r0,-266r100,0r0,266v131,12,240,44,340,93r0,272r-106,0v-24,-152,-88,-246,-234,-266r0,919"},"\u00a3":{"d":"780,-1520v120,0,228,18,322,50r0,245r-105,0v-12,-122,-88,-196,-219,-196v-186,0,-248,118,-248,319r0,295r412,0r0,107r-412,0r0,579r478,0r0,-227r116,0r0,348r-987,0r0,-106r193,0r0,-594r-193,0r0,-107r193,0r0,-295v0,-280,164,-419,450,-418"},"\u00a4":{"d":"653,-1067v105,0,178,33,248,82r209,-207r94,94r-209,209v50,70,84,142,84,248v0,108,-33,177,-86,244r207,207r-96,94r-207,-205v-67,52,-137,86,-244,86v-103,0,-180,-35,-250,-82r-204,205r-95,-94r205,-207v-47,-72,-82,-144,-82,-248v0,-108,34,-178,86,-246r-207,-207r95,-94r207,207v67,-52,138,-86,245,-86xm653,-373v147,0,269,-123,269,-270v0,-147,-122,-266,-269,-266v-146,0,-268,120,-268,266v0,148,121,270,268,270"},"\u00a5":{"d":"360,0r0,-106r191,0r0,-367r-404,0r0,-105r404,0r0,-65r-82,-141r-322,0r0,-105r263,0r-287,-497r-139,0r0,-107r553,0r0,107r-175,0r343,604r339,-604r-167,0r0,-107r432,0r0,107r-142,0r-284,497r272,0r0,105r-332,0r-71,122r0,84r403,0r0,105r-403,0r0,367r190,0r0,106r-582,0"},"\u00a6":{"d":"426,-408r0,758r-162,0r0,-758r162,0xm426,-1432r0,758r-162,0r0,-758r162,0","w":690},"\u00a7":{"d":"651,-401v65,-43,117,-98,117,-191v0,-50,-24,-97,-70,-142v-46,-45,-152,-112,-319,-202v-45,31,-77,60,-95,88v-18,28,-28,59,-28,94v0,88,121,200,363,335xm524,-1520v116,2,214,22,305,56r0,202r-92,0v-3,-101,-85,-155,-194,-155v-124,0,-215,63,-215,180v0,65,82,143,246,234r38,22v130,73,215,135,258,184v77,88,85,243,10,332v-35,42,-91,78,-167,107v94,58,151,126,151,264v0,190,-169,292,-377,289v-128,-2,-230,-19,-327,-56r0,-209r92,1v5,117,87,161,217,161v128,0,225,-63,225,-182v0,-75,-76,-155,-228,-240v-133,-73,-274,-167,-311,-215v-40,-51,-63,-108,-63,-174v0,-144,101,-223,227,-258v-93,-56,-161,-126,-161,-254v0,-186,165,-292,366,-289","w":1024},"\u00a8":{"d":"201,-1452v0,-62,55,-117,116,-117v62,0,117,55,117,117v0,67,-50,117,-117,117v-66,0,-116,-51,-116,-117xm590,-1452v0,-62,55,-117,117,-117v61,0,116,55,116,117v0,66,-50,117,-116,117v-67,0,-117,-50,-117,-117","w":1024},"\u00a9":{"d":"1026,-379v140,-2,205,-71,231,-194r119,0v-33,168,-154,271,-350,272v-252,1,-410,-183,-410,-440v0,-257,160,-445,410,-443v129,2,221,31,322,76r0,213r-84,0v-22,-137,-86,-209,-236,-211v-79,0,-137,33,-180,92v-78,107,-78,437,0,544v43,59,99,91,178,91xm740,-1430v172,-72,396,-72,568,0v171,72,332,232,403,404v70,171,71,397,0,568v-71,171,-232,332,-403,403v-172,72,-396,72,-568,0v-171,-72,-332,-232,-403,-403v-71,-171,-70,-397,0,-568v71,-172,232,-332,403,-404xm1270,-1335v-148,-61,-342,-62,-490,0v-148,62,-286,199,-348,349v-62,149,-62,339,0,488v62,148,200,286,348,348v148,62,342,62,490,0v148,-62,285,-198,346,-347v61,-149,61,-343,0,-491v-62,-149,-198,-286,-346,-347","w":2048},"\u00aa":{"d":"477,-1520v221,-1,361,92,361,301r0,379r80,0r0,84r-228,0r0,-80v-62,65,-137,98,-260,99v-172,2,-304,-82,-305,-242v0,-76,32,-135,95,-178v63,-43,152,-64,265,-64r205,0r0,-45v-1,-120,-92,-178,-221,-178v-114,0,-184,46,-203,139r-76,0r0,-157v88,-33,180,-57,287,-58xm487,-821v115,0,203,-67,203,-176r0,-148r-188,0v-127,0,-213,43,-213,158v0,115,77,166,198,166xm166,-639r698,0r0,104r-698,0r0,-104","w":973},"\u00ab":{"d":"1061,-1059r0,115r-297,344r297,344r0,115r-469,-418r0,-82xm627,-1059r0,115r-297,344r297,344r0,115r-469,-418r0,-82","w":1253},"\u00ac":{"d":"217,-862r1282,0r0,575r-160,0r0,-413r-1122,0r0,-162","w":1716},"\u00ad":{"d":"90,-627r512,0r0,156r-512,0r0,-156","w":692},"\u00ae":{"d":"1186,-942v0,-102,-61,-150,-166,-150r-125,0r0,301r125,0v107,0,166,-47,166,-151xm1335,-938v0,122,-74,172,-194,184v58,19,95,53,121,105r116,229r76,0r0,68r-190,0r-131,-254v-23,-47,-46,-77,-66,-94v-37,-31,-107,-22,-172,-23r0,303r84,0r0,68r-317,0r0,-68r83,0r0,-672r-83,0r0,-67r415,0v161,-1,258,67,258,221xm1270,-1335v-148,-61,-342,-62,-490,0v-148,62,-286,199,-348,349v-62,149,-62,339,0,488v62,148,200,286,348,348v148,62,342,62,490,0v148,-62,285,-198,346,-347v61,-149,61,-343,0,-491v-62,-149,-198,-286,-346,-347xm740,-1430v172,-72,396,-72,568,0v171,72,332,232,403,404v70,171,71,397,0,568v-71,171,-232,332,-403,403v-172,72,-396,72,-568,0v-171,-72,-332,-232,-403,-403v-71,-171,-70,-397,0,-568v71,-172,232,-332,403,-404","w":2048},"\u00af":{"d":"213,-1526r598,0r0,148r-598,0r0,-148","w":1024},"\u00b0":{"d":"692,-1200v0,-97,-84,-182,-180,-182v-99,0,-180,82,-180,182v0,100,80,178,180,178v98,0,180,-80,180,-178xm195,-1200v0,-215,219,-388,440,-296v77,32,140,98,171,173v15,38,23,79,23,123v0,172,-146,315,-319,315v-176,0,-315,-139,-315,-315","w":1024},"\u00b1":{"d":"938,-1284r0,391r561,0r0,162r-561,0r0,391r-160,0r0,-391r-561,0r0,-162r561,0r0,-391r160,0xm217,-160r1282,0r0,160r-1282,0r0,-160","w":1716},"\u00b2":{"d":"354,-1446v-107,0,-169,55,-184,150r-70,0r0,-158v78,-38,169,-64,275,-66v165,-3,308,85,309,236v0,81,-65,180,-194,296r-257,232r385,0r0,-108r74,0r0,196r-602,0r0,-75r285,-254v57,-51,98,-97,123,-138v25,-41,37,-83,37,-127v1,-112,-70,-185,-181,-184","w":821},"\u00b3":{"d":"371,-1446v-105,0,-165,38,-176,129r-70,0r0,-151v83,-29,168,-52,266,-52v92,0,163,18,213,54v50,36,74,87,74,153v0,111,-93,171,-201,189v144,19,240,87,240,235v0,76,-29,134,-87,175v-58,41,-142,61,-251,61v-107,-1,-197,-22,-279,-56r0,-170r70,1v8,104,79,151,195,151v119,0,196,-56,196,-170v0,-127,-72,-188,-203,-188r-53,0r0,-74v130,5,222,-30,223,-148v0,-93,-60,-140,-157,-139","w":821},"\u00b4":{"d":"651,-1638r199,0r-340,376r-117,0","w":1024},"\u00b5":{"d":"610,29v-84,-1,-143,-28,-190,-72r0,362r174,0r0,107r-535,0r0,-107r177,0r0,-1275r-166,0r0,-107r350,0r0,619v0,129,16,218,48,266v32,48,88,72,169,72v85,0,150,-31,195,-94v45,-63,67,-154,67,-273r0,-483r-160,0r0,-107r344,0r0,959r174,0r0,104r-358,0r0,-188v-35,71,-76,125,-125,162v-49,37,-104,55,-164,55","w":1331},"\u00b6":{"d":"158,-1071v-2,-260,204,-422,475,-422r538,0r0,107r-118,0r0,1583r-107,0r0,-1583r-231,0r0,1583r-107,0r0,-846v-143,-11,-254,-53,-332,-127v-78,-74,-118,-172,-118,-295"},"\u00b7":{"d":"324,-578v-74,0,-134,-59,-134,-133v0,-73,60,-133,134,-133v71,0,133,62,133,133v0,72,-61,133,-133,133","w":651},"\u00b8":{"d":"446,274v70,1,122,-34,123,-98v0,-19,-7,-43,-22,-72v-15,-29,-37,-64,-66,-104r97,0v43,43,75,83,96,120v21,37,31,72,31,105v-2,120,-105,171,-238,170v-64,0,-121,-10,-176,-24r0,-131v46,19,97,33,155,34","w":1024},"\u00b9":{"d":"176,-668r0,-84r172,0r0,-634r-201,106r0,-94r240,-129r102,0r0,751r173,0r0,84r-486,0","w":821},"\u00ba":{"d":"481,-813v71,0,121,-28,159,-79v69,-95,70,-378,0,-472v-38,-52,-89,-80,-159,-80v-69,0,-121,29,-159,81v-70,96,-70,375,0,470v38,52,89,80,159,80xm868,-1128v0,232,-155,391,-387,391v-231,0,-387,-160,-387,-391v0,-232,156,-392,387,-392v231,0,387,160,387,392xm137,-639r688,0r0,104r-688,0r0,-104","w":963},"\u00bb":{"d":"627,-1059r469,418r0,82r-469,418r0,-115r297,-344r-297,-344r0,-115xm193,-1059r469,418r0,82r-469,418r0,-115r296,-344r-296,-344r0,-115","w":1253},"\u00bc":{"d":"176,-668r0,-84r172,0r0,-634r-201,106r0,-94r240,-129r102,0r0,751r173,0r0,84r-486,0xm1614,-303r0,-407r-308,407r308,0xm1902,0r-434,0r0,-84r146,0r0,-137r-398,0r0,-84r400,-530r141,0r0,532r164,0r0,82r-164,0r0,137r145,0r0,84xm1388,-1520r150,0r-942,1549r-150,0","w":1985},"\u00bd":{"d":"1517,-778v-107,0,-169,55,-184,150r-70,0r0,-158v78,-38,169,-64,275,-66v165,-3,308,85,309,236v0,81,-65,180,-194,296r-257,232r385,0r0,-108r74,0r0,196r-602,0r0,-75r285,-254v57,-51,98,-97,123,-138v25,-41,37,-83,37,-127v1,-112,-70,-185,-181,-184xm176,-668r0,-84r172,0r0,-634r-201,106r0,-94r240,-129r102,0r0,751r173,0r0,84r-486,0xm1388,-1520r150,0r-942,1549r-150,0","w":1985},"\u00be":{"d":"371,-1446v-105,0,-165,38,-176,129r-70,0r0,-151v83,-29,168,-52,266,-52v92,0,163,18,213,54v50,36,74,87,74,153v0,111,-93,171,-201,189v144,19,240,87,240,235v0,76,-29,134,-87,175v-58,41,-142,61,-251,61v-107,-1,-197,-22,-279,-56r0,-170r70,1v8,104,79,151,195,151v119,0,196,-56,196,-170v0,-127,-72,-188,-203,-188r-53,0r0,-74v130,5,222,-30,223,-148v0,-93,-60,-140,-157,-139xm1614,-303r0,-407r-308,407r308,0xm1902,0r-434,0r0,-84r146,0r0,-137r-398,0r0,-84r400,-530r141,0r0,532r164,0r0,82r-164,0r0,137r145,0r0,84xm1388,-1520r150,0r-942,1549r-150,0","w":1985},"\u00bf":{"d":"645,-1522v74,0,133,60,133,133v0,73,-60,134,-133,134v-72,0,-133,-62,-133,-134v0,-71,62,-133,133,-133xm623,-72v163,-1,256,-104,280,-254r96,0r0,260v-118,52,-236,90,-381,93v-273,4,-479,-139,-479,-396v0,-124,37,-225,111,-304v74,-79,185,-135,334,-169r0,-254r123,0r0,328v-118,29,-207,77,-267,144v-60,67,-90,153,-90,257v0,176,102,296,273,295","w":1098},"\u00c0":{"d":"410,-541r548,0r-274,-710xm-12,0r0,-106r131,0r532,-1387r168,0r533,1387r147,0r0,106r-543,0r0,-106r166,0r-125,-328r-628,0r-125,328r164,0r0,106r-420,0xm669,-1899r183,264r-117,0r-262,-264r196,0","w":1479},"\u00c1":{"d":"410,-541r548,0r-274,-710xm-12,0r0,-106r131,0r532,-1387r168,0r533,1387r147,0r0,106r-543,0r0,-106r166,0r-125,-328r-628,0r-125,328r164,0r0,106r-420,0xm802,-1899r197,0r-262,264r-117,0","w":1479},"\u00c2":{"d":"410,-541r548,0r-274,-710xm-12,0r0,-106r131,0r532,-1387r168,0r533,1387r147,0r0,106r-543,0r0,-106r166,0r-125,-328r-628,0r-125,328r164,0r0,106r-420,0xm651,-1899r176,0r231,264r-116,0r-203,-161r-203,161r-116,0","w":1479},"\u00c3":{"d":"410,-541r548,0r-274,-710xm-12,0r0,-106r131,0r532,-1387r168,0r533,1387r147,0r0,106r-543,0r0,-106r166,0r-125,-328r-628,0r-125,328r164,0r0,106r-420,0xm1069,-1886v0,134,-69,217,-199,219v-82,2,-163,-69,-232,-96v-72,-28,-130,26,-133,96r-96,-1v-2,-148,105,-251,256,-209v48,13,125,67,180,86v72,26,130,-23,127,-95r97,0","w":1479},"\u00c4":{"d":"410,-541r548,0r-274,-710xm-12,0r0,-106r131,0r532,-1387r168,0r533,1387r147,0r0,106r-543,0r0,-106r166,0r-125,-328r-628,0r-125,328r164,0r0,106r-420,0xm428,-1768v0,-60,55,-116,116,-116v62,0,117,56,117,116v0,65,-52,117,-117,117v-63,0,-116,-53,-116,-117xm934,-1651v-65,0,-117,-52,-117,-117v0,-60,55,-116,117,-116v61,0,116,56,116,116v0,64,-53,117,-116,117","w":1479},"\u00c5":{"d":"735,-1475v82,0,152,-69,152,-151v0,-82,-70,-152,-152,-152v-84,0,-151,68,-151,152v0,82,68,151,151,151xm410,-541r546,0r-272,-710xm1010,-1626v-2,118,-63,201,-150,242r492,1278r147,0r0,106r-543,0r0,-106r166,0r-125,-328r-628,0r-125,328r164,0r0,106r-420,0r0,-106r131,0r489,-1278v-87,-45,-145,-120,-147,-242v-3,-148,126,-275,274,-275v148,0,278,127,275,275","w":1479},"\u00c6":{"d":"426,-541r489,0r0,-845r-100,0xm725,0r0,-106r190,0r0,-328r-538,0r-152,328r164,0r0,106r-424,0r0,-106r131,0r590,-1280r-215,0r0,-107r1456,0r0,332r-123,0r0,-209r-688,0r0,500r492,0r0,-187r123,0r0,496r-123,0r0,-187r-492,0r0,625r705,0r0,-209r123,0r0,332r-1219,0","w":2050},"\u00c7":{"d":"778,274v70,1,122,-34,123,-98v0,-19,-7,-43,-22,-72v-15,-29,-37,-64,-66,-104r97,0v43,43,75,83,96,120v21,37,31,72,31,105v-2,120,-105,171,-238,170v-64,0,-121,-10,-176,-24r0,-131v46,19,97,33,155,34xm829,-78v240,0,372,-121,431,-317r184,0v-82,265,-281,424,-615,424v-216,0,-377,-80,-493,-197v-139,-139,-218,-315,-221,-577v-6,-449,290,-781,731,-775v209,3,381,58,557,129r0,344r-113,0v-48,-242,-181,-366,-461,-366v-159,0,-280,56,-362,169v-82,113,-123,280,-123,499v0,219,41,384,123,497v82,113,203,170,362,170","w":1567},"\u00c8":{"d":"113,0r0,-106r190,0r0,-1280r-190,0r0,-107r1202,0r0,332r-123,0r0,-209r-686,0r0,500r489,0r0,-187r123,0r0,496r-123,0r0,-187r-489,0r0,625r702,0r0,-209r123,0r0,332r-1218,0xm678,-1899r183,264r-117,0r-262,-264r196,0","w":1495},"\u00c9":{"d":"113,0r0,-106r190,0r0,-1280r-190,0r0,-107r1202,0r0,332r-123,0r0,-209r-686,0r0,500r489,0r0,-187r123,0r0,496r-123,0r0,-187r-489,0r0,625r702,0r0,-209r123,0r0,332r-1218,0xm811,-1899r197,0r-262,264r-117,0","w":1495},"\u00ca":{"d":"113,0r0,-106r190,0r0,-1280r-190,0r0,-107r1202,0r0,332r-123,0r0,-209r-686,0r0,500r489,0r0,-187r123,0r0,496r-123,0r0,-187r-489,0r0,625r702,0r0,-209r123,0r0,332r-1218,0xm660,-1899r176,0r231,264r-116,0r-203,-161r-203,161r-116,0","w":1495},"\u00cb":{"d":"113,0r0,-106r190,0r0,-1280r-190,0r0,-107r1202,0r0,332r-123,0r0,-209r-686,0r0,500r489,0r0,-187r123,0r0,496r-123,0r0,-187r-489,0r0,625r702,0r0,-209r123,0r0,332r-1218,0xm553,-1651v-64,0,-116,-52,-116,-117v0,-59,55,-116,116,-116v62,0,117,55,117,116v0,64,-53,117,-117,117xm826,-1768v0,-61,55,-116,117,-116v61,0,116,57,116,116v0,65,-52,117,-116,117v-64,0,-117,-53,-117,-117","w":1495},"\u00cc":{"d":"506,-106r190,0r0,106r-583,0r0,-106r190,0r0,-1280r-190,0r0,-107r583,0r0,107r-190,0r0,1280xm336,-1899r183,264r-117,0r-262,-264r196,0","w":809},"\u00cd":{"d":"506,-106r190,0r0,106r-583,0r0,-106r190,0r0,-1280r-190,0r0,-107r583,0r0,107r-190,0r0,1280xm469,-1899r197,0r-262,264r-117,0","w":809},"\u00ce":{"d":"506,-106r190,0r0,106r-583,0r0,-106r190,0r0,-1280r-190,0r0,-107r583,0r0,107r-190,0r0,1280xm318,-1899r176,0r231,264r-116,0r-203,-161r-203,161r-116,0","w":809},"\u00cf":{"d":"506,-106r190,0r0,106r-583,0r0,-106r190,0r0,-1280r-190,0r0,-107r583,0r0,107r-190,0r0,1280xm211,-1651v-64,0,-116,-52,-116,-117v0,-59,55,-116,116,-116v62,0,117,55,117,116v0,64,-53,117,-117,117xm484,-1768v0,-61,55,-116,117,-116v61,0,116,57,116,116v0,65,-52,117,-116,117v-64,0,-117,-53,-117,-117","w":809},"\u00d0":{"d":"1305,-748v0,-403,-207,-639,-603,-638r-188,0r0,542r336,0r0,125r-336,0r0,613r188,0v395,1,603,-240,603,-642xm1534,-748v0,480,-324,748,-817,748r-594,0r0,-106r190,0r0,-613r-200,0r0,-125r200,0r0,-542r-190,0r0,-107r594,0v495,-5,817,265,817,745","w":1653},"\u00d1":{"d":"100,0r0,-106r201,0r0,-1280r-201,0r0,-107r383,0r895,1178r0,-1071r-200,0r0,-107r524,0r0,107r-201,0r0,1415r-121,0r-956,-1258r0,1123r201,0r0,106r-525,0xm1227,-1886v0,134,-69,217,-199,219v-82,2,-163,-69,-232,-96v-72,-28,-130,26,-133,96r-96,-1v-2,-148,105,-251,256,-209v48,13,125,67,180,86v72,26,130,-23,127,-95r97,0","w":1792},"\u00d2":{"d":"840,-78v163,0,287,-56,370,-168v83,-112,125,-279,125,-499v0,-221,-42,-387,-125,-499v-83,-112,-207,-169,-370,-169v-164,0,-288,57,-371,169v-83,112,-125,278,-125,499v0,220,42,387,125,499v83,112,207,168,371,168xm1119,-20v-164,66,-394,64,-559,-1v-179,-70,-322,-226,-390,-401v-71,-183,-71,-463,0,-646v68,-176,212,-334,390,-402v84,-33,177,-50,280,-50v217,0,392,71,525,213v133,142,200,329,200,562v0,259,-83,440,-222,577v-65,65,-140,115,-224,148xm770,-1899r183,264r-117,0r-262,-264r196,0","w":1679},"\u00d3":{"d":"840,-78v163,0,287,-56,370,-168v83,-112,125,-279,125,-499v0,-221,-42,-387,-125,-499v-83,-112,-207,-169,-370,-169v-164,0,-288,57,-371,169v-83,112,-125,278,-125,499v0,220,42,387,125,499v83,112,207,168,371,168xm1119,-20v-164,66,-394,64,-559,-1v-179,-70,-322,-226,-390,-401v-71,-183,-71,-463,0,-646v68,-176,212,-334,390,-402v84,-33,177,-50,280,-50v217,0,392,71,525,213v133,142,200,329,200,562v0,259,-83,440,-222,577v-65,65,-140,115,-224,148xm903,-1899r197,0r-262,264r-117,0","w":1679},"\u00d4":{"d":"840,-78v163,0,287,-56,370,-168v83,-112,125,-279,125,-499v0,-221,-42,-387,-125,-499v-83,-112,-207,-169,-370,-169v-164,0,-288,57,-371,169v-83,112,-125,278,-125,499v0,220,42,387,125,499v83,112,207,168,371,168xm1119,-20v-164,66,-394,64,-559,-1v-179,-70,-322,-226,-390,-401v-71,-183,-71,-463,0,-646v68,-176,212,-334,390,-402v84,-33,177,-50,280,-50v217,0,392,71,525,213v133,142,200,329,200,562v0,259,-83,440,-222,577v-65,65,-140,115,-224,148xm752,-1899r176,0r231,264r-116,0r-203,-161r-203,161r-116,0","w":1679},"\u00d5":{"d":"840,-78v163,0,287,-56,370,-168v83,-112,125,-279,125,-499v0,-221,-42,-387,-125,-499v-83,-112,-207,-169,-370,-169v-164,0,-288,57,-371,169v-83,112,-125,278,-125,499v0,220,42,387,125,499v83,112,207,168,371,168xm1119,-20v-164,66,-394,64,-559,-1v-179,-70,-322,-226,-390,-401v-71,-183,-71,-463,0,-646v68,-176,212,-334,390,-402v84,-33,177,-50,280,-50v217,0,392,71,525,213v133,142,200,329,200,562v0,259,-83,440,-222,577v-65,65,-140,115,-224,148xm1170,-1886v-1,133,-70,216,-199,219v-82,2,-163,-69,-233,-96v-72,-28,-129,27,-132,96r-96,-1v-2,-148,105,-251,256,-209v48,13,125,67,180,86v72,26,131,-22,127,-95r97,0","w":1679},"\u00d6":{"d":"840,-78v163,0,287,-56,370,-168v83,-112,125,-279,125,-499v0,-221,-42,-387,-125,-499v-83,-112,-207,-169,-370,-169v-164,0,-288,57,-371,169v-83,112,-125,278,-125,499v0,220,42,387,125,499v83,112,207,168,371,168xm1119,-20v-164,66,-394,64,-559,-1v-179,-70,-322,-226,-390,-401v-71,-183,-71,-463,0,-646v68,-176,212,-334,390,-402v84,-33,177,-50,280,-50v217,0,392,71,525,213v133,142,200,329,200,562v0,259,-83,440,-222,577v-65,65,-140,115,-224,148xm645,-1651v-64,0,-116,-52,-116,-117v0,-59,55,-116,116,-116v62,0,117,55,117,116v0,64,-53,117,-117,117xm918,-1768v0,-61,55,-116,117,-116v61,0,116,57,116,116v0,65,-52,117,-116,117v-64,0,-117,-53,-117,-117","w":1679},"\u00d7":{"d":"1434,-1104r-463,463r463,461r-115,112r-461,-460r-461,460r-114,-112r460,-461r-460,-463r114,-113r461,461r461,-461","w":1716},"\u00d8":{"d":"1214,-1239v-81,-110,-194,-174,-374,-174v-164,0,-288,57,-371,169v-83,112,-125,278,-125,499v0,157,20,283,66,393xm463,-256v80,111,197,178,377,178v163,0,287,-56,370,-168v83,-112,125,-279,125,-499v0,-156,-21,-286,-67,-396xm840,-1520v205,0,360,66,477,168r178,-198r80,71r-184,203v108,135,171,301,174,531v6,443,-291,779,-725,774v-210,-2,-358,-68,-480,-172r-182,200r-78,-69r187,-207v-109,-131,-172,-297,-172,-526v0,-231,67,-418,201,-561v134,-143,309,-214,524,-214","w":1679},"\u00d9":{"d":"868,29v-434,0,-581,-178,-581,-623r0,-792r-191,0r0,-107r584,0r0,107r-191,0r0,772v0,191,31,324,93,399v62,75,170,113,323,113v153,0,261,-38,323,-113v62,-75,93,-208,93,-399r0,-772r-191,0r0,-107r504,0r0,107r-190,0r0,792v-4,447,-140,623,-576,623xm833,-1899r183,264r-117,0r-262,-264r196,0","w":1726},"\u00da":{"d":"868,29v-434,0,-581,-178,-581,-623r0,-792r-191,0r0,-107r584,0r0,107r-191,0r0,772v0,191,31,324,93,399v62,75,170,113,323,113v153,0,261,-38,323,-113v62,-75,93,-208,93,-399r0,-772r-191,0r0,-107r504,0r0,107r-190,0r0,792v-4,447,-140,623,-576,623xm966,-1899r197,0r-262,264r-117,0","w":1726},"\u00db":{"d":"868,29v-434,0,-581,-178,-581,-623r0,-792r-191,0r0,-107r584,0r0,107r-191,0r0,772v0,191,31,324,93,399v62,75,170,113,323,113v153,0,261,-38,323,-113v62,-75,93,-208,93,-399r0,-772r-191,0r0,-107r504,0r0,107r-190,0r0,792v-4,447,-140,623,-576,623xm815,-1899r176,0r231,264r-116,0r-203,-161r-203,161r-116,0","w":1726},"\u00dc":{"d":"868,29v-434,0,-581,-178,-581,-623r0,-792r-191,0r0,-107r584,0r0,107r-191,0r0,772v0,191,31,324,93,399v62,75,170,113,323,113v153,0,261,-38,323,-113v62,-75,93,-208,93,-399r0,-772r-191,0r0,-107r504,0r0,107r-190,0r0,792v-4,447,-140,623,-576,623xm592,-1768v0,-60,55,-116,116,-116v62,0,117,56,117,116v0,65,-52,117,-117,117v-63,0,-116,-53,-116,-117xm1098,-1651v-65,0,-117,-52,-117,-117v0,-60,55,-116,117,-116v61,0,116,56,116,116v0,64,-53,117,-116,117","w":1726},"\u00dd":{"d":"387,0r0,-106r191,0r0,-537r-461,-743r-140,0r0,-107r555,0r0,107r-174,0r373,604r373,-604r-168,0r0,-107r434,0r0,107r-141,0r-449,724r0,556r191,0r0,106r-584,0xm739,-1899r197,0r-262,264r-117,0","w":1352},"\u00de":{"d":"1075,-748v0,-201,-106,-314,-305,-313r-264,0r0,627r264,0v200,1,305,-113,305,-314xm1305,-748v0,268,-206,422,-486,422r-313,0r0,220r231,0r0,106r-624,0r0,-106r190,0r0,-1280r-190,0r0,-107r624,0r0,107r-231,0r0,219r313,0v280,-4,486,152,486,419","w":1384},"\u00df":{"d":"856,-70v143,0,239,-85,238,-225v0,-56,-15,-103,-40,-143v-34,-55,-163,-136,-243,-185v-69,-43,-119,-86,-149,-129v-75,-108,-51,-267,40,-351v58,-53,136,-90,238,-107v-9,-154,-105,-248,-266,-248v-180,1,-253,85,-254,268r0,1190r-361,0r0,-106r177,0r0,-1080v1,-247,177,-372,438,-370v289,2,432,142,448,419v-105,-2,-190,17,-250,54v-81,50,-110,154,-57,237v30,47,129,103,189,141v104,65,174,127,214,184v40,57,60,123,60,199v1,216,-188,355,-416,351v-127,-2,-237,-30,-332,-72r0,-233r109,0v5,133,80,206,217,206","w":1368},"\u00e0":{"d":"424,-1636r260,376r-117,0r-340,-376r197,0xm559,-78v151,0,256,-106,256,-256r0,-225r-237,0v-176,0,-270,70,-271,240v-1,149,101,241,252,241xm547,-1092v288,-2,452,145,452,428r0,558r164,0r0,106r-348,0r0,-115v-76,92,-171,143,-328,144v-225,3,-386,-130,-385,-348v0,-110,40,-195,119,-256v79,-61,191,-91,336,-91r258,0r0,-73v0,-166,-110,-254,-280,-254v-148,0,-235,69,-256,198r-95,0r0,-215v111,-47,224,-81,363,-82","w":1221},"\u00e1":{"d":"708,-1638r199,0r-340,376r-117,0xm559,-78v151,0,256,-106,256,-256r0,-225r-237,0v-176,0,-270,70,-271,240v-1,149,101,241,252,241xm547,-1092v288,-2,452,145,452,428r0,558r164,0r0,106r-348,0r0,-115v-76,92,-171,143,-328,144v-225,3,-386,-130,-385,-348v0,-110,40,-195,119,-256v79,-61,191,-91,336,-91r258,0r0,-73v0,-166,-110,-254,-280,-254v-148,0,-235,69,-256,198r-95,0r0,-215v111,-47,224,-81,363,-82","w":1221},"\u00e2":{"d":"485,-1638r168,0r235,376r-116,0r-203,-260r-203,260r-116,0xm559,-78v151,0,256,-106,256,-256r0,-225r-237,0v-176,0,-270,70,-271,240v-1,149,101,241,252,241xm547,-1092v288,-2,452,145,452,428r0,558r164,0r0,106r-348,0r0,-115v-76,92,-171,143,-328,144v-225,3,-386,-130,-385,-348v0,-110,40,-195,119,-256v79,-61,191,-91,336,-91r258,0r0,-73v0,-166,-110,-254,-280,-254v-148,0,-235,69,-256,198r-95,0r0,-215v111,-47,224,-81,363,-82","w":1221},"\u00e3":{"d":"670,-1444v91,34,132,-52,133,-147r96,0v-1,90,-20,159,-53,209v-44,66,-129,91,-212,59v-60,-23,-112,-105,-168,-133v-40,-20,-81,-5,-102,32v-16,26,-26,64,-29,115r-96,0v1,-90,20,-159,53,-209v44,-66,129,-91,212,-59v44,18,90,68,126,102v15,15,28,27,40,31xm559,-78v151,0,256,-106,256,-256r0,-225r-237,0v-176,0,-270,70,-271,240v-1,149,101,241,252,241xm547,-1092v288,-2,452,145,452,428r0,558r164,0r0,106r-348,0r0,-115v-76,92,-171,143,-328,144v-225,3,-386,-130,-385,-348v0,-110,40,-195,119,-256v79,-61,191,-91,336,-91r258,0r0,-73v0,-166,-110,-254,-280,-254v-148,0,-235,69,-256,198r-95,0r0,-215v111,-47,224,-81,363,-82","w":1221},"\u00e4":{"d":"258,-1452v0,-62,55,-117,116,-117v62,0,117,55,117,117v0,67,-50,117,-117,117v-66,0,-116,-51,-116,-117xm647,-1452v0,-62,55,-117,117,-117v61,0,116,55,116,117v0,66,-50,117,-116,117v-67,0,-117,-50,-117,-117xm559,-78v151,0,256,-106,256,-256r0,-225r-237,0v-176,0,-270,70,-271,240v-1,149,101,241,252,241xm547,-1092v288,-2,452,145,452,428r0,558r164,0r0,106r-348,0r0,-115v-76,92,-171,143,-328,144v-225,3,-386,-130,-385,-348v0,-110,40,-195,119,-256v79,-61,191,-91,336,-91r258,0r0,-73v0,-166,-110,-254,-280,-254v-148,0,-235,69,-256,198r-95,0r0,-215v111,-47,224,-81,363,-82","w":1221},"\u00e5":{"d":"559,-78v151,0,256,-106,256,-256r0,-225r-237,0v-176,0,-270,70,-271,240v-1,149,101,241,252,241xm547,-1092v288,-2,452,145,452,428r0,558r164,0r0,106r-348,0r0,-115v-76,92,-171,143,-328,144v-225,3,-386,-130,-385,-348v0,-110,40,-195,119,-256v79,-61,191,-91,336,-91r258,0r0,-73v0,-166,-110,-254,-280,-254v-148,0,-235,69,-256,198r-95,0r0,-215v111,-47,224,-81,363,-82xm569,-1798v149,0,274,125,274,274v0,150,-125,275,-274,275v-149,0,-274,-125,-274,-275v0,-149,125,-274,274,-274xm569,-1372v83,0,152,-69,152,-152v0,-82,-69,-151,-152,-151v-84,0,-152,67,-152,151v0,84,68,152,152,152","w":1221},"\u00e6":{"d":"559,-78v151,0,256,-106,256,-256r0,-225r-237,0v-176,0,-270,70,-271,240v-1,149,101,241,252,241xm1331,29v-182,0,-315,-74,-407,-179v-100,109,-220,176,-410,179v-246,2,-411,-115,-412,-348v0,-110,40,-195,120,-256v80,-61,191,-91,335,-91r258,0r0,-73v1,-162,-107,-254,-272,-254v-154,0,-243,66,-264,198r-95,0r0,-215v111,-47,224,-82,363,-82v190,0,316,58,389,177v89,-105,206,-177,383,-177v340,0,501,227,503,580r-792,0v-1,146,25,258,80,332v54,73,134,110,240,110v176,0,270,-99,307,-252r147,0v-54,223,-205,351,-473,351xm1606,-618v-4,-124,-30,-217,-78,-280v-48,-63,-118,-95,-209,-95v-85,0,-152,32,-201,95v-49,63,-78,157,-88,280r576,0","w":1925},"\u00e7":{"d":"546,274v70,1,122,-34,123,-98v0,-19,-7,-43,-22,-72v-15,-29,-37,-64,-66,-104r97,0v43,43,75,83,96,120v21,37,31,72,31,105v-2,120,-105,171,-238,170v-64,0,-121,-10,-176,-24r0,-131v46,19,97,33,155,34xm618,-70v173,0,255,-95,287,-249r148,0v-48,213,-188,346,-437,348v-314,2,-514,-237,-514,-561v0,-325,199,-563,514,-560v157,1,284,39,402,95r0,272r-107,0v-27,-175,-104,-268,-293,-268v-99,0,-174,38,-225,115v-51,77,-76,193,-76,346v0,153,25,269,75,346v50,77,126,116,226,116","w":1147},"\u00e8":{"d":"461,-1636r260,376r-117,0r-340,-376r197,0xm102,-532v0,-319,196,-562,504,-560v340,2,500,227,504,580r-793,0v-1,146,26,258,81,332v54,73,134,110,239,110v176,0,270,-99,307,-252r148,0v-56,223,-205,349,-474,351v-315,2,-516,-237,-516,-561xm893,-618v-4,-124,-31,-217,-79,-280v-48,-63,-117,-95,-208,-95v-85,0,-151,32,-200,95v-49,63,-78,157,-89,280r576,0","w":1212},"\u00e9":{"d":"745,-1638r199,0r-340,376r-117,0xm102,-532v0,-319,196,-562,504,-560v340,2,500,227,504,580r-793,0v-1,146,26,258,81,332v54,73,134,110,239,110v176,0,270,-99,307,-252r148,0v-56,223,-205,349,-474,351v-315,2,-516,-237,-516,-561xm893,-618v-4,-124,-31,-217,-79,-280v-48,-63,-117,-95,-208,-95v-85,0,-151,32,-200,95v-49,63,-78,157,-89,280r576,0","w":1212},"\u00ea":{"d":"522,-1638r168,0r235,376r-116,0r-203,-260r-203,260r-116,0xm102,-532v0,-319,196,-562,504,-560v340,2,500,227,504,580r-793,0v-1,146,26,258,81,332v54,73,134,110,239,110v176,0,270,-99,307,-252r148,0v-56,223,-205,349,-474,351v-315,2,-516,-237,-516,-561xm893,-618v-4,-124,-31,-217,-79,-280v-48,-63,-117,-95,-208,-95v-85,0,-151,32,-200,95v-49,63,-78,157,-89,280r576,0","w":1212},"\u00eb":{"d":"295,-1452v0,-62,55,-117,116,-117v62,0,117,55,117,117v0,67,-50,117,-117,117v-66,0,-116,-51,-116,-117xm684,-1452v0,-62,55,-117,117,-117v61,0,116,55,116,117v0,66,-50,117,-116,117v-67,0,-117,-50,-117,-117xm102,-532v0,-319,196,-562,504,-560v340,2,500,227,504,580r-793,0v-1,146,26,258,81,332v54,73,134,110,239,110v176,0,270,-99,307,-252r148,0v-56,223,-205,349,-474,351v-315,2,-516,-237,-516,-561xm893,-618v-4,-124,-31,-217,-79,-280v-48,-63,-117,-95,-208,-95v-85,0,-151,32,-200,95v-49,63,-78,157,-89,280r576,0","w":1212},"\u00ec":{"d":"183,-1636r260,376r-117,0r-340,-376r197,0xm434,-106r174,0r0,106r-534,0r0,-106r176,0r0,-850r-176,0r0,-107r360,0r0,957","w":655},"\u00ed":{"d":"467,-1638r199,0r-340,376r-117,0xm434,-106r174,0r0,106r-534,0r0,-106r176,0r0,-850r-176,0r0,-107r360,0r0,957","w":655},"\u00ee":{"d":"244,-1638r168,0r235,376r-116,0r-203,-260r-203,260r-116,0xm434,-106r174,0r0,106r-534,0r0,-106r176,0r0,-850r-176,0r0,-107r360,0r0,957","w":655},"\u00ef":{"d":"17,-1452v0,-62,55,-117,116,-117v62,0,117,55,117,117v0,67,-50,117,-117,117v-66,0,-116,-51,-116,-117xm406,-1452v0,-62,55,-117,117,-117v61,0,116,55,116,117v0,66,-50,117,-116,117v-67,0,-117,-50,-117,-117xm434,-106r174,0r0,106r-534,0r0,-106r176,0r0,-850r-176,0r0,-107r360,0r0,957","w":655},"\u00f0":{"d":"915,-512v-1,-162,-36,-302,-94,-416v-55,-11,-105,-18,-166,-18v-115,0,-200,36,-255,107v-55,71,-83,182,-83,331v0,140,27,248,79,324v52,76,125,114,220,114v96,0,170,-38,222,-114v52,-76,77,-186,77,-328xm268,-1556v165,36,302,101,420,188r322,-150r37,78r-287,133v122,111,214,233,276,363v62,130,94,267,94,412v0,325,-198,561,-514,561v-307,0,-514,-234,-514,-547v0,-330,230,-560,582,-523v25,2,55,6,90,11v-34,-81,-86,-150,-145,-215r-322,149r-37,-78r293,-135v-81,-77,-186,-132,-313,-161","w":1233},"\u00f1":{"d":"760,-1444v91,34,132,-52,133,-147r96,0v-1,90,-20,159,-53,209v-44,66,-129,91,-212,59v-60,-23,-112,-105,-168,-133v-40,-20,-81,-5,-102,32v-16,26,-26,64,-29,115r-96,0v1,-90,20,-159,53,-209v44,-66,129,-91,212,-59v44,18,90,68,126,102v15,15,28,27,40,31xm756,-1092v252,0,341,148,342,416r0,570r164,0r0,106r-508,0r0,-106r159,0r0,-512v0,-130,-16,-220,-48,-268v-32,-48,-88,-72,-169,-72v-85,0,-150,32,-195,94v-45,62,-67,153,-67,272r0,486r160,0r0,106r-510,0r0,-106r166,0r0,-850r-176,0r0,-107r360,0r0,189v60,-127,156,-218,322,-218","w":1319},"\u00f2":{"d":"471,-1636r260,376r-117,0r-340,-376r197,0xm616,-70v99,0,174,-39,224,-117v50,-78,75,-193,75,-345v0,-152,-25,-266,-75,-344v-50,-78,-125,-117,-224,-117v-99,0,-174,39,-224,117v-50,78,-75,192,-75,344v0,152,25,267,76,345v51,78,125,117,223,117xm1130,-532v0,325,-198,561,-514,561v-314,0,-514,-237,-514,-561v0,-325,198,-560,514,-560v316,0,514,236,514,560","w":1233},"\u00f3":{"d":"755,-1638r199,0r-340,376r-117,0xm616,-70v99,0,174,-39,224,-117v50,-78,75,-193,75,-345v0,-152,-25,-266,-75,-344v-50,-78,-125,-117,-224,-117v-99,0,-174,39,-224,117v-50,78,-75,192,-75,344v0,152,25,267,76,345v51,78,125,117,223,117xm1130,-532v0,325,-198,561,-514,561v-314,0,-514,-237,-514,-561v0,-325,198,-560,514,-560v316,0,514,236,514,560","w":1233},"\u00f4":{"d":"532,-1638r168,0r235,376r-116,0r-203,-260r-203,260r-116,0xm616,-70v99,0,174,-39,224,-117v50,-78,75,-193,75,-345v0,-152,-25,-266,-75,-344v-50,-78,-125,-117,-224,-117v-99,0,-174,39,-224,117v-50,78,-75,192,-75,344v0,152,25,267,76,345v51,78,125,117,223,117xm1130,-532v0,325,-198,561,-514,561v-314,0,-514,-237,-514,-561v0,-325,198,-560,514,-560v316,0,514,236,514,560","w":1233},"\u00f5":{"d":"717,-1444v91,34,132,-52,133,-147r96,0v-1,90,-20,159,-53,209v-44,66,-129,91,-212,59v-60,-23,-113,-105,-169,-133v-40,-20,-80,-5,-101,32v-16,26,-26,64,-29,115r-96,0v1,-90,20,-159,53,-209v44,-66,129,-91,212,-59v44,18,90,68,126,102v15,15,28,27,40,31xm616,-70v99,0,174,-39,224,-117v50,-78,75,-193,75,-345v0,-152,-25,-266,-75,-344v-50,-78,-125,-117,-224,-117v-99,0,-174,39,-224,117v-50,78,-75,192,-75,344v0,152,25,267,76,345v51,78,125,117,223,117xm1130,-532v0,325,-198,561,-514,561v-314,0,-514,-237,-514,-561v0,-325,198,-560,514,-560v316,0,514,236,514,560","w":1233},"\u00f6":{"d":"305,-1452v0,-62,55,-117,116,-117v62,0,117,55,117,117v0,67,-50,117,-117,117v-66,0,-116,-51,-116,-117xm694,-1452v0,-62,55,-117,117,-117v61,0,116,55,116,117v0,66,-50,117,-116,117v-67,0,-117,-50,-117,-117xm616,-70v99,0,174,-39,224,-117v50,-78,75,-193,75,-345v0,-152,-25,-266,-75,-344v-50,-78,-125,-117,-224,-117v-99,0,-174,39,-224,117v-50,78,-75,192,-75,344v0,152,25,267,76,345v51,78,125,117,223,117xm1130,-532v0,325,-198,561,-514,561v-314,0,-514,-237,-514,-561v0,-325,198,-560,514,-560v316,0,514,236,514,560","w":1233},"\u00f7":{"d":"858,-879v-74,0,-133,-59,-133,-133v0,-73,60,-133,133,-133v71,0,133,62,133,133v0,72,-61,133,-133,133xm858,-139v-74,0,-133,-60,-133,-133v0,-73,60,-134,133,-134v72,0,133,62,133,134v0,71,-62,133,-133,133xm217,-723r1282,0r0,162r-1282,0r0,-162","w":1716},"\u00f8":{"d":"840,-879v-46,-70,-115,-113,-224,-114v-98,0,-172,39,-223,117v-51,78,-76,193,-76,344v0,92,9,170,29,239xm391,-190v48,74,114,120,225,120v98,0,172,-40,223,-118v51,-78,76,-193,76,-344v0,-97,-9,-175,-30,-248xm616,-1092v134,0,239,39,318,101r139,-166r76,63r-145,172v79,93,124,225,126,390v4,324,-198,564,-514,561v-138,-1,-239,-41,-321,-107r-143,172r-76,-63r149,-178v-76,-96,-121,-221,-123,-385v-4,-325,198,-563,514,-560","w":1233},"\u00f9":{"d":"439,-1636r260,376r-117,0r-340,-376r197,0xm565,29v-253,0,-344,-147,-344,-416r0,-569r-166,0r0,-107r351,0r0,619v0,129,16,218,48,266v32,48,88,72,169,72v85,0,150,-31,195,-94v45,-63,67,-154,67,-273r0,-483r-160,0r0,-107r344,0r0,957r174,0r0,106r-358,0r0,-188v-60,124,-155,217,-320,217","w":1319},"\u00fa":{"d":"723,-1638r199,0r-340,376r-117,0xm565,29v-253,0,-344,-147,-344,-416r0,-569r-166,0r0,-107r351,0r0,619v0,129,16,218,48,266v32,48,88,72,169,72v85,0,150,-31,195,-94v45,-63,67,-154,67,-273r0,-483r-160,0r0,-107r344,0r0,957r174,0r0,106r-358,0r0,-188v-60,124,-155,217,-320,217","w":1319},"\u00fb":{"d":"500,-1638r168,0r235,376r-116,0r-203,-260r-203,260r-116,0xm565,29v-253,0,-344,-147,-344,-416r0,-569r-166,0r0,-107r351,0r0,619v0,129,16,218,48,266v32,48,88,72,169,72v85,0,150,-31,195,-94v45,-63,67,-154,67,-273r0,-483r-160,0r0,-107r344,0r0,957r174,0r0,106r-358,0r0,-188v-60,124,-155,217,-320,217","w":1319},"\u00fc":{"d":"273,-1452v0,-62,55,-117,116,-117v62,0,117,55,117,117v0,67,-50,117,-117,117v-66,0,-116,-51,-116,-117xm662,-1452v0,-62,55,-117,117,-117v61,0,116,55,116,117v0,66,-50,117,-116,117v-67,0,-117,-50,-117,-117xm565,29v-253,0,-344,-147,-344,-416r0,-569r-166,0r0,-107r351,0r0,619v0,129,16,218,48,266v32,48,88,72,169,72v85,0,150,-31,195,-94v45,-63,67,-154,67,-273r0,-483r-160,0r0,-107r344,0r0,957r174,0r0,106r-358,0r0,-188v-60,124,-155,217,-320,217","w":1319},"\u00fd":{"d":"719,-1638r199,0r-340,376r-117,0xm160,221v8,85,36,125,123,127v37,0,67,-9,89,-30v56,-54,101,-211,140,-300r-397,-974r-121,0r0,-107r489,0r0,107r-170,0r299,731r299,-731r-159,0r0,-107r399,0r0,107r-119,0r-487,1196v-33,83,-71,139,-111,170v-81,64,-261,50,-368,14r0,-203r94,0","w":1157},"\u00fe":{"d":"420,-584r0,105v0,128,25,226,74,293v49,67,120,100,213,100v94,0,165,-38,213,-113v48,-75,73,-186,73,-333v0,-147,-25,-258,-73,-333v-48,-75,-119,-112,-213,-112v-93,0,-164,34,-213,101v-49,67,-74,165,-74,292xm764,29v-179,0,-277,-71,-344,-195r0,485r174,0r0,107r-535,0r0,-107r177,0r0,-1769r-177,0r0,-106r361,0r0,659v68,-124,165,-195,344,-195v131,0,237,52,320,155v83,103,124,238,124,405v0,167,-41,302,-124,406v-83,104,-189,155,-320,155","w":1311},"\u00ff":{"d":"269,-1452v0,-62,55,-117,116,-117v62,0,117,55,117,117v0,67,-50,117,-117,117v-66,0,-116,-51,-116,-117xm658,-1452v0,-62,55,-117,117,-117v61,0,116,55,116,117v0,66,-50,117,-116,117v-67,0,-117,-50,-117,-117xm160,221v8,85,36,125,123,127v37,0,67,-9,89,-30v56,-54,101,-211,140,-300r-397,-974r-121,0r0,-107r489,0r0,107r-170,0r299,731r299,-731r-159,0r0,-107r399,0r0,107r-119,0r-487,1196v-33,83,-71,139,-111,170v-81,64,-261,50,-368,14r0,-203r94,0","w":1157},"\u0152":{"d":"348,-750v0,404,207,645,602,644r187,0r0,-1280r-187,0v-395,-1,-602,235,-602,636xm119,-750v0,-480,323,-743,817,-743r1212,0r0,332r-123,0r0,-209r-686,0r0,500r492,0r0,-187r121,0r0,496r-121,0r0,-187r-492,0r0,625r703,0r0,-209r123,0r0,332r-1229,0v-495,5,-817,-268,-817,-750","w":2329},"\u0153":{"d":"616,-70v99,0,174,-39,224,-117v50,-78,75,-193,75,-345v0,-152,-25,-266,-75,-344v-50,-78,-125,-117,-224,-117v-99,0,-174,39,-224,117v-50,78,-75,192,-75,344v0,152,25,267,76,345v51,78,125,117,223,117xm1024,-897v87,-115,211,-195,395,-195v342,0,500,226,504,580r-793,0v-1,146,26,258,81,332v54,73,134,110,239,110v176,0,270,-99,307,-252r148,0v-55,223,-205,351,-473,351v-191,0,-322,-77,-410,-195v-84,118,-217,193,-406,195v-314,3,-514,-237,-514,-561v0,-325,198,-563,514,-560v191,1,323,77,408,195xm1706,-618v-4,-124,-30,-217,-78,-280v-48,-63,-118,-95,-209,-95v-85,0,-151,32,-200,95v-49,63,-78,157,-89,280r576,0","w":2025},"\u0178":{"d":"387,0r0,-106r191,0r0,-537r-461,-743r-140,0r0,-107r555,0r0,107r-174,0r373,604r373,-604r-168,0r0,-107r434,0r0,107r-141,0r-449,724r0,556r191,0r0,106r-584,0xm481,-1651v-64,0,-116,-52,-116,-117v0,-59,55,-116,116,-116v62,0,117,55,117,116v0,64,-53,117,-117,117xm754,-1768v0,-61,55,-116,117,-116v61,0,116,57,116,116v0,65,-52,117,-116,117v-64,0,-117,-53,-117,-117","w":1352},"\u02c6":{"d":"428,-1638r168,0r235,376r-116,0r-203,-260r-203,260r-116,0","w":1024},"\u02dc":{"d":"613,-1444v91,34,132,-52,133,-147r96,0v-1,90,-20,159,-53,209v-44,66,-129,91,-212,59v-60,-23,-113,-105,-169,-133v-40,-20,-80,-5,-101,32v-16,26,-26,64,-29,115r-96,0v1,-90,20,-159,53,-209v44,-66,129,-91,212,-59v44,18,90,68,126,102v15,15,28,27,40,31","w":1024},"\u2013":{"d":"90,-610r844,0r0,133r-844,0r0,-133","w":1024},"\u2014":{"d":"90,-610r1868,0r0,133r-1868,0r0,-133","w":2048},"\u2018":{"d":"549,-1440v-114,91,-153,218,-146,426r-194,0v4,-258,95,-393,262,-506","w":651},"\u2019":{"d":"145,-1067v115,-89,155,-218,148,-426r194,0v-5,257,-97,393,-264,506","w":651},"\u201a":{"d":"90,199v127,-91,187,-213,182,-426r197,0v-15,254,-121,396,-299,506","w":651},"\u201c":{"d":"944,-1440v-112,91,-152,218,-145,426r-195,0v6,-258,94,-392,262,-506xm549,-1440v-114,91,-153,218,-146,426r-194,0v4,-258,95,-393,262,-506","w":1047},"\u201d":{"d":"145,-1067v115,-89,155,-218,148,-426r194,0v-5,257,-97,393,-264,506xm543,-1067v113,-90,152,-219,145,-426r194,0v-4,258,-95,392,-261,506","w":1047},"\u201e":{"d":"90,199v127,-91,187,-213,182,-426r197,0v-15,254,-121,396,-299,506xm485,199v127,-91,188,-212,183,-426r196,0v-14,255,-121,396,-299,506","w":1061},"\u2022":{"d":"604,-465v-163,0,-297,-134,-297,-297v0,-162,136,-295,299,-295v161,0,295,134,295,295v0,163,-134,297,-297,297","w":1208},"\u2026":{"d":"1706,29v-74,0,-133,-60,-133,-133v0,-73,60,-134,133,-134v72,0,133,62,133,134v0,71,-62,133,-133,133xm1024,29v-74,0,-133,-60,-133,-133v0,-73,60,-134,133,-134v72,0,133,62,133,134v0,71,-62,133,-133,133xm342,29v-74,0,-133,-60,-133,-133v0,-73,60,-134,133,-134v72,0,133,62,133,134v0,71,-62,133,-133,133","w":2048},"\u2039":{"d":"627,-1059r0,115r-297,344r297,344r0,115r-469,-418r0,-82","w":819},"\u203a":{"d":"193,-1059r469,418r0,82r-469,418r0,-115r296,-344r-296,-344r0,-115","w":819},"\u20ac":{"d":"379,-745r2,102r375,0r-47,104r-320,0v15,153,50,269,105,349v55,80,127,120,217,120v77,0,141,-28,191,-84v50,-56,85,-136,102,-241r133,0v-29,137,-82,242,-159,315v-77,73,-173,109,-288,109v-126,0,-234,-51,-325,-152v-91,-101,-152,-240,-183,-416r-190,0r45,-104r135,0r-4,-102v0,-23,0,-42,1,-58r3,-47r-180,0r45,-104r145,0v31,-176,92,-314,182,-415v90,-101,199,-151,326,-151v176,0,284,56,422,131r0,342r-106,0v-13,-120,-45,-212,-96,-277v-51,-65,-118,-97,-199,-97v-91,0,-164,40,-219,119v-55,79,-89,195,-103,348r504,0r-47,104r-463,0"},"\u2122":{"d":"1118,-1493r174,270r181,-270r219,0r0,66r-86,0r0,446r86,0r0,66r-285,0r0,-66r86,0r0,-426r-209,311r-43,0r-199,-311r0,426r84,0r0,66r-241,0r0,-66r86,0r0,-446r-86,0r0,-66r233,0xm242,-1493r557,0r0,170r-68,0r0,-104r-153,0r0,446r86,0r0,66r-287,0r0,-66r86,0r0,-446r-156,0r0,104r-65,0r0,-170","w":2048}}});
