/*!
 * The following copyright notice may not be removed under any circumstances.
 * 
 * Copyright:
 * Copyright (c) 2003 by Bitstream, Inc. All Rights Reserved.
 * DejaVu changes are in public domain
 * 
 * 
 * Manufacturer:
 * DejaVu fonts team
 * 
 * Vendor URL:
 * http://dejavu.sourceforge.net
 * 
 * License information:
 * http://dejavu.sourceforge.net/wiki/index.php/License
 */
Cufon.registerFont({"w":1303,"face":{"font-family":"DejaVu Serif","font-weight":400,"font-style":"italic","font-stretch":"normal","units-per-em":"2048","panose-1":"2 6 6 3 5 3 5 11 2 4","ascent":"1556","descent":"-492","x-height":"29","bbox":"-375 -1901 2293 483","underline-thickness":"90","underline-position":"-85","slope":"-11","unicode-range":"U+0020-U+2122"},"glyphs":{" ":{"w":651},"!":{"d":"176,-10v-69,-97,31,-228,140,-228v71,0,121,60,107,134v-13,67,-83,134,-159,133v-38,0,-69,-12,-88,-39xm431,-1493r258,0r-228,821r-49,252r-123,0r49,-252","w":823},"\"":{"d":"360,-1493r0,555r-159,0r0,-555r159,0xm741,-1493r0,555r-159,0r0,-555r159,0","w":942},"#":{"d":"1042,-901r-282,0r-84,334r285,0xm901,-1470r-102,415r282,0r103,-415r172,0r-105,415r308,0r0,154r-347,0r-82,334r314,0r0,153r-352,0r-103,414r-172,0r105,-414r-283,0r-104,414r-170,0r102,-414r-309,0r0,-153r348,0r82,-334r-316,0r0,-154r355,0r104,-415r170,0","w":1716},"$":{"d":"581,-68v147,-12,249,-84,274,-215v11,-57,1,-106,-31,-146v-32,-40,-83,-70,-155,-91xm699,-1187v-136,8,-233,81,-256,200v-11,53,-1,98,27,133v28,35,77,64,147,86xm68,-72r54,-276r108,0v-31,193,63,277,251,280r95,-485v-145,-43,-244,-91,-295,-147v-51,-56,-68,-130,-50,-222v41,-218,234,-353,487,-366r52,-268r100,0r-52,268v140,11,255,46,358,98r-51,262r-109,0v15,-160,-69,-249,-217,-259r-88,452v155,45,261,95,315,153v54,58,72,135,53,232v-45,231,-248,365,-517,381r-52,270r-100,0r52,-270v-153,-5,-276,-45,-394,-103"},"%":{"d":"591,-1427v-59,0,-109,28,-153,83v-44,55,-76,133,-95,232v-19,98,-17,175,6,231v23,56,63,84,120,84v57,0,107,-27,151,-83v44,-56,75,-133,94,-232v19,-99,18,-176,-4,-232v-22,-56,-62,-83,-119,-83xm1479,-694v-58,0,-109,28,-153,84v-44,56,-76,134,-95,233v-19,98,-17,175,5,231v22,56,63,83,120,83v57,0,108,-27,152,-83v44,-56,74,-133,93,-231v19,-99,18,-177,-4,-233v-22,-56,-61,-84,-118,-84xm1496,-784v216,-2,315,169,266,407v-26,124,-75,224,-152,297v-77,73,-167,109,-272,109v-218,2,-315,-167,-267,-406v25,-125,75,-224,151,-297v76,-73,168,-110,274,-110xm1515,-1520r152,0r-1236,1549r-152,0xm608,-1520v216,-1,315,168,267,406v-26,126,-75,225,-151,298v-76,73,-168,109,-274,109v-217,1,-314,-168,-265,-407v25,-124,75,-223,151,-296v76,-73,167,-110,272,-110","w":1946},"&":{"d":"299,-483v-47,231,110,395,326,391v158,-3,284,-60,381,-139r-463,-613v-120,92,-211,202,-244,361xm1517,-741v-60,183,-158,331,-287,452r137,183r235,0r-21,106r-401,0r-109,-145v-143,102,-297,174,-515,174v-172,0,-300,-44,-383,-132v-84,-88,-111,-212,-81,-358v17,-89,58,-172,124,-249v66,-77,157,-149,274,-216v-45,-71,-68,-145,-51,-248v44,-256,332,-397,647,-329v57,12,122,28,194,51r-50,258r-113,0v10,-144,-67,-219,-209,-219v-137,0,-250,87,-271,203v-8,44,-4,82,11,122v14,39,50,96,108,173r410,544v106,-99,186,-219,230,-370r21,-107r293,0r-21,107r-172,0","w":1823},"'":{"d":"360,-1493r0,555r-159,0r0,-555r159,0","w":563},"(":{"d":"471,319v-296,-145,-400,-465,-309,-937v87,-453,305,-784,673,-938r-19,98v-116,71,-208,170,-278,298v-70,128,-128,309,-173,542v-45,232,-59,412,-39,540v20,128,75,228,164,299","w":799},")":{"d":"-37,319r19,-98v116,-71,209,-171,279,-299v70,-128,128,-308,173,-540v45,-233,58,-414,38,-542v-20,-128,-75,-227,-164,-298r19,-98v297,145,401,464,310,938v-87,452,-305,783,-674,937","w":799},"*":{"d":"991,-1237r-391,182r391,185r-76,118r-348,-217r13,381r-136,0r13,-381r-348,217r-76,-118r391,-183r-391,-184r76,-119r348,217r-13,-381r136,0r-13,381r348,-217","w":1024},"+":{"d":"938,-1284r0,561r561,0r0,162r-561,0r0,561r-160,0r0,-561r-561,0r0,-162r561,0r0,-561r160,0","w":1716},",":{"d":"40,199v149,-94,231,-222,265,-426r197,0v-60,245,-192,392,-397,506","w":651},"-":{"d":"105,-627r512,0r-30,156r-512,0","w":692},".":{"d":"212,-10v-69,-97,31,-228,140,-228v71,0,121,60,107,134v-13,67,-83,134,-159,133v-38,0,-69,-12,-88,-39","w":651},"\/":{"d":"694,-1493r160,0r-858,1683r-160,0","w":690},"0":{"d":"520,-70v102,0,190,-56,262,-168v72,-112,130,-281,174,-507v44,-227,51,-396,22,-508v-29,-112,-94,-168,-196,-168v-102,0,-190,56,-262,168v-72,112,-130,281,-174,508v-44,226,-51,395,-22,507v29,112,94,168,196,168xm500,29v-162,0,-276,-68,-340,-204v-64,-136,-72,-326,-25,-570v47,-245,129,-435,247,-571v118,-136,258,-204,420,-204v163,0,276,68,340,204v64,136,72,326,25,571v-47,244,-130,434,-247,570v-117,136,-257,204,-420,204"},"1":{"d":"143,0r21,-106r260,0r241,-1242r-339,195r26,-131r410,-236r138,0r-275,1414r260,0r-21,106r-721,0"},"2":{"d":"703,-1421v-209,2,-317,110,-368,284r-112,0r52,-266v133,-64,279,-117,451,-117v155,0,271,38,346,113v75,75,100,178,75,307v-28,146,-164,321,-408,524r-493,412r623,0r36,-184r117,0r-68,348r-963,0r21,-109r541,-452v119,-100,208,-191,267,-275v59,-84,98,-172,116,-264v40,-198,-49,-322,-233,-321"},"3":{"d":"739,-1421v-192,1,-301,97,-346,254r-112,0r51,-263v140,-48,283,-90,444,-90v146,0,254,31,324,94v70,63,93,151,71,263v-37,191,-192,310,-393,348v217,29,353,164,306,412v-53,283,-286,434,-629,432v-172,-1,-308,-39,-430,-101r56,-290r112,0v-25,201,86,292,286,292v215,0,359,-141,394,-331v45,-240,-60,-358,-289,-357r-95,0r20,-102v259,10,416,-79,457,-291v34,-180,-54,-271,-227,-270"},"4":{"d":"666,-506r154,-794r-664,794r510,0xm1007,0r-680,0r21,-106r240,0r57,-293r-652,0r21,-109r851,-1012r198,0r-197,1014r285,0r-21,107r-285,0r-57,293r240,0"},"5":{"d":"634,-874v-140,0,-228,52,-306,131r-86,0r146,-750r790,0r-32,164r-684,0r-83,428v76,-46,172,-71,291,-72v308,-3,486,181,425,500v-58,303,-286,504,-637,502v-161,-1,-292,-41,-412,-101r56,-290r113,0v-26,194,72,293,262,292v105,0,193,-35,263,-104v70,-69,119,-169,144,-299v48,-246,-28,-401,-250,-401"},"6":{"d":"539,-70v94,0,173,-35,237,-104v64,-69,109,-168,134,-297v25,-129,19,-228,-18,-297v-37,-69,-103,-104,-197,-104v-95,0,-174,33,-237,100v-63,67,-107,163,-132,289v-26,133,-21,235,16,306v37,71,103,107,197,107xm1074,-1214v11,-140,-72,-208,-212,-207v-129,0,-236,49,-318,147v-82,98,-144,249,-185,452v97,-89,210,-147,377,-149v292,-4,443,190,385,500v-53,283,-287,501,-610,500v-169,0,-286,-63,-352,-189v-66,-126,-76,-305,-31,-538v51,-261,143,-465,279,-607v172,-179,375,-248,659,-200v56,10,112,25,169,45r-48,246r-113,0"},"7":{"d":"1280,-1391r-854,1391r-149,0r815,-1329r-690,0r-36,184r-117,0r68,-348r983,0"},"8":{"d":"520,-70v211,-2,331,-145,368,-338v40,-209,-43,-338,-237,-337v-211,2,-332,145,-369,337v-40,210,44,340,238,338xm670,-844v181,-2,286,-124,318,-289v34,-179,-40,-289,-206,-288v-180,2,-287,125,-318,288v-34,179,41,290,206,289xm508,-795v-175,-31,-283,-136,-247,-338v43,-239,256,-387,541,-387v145,0,251,35,320,104v69,69,92,163,69,283v-36,188,-179,305,-376,338v202,25,327,158,284,387v-51,278,-269,438,-599,437v-165,0,-284,-37,-358,-113v-74,-76,-98,-184,-71,-324v40,-213,208,-359,437,-387"},"9":{"d":"228,-279v-8,139,72,209,212,209v129,0,236,-48,318,-146v82,-98,144,-249,185,-453v-96,89,-211,147,-379,149v-291,3,-440,-191,-382,-500v53,-283,287,-501,610,-500v169,0,286,62,352,188v66,126,75,306,30,539v-51,261,-143,465,-279,607v-172,180,-375,248,-658,200v-56,-10,-112,-25,-169,-45r48,-248r112,0xm764,-1421v-95,0,-174,34,-238,103v-64,69,-107,169,-132,298v-25,129,-20,229,17,298v37,69,102,104,197,104v95,0,174,-33,237,-100v63,-67,107,-164,132,-290v26,-133,20,-235,-17,-306v-37,-71,-102,-107,-196,-107"},":":{"d":"170,-10v-69,-97,31,-228,139,-228v72,0,121,59,107,134v-13,69,-81,134,-159,133v-38,0,-68,-12,-87,-39xm296,-662v-71,-96,31,-227,139,-227v73,0,121,57,107,133v-13,70,-79,134,-158,133v-37,0,-68,-12,-88,-39","w":690},";":{"d":"-24,199v148,-95,232,-222,265,-426r197,0v-61,245,-192,392,-398,506xm325,-662v-70,-97,31,-227,139,-227v71,0,120,59,107,133v-12,68,-82,134,-159,133v-37,0,-68,-12,-87,-39","w":690},"<":{"d":"1499,-1020r-1038,379r1038,377r0,170r-1282,-465r0,-166r1282,-465r0,170","w":1716},"=":{"d":"217,-926r1282,0r0,160r-1282,0r0,-160xm217,-518r1282,0r0,160r-1282,0r0,-160","w":1716},">":{"d":"217,-1020r0,-170r1282,465r0,166r-1282,465r0,-170r1038,-377","w":1716},"?":{"d":"255,-10v-70,-97,31,-228,140,-228v71,0,121,59,107,134v-12,67,-84,134,-159,133v-38,0,-69,-12,-88,-39xm647,-1421v-174,3,-278,111,-329,254r-97,0r50,-260v128,-51,250,-93,400,-93v148,0,257,36,329,107v72,71,98,168,73,289v-56,271,-250,411,-536,473r-50,254r-123,0r64,-328v230,-53,389,-177,434,-401v37,-180,-48,-297,-215,-295","w":1098},"@":{"d":"1444,170v-152,113,-337,186,-581,186v-395,0,-657,-219,-730,-546v-24,-109,-23,-227,2,-353v54,-268,200,-482,386,-637v177,-148,421,-262,717,-262v298,0,511,125,623,322v69,121,99,272,66,452v-62,341,-333,579,-721,582r31,-162v-86,93,-178,159,-331,162v-236,5,-358,-194,-305,-451v28,-134,83,-242,172,-325v89,-83,191,-125,308,-125v139,0,216,63,268,162r27,-142r156,0r-150,772v239,-48,405,-231,451,-475v29,-159,4,-288,-59,-393v-99,-166,-284,-274,-537,-274v-140,0,-257,31,-367,77v-285,118,-501,384,-565,717v-43,226,-9,417,88,551v107,149,289,244,533,244v199,0,349,-63,479,-152xm972,-203v164,0,285,-133,311,-282r20,-105v34,-163,-51,-280,-203,-280v-81,0,-150,30,-206,88v-56,58,-94,140,-115,245v-40,197,20,334,193,334","w":2048},"A":{"d":"370,-541r548,0r-136,-710xm-157,0r20,-106r131,0r802,-1387r168,0r264,1387r146,0r-20,106r-543,0r20,-106r166,0r-61,-328r-628,0r-189,328r164,0r-20,106r-420,0","w":1479},"B":{"d":"381,-106r299,0v252,-2,368,-107,410,-326v45,-238,-52,-323,-283,-324r-299,0xm528,-862r254,0v219,-1,331,-79,366,-262v38,-201,-63,-262,-264,-262r-254,0xm-32,0r20,-106r190,0r249,-1280r-190,0r21,-107r737,0v151,0,259,31,323,93v64,62,84,153,60,276v-35,183,-171,287,-372,309v124,16,213,56,266,121v53,65,68,153,47,262v-63,309,-279,432,-661,432r-690,0","w":1505},"C":{"d":"699,-78v253,0,400,-130,493,-317r184,0v-71,139,-167,244,-284,317v-176,110,-463,146,-675,57v-158,-66,-276,-220,-310,-401v-18,-95,-15,-203,8,-323v45,-232,149,-419,311,-561v221,-193,492,-260,824,-182v88,21,181,54,278,97r-66,344r-113,0v-3,-257,-126,-365,-390,-366v-159,0,-291,56,-395,169v-104,113,-177,280,-220,499v-43,219,-34,384,26,497v60,113,170,170,329,170","w":1567},"D":{"d":"381,-106r186,0v194,0,354,-55,479,-166v125,-111,208,-269,248,-476v82,-413,-91,-640,-478,-638r-186,0xm-32,0r20,-106r190,0r249,-1280r-190,0r21,-107r594,0v257,0,446,66,564,197v118,131,152,314,108,548v-84,452,-438,748,-962,748r-594,0","w":1642},"E":{"d":"-32,0r20,-106r190,0r249,-1280r-190,0r21,-107r1202,0r-64,332r-123,0r40,-209r-686,0r-97,500r489,0r36,-187r123,0r-96,496r-123,0r36,-187r-489,0r-121,625r702,0r40,-209r123,0r-64,332r-1218,0","w":1495},"F":{"d":"-32,0r20,-106r190,0r249,-1280r-190,0r21,-107r1222,0r-64,332r-123,0r40,-209r-706,0r-97,500r510,0r36,-187r123,0r-96,496r-123,0r36,-187r-510,0r-125,642r239,0r-20,106r-632,0","w":1421},"G":{"d":"1370,-1047v0,-255,-125,-366,-384,-366v-172,0,-312,55,-418,166v-106,111,-181,278,-224,502v-43,219,-31,385,34,498v65,113,183,169,352,169v173,0,311,-46,434,-112r75,-385r-281,0r21,-107r484,0r-109,557v-181,94,-387,151,-645,154v-442,5,-688,-307,-594,-774v48,-236,151,-425,314,-565v220,-190,512,-253,849,-180v87,20,177,49,272,89r-68,354r-112,0","w":1636},"H":{"d":"-32,0r20,-106r190,0r249,-1280r-190,0r21,-107r583,0r-21,107r-190,0r-100,516r774,0r100,-516r-190,0r21,-107r583,0r-21,107r-190,0r-249,1280r190,0r-20,106r-583,0r20,-106r191,0r124,-642r-774,0r-125,642r190,0r-20,106r-583,0","w":1786},"I":{"d":"381,-106r190,0r-20,106r-583,0r20,-106r190,0r249,-1280r-190,0r21,-107r583,0r-21,107r-190,0","w":809},"J":{"d":"-345,358r45,-235r114,0v-21,129,21,196,141,196v79,0,140,-25,181,-75v41,-50,75,-148,104,-293r260,-1337r-232,0r21,-107r625,0r-21,107r-190,0r-262,1345v-32,165,-90,282,-169,357v-102,96,-299,135,-481,93v-47,-11,-92,-28,-136,-51","w":821},"K":{"d":"-32,0r20,-106r190,0r249,-1280r-190,0r21,-107r583,0r-21,107r-190,0r-110,565r753,-565r-162,0r21,-107r496,0r-21,107r-168,0r-750,563r577,717r170,0r-20,106r-347,0r-570,-709r-118,603r190,0r-20,106r-583,0","w":1530},"L":{"d":"-32,0r20,-106r190,0r249,-1280r-190,0r21,-107r583,0r-21,107r-190,0r-245,1263r682,0r48,-250r123,0r-72,373r-1198,0","w":1360},"M":{"d":"-32,0r20,-106r190,0r249,-1280r-201,0r21,-107r435,0r317,1063r731,-1063r408,0r-21,107r-199,0r-248,1280r190,0r-20,106r-584,0r20,-106r190,0r225,-1154r-715,1041r-141,0r-309,-1041r-225,1154r190,0r-20,106r-503,0","w":2097},"N":{"d":"-42,0r20,-106r201,0r249,-1280r-201,0r21,-107r383,0r666,1178r208,-1071r-200,0r21,-107r524,0r-21,107r-201,0r-275,1415r-121,0r-711,-1258r-219,1123r201,0r-20,106r-525,0","w":1792},"O":{"d":"710,-78v163,0,298,-56,403,-168v105,-112,179,-279,222,-499v43,-221,33,-387,-28,-499v-61,-112,-174,-169,-337,-169v-164,0,-299,57,-404,169v-105,112,-179,278,-222,499v-43,220,-33,387,28,499v61,112,174,168,338,168xm978,-20v-169,63,-397,67,-558,-1v-159,-67,-280,-219,-313,-401v-41,-228,36,-494,125,-646v100,-171,272,-331,469,-402v91,-33,187,-50,290,-50v429,0,668,317,574,775v-52,250,-165,436,-334,577v-78,65,-163,114,-253,148","w":1679},"P":{"d":"509,-760r264,0v212,-1,329,-125,365,-313v39,-207,-49,-314,-244,-313r-264,0xm-32,0r20,-106r190,0r249,-1280r-190,0r21,-107r706,0v149,0,260,37,333,113v73,76,95,178,71,307v-46,251,-270,420,-567,420r-313,0r-107,547r231,0r-20,106r-624,0","w":1378},"Q":{"d":"883,12v56,90,146,131,292,131r250,0r-36,185r-117,0v-177,0,-302,-27,-375,-82v-72,-54,-123,-127,-154,-217v-374,5,-619,-209,-619,-577v0,-356,147,-603,353,-775v140,-117,309,-193,543,-197v358,-6,594,222,594,578v0,301,-107,521,-267,694v-125,135,-281,221,-464,260xm347,-501v-1,271,127,423,392,423v163,0,298,-56,403,-168v105,-112,179,-279,222,-499v17,-91,26,-172,26,-245v1,-271,-127,-424,-391,-423v-164,0,-299,57,-404,169v-105,112,-179,278,-222,499v-17,90,-26,171,-26,244","w":1679},"R":{"d":"980,-741v96,29,144,90,174,192r130,443r182,0r-20,106r-352,0r-141,-475v-27,-92,-56,-152,-88,-179v-32,-27,-81,-40,-146,-40r-223,0r-115,588r211,0r-20,106r-604,0r20,-106r190,0r249,-1280r-190,0r21,-107r757,0v270,-3,430,127,378,399v-40,210,-186,325,-413,353xm517,-801r295,0v215,-2,315,-104,352,-293v40,-206,-43,-292,-239,-292r-295,0","w":1542},"S":{"d":"1137,-1114v16,-225,-88,-298,-317,-299v-205,-1,-339,84,-372,252v-14,71,-4,127,29,168v33,41,113,81,240,121r174,55v127,41,214,92,259,155v45,63,58,148,37,254v-58,295,-279,438,-638,437v-188,-1,-345,-40,-490,-101r66,-340r115,1v-37,242,78,333,318,333v228,1,383,-90,419,-276v14,-72,5,-127,-25,-166v-30,-39,-102,-76,-216,-113r-185,-59v-135,-43,-225,-97,-271,-162v-46,-65,-57,-153,-35,-266v49,-258,278,-403,592,-400v171,2,327,40,474,88r-61,318r-113,0","w":1403},"T":{"d":"246,0r20,-106r191,0r247,-1268r-439,0r-45,233r-123,0r68,-352r1326,0r-68,352r-123,0r45,-233r-439,0r-247,1268r191,0r-20,106r-584,0","w":1366},"U":{"d":"414,-1386r-191,0r21,-107r584,0r-21,107r-191,0r-150,772v-68,366,-9,512,317,512v153,0,267,-38,344,-113v77,-75,134,-208,171,-399r150,-772r-191,0r21,-107r504,0r-21,107r-190,0r-154,792v-44,227,-119,388,-225,482v-106,94,-263,141,-472,141v-423,0,-548,-168,-460,-623","w":1726},"V":{"d":"482,-1386r219,1146r662,-1146r-168,0r21,-107r438,0r-21,107r-145,0r-802,1386r-172,0r-261,-1386r-149,0r21,-107r544,0r-21,107r-166,0","w":1479},"W":{"d":"1416,0r-164,0r-106,-1214r-578,1214r-164,0r-122,-1386r-148,0r21,-107r545,0r-21,107r-186,0r97,1103r575,-1210r162,0r108,1223r530,-1116r-172,0r21,-107r430,0r-21,107r-147,0","w":2105},"X":{"d":"657,-639r-469,533r193,0r-20,106r-494,0r20,-106r172,0r552,-627r-309,-653r-160,0r21,-107r592,0r-21,107r-176,0r227,481r422,-481r-192,0r21,-107r489,0r-21,107r-168,0r-506,575r334,705r160,0r-21,106r-592,0r20,-106r178,0","w":1458},"Y":{"d":"242,0r20,-106r191,0r105,-537r-317,-743r-140,0r21,-107r555,0r-21,107r-174,0r256,604r490,-604r-168,0r21,-107r434,0r-21,107r-141,0r-589,724r-109,556r191,0r-20,106r-584,0","w":1352},"Z":{"d":"-53,0r14,-72r1182,-1298r-772,0r-43,223r-123,0r67,-346r1180,0r-14,72r-1182,1298r844,0r40,-209r122,0r-64,332r-1251,0","w":1423},"[":{"d":"353,-1556r465,0r-20,106r-274,0r-314,1614r274,0r-20,106r-465,0","w":799},"\\":{"d":"324,-1493r202,1683r-160,0r-202,-1683r160,0","w":690},"]":{"d":"800,-1556r-354,1826r-465,0r20,-106r274,0r314,-1614r-274,0r20,-106r465,0","w":799},"^":{"d":"956,-1493r543,557r-153,0r-488,-381r-487,381r-154,0r543,-557r196,0","w":1716},"_":{"d":"1024,403r0,80r-1024,0r0,-80r1024,0","w":1024},"`":{"d":"564,-1636r186,376r-117,0r-266,-376r197,0","w":1024},"a":{"d":"396,29v-232,0,-367,-184,-316,-431v48,-235,150,-414,314,-535v139,-103,293,-155,462,-155v113,0,189,10,228,29r-186,957r158,0r-20,106r-324,0r32,-166v-89,130,-205,195,-348,195xm263,-300v0,143,69,214,207,214v84,0,155,-33,212,-100v57,-67,98,-165,123,-293r93,-482v0,-19,-27,-29,-80,-29v-128,0,-242,50,-341,150v-99,100,-166,242,-201,425v-9,43,-13,81,-13,115","w":1221},"b":{"d":"610,29v-170,-1,-262,-65,-306,-195r-32,166r-184,0r281,-1450r-177,0r21,-106r361,0r-128,659v88,-120,194,-191,382,-195v219,-5,357,170,352,400v-5,244,-90,435,-220,566v-103,104,-219,155,-350,155xm968,-712v3,-161,-68,-265,-220,-265v-93,0,-171,34,-233,101v-62,67,-106,165,-130,292v-14,74,-36,171,-36,247v0,157,74,251,226,251v94,0,170,-39,235,-113v85,-97,155,-318,158,-513","w":1311},"c":{"d":"528,-70v183,-3,276,-103,336,-249r148,0v-48,113,-114,200,-200,259v-86,59,-188,89,-305,89v-256,0,-420,-159,-420,-414v0,-248,94,-427,235,-555v156,-142,363,-183,600,-128v64,16,125,39,186,71r-52,272r-107,0v6,-183,-63,-269,-241,-268v-99,0,-182,38,-248,115v-66,77,-113,193,-143,346v-13,70,-20,132,-20,187v-2,170,71,278,231,275","w":1147},"d":{"d":"611,-1092v170,1,260,66,306,195r107,-553r-174,0r21,-106r358,0r-302,1556r-184,0r32,-166v-89,119,-194,191,-382,195v-220,5,-355,-172,-353,-402v0,-49,6,-102,17,-159v33,-167,100,-302,203,-405v103,-103,220,-155,351,-155xm252,-353v-3,162,68,267,220,267v93,0,171,-33,233,-100v62,-67,106,-165,131,-293v14,-73,35,-169,35,-246v0,-156,-73,-252,-225,-252v-95,0,-171,39,-236,112v-85,95,-155,318,-158,512","w":1311},"e":{"d":"482,29v-232,0,-400,-172,-395,-415v5,-246,93,-424,233,-552v112,-103,249,-154,409,-154v261,0,391,92,391,277v0,135,-68,236,-205,302v-139,67,-344,102,-615,105v-3,25,-4,49,-4,72v0,169,85,267,251,266v77,0,135,-12,173,-35v68,-42,110,-90,126,-144r135,0v-27,85,-90,157,-189,216v-69,41,-173,62,-310,62xm813,-632v74,-44,112,-107,112,-190v0,-114,-76,-171,-227,-171v-89,0,-165,34,-227,102v-62,68,-112,194,-150,377v214,-10,378,-50,492,-118","w":1212},"f":{"d":"923,-1305v19,-99,-33,-153,-133,-153v-69,0,-121,18,-156,56v-35,38,-62,105,-81,202r-27,137r297,0r-21,107r-297,0r-198,1022v-43,223,-180,358,-434,360r12,-98v70,0,122,-18,156,-56v36,-40,63,-109,82,-206r198,-1022r-176,0r21,-107r176,0r26,-133v43,-225,180,-360,434,-360v99,0,183,18,258,49r-40,202r-97,0","w":758},"g":{"d":"864,-166v-86,118,-194,191,-376,195v-232,5,-368,-181,-317,-431v48,-235,150,-414,314,-535v139,-103,290,-154,453,-155v149,-1,244,9,285,29r-203,1040v-31,159,-96,275,-194,353v-148,119,-359,150,-581,106v-61,-13,-119,-32,-173,-57r44,-223r96,0v-3,149,82,200,238,200v108,0,193,-31,255,-92v62,-60,106,-156,131,-287xm1019,-956v-1,-23,-37,-34,-109,-34v-130,0,-244,50,-342,150v-98,101,-166,242,-201,425v-19,97,-19,181,18,246v32,56,92,83,177,83v93,0,171,-33,233,-100v62,-67,105,-165,130,-293","w":1311},"h":{"d":"902,-790v1,-122,-49,-166,-171,-166v-85,0,-156,31,-213,93v-57,62,-97,152,-120,271r-115,592r-184,0r282,-1450r-176,0r20,-106r360,0r-132,682v48,-72,103,-126,164,-163v61,-37,128,-55,200,-55v187,1,277,81,278,264v0,45,-6,95,-17,152r-111,570r164,0r-20,106r-349,0r120,-618v13,-69,20,-126,20,-172","w":1319},"i":{"d":"415,-1280v-59,1,-103,-48,-92,-113v10,-56,72,-114,136,-114v51,0,94,42,94,92v0,75,-66,133,-138,135xm308,-106r174,0r-20,106r-358,0r185,-956r-176,0r21,-107r360,0","w":655},"j":{"d":"371,-1370v1,-75,67,-135,139,-137v58,-1,103,50,91,114v-10,58,-69,113,-135,113v-52,0,-95,-38,-95,-90xm-240,216v0,97,45,139,141,140v61,0,109,-21,146,-62v37,-41,64,-104,81,-190r206,-1060r-174,0r20,-107r358,0r-226,1167v-37,207,-198,351,-435,351v-104,0,-182,-25,-252,-66r43,-219r95,0v-2,17,-3,32,-3,46","w":635},"k":{"d":"676,-664r295,558r153,0r-20,106r-295,0r-290,-543r-171,135r-79,408r-184,0r282,-1450r-177,0r20,-106r361,0r-197,1013r529,-413r-153,0r20,-107r299,0r-20,107","w":1241},"l":{"d":"289,-106r174,0r-20,106r-358,0r282,-1450r-177,0r20,-106r361,0","w":655},"m":{"d":"849,-1092v162,-1,265,84,272,236v51,-78,107,-136,170,-176v63,-40,131,-60,204,-60v178,0,266,88,266,267v0,44,-5,94,-16,149r-111,570r166,0r-20,106r-350,0r127,-655v10,-52,15,-97,15,-134v1,-116,-48,-167,-163,-167v-82,0,-150,31,-205,93v-55,62,-95,152,-118,271r-115,592r-184,0r129,-662v9,-50,14,-93,14,-129v1,-116,-49,-165,-164,-165v-82,0,-151,31,-206,93v-55,62,-94,152,-117,271r-115,592r-184,0r186,-958r-176,0r20,-105r360,0r-36,189v47,-71,101,-125,161,-162v60,-37,123,-56,190,-56","w":1942},"n":{"d":"947,-790v1,-122,-49,-168,-171,-168v-85,0,-156,32,-213,94v-57,62,-97,153,-120,272r-115,592r-184,0r186,-956r-176,0r20,-107r360,0r-36,189v48,-72,103,-126,164,-163v61,-37,128,-55,200,-55v187,1,278,80,278,264v0,45,-6,95,-17,152r-111,570r164,0r-20,106r-349,0r120,-618v13,-69,20,-126,20,-172","w":1319},"o":{"d":"297,-348v-2,169,71,278,229,278v99,0,178,-41,246,-117v88,-100,159,-327,163,-530v3,-169,-71,-276,-229,-276v-99,0,-180,39,-246,117v-66,78,-114,192,-143,344v-13,69,-20,131,-20,184xm725,-1092v256,0,420,157,420,413v0,247,-94,427,-235,555v-113,103,-248,153,-403,153v-256,0,-420,-159,-420,-414v0,-247,94,-426,235,-554v113,-102,248,-153,403,-153","w":1233},"p":{"d":"1051,-712v2,-162,-68,-265,-219,-265v-93,0,-171,34,-233,101v-62,67,-105,165,-130,292v-14,73,-36,170,-36,247v0,157,74,251,226,251v94,0,170,-39,235,-113v85,-97,153,-317,157,-513xm694,29v-170,-1,-262,-65,-306,-195r-116,592r-184,0r269,-1382r-177,0r21,-107r361,0r-32,166v88,-120,194,-191,382,-195v219,-5,355,170,351,400v-5,246,-89,434,-219,566v-103,104,-219,155,-350,155","w":1311},"q":{"d":"859,-166v-82,116,-172,191,-348,195v-232,5,-368,-181,-317,-431v48,-235,150,-414,314,-535v139,-103,291,-154,454,-155v129,-1,214,9,255,29r-269,1383r177,0r-21,106r-361,0xm933,-990v-128,0,-242,50,-341,150v-99,100,-167,242,-202,425v-19,97,-19,181,18,246v32,56,92,83,177,83v84,0,154,-33,211,-100v57,-67,98,-165,123,-293r94,-482v1,-19,-26,-29,-80,-29","w":1311},"r":{"d":"498,-874v98,-149,244,-243,481,-211v32,5,66,11,101,20r-52,266r-106,0v15,-99,-28,-157,-127,-157v-91,0,-166,31,-227,94v-61,63,-102,153,-125,270r-115,592r-184,0r186,-958r-176,0r20,-105r360,0","w":979},"s":{"d":"830,-774v21,-141,-63,-219,-214,-219v-157,0,-246,55,-267,164v-8,45,-3,78,29,113v38,40,210,93,296,122v95,31,160,71,195,118v25,33,37,66,37,99v0,140,-56,246,-168,319v-188,123,-505,108,-715,-1r48,-248r106,0v-24,160,55,236,243,237v165,0,260,-61,284,-182v2,-12,3,-29,3,-50v0,-21,-11,-43,-34,-68v-74,-79,-405,-133,-471,-232v-37,-55,-50,-104,-37,-178v36,-194,221,-314,453,-312v118,0,239,29,363,86r-45,232r-106,0","w":1051},"t":{"d":"723,-250v-46,180,-138,279,-349,279v-106,0,-177,-24,-212,-71v-40,-55,-36,-152,-19,-239r131,-675r-162,0r21,-107r162,0r64,-330r185,0r-64,330r346,0r-21,107r-346,0r-131,675v-10,53,-15,94,-15,125v-2,68,28,86,96,86v115,0,151,-71,175,-180r139,0","w":823},"u":{"d":"372,-273v-1,122,48,167,171,167v85,0,156,-31,213,-94v57,-63,97,-154,120,-273r115,-590r184,0r-186,957r174,0r-20,106r-358,0r36,-188v-48,71,-102,125,-163,162v-61,37,-128,55,-199,55v-188,-2,-279,-79,-280,-264v0,-45,6,-95,17,-152r110,-569r-166,0r21,-107r351,0r-120,619v-13,69,-20,126,-20,171","w":1319},"v":{"d":"1135,-1063v-146,532,-260,736,-597,1063r-135,0r-205,-956r-121,0r20,-107r275,0r180,838v77,-67,141,-142,192,-227v107,-176,179,-344,217,-504r-122,0r21,-107r275,0","w":1157},"w":{"d":"1197,-233v89,-96,143,-162,163,-197v73,-133,146,-309,218,-526r-155,1r21,-108r267,0r-21,108r-1,0v-68,247,-133,431,-199,550v-94,171,-195,305,-300,405r-153,0r-109,-795r-417,795r-147,0r-129,-956r-120,2r21,-109r274,0r112,830r435,-830r129,0","w":1753},"x":{"d":"131,0r-125,0r469,-510r-236,-446r-131,0r20,-107r270,0r221,414r381,-414r125,0r-460,500r243,457r139,0r-20,106r-279,0r-226,-424","w":1155},"y":{"d":"58,221v-11,83,22,131,106,131v117,0,227,-51,329,-153r-251,-1155r-121,0r21,-107r275,0r236,1055v107,-161,174,-274,200,-340v84,-208,134,-407,151,-599r-121,0r21,-107r274,0v-66,381,-157,673,-273,874v-170,295,-326,484,-460,576v-81,56,-379,82,-521,28r40,-203r94,0","w":1157},"z":{"d":"815,-975v72,0,143,-29,213,-88r60,0r-16,86r-727,758v60,14,108,45,156,75v62,39,117,57,162,57v87,0,182,-50,285,-150r-24,121v-114,112,-214,168,-301,168v-53,0,-116,-25,-190,-71v-74,-46,-134,-69,-181,-69v-72,0,-143,29,-213,88r-60,0r16,-86r728,-757v-31,-10,-78,-25,-108,-46v-55,-38,-154,-87,-211,-87v-87,0,-182,50,-285,150r24,-121v114,-112,214,-168,301,-168v53,0,116,25,190,71v74,46,134,69,181,69","w":1079},"{":{"d":"884,229r-21,105r-62,0v-166,0,-272,-25,-319,-74v-47,-49,-56,-148,-27,-295r50,-258v36,-204,-7,-263,-198,-266r-61,0r20,-105v113,4,217,-10,268,-58v42,-40,76,-108,95,-208r50,-258v29,-147,76,-245,142,-294v66,-49,182,-74,348,-74r62,0r-21,104r-68,0v-94,0,-158,15,-192,44v-34,29,-61,91,-79,185r-56,287v-43,206,-99,277,-293,324v165,49,210,104,167,325r-56,287v-33,197,-4,224,183,229r68,0"},"|":{"d":"426,-1565r0,2048r-162,0r0,-2048r162,0","w":690},"}":{"d":"93,229r70,0v93,0,157,-14,191,-43v34,-29,60,-91,78,-186r56,-287v44,-207,99,-273,292,-325v-165,-44,-209,-106,-166,-324r56,-287v35,-198,6,-224,-181,-229r-70,0r21,-104r63,0v166,0,272,25,318,74v46,49,55,147,26,294r-50,258v-36,204,7,263,198,266r62,0r-20,105v-113,-4,-218,10,-269,58v-42,40,-76,108,-95,208r-50,258v-29,147,-76,246,-141,295v-65,49,-181,74,-347,74r-63,0"},"~":{"d":"1143,-657v154,0,258,-66,356,-150r0,148v-67,59,-130,102,-190,130v-60,28,-121,42,-183,42v-65,0,-211,-42,-313,-83v-97,-39,-179,-57,-242,-57v-156,0,-254,65,-354,150r0,-152v67,-58,129,-100,189,-127v60,-27,121,-41,184,-41v65,0,209,41,311,82v96,39,177,58,242,58","w":1716},"\u00a0":{"w":651},"\u00a1":{"d":"420,-1294v-68,-98,31,-228,140,-228v70,0,121,60,107,133v-13,68,-83,135,-159,134v-38,0,-69,-12,-88,-39xm135,0r227,-821r49,-252r123,0r-49,252r-92,821r-258,0","w":823},"\u00a2":{"d":"719,-991v-88,10,-161,53,-219,130v-58,77,-101,186,-129,329v-28,143,-27,253,1,330v28,77,84,120,168,130xm640,-72v140,-21,227,-120,275,-247r148,0v-80,191,-216,316,-442,346r-53,270r-100,0r53,-270v-281,-21,-429,-237,-367,-559v57,-299,270,-534,584,-558r52,-266r100,0r-52,266v126,11,229,43,322,93r-53,272r-106,0v6,-158,-47,-248,-182,-266"},"\u00a3":{"d":"1087,-1225v13,-128,-56,-197,-181,-196v-85,0,-152,25,-202,77v-50,52,-87,133,-108,242r-57,295r412,0r-21,107r-412,0r-112,579r478,0r44,-227r116,0r-68,348r-987,0r21,-106r193,0r115,-594r-193,0r21,-107r193,0r57,-295v50,-263,227,-417,532,-418v118,0,223,18,312,50r-48,245r-105,0"},"\u00a4":{"d":"653,-1067v105,0,178,33,248,82r209,-207r94,94r-209,209v50,70,84,142,84,248v0,108,-33,177,-86,244r207,207r-96,94r-207,-205v-67,52,-137,86,-244,86v-103,0,-180,-35,-250,-82r-204,205r-95,-94r205,-207v-47,-72,-82,-144,-82,-248v0,-108,34,-178,86,-246r-207,-207r95,-94r207,207v67,-52,138,-86,245,-86xm653,-373v147,0,269,-123,269,-270v0,-147,-122,-266,-269,-266v-146,0,-268,120,-268,266v0,148,121,270,268,270"},"\u00a5":{"d":"215,0r20,-106r191,0r72,-367r-404,0r20,-105r404,0r13,-65r-55,-141r-322,0r21,-105r263,0r-191,-497r-139,0r21,-107r553,0r-21,107r-175,0r226,604r456,-604r-167,0r21,-107r432,0r-21,107r-142,0r-380,497r272,0r-21,105r-332,0r-94,122r-17,84r403,0r-20,105r-403,0r-72,367r190,0r-20,106r-582,0"},"\u00a6":{"d":"426,-408r0,758r-162,0r0,-758r162,0xm426,-1432r0,758r-162,0r0,-758r162,0","w":690},"\u00a7":{"d":"432,-936v-85,53,-137,88,-158,182v-19,88,82,200,298,335r28,18v77,-44,134,-101,154,-191v10,-50,-4,-97,-42,-142v-38,-45,-131,-112,-280,-202xm985,-1464r-39,202r-92,0v17,-104,-58,-155,-164,-155v-131,0,-230,70,-250,180v-13,65,54,143,200,234r34,22v116,73,190,134,222,184v69,108,21,262,-55,332v-44,41,-106,78,-187,107v83,58,124,126,99,264v-32,178,-214,291,-433,289v-126,-1,-223,-19,-316,-56r41,-209r92,1v-18,121,59,161,185,161v136,0,240,-70,261,-182v15,-75,-46,-155,-182,-240v-118,-74,-240,-166,-269,-215v-30,-51,-42,-108,-29,-174v28,-137,138,-222,277,-258v-81,-56,-134,-126,-111,-254v31,-175,209,-291,422,-289v114,1,208,21,294,56","w":1024},"\u00a8":{"d":"446,-1534v49,-43,126,-51,164,0v62,85,-25,199,-122,199v-65,0,-107,-50,-93,-117v6,-32,24,-58,51,-82xm835,-1534v48,-42,126,-52,164,0v62,84,-25,199,-121,199v-66,0,-108,-49,-94,-117v6,-32,24,-58,51,-82","w":1024},"\u00a9":{"d":"1026,-379v140,-2,205,-71,231,-194r119,0v-33,168,-154,271,-350,272v-252,1,-410,-183,-410,-440v0,-257,160,-445,410,-443v129,2,221,31,322,76r0,213r-84,0v-22,-137,-86,-209,-236,-211v-79,0,-137,33,-180,92v-78,107,-78,437,0,544v43,59,99,91,178,91xm740,-1430v172,-72,396,-72,568,0v171,72,332,232,403,404v70,171,71,397,0,568v-71,171,-232,332,-403,403v-172,72,-396,72,-568,0v-171,-72,-332,-232,-403,-403v-71,-171,-70,-397,0,-568v71,-172,232,-332,403,-404xm1270,-1335v-148,-61,-342,-62,-490,0v-148,62,-286,199,-348,349v-62,149,-62,339,0,488v62,148,200,286,348,348v148,62,342,62,490,0v148,-62,285,-198,346,-347v61,-149,61,-343,0,-491v-62,-149,-198,-286,-346,-347","w":2048},"\u00aa":{"d":"528,-1499v105,-19,175,17,213,89r15,-84r126,0r-126,650r128,0r-17,88r-254,0r34,-178v-81,101,-165,179,-324,184v-121,4,-193,-92,-190,-219v4,-167,61,-285,149,-385v70,-80,153,-128,246,-145xm275,-1004v-4,104,56,166,161,146v124,-24,227,-144,249,-272v8,-45,22,-95,23,-145v2,-96,-66,-155,-166,-134v-168,36,-259,201,-267,405xm92,-639r698,0r-20,104r-698,0","w":973},"\u00ab":{"d":"1150,-1059r-22,115r-364,344r230,344r-22,115r-388,-418r16,-82xm716,-1059r-22,115r-364,344r230,344r-22,115r-388,-418r16,-82","w":1253},"\u00ac":{"d":"217,-862r1282,0r0,575r-160,0r0,-413r-1122,0r0,-162","w":1716},"\u00ad":{"d":"105,-627r512,0r-30,156r-512,0","w":692},"\u00ae":{"d":"1186,-942v0,-102,-61,-150,-166,-150r-125,0r0,301r125,0v107,0,166,-47,166,-151xm1335,-938v0,122,-74,172,-194,184v58,19,95,53,121,105r116,229r76,0r0,68r-190,0r-131,-254v-23,-47,-46,-77,-66,-94v-37,-31,-107,-22,-172,-23r0,303r84,0r0,68r-317,0r0,-68r83,0r0,-672r-83,0r0,-67r415,0v161,-1,258,67,258,221xm1270,-1335v-148,-61,-342,-62,-490,0v-148,62,-286,199,-348,349v-62,149,-62,339,0,488v62,148,200,286,348,348v148,62,342,62,490,0v148,-62,285,-198,346,-347v61,-149,61,-343,0,-491v-62,-149,-198,-286,-346,-347xm740,-1430v172,-72,396,-72,568,0v171,72,332,232,403,404v70,171,71,397,0,568v-71,171,-232,332,-403,403v-172,72,-396,72,-568,0v-171,-72,-332,-232,-403,-403v-71,-171,-70,-397,0,-568v71,-172,232,-332,403,-404","w":2048},"\u00af":{"d":"396,-1526r598,0r-28,148r-598,0","w":1024},"\u00b0":{"d":"692,-1200v0,-97,-84,-182,-180,-182v-99,0,-180,82,-180,182v0,100,80,178,180,178v98,0,180,-80,180,-178xm195,-1200v0,-215,219,-388,440,-296v77,32,140,98,171,173v15,38,23,79,23,123v0,172,-146,315,-319,315v-176,0,-315,-139,-315,-315","w":1024},"\u00b1":{"d":"938,-1284r0,391r561,0r0,162r-561,0r0,391r-160,0r0,-391r-561,0r0,-162r561,0r0,-391r160,0xm217,-160r1282,0r0,160r-1282,0r0,-160","w":1716},"\u00b2":{"d":"422,-1446v-114,1,-181,60,-213,150r-70,0r31,-158v84,-37,180,-65,288,-66v92,0,162,22,210,66v48,44,66,101,53,170v-16,81,-100,180,-252,296r-302,232r385,0r21,-108r74,0r-38,196r-602,0r15,-75r334,-254v67,-51,117,-97,150,-138v33,-41,53,-83,62,-127v22,-114,-37,-186,-146,-184","w":821},"\u00b3":{"d":"441,-1446v-110,0,-176,43,-201,129r-70,0r29,-151v87,-29,176,-52,276,-52v92,0,159,18,202,54v43,36,58,87,45,153v-21,106,-120,170,-238,189v138,19,223,84,195,235v-30,161,-181,238,-384,236v-105,0,-192,-21,-268,-56r33,-170r69,1v-12,108,54,152,166,151v126,0,209,-63,229,-170v25,-131,-38,-189,-166,-188r-53,0r14,-74v138,5,230,-37,252,-148v19,-95,-36,-140,-130,-139","w":821},"\u00b4":{"d":"858,-1638r199,0r-414,376r-117,0","w":1024},"\u00b5":{"d":"425,-274v-1,123,49,168,171,168v85,0,156,-31,213,-94v57,-63,97,-154,120,-273r115,-590r184,0r-187,959r174,0r-20,104r-358,0r37,-188v-49,71,-102,125,-158,162v-56,37,-114,55,-174,55v-81,0,-136,-27,-176,-72r-91,469r-184,0r269,-1382r-166,0r21,-107r350,0r-121,619v-13,68,-19,125,-19,170","w":1331},"\u00b6":{"d":"797,-1493r538,0r-21,107r-118,0r-307,1583r-107,0r307,-1583r-231,0r-307,1583r-107,0r164,-846v-141,-11,-244,-53,-308,-127v-64,-74,-82,-172,-60,-295v45,-245,270,-422,557,-422"},"\u00b7":{"d":"210,-616v-70,-97,31,-228,140,-228v70,0,121,59,107,133v-13,68,-83,134,-159,133v-38,0,-69,-12,-88,-38","w":651},"\u00b8":{"d":"283,240v66,32,180,54,243,8v43,-31,62,-75,40,-144v-9,-29,-25,-64,-47,-104r97,0v35,43,60,82,72,120v67,203,-126,304,-344,269v-29,-4,-58,-10,-87,-18","w":1024},"\u00b9":{"d":"95,-668r16,-84r172,0r123,-634r-221,106r18,-94r265,-129r102,0r-146,751r173,0r-16,84r-486,0","w":821},"\u00ba":{"d":"439,-813v71,0,129,-26,175,-79v46,-53,80,-132,100,-236v20,-104,18,-183,-8,-236v-26,-53,-74,-80,-144,-80v-69,0,-127,27,-174,81v-47,54,-80,132,-100,235v-20,103,-18,182,8,235v26,53,73,80,143,80xm425,-737v-226,0,-356,-154,-311,-391v41,-218,218,-392,463,-392v226,0,356,154,311,392v-42,218,-216,391,-463,391xm61,-639r688,0r-20,104r-688,0","w":963},"\u00bb":{"d":"716,-1059r388,418r-16,82r-550,418r22,-115r364,-344r-230,-344xm282,-1059r388,418r-16,82r-550,418r22,-115r363,-344r-229,-344","w":1253},"\u00bc":{"d":"95,-668r16,-84r172,0r123,-634r-221,106r18,-94r265,-129r102,0r-146,751r173,0r-16,84r-486,0xm1462,-303r79,-407r-387,407r308,0xm1691,0r-434,0r16,-84r146,0r27,-137r-398,0r16,-84r503,-530r141,0r-103,532r164,0r-16,82r-164,0r-27,137r145,0xm1539,-1520r150,0r-1244,1549r-150,0","w":1985},"\u00bd":{"d":"1455,-778v-114,1,-181,60,-213,150r-70,0r31,-158v84,-37,180,-65,288,-66v92,0,163,22,211,66v48,44,65,101,52,170v-16,81,-100,180,-252,296r-302,232r385,0r21,-108r74,0r-38,196r-602,0r15,-75r334,-254v67,-51,117,-97,150,-138v33,-41,53,-83,62,-127v22,-114,-37,-186,-146,-184xm95,-668r16,-84r172,0r123,-634r-221,106r18,-94r265,-129r102,0r-146,751r173,0r-16,84r-486,0xm1539,-1520r150,0r-1244,1549r-150,0","w":1985},"\u00be":{"d":"441,-1446v-110,0,-176,43,-201,129r-70,0r29,-151v87,-29,176,-52,276,-52v92,0,159,18,202,54v43,36,58,87,45,153v-21,106,-120,170,-238,189v138,19,223,84,195,235v-30,161,-181,238,-384,236v-105,0,-192,-21,-268,-56r33,-170r69,1v-12,108,54,152,166,151v126,0,209,-63,229,-170v25,-131,-38,-189,-166,-188r-53,0r14,-74v138,5,230,-37,252,-148v19,-95,-36,-140,-130,-139xm1462,-303r79,-407r-387,407r308,0xm1691,0r-434,0r16,-84r146,0r27,-137r-398,0r16,-84r503,-530r141,0r-103,532r164,0r-16,82r-164,0r-27,137r145,0xm1539,-1520r150,0r-1244,1549r-150,0","w":1985},"\u00bf":{"d":"884,-1484v69,97,-32,229,-140,229v-71,0,-121,-59,-107,-134v12,-67,84,-134,159,-133v38,0,69,11,88,38xm492,-72v173,-3,278,-111,329,-254r96,0r-50,260v-129,51,-249,93,-400,93v-147,0,-257,-36,-329,-107v-72,-71,-98,-168,-73,-289v56,-271,251,-411,537,-473r50,-254r123,0r-64,328v-230,53,-390,177,-435,401v-38,180,49,298,216,295","w":1098},"\u00c0":{"d":"370,-541r548,0r-136,-710xm-157,0r20,-106r131,0r802,-1387r168,0r264,1387r146,0r-20,106r-543,0r20,-106r166,0r-61,-328r-628,0r-189,328r164,0r-20,106r-420,0xm866,-1899r131,264r-117,0r-210,-264r196,0","w":1479},"\u00c1":{"d":"370,-541r548,0r-136,-710xm-157,0r20,-106r131,0r802,-1387r168,0r264,1387r146,0r-20,106r-543,0r20,-106r166,0r-61,-328r-628,0r-189,328r164,0r-20,106r-420,0xm1051,-1899r197,0r-314,264r-117,0","w":1479},"\u00c2":{"d":"370,-541r548,0r-136,-710xm-157,0r20,-106r131,0r802,-1387r168,0r264,1387r146,0r-20,106r-543,0r20,-106r166,0r-61,-328r-628,0r-189,328r164,0r-20,106r-420,0xm852,-1899r176,0r179,264r-116,0r-171,-161r-235,161r-116,0","w":1479},"\u00c3":{"d":"370,-541r548,0r-136,-710xm-157,0r20,-106r131,0r802,-1387r168,0r264,1387r146,0r-20,106r-543,0r20,-106r166,0r-61,-328r-628,0r-189,328r164,0r-20,106r-420,0xm1289,-1886v-26,126,-102,217,-241,219v-45,1,-92,-20,-135,-48v-34,-22,-64,-55,-115,-55v-59,0,-101,50,-115,103r-96,-1v25,-136,136,-251,297,-209v45,12,112,67,163,86v76,27,135,-28,145,-95r97,0","w":1479},"\u00c4":{"d":"370,-541r548,0r-136,-710xm-157,0r20,-106r131,0r802,-1387r168,0r264,1387r146,0r-20,106r-543,0r20,-106r166,0r-61,-328r-628,0r-189,328r164,0r-20,106r-420,0xm661,-1849v48,-43,126,-51,164,0v64,85,-26,198,-121,198v-63,0,-108,-51,-93,-117v6,-31,23,-58,50,-81xm1050,-1849v48,-43,126,-51,164,0v63,85,-26,198,-120,198v-64,0,-109,-50,-94,-117v6,-31,23,-58,50,-81","w":1479},"\u00c5":{"d":"837,-1475v87,0,166,-75,181,-151v16,-84,-42,-152,-122,-152v-89,0,-166,73,-181,152v-16,85,41,151,122,151xm330,-541r546,0r-134,-710xm-197,0r21,-106r131,0r737,-1278v-79,-45,-120,-119,-100,-242v23,-139,171,-275,328,-275v146,0,252,123,221,275v-23,113,-99,200,-197,242r244,1278r147,0r-21,106r-543,0r21,-106r166,0r-61,-328r-628,0r-189,328r164,0r-21,106r-420,0","w":1479},"\u00c6":{"d":"386,-541r489,0r164,-845r-100,0xm580,0r20,-106r190,0r64,-328r-538,0r-216,328r164,0r-20,106r-424,0r20,-106r131,0r839,-1280r-215,0r21,-107r1456,0r-64,332r-123,0r40,-209r-688,0r-97,500r492,0r36,-187r123,0r-96,496r-123,0r36,-187r-492,0r-121,625r705,0r40,-209r123,0r-64,332r-1219,0","w":2050},"\u00c7":{"d":"405,240v66,32,180,54,243,8v43,-31,62,-75,40,-144v-9,-29,-25,-64,-47,-104r97,0v35,43,60,82,72,120v67,203,-126,304,-344,269v-29,-4,-58,-10,-87,-18xm699,-78v253,0,400,-130,493,-317r184,0v-71,139,-167,244,-284,317v-176,110,-463,146,-675,57v-158,-66,-276,-220,-310,-401v-18,-95,-15,-203,8,-323v45,-232,149,-419,311,-561v221,-193,492,-260,824,-182v88,21,181,54,278,97r-66,344r-113,0v-3,-257,-126,-365,-390,-366v-159,0,-291,56,-395,169v-104,113,-177,280,-220,499v-43,219,-34,384,26,497v60,113,170,170,329,170","w":1567},"\u00c8":{"d":"-32,0r20,-106r190,0r249,-1280r-190,0r21,-107r1202,0r-64,332r-123,0r40,-209r-686,0r-97,500r489,0r36,-187r123,0r-96,496r-123,0r36,-187r-489,0r-121,625r702,0r40,-209r123,0r-64,332r-1218,0xm946,-1899r131,264r-117,0r-210,-264r196,0","w":1495},"\u00c9":{"d":"-32,0r20,-106r190,0r249,-1280r-190,0r21,-107r1202,0r-64,332r-123,0r40,-209r-686,0r-97,500r489,0r36,-187r123,0r-96,496r-123,0r36,-187r-489,0r-121,625r702,0r40,-209r123,0r-64,332r-1218,0xm1059,-1899r197,0r-314,264r-117,0","w":1495},"\u00ca":{"d":"-32,0r20,-106r190,0r249,-1280r-190,0r21,-107r1202,0r-64,332r-123,0r40,-209r-686,0r-97,500r489,0r36,-187r123,0r-96,496r-123,0r36,-187r-489,0r-121,625r702,0r40,-209r123,0r-64,332r-1218,0xm908,-1899r176,0r179,264r-116,0r-171,-161r-235,161r-116,0","w":1495},"\u00cb":{"d":"-32,0r20,-106r190,0r249,-1280r-190,0r21,-107r1202,0r-64,332r-123,0r40,-209r-686,0r-97,500r489,0r36,-187r123,0r-96,496r-123,0r36,-187r-489,0r-121,625r702,0r40,-209r123,0r-64,332r-1218,0xm723,-1849v48,-43,126,-51,164,0v64,85,-26,198,-121,198v-63,0,-108,-51,-93,-117v6,-31,23,-58,50,-81xm1112,-1849v48,-43,126,-51,164,0v63,85,-26,198,-120,198v-64,0,-109,-50,-94,-117v6,-31,23,-58,50,-81","w":1495},"\u00cc":{"d":"381,-106r190,0r-20,106r-583,0r20,-106r190,0r249,-1280r-190,0r21,-107r583,0r-21,107r-190,0xm569,-1899r131,264r-117,0r-210,-264r196,0","w":809},"\u00cd":{"d":"381,-106r190,0r-20,106r-583,0r20,-106r190,0r249,-1280r-190,0r21,-107r583,0r-21,107r-190,0xm718,-1899r197,0r-314,264r-117,0","w":809},"\u00ce":{"d":"381,-106r190,0r-20,106r-583,0r20,-106r190,0r249,-1280r-190,0r21,-107r583,0r-21,107r-190,0xm567,-1899r176,0r179,264r-116,0r-171,-161r-235,161r-116,0","w":809},"\u00cf":{"d":"381,-106r190,0r-20,106r-583,0r20,-106r190,0r249,-1280r-190,0r21,-107r583,0r-21,107r-190,0xm346,-1849v48,-43,126,-51,164,0v64,85,-26,198,-121,198v-63,0,-108,-51,-93,-117v6,-31,23,-58,50,-81xm735,-1849v48,-43,126,-51,164,0v63,85,-26,198,-120,198v-64,0,-109,-50,-94,-117v6,-31,23,-58,50,-81","w":809},"\u00d0":{"d":"389,-106r188,0v194,0,353,-55,479,-166v126,-111,210,-269,250,-476v82,-413,-93,-640,-480,-638r-188,0r-105,542r336,0r-24,125r-336,0xm-22,0r20,-106r190,0r120,-613r-200,0r24,-125r200,0r105,-542r-190,0r21,-107r594,0v257,0,446,66,564,197v118,131,152,314,108,548v-84,452,-438,748,-962,748r-594,0","w":1653},"\u00d1":{"d":"-42,0r20,-106r201,0r249,-1280r-201,0r21,-107r383,0r666,1178r208,-1071r-200,0r21,-107r524,0r-21,107r-201,0r-275,1415r-121,0r-711,-1258r-219,1123r201,0r-20,106r-525,0xm1483,-1886v-26,126,-102,217,-241,219v-45,1,-92,-20,-135,-48v-34,-22,-64,-55,-115,-55v-59,0,-101,50,-115,103r-96,-1v25,-136,136,-251,297,-209v45,12,112,67,163,86v76,27,135,-28,145,-95r97,0","w":1792},"\u00d2":{"d":"710,-78v163,0,298,-56,403,-168v105,-112,179,-279,222,-499v43,-221,33,-387,-28,-499v-61,-112,-174,-169,-337,-169v-164,0,-299,57,-404,169v-105,112,-179,278,-222,499v-43,220,-33,387,28,499v61,112,174,168,338,168xm978,-20v-169,63,-397,67,-558,-1v-159,-67,-280,-219,-313,-401v-41,-228,36,-494,125,-646v100,-171,272,-331,469,-402v91,-33,187,-50,290,-50v429,0,668,317,574,775v-52,250,-165,436,-334,577v-78,65,-163,114,-253,148xm1038,-1899r131,264r-117,0r-210,-264r196,0","w":1679},"\u00d3":{"d":"710,-78v163,0,298,-56,403,-168v105,-112,179,-279,222,-499v43,-221,33,-387,-28,-499v-61,-112,-174,-169,-337,-169v-164,0,-299,57,-404,169v-105,112,-179,278,-222,499v-43,220,-33,387,28,499v61,112,174,168,338,168xm978,-20v-169,63,-397,67,-558,-1v-159,-67,-280,-219,-313,-401v-41,-228,36,-494,125,-646v100,-171,272,-331,469,-402v91,-33,187,-50,290,-50v429,0,668,317,574,775v-52,250,-165,436,-334,577v-78,65,-163,114,-253,148xm1151,-1899r197,0r-314,264r-117,0","w":1679},"\u00d4":{"d":"710,-78v163,0,298,-56,403,-168v105,-112,179,-279,222,-499v43,-221,33,-387,-28,-499v-61,-112,-174,-169,-337,-169v-164,0,-299,57,-404,169v-105,112,-179,278,-222,499v-43,220,-33,387,28,499v61,112,174,168,338,168xm978,-20v-169,63,-397,67,-558,-1v-159,-67,-280,-219,-313,-401v-41,-228,36,-494,125,-646v100,-171,272,-331,469,-402v91,-33,187,-50,290,-50v429,0,668,317,574,775v-52,250,-165,436,-334,577v-78,65,-163,114,-253,148xm1000,-1899r176,0r179,264r-116,0r-171,-161r-235,161r-116,0","w":1679},"\u00d5":{"d":"710,-78v163,0,298,-56,403,-168v105,-112,179,-279,222,-499v43,-221,33,-387,-28,-499v-61,-112,-174,-169,-337,-169v-164,0,-299,57,-404,169v-105,112,-179,278,-222,499v-43,220,-33,387,28,499v61,112,174,168,338,168xm978,-20v-169,63,-397,67,-558,-1v-159,-67,-280,-219,-313,-401v-41,-228,36,-494,125,-646v100,-171,272,-331,469,-402v91,-33,187,-50,290,-50v429,0,668,317,574,775v-52,250,-165,436,-334,577v-78,65,-163,114,-253,148xm1425,-1886v-26,126,-102,217,-241,219v-45,1,-92,-20,-135,-48v-34,-22,-64,-55,-115,-55v-59,0,-101,50,-115,103r-96,-1v25,-136,136,-251,297,-209v45,12,112,67,163,86v76,27,135,-28,145,-95r97,0","w":1679},"\u00d6":{"d":"710,-78v163,0,298,-56,403,-168v105,-112,179,-279,222,-499v43,-221,33,-387,-28,-499v-61,-112,-174,-169,-337,-169v-164,0,-299,57,-404,169v-105,112,-179,278,-222,499v-43,220,-33,387,28,499v61,112,174,168,338,168xm978,-20v-169,63,-397,67,-558,-1v-159,-67,-280,-219,-313,-401v-41,-228,36,-494,125,-646v100,-171,272,-331,469,-402v91,-33,187,-50,290,-50v429,0,668,317,574,775v-52,250,-165,436,-334,577v-78,65,-163,114,-253,148xm815,-1849v48,-43,126,-51,164,0v64,85,-26,198,-121,198v-63,0,-108,-51,-93,-117v6,-31,23,-58,50,-81xm1204,-1849v48,-43,126,-51,164,0v63,85,-26,198,-120,198v-64,0,-109,-50,-94,-117v6,-31,23,-58,50,-81","w":1679},"\u00d7":{"d":"1434,-1104r-463,463r463,461r-115,112r-461,-460r-461,460r-114,-112r460,-461r-460,-463r114,-113r461,461r461,-461","w":1716},"\u00d8":{"d":"1310,-1239v-62,-114,-169,-173,-340,-174v-164,0,-299,57,-404,169v-105,112,-179,278,-222,499v-26,139,-38,262,-11,393xm368,-256v59,116,171,178,342,178v163,0,298,-56,403,-168v105,-112,180,-279,222,-499v26,-137,37,-266,10,-396xm990,-1520v198,0,345,63,445,168r216,-198r66,71r-223,203v87,142,113,314,71,531v-45,230,-147,416,-309,559v-162,143,-351,215,-567,215v-202,-1,-341,-65,-446,-172r-221,200r-65,-69r227,-207v-88,-139,-110,-311,-69,-526v45,-231,147,-418,309,-561v162,-143,351,-214,566,-214","w":1679},"\u00d9":{"d":"414,-1386r-191,0r21,-107r584,0r-21,107r-191,0r-150,772v-68,366,-9,512,317,512v153,0,267,-38,344,-113v77,-75,134,-208,171,-399r150,-772r-191,0r21,-107r504,0r-21,107r-190,0r-154,792v-44,227,-119,388,-225,482v-106,94,-263,141,-472,141v-423,0,-548,-168,-460,-623xm1102,-1899r131,264r-117,0r-210,-264r196,0","w":1726},"\u00da":{"d":"414,-1386r-191,0r21,-107r584,0r-21,107r-191,0r-150,772v-68,366,-9,512,317,512v153,0,267,-38,344,-113v77,-75,134,-208,171,-399r150,-772r-191,0r21,-107r504,0r-21,107r-190,0r-154,792v-44,227,-119,388,-225,482v-106,94,-263,141,-472,141v-423,0,-548,-168,-460,-623xm1215,-1899r197,0r-314,264r-117,0","w":1726},"\u00db":{"d":"414,-1386r-191,0r21,-107r584,0r-21,107r-191,0r-150,772v-68,366,-9,512,317,512v153,0,267,-38,344,-113v77,-75,134,-208,171,-399r150,-772r-191,0r21,-107r504,0r-21,107r-190,0r-154,792v-44,227,-119,388,-225,482v-106,94,-263,141,-472,141v-423,0,-548,-168,-460,-623xm1064,-1899r176,0r179,264r-116,0r-171,-161r-235,161r-116,0","w":1726},"\u00dc":{"d":"414,-1386r-191,0r21,-107r584,0r-21,107r-191,0r-150,772v-68,366,-9,512,317,512v153,0,267,-38,344,-113v77,-75,134,-208,171,-399r150,-772r-191,0r21,-107r504,0r-21,107r-190,0r-154,792v-44,227,-119,388,-225,482v-106,94,-263,141,-472,141v-423,0,-548,-168,-460,-623xm879,-1849v48,-43,126,-51,164,0v64,85,-26,198,-121,198v-63,0,-108,-51,-93,-117v6,-31,23,-58,50,-81xm1268,-1849v48,-43,126,-51,164,0v63,85,-26,198,-120,198v-64,0,-109,-50,-94,-117v6,-31,23,-58,50,-81","w":1726},"\u00dd":{"d":"242,0r20,-106r191,0r105,-537r-317,-743r-140,0r21,-107r555,0r-21,107r-174,0r256,604r490,-604r-168,0r21,-107r434,0r-21,107r-141,0r-589,724r-109,556r191,0r-20,106r-584,0xm987,-1899r197,0r-314,264r-117,0","w":1352},"\u00de":{"d":"445,-434r264,0v212,-1,330,-125,366,-314v39,-206,-49,-313,-244,-313r-264,0xm-32,0r20,-106r190,0r249,-1280r-190,0r21,-107r624,0r-21,107r-231,0r-42,219r313,0v149,0,260,37,333,113v73,76,94,178,71,306v-46,252,-271,422,-568,422r-313,0r-43,220r231,0r-20,106r-624,0","w":1384},"\u00df":{"d":"1027,-1210v21,-160,-63,-249,-218,-248v-192,3,-272,96,-306,268r-244,1256v-43,223,-180,358,-434,360r12,-98v70,0,122,-18,156,-56v36,-40,63,-109,82,-206r243,-1252v43,-233,233,-370,510,-370v279,0,406,132,367,419v-186,-6,-343,60,-373,201v-7,35,-4,64,8,90v22,47,112,104,163,141v91,65,149,127,178,184v29,57,35,123,21,199v-36,203,-242,354,-484,351v-123,-1,-230,-29,-318,-72r45,-233r109,0v-20,137,44,206,177,206v152,0,259,-93,282,-225v11,-56,5,-103,-12,-143v-23,-54,-138,-137,-207,-185v-61,-44,-103,-87,-124,-129v-21,-43,-27,-92,-16,-147v36,-175,190,-283,383,-311","w":1368},"\u00e0":{"d":"621,-1636r186,376r-117,0r-266,-376r197,0xm396,29v-232,0,-367,-184,-316,-431v48,-235,150,-414,314,-535v139,-103,293,-155,462,-155v113,0,189,10,228,29r-186,957r158,0r-20,106r-324,0r32,-166v-89,130,-205,195,-348,195xm263,-300v0,143,69,214,207,214v84,0,155,-33,212,-100v57,-67,98,-165,123,-293r93,-482v0,-19,-27,-29,-80,-29v-128,0,-242,50,-341,150v-99,100,-166,242,-201,425v-9,43,-13,81,-13,115","w":1221},"\u00e1":{"d":"915,-1638r199,0r-414,376r-117,0xm396,29v-232,0,-367,-184,-316,-431v48,-235,150,-414,314,-535v139,-103,293,-155,462,-155v113,0,189,10,228,29r-186,957r158,0r-20,106r-324,0r32,-166v-89,130,-205,195,-348,195xm263,-300v0,143,69,214,207,214v84,0,155,-33,212,-100v57,-67,98,-165,123,-293r93,-482v0,-19,-27,-29,-80,-29v-128,0,-242,50,-341,150v-99,100,-166,242,-201,425v-9,43,-13,81,-13,115","w":1221},"\u00e2":{"d":"714,-1638r168,0r161,376r-116,0r-152,-260r-254,260r-116,0xm396,29v-232,0,-367,-184,-316,-431v48,-235,150,-414,314,-535v139,-103,293,-155,462,-155v113,0,189,10,228,29r-186,957r158,0r-20,106r-324,0r32,-166v-89,130,-205,195,-348,195xm263,-300v0,143,69,214,207,214v84,0,155,-33,212,-100v57,-67,98,-165,123,-293r93,-482v0,-19,-27,-29,-80,-29v-128,0,-242,50,-341,150v-99,100,-166,242,-201,425v-9,43,-13,81,-13,115","w":1221},"\u00e3":{"d":"888,-1309v-92,1,-128,-65,-174,-116v-23,-26,-33,-39,-70,-39v-28,0,-53,13,-74,40v-21,26,-38,64,-51,115r-96,0v19,-90,50,-160,93,-209v57,-64,138,-93,224,-59v40,16,77,67,106,102v21,25,33,39,70,39v29,0,54,-13,75,-40v21,-27,38,-65,50,-115r96,0v-19,90,-50,160,-93,209v-43,49,-95,73,-156,73xm396,29v-232,0,-367,-184,-316,-431v48,-235,150,-414,314,-535v139,-103,293,-155,462,-155v113,0,189,10,228,29r-186,957r158,0r-20,106r-324,0r32,-166v-89,130,-205,195,-348,195xm263,-300v0,143,69,214,207,214v84,0,155,-33,212,-100v57,-67,98,-165,123,-293r93,-482v0,-19,-27,-29,-80,-29v-128,0,-242,50,-341,150v-99,100,-166,242,-201,425v-9,43,-13,81,-13,115","w":1221},"\u00e4":{"d":"503,-1534v49,-43,126,-51,164,0v62,85,-25,199,-122,199v-65,0,-107,-50,-93,-117v6,-32,24,-58,51,-82xm892,-1534v48,-42,126,-52,164,0v62,84,-25,199,-121,199v-66,0,-108,-49,-94,-117v6,-32,24,-58,51,-82xm396,29v-232,0,-367,-184,-316,-431v48,-235,150,-414,314,-535v139,-103,293,-155,462,-155v113,0,189,10,228,29r-186,957r158,0r-20,106r-324,0r32,-166v-89,130,-205,195,-348,195xm263,-300v0,143,69,214,207,214v84,0,155,-33,212,-100v57,-67,98,-165,123,-293r93,-482v0,-19,-27,-29,-80,-29v-128,0,-242,50,-341,150v-99,100,-166,242,-201,425v-9,43,-13,81,-13,115","w":1221},"\u00e5":{"d":"396,29v-232,0,-367,-184,-316,-431v48,-235,150,-414,314,-535v139,-103,293,-155,462,-155v113,0,189,10,228,29r-186,957r158,0r-20,106r-324,0r32,-166v-89,130,-205,195,-348,195xm263,-300v0,143,69,214,207,214v84,0,155,-33,212,-100v57,-67,98,-165,123,-293r93,-482v0,-19,-27,-29,-80,-29v-128,0,-242,50,-341,150v-99,100,-166,242,-201,425v-9,43,-13,81,-13,115xm1033,-1524v-26,140,-169,275,-327,275v-147,0,-249,-121,-221,-275v26,-140,169,-274,327,-274v147,0,249,120,221,274xm730,-1372v88,0,167,-74,181,-152v16,-85,-42,-151,-123,-151v-90,0,-166,73,-181,151v-17,87,40,152,123,152","w":1221},"\u00e6":{"d":"1526,-632v75,-44,112,-107,112,-190v0,-114,-76,-171,-227,-171v-89,0,-165,34,-227,102v-62,68,-112,194,-150,377v211,-9,375,-49,492,-118xm1009,-336v0,169,85,267,251,266v77,0,135,-12,173,-35v68,-42,110,-90,126,-144r135,0v-27,85,-90,157,-189,216v-69,41,-173,62,-310,62v-159,0,-273,-65,-344,-196v-99,134,-248,196,-455,196v-232,0,-367,-184,-316,-431v48,-235,150,-414,314,-535v139,-103,293,-155,462,-155v113,0,189,10,228,29r-19,97v106,-84,232,-126,377,-126v261,0,391,92,391,277v0,266,-273,402,-820,407v-3,25,-4,49,-4,72xm276,-415v-9,43,-13,83,-13,118v0,141,69,211,207,211v84,0,155,-33,212,-100v57,-67,98,-165,123,-293r93,-482v0,-19,-27,-29,-80,-29v-128,0,-242,50,-341,150v-99,100,-166,242,-201,425","w":1925},"\u00e7":{"d":"223,240v66,32,180,54,243,8v43,-31,62,-75,40,-144v-9,-29,-25,-64,-47,-104r97,0v35,43,60,82,72,120v67,203,-126,304,-344,269v-29,-4,-58,-10,-87,-18xm528,-70v183,-3,276,-103,336,-249r148,0v-48,113,-114,200,-200,259v-86,59,-188,89,-305,89v-256,0,-420,-159,-420,-414v0,-248,94,-427,235,-555v156,-142,363,-183,600,-128v64,16,125,39,186,71r-52,272r-107,0v6,-183,-63,-269,-241,-268v-99,0,-182,38,-248,115v-66,77,-113,193,-143,346v-13,70,-20,132,-20,187v-2,170,71,278,231,275","w":1147},"\u00e8":{"d":"658,-1636r186,376r-117,0r-266,-376r197,0xm482,29v-232,0,-400,-172,-395,-415v5,-246,93,-424,233,-552v112,-103,249,-154,409,-154v261,0,391,92,391,277v0,135,-68,236,-205,302v-139,67,-344,102,-615,105v-3,25,-4,49,-4,72v0,169,85,267,251,266v77,0,135,-12,173,-35v68,-42,110,-90,126,-144r135,0v-27,85,-90,157,-189,216v-69,41,-173,62,-310,62xm813,-632v74,-44,112,-107,112,-190v0,-114,-76,-171,-227,-171v-89,0,-165,34,-227,102v-62,68,-112,194,-150,377v214,-10,378,-50,492,-118","w":1212},"\u00e9":{"d":"952,-1638r199,0r-414,376r-117,0xm482,29v-232,0,-400,-172,-395,-415v5,-246,93,-424,233,-552v112,-103,249,-154,409,-154v261,0,391,92,391,277v0,135,-68,236,-205,302v-139,67,-344,102,-615,105v-3,25,-4,49,-4,72v0,169,85,267,251,266v77,0,135,-12,173,-35v68,-42,110,-90,126,-144r135,0v-27,85,-90,157,-189,216v-69,41,-173,62,-310,62xm813,-632v74,-44,112,-107,112,-190v0,-114,-76,-171,-227,-171v-89,0,-165,34,-227,102v-62,68,-112,194,-150,377v214,-10,378,-50,492,-118","w":1212},"\u00ea":{"d":"751,-1638r168,0r161,376r-116,0r-152,-260r-254,260r-116,0xm482,29v-232,0,-400,-172,-395,-415v5,-246,93,-424,233,-552v112,-103,249,-154,409,-154v261,0,391,92,391,277v0,135,-68,236,-205,302v-139,67,-344,102,-615,105v-3,25,-4,49,-4,72v0,169,85,267,251,266v77,0,135,-12,173,-35v68,-42,110,-90,126,-144r135,0v-27,85,-90,157,-189,216v-69,41,-173,62,-310,62xm813,-632v74,-44,112,-107,112,-190v0,-114,-76,-171,-227,-171v-89,0,-165,34,-227,102v-62,68,-112,194,-150,377v214,-10,378,-50,492,-118","w":1212},"\u00eb":{"d":"540,-1534v49,-43,126,-51,164,0v62,85,-25,199,-122,199v-65,0,-107,-50,-93,-117v6,-32,24,-58,51,-82xm929,-1534v48,-42,126,-52,164,0v62,84,-25,199,-121,199v-66,0,-108,-49,-94,-117v6,-32,24,-58,51,-82xm482,29v-232,0,-400,-172,-395,-415v5,-246,93,-424,233,-552v112,-103,249,-154,409,-154v261,0,391,92,391,277v0,135,-68,236,-205,302v-139,67,-344,102,-615,105v-3,25,-4,49,-4,72v0,169,85,267,251,266v77,0,135,-12,173,-35v68,-42,110,-90,126,-144r135,0v-27,85,-90,157,-189,216v-69,41,-173,62,-310,62xm813,-632v74,-44,112,-107,112,-190v0,-114,-76,-171,-227,-171v-89,0,-165,34,-227,102v-62,68,-112,194,-150,377v214,-10,378,-50,492,-118","w":1212},"\u00ec":{"d":"380,-1636r186,376r-117,0r-266,-376r197,0xm351,-106r174,0r-20,106r-358,0r186,-956r-176,0r20,-107r360,0","w":655},"\u00ed":{"d":"674,-1638r199,0r-414,376r-117,0xm351,-106r174,0r-20,106r-358,0r186,-956r-176,0r20,-107r360,0","w":655},"\u00ee":{"d":"473,-1638r168,0r161,376r-116,0r-152,-260r-254,260r-116,0xm351,-106r174,0r-20,106r-358,0r186,-956r-176,0r20,-107r360,0","w":655},"\u00ef":{"d":"262,-1534v49,-43,126,-51,164,0v62,85,-25,199,-122,199v-65,0,-107,-50,-93,-117v6,-32,24,-58,51,-82xm651,-1534v48,-42,126,-52,164,0v62,84,-25,199,-121,199v-66,0,-108,-49,-94,-117v6,-32,24,-58,51,-82xm351,-106r174,0r-20,106r-358,0r186,-956r-176,0r20,-107r360,0","w":655},"\u00f0":{"d":"853,-928v-53,-11,-103,-18,-163,-18v-115,0,-207,36,-276,107v-69,71,-118,182,-147,331v-27,140,-21,248,16,324v37,76,103,114,198,114v96,0,176,-39,244,-114v127,-140,208,-493,128,-744xm422,-1556v155,35,280,99,384,188r351,-150r21,78r-312,133v100,111,169,233,206,363v37,130,41,267,13,412v-33,169,-105,306,-219,408v-114,102,-249,153,-404,153v-301,0,-473,-226,-408,-547v32,-157,103,-284,216,-381v149,-128,327,-170,556,-131v-19,-82,-57,-150,-103,-215r-351,149r-22,-78r319,-135v-68,-79,-163,-132,-282,-161","w":1233},"\u00f1":{"d":"918,-1309v-92,1,-128,-65,-174,-116v-23,-26,-33,-39,-70,-39v-28,0,-53,13,-74,40v-21,26,-38,64,-51,115r-96,0v19,-90,50,-160,93,-209v57,-64,138,-93,224,-59v40,16,77,67,106,102v21,25,33,39,70,39v29,0,54,-13,75,-40v21,-27,38,-65,50,-115r96,0v-19,90,-50,160,-93,209v-43,49,-95,73,-156,73xm947,-790v1,-122,-49,-168,-171,-168v-85,0,-156,32,-213,94v-57,62,-97,153,-120,272r-115,592r-184,0r186,-956r-176,0r20,-107r360,0r-36,189v48,-72,103,-126,164,-163v61,-37,128,-55,200,-55v187,1,278,80,278,264v0,45,-6,95,-17,152r-111,570r164,0r-20,106r-349,0r120,-618v13,-69,20,-126,20,-172","w":1319},"\u00f2":{"d":"668,-1636r186,376r-117,0r-266,-376r197,0xm297,-348v-2,169,71,278,229,278v99,0,178,-41,246,-117v88,-100,159,-327,163,-530v3,-169,-71,-276,-229,-276v-99,0,-180,39,-246,117v-66,78,-114,192,-143,344v-13,69,-20,131,-20,184xm725,-1092v256,0,420,157,420,413v0,247,-94,427,-235,555v-113,103,-248,153,-403,153v-256,0,-420,-159,-420,-414v0,-247,94,-426,235,-554v113,-102,248,-153,403,-153","w":1233},"\u00f3":{"d":"962,-1638r199,0r-414,376r-117,0xm297,-348v-2,169,71,278,229,278v99,0,178,-41,246,-117v88,-100,159,-327,163,-530v3,-169,-71,-276,-229,-276v-99,0,-180,39,-246,117v-66,78,-114,192,-143,344v-13,69,-20,131,-20,184xm725,-1092v256,0,420,157,420,413v0,247,-94,427,-235,555v-113,103,-248,153,-403,153v-256,0,-420,-159,-420,-414v0,-247,94,-426,235,-554v113,-102,248,-153,403,-153","w":1233},"\u00f4":{"d":"761,-1638r168,0r161,376r-116,0r-152,-260r-254,260r-116,0xm297,-348v-2,169,71,278,229,278v99,0,178,-41,246,-117v88,-100,159,-327,163,-530v3,-169,-71,-276,-229,-276v-99,0,-180,39,-246,117v-66,78,-114,192,-143,344v-13,69,-20,131,-20,184xm725,-1092v256,0,420,157,420,413v0,247,-94,427,-235,555v-113,103,-248,153,-403,153v-256,0,-420,-159,-420,-414v0,-247,94,-426,235,-554v113,-102,248,-153,403,-153","w":1233},"\u00f5":{"d":"935,-1309v-92,1,-128,-65,-174,-116v-23,-26,-33,-39,-70,-39v-28,0,-53,13,-74,40v-21,26,-38,64,-51,115r-96,0v19,-90,50,-160,93,-209v57,-64,138,-93,224,-59v40,16,77,67,106,102v21,25,33,39,70,39v29,0,54,-13,75,-40v21,-27,38,-65,50,-115r96,0v-19,90,-50,160,-93,209v-43,49,-95,73,-156,73xm297,-348v-2,169,71,278,229,278v99,0,178,-41,246,-117v88,-100,159,-327,163,-530v3,-169,-71,-276,-229,-276v-99,0,-180,39,-246,117v-66,78,-114,192,-143,344v-13,69,-20,131,-20,184xm725,-1092v256,0,420,157,420,413v0,247,-94,427,-235,555v-113,103,-248,153,-403,153v-256,0,-420,-159,-420,-414v0,-247,94,-426,235,-554v113,-102,248,-153,403,-153","w":1233},"\u00f6":{"d":"550,-1534v49,-43,126,-51,164,0v62,85,-25,199,-122,199v-65,0,-107,-50,-93,-117v6,-32,24,-58,51,-82xm939,-1534v48,-42,126,-52,164,0v62,84,-25,199,-121,199v-66,0,-108,-49,-94,-117v6,-32,24,-58,51,-82xm297,-348v-2,169,71,278,229,278v99,0,178,-41,246,-117v88,-100,159,-327,163,-530v3,-169,-71,-276,-229,-276v-99,0,-180,39,-246,117v-66,78,-114,192,-143,344v-13,69,-20,131,-20,184xm725,-1092v256,0,420,157,420,413v0,247,-94,427,-235,555v-113,103,-248,153,-403,153v-256,0,-420,-159,-420,-414v0,-247,94,-426,235,-554v113,-102,248,-153,403,-153","w":1233},"\u00f7":{"d":"858,-879v-74,0,-133,-59,-133,-133v0,-73,60,-133,133,-133v71,0,133,62,133,133v0,72,-61,133,-133,133xm858,-139v-74,0,-133,-60,-133,-133v0,-73,60,-134,133,-134v72,0,133,62,133,134v0,71,-62,133,-133,133xm217,-723r1282,0r0,162r-1282,0r0,-162","w":1716},"\u00f8":{"d":"908,-879v-34,-73,-99,-114,-202,-114v-98,0,-179,40,-246,117v-83,94,-146,288,-161,475v-3,39,-2,75,1,108xm325,-190v35,77,95,119,201,120v98,0,178,-41,246,-118v84,-95,147,-293,162,-480v3,-40,2,-78,-1,-112xm725,-1092v130,0,229,37,298,101r172,-166r63,63r-178,172v65,99,80,234,50,390v-32,169,-106,306,-220,408v-114,102,-248,153,-403,153v-133,0,-230,-39,-300,-107r-177,172r-63,-63r183,-178v-61,-102,-77,-231,-48,-385v33,-169,106,-305,220,-407v114,-102,248,-153,403,-153","w":1233},"\u00f9":{"d":"636,-1636r186,376r-117,0r-266,-376r197,0xm372,-273v-1,122,48,167,171,167v85,0,156,-31,213,-94v57,-63,97,-154,120,-273r115,-590r184,0r-186,957r174,0r-20,106r-358,0r36,-188v-48,71,-102,125,-163,162v-61,37,-128,55,-199,55v-188,-2,-279,-79,-280,-264v0,-45,6,-95,17,-152r110,-569r-166,0r21,-107r351,0r-120,619v-13,69,-20,126,-20,171","w":1319},"\u00fa":{"d":"930,-1638r199,0r-414,376r-117,0xm372,-273v-1,122,48,167,171,167v85,0,156,-31,213,-94v57,-63,97,-154,120,-273r115,-590r184,0r-186,957r174,0r-20,106r-358,0r36,-188v-48,71,-102,125,-163,162v-61,37,-128,55,-199,55v-188,-2,-279,-79,-280,-264v0,-45,6,-95,17,-152r110,-569r-166,0r21,-107r351,0r-120,619v-13,69,-20,126,-20,171","w":1319},"\u00fb":{"d":"729,-1638r168,0r161,376r-116,0r-152,-260r-254,260r-116,0xm372,-273v-1,122,48,167,171,167v85,0,156,-31,213,-94v57,-63,97,-154,120,-273r115,-590r184,0r-186,957r174,0r-20,106r-358,0r36,-188v-48,71,-102,125,-163,162v-61,37,-128,55,-199,55v-188,-2,-279,-79,-280,-264v0,-45,6,-95,17,-152r110,-569r-166,0r21,-107r351,0r-120,619v-13,69,-20,126,-20,171","w":1319},"\u00fc":{"d":"518,-1534v49,-43,126,-51,164,0v62,85,-25,199,-122,199v-65,0,-107,-50,-93,-117v6,-32,24,-58,51,-82xm907,-1534v48,-42,126,-52,164,0v62,84,-25,199,-121,199v-66,0,-108,-49,-94,-117v6,-32,24,-58,51,-82xm372,-273v-1,122,48,167,171,167v85,0,156,-31,213,-94v57,-63,97,-154,120,-273r115,-590r184,0r-186,957r174,0r-20,106r-358,0r36,-188v-48,71,-102,125,-163,162v-61,37,-128,55,-199,55v-188,-2,-279,-79,-280,-264v0,-45,6,-95,17,-152r110,-569r-166,0r21,-107r351,0r-120,619v-13,69,-20,126,-20,171","w":1319},"\u00fd":{"d":"926,-1638r199,0r-414,376r-117,0xm58,221v-11,83,22,131,106,131v117,0,227,-51,329,-153r-251,-1155r-121,0r21,-107r275,0r236,1055v107,-161,174,-274,200,-340v84,-208,134,-407,151,-599r-121,0r21,-107r274,0v-66,381,-157,673,-273,874v-170,295,-326,484,-460,576v-81,56,-379,82,-521,28r40,-203r94,0","w":1157},"\u00fe":{"d":"1006,-712v2,-162,-68,-265,-219,-265v-93,0,-171,34,-233,101v-62,67,-105,165,-130,292v-14,73,-36,170,-36,247v0,157,74,251,226,251v94,0,171,-39,236,-113v85,-97,152,-317,156,-513xm649,29v-170,-1,-261,-66,-307,-195r-115,592r-184,0r365,-1876r-177,0r21,-106r361,0r-128,659v88,-119,193,-191,381,-195v219,-5,356,170,352,400v-5,246,-89,434,-219,566v-103,104,-219,155,-350,155","w":1311},"\u00ff":{"d":"514,-1534v49,-43,126,-51,164,0v62,85,-25,199,-122,199v-65,0,-107,-50,-93,-117v6,-32,24,-58,51,-82xm903,-1534v48,-42,126,-52,164,0v62,84,-25,199,-121,199v-66,0,-108,-49,-94,-117v6,-32,24,-58,51,-82xm58,221v-11,83,22,131,106,131v117,0,227,-51,329,-153r-251,-1155r-121,0r21,-107r275,0r236,1055v107,-161,174,-274,200,-340v84,-208,134,-407,151,-599r-121,0r21,-107r274,0v-66,381,-157,673,-273,874v-170,295,-326,484,-460,576v-81,56,-379,82,-521,28r40,-203r94,0","w":1157},"\u0152":{"d":"1012,-106r249,-1280r-187,0v-195,0,-354,55,-478,164v-124,109,-206,267,-247,472v-82,413,90,646,476,644r187,0xm2020,0r-1229,0v-257,0,-445,-66,-563,-198v-118,-132,-152,-316,-108,-552v84,-451,436,-743,961,-743r1212,0r-64,332r-123,0r40,-209r-686,0r-97,500r492,0r36,-187r121,0r-96,496r-121,0r36,-187r-492,0r-121,625r703,0r40,-209r123,0","w":2329},"\u0153":{"d":"526,-70v99,0,180,-39,246,-117v66,-78,114,-193,143,-345v29,-152,26,-266,-9,-344v-35,-78,-101,-117,-200,-117v-99,0,-180,39,-246,117v-66,78,-114,192,-143,344v-29,152,-26,267,9,345v35,78,102,117,200,117xm1626,-632v75,-44,112,-107,112,-190v0,-114,-76,-171,-227,-171v-89,0,-165,34,-227,102v-62,68,-112,194,-150,377v213,-10,377,-49,492,-118xm1094,-899v106,-117,270,-193,448,-193v261,0,391,92,391,277v0,135,-68,236,-205,302v-139,67,-344,102,-615,105v-3,25,-4,49,-4,72v0,169,85,267,251,266v77,0,135,-12,173,-35v68,-42,110,-90,126,-144r135,0v-27,85,-90,157,-189,216v-69,41,-173,62,-310,62v-155,0,-277,-74,-343,-194v-106,115,-271,194,-445,194v-256,0,-420,-159,-420,-414v0,-247,94,-426,235,-554v113,-102,248,-153,403,-153v175,0,302,69,369,193","w":2025},"\u0178":{"d":"242,0r20,-106r191,0r105,-537r-317,-743r-140,0r21,-107r555,0r-21,107r-174,0r256,604r490,-604r-168,0r21,-107r434,0r-21,107r-141,0r-589,724r-109,556r191,0r-20,106r-584,0xm651,-1849v48,-43,126,-51,164,0v64,85,-26,198,-121,198v-63,0,-108,-51,-93,-117v6,-31,23,-58,50,-81xm1040,-1849v48,-43,126,-51,164,0v63,85,-26,198,-120,198v-64,0,-109,-50,-94,-117v6,-31,23,-58,50,-81","w":1352},"\u02c6":{"d":"657,-1638r168,0r161,376r-116,0r-152,-260r-254,260r-116,0","w":1024},"\u02dc":{"d":"831,-1309v-92,1,-128,-65,-174,-116v-23,-26,-33,-39,-70,-39v-28,0,-53,13,-74,40v-21,26,-38,64,-51,115r-96,0v19,-90,50,-160,93,-209v57,-64,138,-93,224,-59v40,16,77,67,106,102v21,25,33,39,70,39v29,0,54,-13,75,-40v21,-27,38,-65,50,-115r96,0v-19,90,-50,160,-93,209v-43,49,-95,73,-156,73","w":1024},"\u2013":{"d":"103,-610r844,0r-26,133r-844,0","w":1024},"\u2014":{"d":"103,-610r1868,0r-26,133r-1868,0","w":2048},"\u2018":{"d":"583,-1440v-137,94,-198,226,-229,426r-194,0v52,-248,164,-390,360,-506","w":651},"\u2019":{"d":"111,-1067v138,-92,199,-227,231,-426r194,0v-51,248,-166,390,-362,506","w":651},"\u201a":{"d":"56,199v150,-94,231,-221,265,-426r197,0v-60,245,-192,392,-397,506","w":651},"\u201c":{"d":"978,-1440v-136,95,-197,226,-228,426r-195,0v53,-249,164,-389,360,-506xm583,-1440v-137,94,-198,226,-229,426r-194,0v52,-248,164,-390,360,-506","w":1047},"\u201d":{"d":"111,-1067v138,-92,199,-227,231,-426r194,0v-51,248,-166,390,-362,506xm509,-1067v136,-93,197,-227,228,-426r194,0v-52,249,-164,389,-359,506","w":1047},"\u201e":{"d":"56,199v150,-94,231,-221,265,-426r197,0v-60,245,-192,392,-397,506xm451,199v150,-94,232,-221,266,-426r196,0v-59,245,-191,393,-397,506","w":1061},"\u2022":{"d":"604,-465v-163,0,-297,-134,-297,-297v0,-162,136,-295,299,-295v161,0,295,134,295,295v0,163,-134,297,-297,297","w":1208},"\u2026":{"d":"1592,-10v-69,-97,32,-228,140,-228v71,0,121,60,107,134v-13,67,-83,134,-159,133v-38,0,-69,-12,-88,-39xm910,-10v-69,-97,32,-228,140,-228v71,0,121,60,107,134v-13,67,-83,134,-159,133v-38,0,-69,-12,-88,-39xm228,-10v-69,-97,32,-228,140,-228v71,0,121,60,107,134v-13,67,-83,134,-159,133v-38,0,-69,-12,-88,-39","w":2048},"\u2039":{"d":"716,-1059r-22,115r-364,344r230,344r-22,115r-388,-418r16,-82","w":819},"\u203a":{"d":"282,-1059r388,418r-16,82r-550,418r22,-115r363,-344r-229,-344","w":819},"\u20ac":{"d":"1069,-395v-55,137,-129,242,-220,315v-91,73,-195,109,-310,109v-126,0,-224,-51,-295,-152v-71,-101,-105,-240,-102,-416r-190,0r65,-104r135,0r16,-102r24,-105r-180,0r66,-104r145,0v65,-176,153,-314,263,-415v158,-144,329,-188,547,-120v62,20,130,54,204,100r-66,342r-106,0v10,-120,-4,-212,-43,-277v-39,-65,-99,-97,-180,-97v-91,0,-172,40,-242,119v-70,79,-127,195,-170,348r504,0r-68,104r-463,0r-24,105r-18,102r375,0r-67,104r-320,0v-15,153,-2,269,37,349v39,80,104,120,194,120v77,0,147,-28,208,-84v61,-56,110,-136,148,-241r133,0"},"\u2122":{"d":"1118,-1493r174,270r181,-270r219,0r0,66r-86,0r0,446r86,0r0,66r-285,0r0,-66r86,0r0,-426r-209,311r-43,0r-199,-311r0,426r84,0r0,66r-241,0r0,-66r86,0r0,-446r-86,0r0,-66r233,0xm242,-1493r557,0r0,170r-68,0r0,-104r-153,0r0,446r86,0r0,66r-287,0r0,-66r86,0r0,-446r-156,0r0,104r-65,0r0,-170","w":2048}}});
