/*!
 * The following copyright notice may not be removed under any circumstances.
 * 
 * Copyright:
 * Copyright (c) 2003 by Bitstream, Inc. All Rights Reserved.
 * DejaVu changes are in public domain
 * 
 * 
 * Manufacturer:
 * DejaVu fonts team
 * 
 * Vendor URL:
 * http://dejavu.sourceforge.net
 * 
 * License information:
 * http://dejavu.sourceforge.net/wiki/index.php/License
 */
Cufon.registerFont({"w":1425,"face":{"font-family":"DejaVu Serif","font-weight":700,"font-stretch":"normal","units-per-em":"2048","panose-1":"2 6 8 3 5 6 5 2 2 4","ascent":"1556","descent":"-492","x-height":"29","bbox":"-152 -1923 2324 483","underline-thickness":"90","underline-position":"-85","unicode-range":"U+0020-U+2122"},"glyphs":{" ":{"w":713},"!":{"d":"449,29v-102,0,-189,-89,-189,-191v0,-101,88,-190,189,-190v101,0,190,89,190,190v0,102,-89,191,-190,191xm262,-1493r375,0r-119,842r0,190r-139,0r0,-190","w":899},"\"":{"d":"432,-1493r0,555r-237,0r0,-555r237,0xm872,-1493r0,555r-237,0r0,-555r237,0","w":1067},"#":{"d":"1024,-872r-264,0r-70,274r264,0xm911,-1470r-96,385r264,0r97,-385r221,0r-97,385r277,0r0,213r-330,0r-69,274r284,0r0,215r-336,0r-96,383r-221,0r96,-383r-264,0r-96,383r-223,0r96,-383r-279,0r0,-215r328,0r70,-274r-283,0r0,-213r338,0r96,-385r223,0","w":1716},"$":{"d":"647,29v-168,-4,-315,-38,-452,-88r0,-291r120,0v23,180,128,270,332,266r0,-405v-166,-37,-285,-87,-357,-150v-72,-63,-108,-149,-108,-258v2,-258,196,-389,465,-393r0,-269r121,0r0,269v158,9,291,38,414,88r0,272r-121,0v-20,-151,-126,-245,-293,-247r0,372v179,39,305,93,378,159v73,66,109,159,109,279v0,123,-43,219,-127,287v-84,68,-204,105,-360,109r0,270r-121,0r0,-270xm647,-1178v-97,11,-184,61,-184,156v0,47,15,84,43,113v28,29,75,52,141,71r0,-340xm768,-84v117,-13,205,-58,205,-172v0,-49,-17,-90,-49,-122v-32,-32,-84,-58,-156,-79r0,373"},"%":{"d":"442,-1419v-43,0,-71,24,-92,69v-35,77,-35,396,0,473v21,46,49,70,92,70v43,0,72,-24,93,-70v35,-77,35,-396,0,-473v-21,-45,-50,-69,-93,-69xm49,-1114v0,-258,138,-406,393,-406v256,0,394,147,394,406v0,259,-138,407,-394,407v-255,0,-393,-149,-393,-407xm1354,-1520r172,0r-934,1549r-172,0xm1110,-379v0,-257,138,-405,393,-405v256,0,393,147,393,405v0,259,-137,408,-393,408v-255,0,-393,-150,-393,-408xm1503,-684v-43,0,-72,25,-93,70v-35,77,-36,396,0,472v21,46,50,70,93,70v43,0,72,-24,93,-70v35,-77,35,-395,0,-472v-21,-45,-50,-70,-93,-70","w":1946},"&":{"d":"1618,-795v-23,194,-83,342,-182,459r206,215r170,0r0,121r-479,0r-127,-131v-123,99,-276,160,-485,160v-200,0,-356,-43,-469,-128v-113,-85,-170,-203,-170,-352v0,-109,28,-202,86,-279v58,-77,149,-143,272,-198v-54,-73,-102,-142,-102,-246v0,-109,46,-194,138,-255v92,-61,220,-91,386,-91v134,0,260,23,395,47r0,312r-129,0v-23,-151,-82,-235,-241,-238v-124,-2,-217,62,-217,178v0,61,60,153,179,274r30,29r460,482v79,-89,125,-205,137,-359r-182,0r0,-120r500,0r0,120r-176,0xm436,-516v-5,219,160,391,377,387v126,-2,214,-42,299,-100r-565,-588v-65,79,-109,172,-111,301","w":1849},"'":{"d":"432,-1493r0,555r-237,0r0,-555r237,0","w":627},"(":{"d":"862,319v-225,-83,-392,-203,-503,-358v-111,-155,-166,-348,-166,-579v0,-231,55,-423,164,-576v109,-153,278,-274,505,-362r0,120v-105,64,-179,160,-228,284v-89,225,-90,841,0,1066v50,124,123,221,228,285r0,120","w":969},")":{"d":"104,319r0,-120v105,-64,179,-161,228,-285v90,-225,89,-841,0,-1066v-50,-124,-123,-220,-228,-284r0,-120v227,88,396,209,506,362v110,153,164,345,164,576v0,231,-55,424,-166,579v-111,155,-279,275,-504,358","w":969},"*":{"d":"1026,-1212r-360,168r360,170r-98,155r-328,-239r27,389r-183,0r27,-389r-328,239r-98,-155r361,-170r-361,-168r98,-158r328,242r-27,-392r183,0r-27,392r328,-242","w":1071},"+":{"d":"973,-1284r0,526r526,0r0,230r-526,0r0,526r-230,0r0,-526r-526,0r0,-230r526,0r0,-526r230,0","w":1716},",":{"d":"27,197v126,-103,199,-221,202,-430r0,-86r285,0v-2,337,-144,524,-377,657","w":713},"-":{"d":"111,-684r628,0r0,270r-628,0r0,-270","w":850},".":{"d":"356,29v-101,0,-190,-89,-190,-191v0,-101,89,-190,190,-190v102,0,191,89,191,190v0,102,-89,191,-191,191","w":713},"\/":{"d":"526,-1493r222,0r-527,1683r-221,0","w":748},"0":{"d":"713,-88v80,0,135,-36,165,-109v30,-73,44,-255,44,-548v0,-291,-14,-473,-44,-547v-30,-74,-85,-111,-165,-111v-80,0,-135,36,-165,109v-30,73,-44,256,-44,549v0,293,14,475,44,548v30,73,85,109,165,109xm713,29v-199,0,-352,-66,-458,-199v-106,-133,-159,-325,-159,-575v0,-250,53,-442,159,-575v106,-133,259,-200,458,-200v199,0,351,67,457,200v106,133,159,325,159,575v0,250,-53,442,-159,575v-106,133,-258,199,-457,199"},"1":{"d":"281,0r0,-121r280,0r0,-1208r-311,184r0,-149r375,-226r315,0r0,1399r281,0r0,121r-940,0"},"2":{"d":"549,-1403v-173,0,-257,114,-279,279r-120,0r0,-322v149,-45,301,-73,483,-74v190,0,339,38,445,116v106,78,159,186,159,325v0,99,-29,187,-88,265v-59,78,-171,171,-336,279r-416,273r707,0r0,-176r137,0r0,438r-1104,0r0,-244r221,-153v189,-130,314,-241,377,-332v63,-91,94,-198,94,-320v1,-213,-82,-354,-280,-354"},"3":{"d":"567,-1403v-165,0,-253,97,-270,252r-121,0r0,-299v157,-42,316,-70,498,-70v180,0,318,32,414,96v96,64,145,157,145,277v0,203,-136,298,-326,332v240,38,387,154,387,412v0,139,-56,247,-166,321v-110,74,-270,111,-479,111v-186,0,-346,-34,-506,-80r0,-328r121,0v13,182,115,291,305,291v203,1,318,-120,318,-324v0,-213,-120,-339,-332,-338r-66,0r0,-120r52,0v190,0,294,-86,295,-271v1,-170,-98,-263,-269,-262"},"4":{"d":"1307,0r-822,0r0,-121r222,0r0,-272r-623,0r0,-115r625,-1012r376,0r0,998r256,0r0,129r-256,0r0,272r222,0r0,121xm707,-522r0,-725r-445,725r445,0"},"5":{"d":"582,-883v-120,0,-186,53,-246,129r-100,0r0,-739r919,0r0,262r-799,0r0,328v80,-62,185,-102,318,-103v347,-5,597,187,596,519v0,342,-248,520,-608,516v-188,-2,-338,-32,-494,-82r0,-326r120,0v8,189,94,290,285,291v98,0,171,-32,218,-98v47,-66,71,-166,71,-301v0,-133,-24,-231,-70,-297v-46,-66,-116,-99,-210,-99"},"6":{"d":"1116,-1196v-31,-129,-120,-206,-274,-207v-119,0,-205,41,-258,122v-53,81,-79,213,-80,396v81,-65,184,-103,321,-104v305,-3,490,195,490,502v0,338,-217,518,-565,516v-430,-3,-621,-276,-621,-727v0,-271,58,-476,175,-614v117,-138,290,-208,519,-208v147,0,280,26,414,60r0,264r-121,0xm727,-88v69,0,114,-32,147,-88v55,-96,55,-510,0,-606v-33,-56,-78,-88,-147,-88v-69,0,-115,31,-147,88v-55,96,-55,510,0,606v32,56,78,88,147,88"},"7":{"d":"1255,-1239r-616,1239r-203,0r600,-1210r-737,0r0,202r-137,0r0,-485r1093,0r0,254"},"8":{"d":"106,-397v0,-237,145,-364,363,-398v-105,-24,-183,-65,-235,-121v-52,-56,-78,-127,-78,-214v0,-127,47,-223,142,-290v95,-67,232,-100,413,-100v180,0,318,33,413,100v95,67,142,163,142,290v0,87,-26,158,-78,214v-52,56,-131,97,-236,121v220,34,363,160,363,398v0,137,-51,243,-155,316v-104,73,-254,110,-449,110v-195,0,-345,-37,-449,-110v-104,-73,-156,-179,-156,-316xm842,-910v48,-64,46,-371,-1,-434v-28,-38,-69,-59,-130,-59v-62,0,-103,21,-131,59v-47,63,-47,371,0,434v28,37,69,58,131,58v62,0,103,-21,131,-58xm918,-414v0,-122,-15,-206,-46,-252v-31,-46,-85,-69,-161,-69v-77,0,-130,23,-161,69v-31,46,-46,130,-46,252v0,123,15,209,46,256v31,47,85,70,161,70v75,0,129,-23,160,-70v31,-47,47,-133,47,-256"},"9":{"d":"698,-1403v-69,0,-114,30,-146,87v-55,96,-55,512,0,608v32,56,77,87,146,87v69,0,114,-31,147,-87v55,-96,55,-512,0,-608v-33,-56,-78,-87,-147,-87xm309,-295v31,130,120,206,275,207v117,0,203,-40,256,-122v53,-82,80,-215,81,-398v-81,65,-184,105,-321,106v-304,2,-489,-195,-489,-502v0,-339,215,-518,563,-516v429,3,622,277,622,727v0,271,-58,477,-175,615v-117,138,-290,207,-519,207v-147,0,-280,-26,-414,-60r0,-264r121,0"},":":{"d":"377,-625v-102,0,-189,-86,-189,-188v0,-102,87,-191,189,-191v101,0,190,90,190,191v0,102,-88,188,-190,188xm377,29v-102,0,-189,-89,-189,-191v0,-101,88,-190,189,-190v101,0,190,89,190,190v0,102,-89,191,-190,191","w":756},";":{"d":"377,-625v-102,0,-189,-86,-189,-188v0,-102,87,-191,189,-191v101,0,190,90,190,191v0,102,-88,188,-190,188xm53,188v127,-101,200,-219,203,-428r0,-88r285,0v-4,334,-146,526,-377,658","w":756},"<":{"d":"1499,-979r-979,338r979,336r0,239r-1282,-464r0,-226r1282,-463r0,240","w":1716},"=":{"d":"217,-528r1282,0r0,227r-1282,0r0,-227xm217,-983r1282,0r0,227r-1282,0r0,-227","w":1716},">":{"d":"217,-979r0,-240r1282,463r0,226r-1282,464r0,-239r979,-336","w":1716},"?":{"d":"532,29v-101,0,-190,-89,-190,-191v0,-101,89,-190,190,-190v102,0,191,89,191,190v0,102,-89,191,-191,191xm492,-1407v-159,0,-227,102,-238,262r-121,0r0,-307v146,-40,287,-67,453,-68v312,-3,522,134,522,426v0,135,-43,240,-130,318v-87,78,-213,123,-376,135r0,205r-139,0r0,-299v177,-55,268,-161,270,-381v1,-180,-72,-291,-241,-291","w":1200},"@":{"d":"1047,-219v145,-1,228,-128,225,-285r0,-76v3,-157,-80,-285,-225,-286v-66,0,-117,31,-159,88v-79,108,-79,363,0,471v42,57,93,88,159,88xm1903,-676v3,379,-237,597,-631,584r0,-148v-53,88,-146,147,-277,148v-261,1,-409,-182,-409,-451v0,-270,148,-451,409,-450v131,1,224,60,277,147r0,-125r219,0r0,742v187,-49,301,-213,299,-449v-2,-221,-90,-360,-223,-473v-113,-97,-280,-162,-480,-162v-343,0,-555,173,-669,409v-90,188,-101,445,-28,654v67,193,209,341,384,418v93,41,194,61,303,61v185,-2,331,-55,453,-135r57,94v-150,99,-325,168,-549,168v-286,0,-490,-99,-645,-252v-153,-151,-258,-365,-258,-647v0,-282,105,-497,258,-647v159,-157,363,-250,660,-250v254,0,441,73,585,195v158,134,263,304,265,569","w":2048},"A":{"d":"-16,0r0,-121r122,0r562,-1372r239,0r563,1372r142,0r0,121r-699,0r0,-121r146,0r-123,-305r-561,0r-125,305r178,0r0,121r-444,0xm424,-547r463,0r-230,-571","w":1589},"B":{"d":"96,0r0,-121r191,0r0,-1251r-191,0r0,-121r885,0v182,0,319,31,410,92v91,61,137,154,137,277v0,89,-31,159,-94,211v-63,52,-157,85,-281,98v150,14,265,54,345,120v80,66,120,154,120,263v0,148,-56,257,-168,327v-112,70,-286,105,-524,105r-830,0xm1141,-1124v0,-194,-124,-247,-338,-248r-131,0r0,502r131,0v209,0,338,-63,338,-254xm1190,-432v0,-226,-137,-319,-375,-318r-143,0r0,629r143,0v240,0,375,-84,375,-311","w":1731},"C":{"d":"903,-1520v220,3,400,56,582,129r0,367r-127,0v-26,-125,-73,-220,-142,-282v-69,-62,-159,-93,-272,-93v-145,0,-253,54,-324,161v-71,107,-106,271,-106,493v0,222,35,386,106,493v71,107,179,160,326,160v99,0,181,-28,244,-83v63,-55,108,-139,137,-251r199,0v-76,297,-263,451,-623,455v-489,5,-817,-294,-817,-774v0,-481,328,-782,817,-775","w":1630},"D":{"d":"672,-121r139,0v156,0,271,-50,343,-150v72,-100,108,-259,108,-477v0,-217,-36,-374,-108,-474v-72,-100,-186,-150,-343,-150r-139,0r0,1251xm1690,-748v0,499,-314,748,-828,748r-766,0r0,-121r191,0r0,-1251r-191,0r0,-121r766,0v515,-3,827,247,828,745","w":1776},"E":{"d":"96,0r0,-121r191,0r0,-1251r-191,0r0,-121r1342,0r0,352r-138,0r0,-215r-628,0r0,479r391,0r0,-190r137,0r0,516r-137,0r0,-190r-391,0r0,604r647,0r0,-215r137,0r0,352r-1360,0","w":1561},"F":{"d":"96,0r0,-121r191,0r0,-1251r-191,0r0,-121r1331,0r0,352r-137,0r0,-215r-616,0r0,479r379,0r0,-190r137,0r0,516r-137,0r0,-190r-379,0r0,620r235,0r0,121r-813,0","w":1454},"G":{"d":"909,-1520v243,3,439,51,627,129r0,367r-127,0v-58,-245,-165,-375,-446,-375v-155,0,-269,52,-341,157v-72,105,-108,271,-108,497v0,224,35,389,104,495v69,106,177,158,324,158v118,0,213,-28,287,-76r0,-410r-180,0r0,-120r538,0r0,573v-201,93,-409,152,-678,154v-496,6,-823,-288,-823,-774v0,-487,327,-780,823,-775","w":1749},"H":{"d":"96,0r0,-121r191,0r0,-1251r-191,0r0,-121r768,0r0,121r-192,0r0,502r594,0r0,-502r-191,0r0,-121r768,0r0,121r-192,0r0,1251r192,0r0,121r-768,0r0,-121r191,0r0,-612r-594,0r0,612r192,0r0,121r-768,0","w":1935},"I":{"d":"96,0r0,-121r191,0r0,-1251r-191,0r0,-121r768,0r0,121r-192,0r0,1251r192,0r0,121r-768,0","w":958},"J":{"d":"188,426v-129,0,-236,-28,-338,-68r0,-235r130,0v8,115,47,182,159,182v65,0,109,-25,135,-75v26,-50,39,-142,39,-279r0,-1323r-217,0r0,-121r795,0r0,121r-191,0r0,1331v-3,336,-166,467,-512,467","w":969},"K":{"d":"96,0r0,-121r191,0r0,-1251r-191,0r0,-121r768,0r0,121r-192,0r0,545r633,-545r-160,0r0,-121r557,0r0,121r-199,0r-536,461r729,790r147,0r0,121r-506,0r-665,-725r0,604r192,0r0,121r-768,0","w":1780},"L":{"d":"96,0r0,-121r191,0r0,-1251r-191,0r0,-121r768,0r0,121r-192,0r0,1235r588,0r0,-236r135,0r0,373r-1299,0","w":1440},"M":{"d":"86,0r0,-121r190,0r0,-1251r-190,0r0,-121r616,0r426,958r428,-958r615,0r0,121r-191,0r0,1251r191,0r0,121r-768,0r0,-121r190,0r0,-1139r-463,1041r-253,0r-461,-1041r0,1139r190,0r0,121r-520,0","w":2267},"N":{"d":"90,0r0,-121r191,0r0,-1251r-191,0r0,-121r467,0r901,1057r0,-936r-190,0r0,-121r522,0r0,121r-191,0r0,1372r-262,0r-915,-1079r0,958r190,0r0,121r-522,0","w":1872},"O":{"d":"891,-92v127,0,222,-54,284,-161v62,-107,93,-271,93,-492v0,-221,-31,-386,-93,-493v-62,-107,-157,-161,-284,-161v-127,0,-221,55,-283,163v-62,108,-94,272,-94,491v0,219,32,383,94,491v62,108,156,162,283,162xm1696,-745v0,484,-315,774,-805,774v-491,0,-805,-289,-805,-774v0,-484,315,-775,805,-775v492,0,805,289,805,775","w":1784},"P":{"d":"96,0r0,-121r191,0r0,-1251r-191,0r0,-121r850,0v166,0,298,40,396,119v98,79,147,184,147,317v0,133,-49,239,-147,319v-98,80,-231,120,-396,120r-274,0r0,497r241,0r0,121r-817,0xm1069,-1057v0,-184,-107,-316,-285,-315r-112,0r0,633r112,0v178,1,285,-134,285,-318","w":1540},"Q":{"d":"1063,16v80,89,200,111,377,107r0,246v-303,4,-451,-120,-555,-340v-489,-3,-799,-287,-799,-774v0,-484,315,-775,805,-775v492,0,805,289,805,775v0,436,-244,705,-633,761xm891,-92v127,0,222,-54,284,-161v62,-107,93,-271,93,-492v0,-221,-31,-386,-93,-493v-62,-107,-157,-161,-284,-161v-127,0,-221,55,-283,163v-62,108,-94,272,-94,491v0,219,32,383,94,491v62,108,156,162,283,162","w":1784},"R":{"d":"1087,-729v132,21,200,85,256,192r218,416r153,0r0,121r-491,0r-238,-451v-46,-93,-85,-153,-117,-179v-43,-36,-115,-41,-196,-38r0,547r192,0r0,121r-768,0r0,-121r191,0r0,-1251r-191,0r0,-121r852,0v173,0,308,35,402,105v94,70,141,168,141,296v0,104,-34,186,-101,246v-67,60,-168,100,-303,117xm1094,-1081v0,-187,-105,-292,-291,-291r-131,0r0,584r131,0v186,1,291,-106,291,-293","w":1702},"S":{"d":"741,29v-221,0,-404,-40,-583,-101r0,-354r127,0v38,222,178,334,436,334v103,0,182,-20,236,-59v54,-39,81,-97,81,-173v0,-60,-19,-106,-55,-140v-68,-65,-315,-113,-451,-148v-146,-37,-249,-90,-308,-156v-59,-66,-89,-160,-89,-283v1,-312,230,-472,561,-469v205,2,389,37,566,88r0,330r-127,0v-40,-206,-162,-296,-406,-297v-99,0,-173,17,-223,51v-50,34,-76,86,-76,154v0,62,19,108,52,142v59,59,339,121,479,155v139,35,239,89,301,162v62,73,94,174,94,303v0,151,-52,266,-156,344v-104,78,-257,117,-459,117","w":1479},"T":{"d":"371,0r0,-121r198,0r0,-1235r-409,0r0,236r-137,0r0,-373r1480,0r0,373r-135,0r0,-236r-412,0r0,1235r199,0r0,121r-784,0","w":1524},"U":{"d":"905,29v-464,0,-645,-173,-645,-635r0,-766r-190,0r0,-121r768,0r0,121r-191,0r0,747v0,186,29,317,87,391v58,74,157,111,298,111v137,0,234,-38,292,-113v58,-75,87,-204,87,-389r0,-747r-190,0r0,-121r520,0r0,121r-191,0r0,768v-5,464,-178,633,-645,633","w":1786},"V":{"d":"1618,-1493r0,121r-125,0r-563,1372r-238,0r-563,-1372r-141,0r0,-121r700,0r0,121r-145,0r403,989r406,-989r-178,0r0,-121r444,0","w":1589},"W":{"d":"1745,0r-258,0r-338,-1087r-338,1087r-258,0r-426,-1372r-145,0r0,-121r708,0r0,121r-160,0r285,917r322,-1038r284,0r328,1055r291,-934r-178,0r0,-121r462,0r0,121r-153,0","w":2300},"X":{"d":"694,-575r-311,454r184,0r0,121r-530,0r0,-121r184,0r393,-571r-467,-680r-137,0r0,-121r742,0r0,121r-164,0r289,420r286,-420r-174,0r0,-121r520,0r0,121r-184,0r-369,536r490,715r141,0r0,121r-745,0r0,-121r166,0","w":1589},"Y":{"d":"352,0r0,-121r201,0r0,-497r-444,-754r-127,0r0,-121r716,0r0,121r-166,0r336,569r334,-569r-149,0r0,-121r428,0r0,121r-127,0r-414,702r0,549r201,0r0,121r-789,0","w":1462},"Z":{"d":"76,0r0,-141r891,-1215r-715,0r0,223r-137,0r0,-360r1296,0r0,141r-881,1215r754,0r0,-209r137,0r0,346r-1345,0","w":1495},"[":{"d":"256,-1556r567,0r0,120r-213,0r0,1586r213,0r0,120r-567,0r0,-1826","w":969},"\\":{"d":"221,-1493r527,1683r-222,0r-526,-1683r221,0","w":748},"]":{"d":"713,-1556r0,1826r-568,0r0,-120r213,0r0,-1586r-213,0r0,-120r568,0","w":969},"^":{"d":"973,-1493r536,557r-213,0r-438,-315r-438,315r-213,0r543,-557r223,0","w":1716},"_":{"d":"1024,293r0,190r-1024,0r0,-190r1024,0","w":1024},"`":{"d":"420,-1638r258,376r-164,0r-373,-376r279,0","w":1024},"a":{"d":"166,-1024v121,-43,253,-68,412,-68v190,0,330,35,418,106v88,71,132,182,132,333r0,532r152,0r0,121r-506,0r0,-135v-84,101,-184,162,-352,164v-216,2,-339,-122,-338,-338v0,-119,42,-209,126,-268v84,-59,209,-89,378,-89r186,0r0,-63v0,-172,-78,-252,-250,-252v-150,0,-213,60,-245,186r-113,0r0,-229xm592,-137v111,1,182,-83,182,-197r0,-213r-133,0v-132,-1,-206,76,-205,209v0,124,41,199,156,201","w":1327},"b":{"d":"862,29v-157,-1,-252,-58,-309,-164r0,135r-506,0r0,-121r152,0r0,-1315r-152,0r0,-120r506,0r0,628v57,-106,152,-163,309,-164v314,-1,488,232,488,560v0,329,-173,562,-488,561xm553,-479v0,124,15,214,47,269v32,55,83,83,154,83v73,0,124,-29,154,-88v30,-59,44,-164,44,-317v0,-153,-14,-258,-44,-316v-30,-58,-81,-88,-154,-88v-71,0,-122,28,-154,83v-32,55,-47,145,-47,269r0,105","w":1432},"c":{"d":"739,-84v154,-1,234,-100,250,-248r166,0v-49,236,-197,359,-475,361v-368,2,-596,-200,-596,-561v0,-354,224,-563,582,-560v171,1,316,34,454,84r0,295r-112,0v-20,-164,-87,-266,-256,-266v-99,0,-168,33,-210,100v-42,67,-63,182,-63,347v0,161,20,275,61,344v41,69,107,104,199,104","w":1247},"d":{"d":"879,-479r0,-105v0,-124,-16,-214,-48,-269v-32,-55,-83,-83,-153,-83v-73,0,-124,30,-154,88v-30,58,-45,163,-45,316v0,153,15,258,45,317v30,59,81,88,154,88v70,0,121,-28,153,-83v32,-55,48,-145,48,-269xm569,-1092v157,1,253,58,310,164r0,-508r-152,0r0,-120r506,0r0,1435r151,0r0,121r-505,0r0,-135v-57,106,-153,163,-310,164v-313,1,-485,-233,-485,-561v0,-329,171,-560,485,-560","w":1432},"e":{"d":"821,-600v0,-140,-13,-238,-39,-294v-26,-56,-70,-85,-133,-85v-61,0,-104,28,-131,83v-27,55,-40,166,-39,296r342,0xm84,-532v0,-351,218,-562,571,-560v371,2,546,233,555,611r-731,0v-1,138,20,244,62,305v41,61,108,92,200,92v162,-1,253,-93,277,-238r166,0v-60,245,-224,350,-529,351v-364,2,-571,-200,-571,-561","w":1303},"f":{"d":"666,-1556v119,0,226,14,325,38r0,228r-112,0v-10,-97,-52,-153,-152,-154v-53,0,-90,21,-116,58v-40,58,-36,210,-36,323r267,0r0,121r-267,0r0,821r205,0r0,121r-710,0r0,-121r151,0r0,-821r-158,0r0,-121r158,0r0,-133v2,-254,174,-361,445,-360","w":881},"g":{"d":"569,-1092v157,1,253,58,310,164r0,-135r505,0r0,121r-151,0r0,928v0,149,-53,264,-159,346v-106,82,-257,123,-451,123v-162,-1,-302,-27,-439,-66r0,-254r113,0v21,144,115,207,283,207v237,0,296,-104,299,-356r0,-121v-57,106,-153,163,-310,164v-313,1,-485,-233,-485,-561v0,-329,171,-560,485,-560xm879,-584v0,-124,-16,-214,-48,-269v-32,-55,-83,-83,-153,-83v-73,0,-124,30,-154,88v-30,58,-45,163,-45,316v0,153,15,258,45,317v30,59,81,88,154,88v70,0,121,-28,153,-83v32,-55,48,-145,48,-269r0,-105","w":1432},"h":{"d":"928,-1092v250,0,362,156,362,416r0,555r152,0r0,121r-635,0r0,-121r129,0r0,-565v0,-90,-11,-153,-34,-188v-23,-35,-63,-52,-120,-52v-71,0,-124,26,-157,78v-33,52,-50,136,-50,250r0,477r130,0r0,121r-635,0r0,-121r151,0r0,-1315r-158,0r0,-120r512,0r0,643v81,-118,168,-179,353,-179","w":1489},"i":{"d":"381,-1174v-105,0,-193,-86,-193,-190v0,-105,88,-192,193,-192v103,0,190,88,190,192v0,103,-87,190,-190,190xm575,-121r152,0r0,121r-657,0r0,-121r151,0r0,-821r-151,0r0,-121r505,0r0,942","w":778},"j":{"d":"371,-1174v-105,0,-193,-86,-193,-190v0,-106,87,-192,193,-192v102,0,190,89,190,192v0,103,-87,190,-190,190xm117,455v-95,-1,-185,-17,-269,-39r0,-226r113,1v3,100,31,149,127,151v49,0,83,-16,102,-47v19,-31,29,-88,29,-170r0,-1067r-151,0r0,-121r505,0r0,1188v0,109,-38,191,-115,247v-77,56,-191,83,-341,83","w":741},"k":{"d":"709,0r-639,0r0,-121r151,0r0,-1315r-151,0r0,-120r505,0r0,999r429,-385r-127,0r0,-121r485,0r0,121r-197,0r-274,246r448,575r115,0r0,121r-610,0r0,-121r125,0r-295,-379r-99,88r0,291r134,0r0,121","w":1419},"l":{"d":"575,-121r152,0r0,121r-657,0r0,-121r151,0r0,-1315r-151,0r0,-120r505,0r0,1435","w":778},"m":{"d":"907,-1092v183,0,279,70,336,203v88,-123,177,-203,361,-203v256,0,365,150,364,416r0,555r152,0r0,121r-633,0r0,-121r127,0r0,-502v0,-133,-10,-216,-30,-251v-20,-35,-59,-52,-114,-52v-141,0,-198,121,-198,279r0,526r127,0r0,121r-608,0r0,-121r127,0r0,-502v0,-133,-10,-216,-31,-251v-21,-35,-58,-52,-113,-52v-142,0,-199,121,-199,279r0,526r127,0r0,121r-632,0r0,-121r151,0r0,-821r-151,0r0,-121r505,0r0,150v75,-111,164,-179,332,-179","w":2167},"n":{"d":"928,-1092v250,0,362,156,362,416r0,555r152,0r0,121r-635,0r0,-121r129,0r0,-565v0,-90,-11,-153,-34,-188v-23,-35,-63,-52,-120,-52v-71,0,-124,26,-157,78v-33,52,-50,136,-50,250r0,477r130,0r0,121r-635,0r0,-121r151,0r0,-821r-151,0r0,-121r505,0r0,150v81,-118,168,-179,353,-179","w":1489},"o":{"d":"684,-84v75,0,128,-32,158,-96v30,-64,45,-181,45,-352v0,-171,-15,-288,-45,-352v-30,-64,-83,-95,-158,-95v-75,0,-128,33,-159,97v-31,64,-46,181,-46,350v0,169,15,286,46,351v31,65,84,97,159,97xm1284,-532v0,354,-238,561,-600,561v-363,0,-600,-206,-600,-561v0,-356,237,-560,600,-560v364,0,600,204,600,560","w":1366},"p":{"d":"553,-584r0,105v0,124,15,214,47,269v32,55,83,83,154,83v73,0,124,-29,154,-88v30,-59,44,-164,44,-317v0,-153,-14,-258,-44,-316v-30,-58,-81,-88,-154,-88v-71,0,-122,28,-154,83v-32,55,-47,145,-47,269xm862,29v-157,-1,-252,-58,-309,-164r0,440r164,0r0,121r-670,0r0,-121r152,0r0,-1247r-152,0r0,-121r506,0r0,135v57,-106,152,-163,309,-164v314,-1,488,232,488,560v0,329,-173,562,-488,561","w":1432},"q":{"d":"569,-1092v157,1,253,58,310,164r0,-135r505,0r0,121r-151,0r0,1247r151,0r0,121r-669,0r0,-121r164,0r0,-440v-57,106,-153,163,-310,164v-313,1,-485,-233,-485,-561v0,-329,171,-560,485,-560xm879,-584v0,-124,-16,-214,-48,-269v-32,-55,-83,-83,-153,-83v-73,0,-124,30,-154,88v-30,58,-45,163,-45,316v0,153,15,258,45,317v30,59,81,88,154,88v70,0,121,-28,153,-83v32,-55,48,-145,48,-269r0,-105","w":1432},"r":{"d":"922,-1092v58,0,116,9,178,17r0,317r-113,0v-7,-107,-54,-167,-162,-168v-77,0,-138,34,-183,102v-45,68,-67,162,-67,283r0,420r193,0r0,121r-698,0r0,-121r151,0r0,-821r-162,0r0,-121r516,0r0,189v64,-135,163,-218,347,-218","w":1079},"s":{"d":"541,29v-158,0,-302,-26,-445,-60r0,-297r113,0v18,157,120,244,293,244v72,0,128,-13,166,-38v38,-25,57,-60,57,-107v0,-43,-13,-75,-37,-99v-46,-46,-198,-75,-287,-98v-110,-29,-190,-67,-239,-118v-49,-51,-74,-119,-74,-206v0,-115,40,-202,120,-258v80,-56,203,-84,370,-84v158,0,291,27,436,64r0,268r-113,0v-13,-149,-108,-219,-274,-219v-72,0,-126,12,-163,35v-37,23,-56,56,-56,100v0,93,55,114,147,137r145,37v139,35,236,79,289,131v53,52,80,124,80,217v0,120,-43,209,-129,266v-86,57,-218,85,-399,85","w":1153},"t":{"d":"578,29v-280,0,-375,-55,-375,-320r0,-651r-154,0r0,-121r154,0r0,-330r354,0r0,330r295,0r0,121r-295,0r0,651v0,93,7,150,22,173v15,23,41,34,80,34v97,0,125,-70,128,-176r149,0v-17,226,-109,289,-358,289","w":946},"u":{"d":"561,29v-250,0,-362,-156,-362,-416r0,-555r-152,0r0,-121r506,0r0,621v0,132,11,216,33,252v22,36,62,53,121,53v71,0,124,-26,157,-79v33,-53,49,-136,49,-251r0,-475r-129,0r0,-121r484,0r0,942r151,0r0,121r-506,0r0,-150v-80,118,-168,179,-352,179","w":1489},"v":{"d":"457,0r-377,-942r-117,0r0,-121r610,0r0,121r-129,0r269,672r268,-672r-139,0r0,-121r399,0r0,121r-123,0r-377,942r-284,0","w":1190},"w":{"d":"1104,-1063r242,709r200,-588r-139,0r0,-121r397,0r0,121r-125,0r-321,942r-244,0r-225,-666r-227,666r-242,0r-322,-942r-116,0r0,-121r602,0r0,121r-125,0r196,575r238,-696r211,0","w":1763},"x":{"d":"719,-678r188,-264r-131,0r0,-121r414,0r0,121r-141,0r-271,379r316,442r141,0r0,121r-676,0r0,-121r137,0r-200,-280r-201,280r143,0r0,121r-438,0r0,-121r152,0r282,-397r-305,-424r-119,0r0,-121r649,0r0,121r-129,0","w":1221},"y":{"d":"523,406v-103,77,-295,48,-423,6r0,-222r113,1v4,97,42,150,137,151v43,0,77,-14,105,-36v31,-25,70,-108,96,-171r-463,-1077r-115,0r0,-121r613,0r0,121r-127,0r270,629r252,-629r-141,0r0,-121r399,0r0,121r-129,0r-471,1182v-32,78,-71,133,-116,166","w":1190},"z":{"d":"72,0r0,-121r610,-825r-459,0r0,182r-119,0r0,-299r990,0r0,119r-611,825r492,0r0,-192r119,0r0,311r-1022,0","w":1163},"{":{"d":"836,-16v3,172,31,225,194,229r103,0r0,121v-148,1,-403,-2,-466,-24v-86,-30,-152,-82,-173,-178v-21,-98,-11,-289,-13,-417v-3,-200,-52,-263,-248,-266r-61,0r0,-121r61,0v196,-3,245,-66,248,-266v2,-130,-8,-316,13,-416v20,-96,87,-148,173,-178v63,-22,318,-25,466,-24r0,120r-103,0v-163,4,-194,57,-194,230r0,270v-3,217,-53,279,-228,324v175,50,228,105,228,325r0,271","w":1317},"|":{"d":"479,-1565r0,2048r-215,0r0,-2048r215,0","w":745},"}":{"d":"1083,-551v-195,3,-244,67,-247,266v-2,130,9,317,-12,417v-20,96,-88,148,-174,178v-63,22,-316,25,-464,24r0,-121r101,0v161,-4,194,-57,194,-229r0,-271v3,-219,55,-275,230,-325v-175,-44,-230,-108,-230,-324r0,-270v-3,-173,-32,-226,-194,-230r-101,0r0,-120v148,-1,402,2,464,24v86,30,154,82,174,178v21,98,10,288,12,416v3,199,52,263,247,266r62,0r0,121r-62,0","w":1317},"~":{"d":"1499,-625v-105,96,-211,162,-381,168v-68,2,-200,-39,-292,-75v-114,-45,-204,-66,-269,-66v-51,0,-105,12,-161,36v-56,24,-115,60,-179,109r0,-206v64,-58,127,-101,189,-127v156,-64,263,-52,438,16v102,40,247,84,315,84v51,0,105,-12,161,-36v56,-24,115,-60,179,-109r0,206","w":1716},"\u00a0":{"w":713},"\u00a1":{"d":"449,-1520v101,0,190,90,190,191v0,101,-89,188,-190,188v-102,0,-189,-86,-189,-188v0,-102,87,-191,189,-191xm637,0r-375,0r117,-842r0,-190r139,0r0,190","w":899},"\u00a2":{"d":"739,-94r0,-875v-66,17,-111,59,-143,125v-55,115,-55,508,0,623v31,65,76,109,143,127xm860,-88v125,-23,192,-107,207,-244r166,0v-40,202,-163,328,-373,355r0,276r-121,0r0,-270v-358,-5,-579,-204,-579,-561v0,-357,222,-554,579,-560r0,-264r121,0r0,269v119,11,214,41,338,79r0,295r-113,0v-19,-156,-79,-247,-225,-266r0,891"},"\u00a3":{"d":"881,-1520v121,0,237,17,366,35r0,283r-120,0v-6,-120,-70,-204,-189,-205v-78,0,-134,25,-168,75v-34,50,-51,132,-51,249r0,268r352,0r0,121r-352,0r0,557r420,0r0,-228r137,0r0,365r-1129,0r0,-121r193,0r0,-573r-193,0r0,-121r193,0r0,-277v0,-144,45,-251,134,-322v89,-71,224,-106,407,-106"},"\u00a4":{"d":"434,-641v0,121,98,219,219,219v119,0,219,-100,219,-219v0,-120,-99,-219,-219,-219v-119,0,-219,100,-219,219xm653,-213v-87,-1,-156,-23,-217,-55r-209,207r-151,-154r209,-209v-39,-58,-60,-125,-60,-217v0,-90,23,-160,60,-217r-209,-205r153,-158r207,211v59,-37,127,-59,217,-59v88,0,155,25,221,59r205,-211r152,154r-209,205v35,64,59,134,59,221v0,91,-22,156,-59,215r209,211r-156,154r-207,-211v-58,38,-124,59,-215,59","w":1303},"\u00a5":{"d":"326,0r0,-121r190,0r0,-346r-403,0r0,-117r403,0r0,-59r-61,-135r-342,0r0,-117r286,0r-223,-477r-137,0r0,-121r694,0r0,121r-170,0r258,551r256,-551r-151,0r0,-121r436,0r0,121r-135,0r-221,477r292,0r0,117r-350,0r-53,116r0,78r403,0r0,117r-403,0r0,346r190,0r0,121r-759,0"},"\u00a6":{"d":"479,-1432r0,758r-215,0r0,-758r215,0xm479,-408r0,758r-215,0r0,-758r215,0","w":745},"\u00a7":{"d":"545,-1520v123,0,235,21,352,45r0,240r-119,0v-8,-117,-80,-172,-207,-172v-100,0,-172,46,-172,141v0,31,9,58,27,80v41,48,179,113,252,152v125,67,213,126,260,182v47,56,70,122,70,199v0,161,-96,245,-228,295v98,57,160,125,160,264v0,91,-36,162,-109,213v-73,51,-176,76,-309,76v-131,-1,-247,-20,-366,-45r0,-240r118,0v12,124,80,171,218,172v107,1,179,-44,180,-143v0,-31,-8,-58,-26,-80v-40,-48,-180,-112,-253,-152v-124,-68,-212,-127,-259,-183v-47,-56,-71,-122,-71,-198v0,-161,98,-242,230,-293v-98,-55,-162,-127,-162,-264v0,-91,36,-162,109,-213v73,-51,174,-76,305,-76xm674,-436v49,-39,92,-83,92,-156v0,-40,-15,-77,-46,-111v-61,-69,-225,-143,-325,-198v-49,38,-90,82,-90,156v0,41,15,78,45,112v61,70,224,143,324,197","w":1071},"\u00a8":{"d":"289,-1321v-77,0,-148,-70,-148,-147v0,-78,70,-146,148,-146v78,0,145,68,145,146v0,77,-68,147,-145,147xm735,-1321v-77,0,-147,-70,-147,-147v0,-78,69,-146,147,-146v78,0,148,68,148,146v0,77,-71,147,-148,147","w":1024},"\u00a9":{"d":"740,-1430v172,-72,396,-72,568,0v171,72,332,232,403,404v70,171,71,397,0,568v-71,171,-232,332,-403,403v-172,72,-396,72,-568,0v-171,-72,-332,-232,-403,-403v-71,-171,-70,-397,0,-568v71,-172,232,-332,403,-404xm1248,-1288v-136,-56,-313,-57,-449,0v-135,57,-264,184,-320,320v-56,135,-56,317,0,452v57,136,183,263,319,319v136,56,317,57,452,1v135,-55,263,-185,319,-320v56,-135,56,-317,0,-452v-56,-136,-187,-264,-321,-320xm1059,-399v113,0,168,-78,194,-181r138,0v-35,181,-153,277,-365,279v-251,2,-420,-185,-420,-440v0,-263,169,-446,430,-443v128,2,226,31,326,76r0,223r-105,0v-13,-114,-80,-199,-198,-200v-69,0,-121,31,-163,91v-77,110,-78,394,-1,504v41,59,94,91,164,91","w":2048},"\u00aa":{"d":"113,-639r798,0r0,135r-798,0r0,-135xm123,-1473v93,-29,193,-47,311,-47v143,0,247,25,313,74v66,49,99,127,99,234r0,362r115,0r0,94r-379,0r0,-92v-63,70,-140,110,-265,111v-159,1,-256,-81,-256,-236v0,-85,32,-149,95,-191v63,-42,158,-63,286,-63r140,0v7,-139,-54,-207,-189,-207v-99,0,-160,43,-174,127r-96,0r0,-166xm444,-864v83,0,138,-54,138,-137r0,-132r-101,0v-92,-1,-155,51,-155,140v-1,80,40,129,118,129","w":997},"\u00ab":{"d":"1087,-1069r0,147r-239,322r239,321r0,148r-469,-385r0,-168xm627,-1069r0,147r-240,322r240,321r0,148r-469,-385r0,-168","w":1280},"\u00ac":{"d":"217,-903r1282,0r0,616r-229,0r0,-389r-1053,0r0,-227","w":1716},"\u00ad":{"d":"111,-684r628,0r0,270r-628,0r0,-270","w":850},"\u00ae":{"d":"1360,-954v0,125,-74,190,-194,200v55,16,95,54,118,105r100,215r60,0r0,82r-223,0r-117,-254v-21,-45,-42,-76,-62,-90v-23,-18,-64,-23,-110,-21r0,283r86,0r0,82r-369,0r0,-82r86,0r0,-643r-86,0r0,-82r453,0v147,-2,258,69,258,205xm1163,-938v0,-94,-65,-140,-164,-139r-67,0r0,278r67,0v99,1,164,-45,164,-139xm740,-1430v172,-72,396,-72,568,0v171,72,332,232,403,404v70,171,71,397,0,568v-71,171,-232,332,-403,403v-172,72,-396,72,-568,0v-171,-72,-332,-232,-403,-403v-71,-171,-70,-397,0,-568v71,-172,232,-332,403,-404xm1248,-1288v-136,-56,-313,-57,-449,0v-135,57,-264,184,-320,320v-56,135,-56,317,0,452v57,136,183,263,319,319v136,56,317,57,452,1v135,-55,263,-185,319,-320v56,-135,56,-317,0,-452v-56,-136,-187,-264,-321,-320","w":2048},"\u00af":{"d":"197,-1548r630,0r0,188r-630,0r0,-188","w":1024},"\u00b0":{"d":"178,-1200v0,-226,231,-404,461,-308v115,48,205,150,205,308v0,156,-90,259,-204,306v-231,95,-462,-78,-462,-306xm684,-1200v0,-93,-80,-172,-172,-172v-94,0,-172,78,-172,172v0,94,77,170,172,170v93,0,172,-77,172,-170","w":1024},"\u00b1":{"d":"217,-227r1282,0r0,227r-1282,0r0,-227xm973,-1284r0,358r526,0r0,228r-526,0r0,358r-230,0r0,-358r-526,0r0,-228r526,0r0,-358r230,0","w":1716},"\u00b2":{"d":"346,-1436v-89,0,-150,67,-158,152r-94,0r0,-195v167,-51,455,-64,584,23v66,44,100,102,100,178v0,55,-18,103,-54,146v-80,94,-322,214,-456,294r414,0r0,-96r100,0r0,250r-696,0r0,-133r129,-84v125,-82,204,-146,237,-193v33,-47,50,-101,50,-163v1,-106,-55,-179,-156,-179","w":897},"\u00b3":{"d":"508,-1303v0,-87,-59,-133,-150,-133v-89,0,-145,54,-151,137r-96,1r0,-183v100,-21,194,-38,301,-39v120,0,211,17,273,52v62,35,93,86,93,153v0,114,-92,165,-207,182v141,19,244,78,244,220v0,81,-35,141,-102,183v-133,83,-449,73,-623,19r0,-200r96,0v9,103,63,159,172,159v114,1,181,-56,181,-168v0,-111,-74,-168,-189,-167r-41,0r0,-84v115,6,198,-29,199,-132","w":897},"\u00b4":{"d":"604,-1638r279,0r-373,376r-164,0","w":1024},"\u00b5":{"d":"686,29v-52,0,-85,-18,-123,-41r0,317r152,0r0,121r-658,0r0,-121r152,0r0,-1247r-152,0r0,-121r506,0r0,596v0,147,11,238,34,275v23,37,63,55,122,55v71,0,122,-26,155,-79v33,-53,50,-137,50,-251r0,-475r-131,0r0,-121r485,0r0,942r152,0r0,121r-506,0r0,-125v-37,55,-74,95,-110,119v-36,24,-79,35,-128,35","w":1499},"\u00b6":{"d":"147,-1071v-2,-261,204,-422,476,-422r555,0r0,125r-113,0r0,1565r-152,0r0,-1565r-163,0r0,1565r-152,0r0,-846v-143,-11,-254,-53,-333,-127v-79,-74,-118,-172,-118,-295","w":1303},"\u00b7":{"d":"356,-522v-101,0,-190,-88,-190,-189v0,-101,89,-190,190,-190v102,0,191,89,191,190v0,102,-89,189,-191,189","w":713},"\u00b8":{"d":"428,254v73,0,122,-26,123,-92v0,-19,-6,-39,-17,-61v-11,-22,-33,-56,-67,-101r127,0v41,43,72,82,92,118v20,36,29,72,29,107v-3,129,-107,177,-250,176v-72,0,-140,-10,-202,-26r-1,-156v50,19,106,34,166,35","w":1024},"\u00b9":{"d":"162,-684r0,-94r164,0r0,-613r-183,101r0,-105r222,-125r227,0r0,742r164,0r0,94r-594,0","w":897},"\u00ba":{"d":"113,-639r798,0r0,135r-798,0r0,-135xm512,-823v51,0,85,-25,110,-71v43,-80,42,-390,0,-469v-25,-46,-59,-71,-110,-71v-51,0,-86,25,-110,70v-42,78,-42,393,0,471v24,45,59,70,110,70xm963,-1128v0,254,-185,391,-451,391v-267,0,-451,-136,-451,-391v0,-254,185,-392,451,-392v267,0,451,138,451,392","w":1024},"\u00bb":{"d":"193,-1069r469,385r0,168r-469,385r0,-148r239,-321r-239,-322r0,-147xm653,-1069r469,385r0,168r-469,385r0,-148r240,-321r-240,-322r0,-147","w":1280},"\u00bc":{"d":"162,-684r0,-94r164,0r0,-613r-183,101r0,-105r222,-125r227,0r0,742r164,0r0,94r-594,0xm2044,-16r-518,0r0,-94r125,0r0,-121r-363,0r0,-88r379,-533r252,0r0,527r147,0r0,94r-147,0r0,121r125,0r0,94xm1651,-325r0,-334r-240,334r240,0xm1450,-1520r170,0r-934,1549r-170,0","w":2136},"\u00bd":{"d":"1585,-768v-89,0,-150,67,-158,152r-94,0r0,-195v167,-51,455,-64,584,23v66,44,100,102,100,178v0,55,-19,103,-55,146v-80,94,-321,214,-455,294r414,0r0,-96r100,0r0,250r-696,0r0,-133r129,-84v125,-82,204,-146,237,-193v33,-47,50,-101,50,-163v1,-106,-55,-179,-156,-179xm162,-684r0,-94r164,0r0,-613r-183,101r0,-105r222,-125r227,0r0,742r164,0r0,94r-594,0xm1450,-1520r170,0r-934,1549r-170,0","w":2136},"\u00be":{"d":"508,-1303v0,-87,-59,-133,-150,-133v-89,0,-145,54,-151,137r-96,1r0,-183v100,-21,194,-38,301,-39v120,0,211,17,273,52v62,35,93,86,93,153v0,114,-92,165,-207,182v141,19,244,78,244,220v0,81,-35,141,-102,183v-133,83,-449,73,-623,19r0,-200r96,0v9,103,63,159,172,159v114,1,181,-56,181,-168v0,-111,-74,-168,-189,-167r-41,0r0,-84v115,6,198,-29,199,-132xm2044,-16r-518,0r0,-94r125,0r0,-121r-363,0r0,-88r379,-533r252,0r0,527r147,0r0,94r-147,0r0,121r125,0r0,94xm1651,-325r0,-334r-240,334r240,0xm1450,-1520r170,0r-934,1549r-170,0","w":2136},"\u00bf":{"d":"668,-1520v101,0,190,90,190,191v0,101,-89,188,-190,188v-102,0,-189,-86,-189,-188v0,-102,87,-191,189,-191xm709,-84v159,0,226,-103,238,-262r120,0r0,307v-146,40,-287,67,-453,68v-312,3,-522,-134,-522,-426v0,-135,43,-241,130,-319v87,-78,213,-122,376,-134r0,-205r139,0r0,299v-175,55,-268,163,-270,381v-1,181,71,291,242,291","w":1200},"\u00c0":{"d":"-16,0r0,-121r122,0r562,-1372r239,0r563,1372r142,0r0,121r-699,0r0,-121r146,0r-123,-305r-561,0r-125,305r178,0r0,121r-444,0xm424,-547r463,0r-230,-571xm756,-1899r182,264r-164,0r-297,-264r279,0","w":1589},"\u00c1":{"d":"-16,0r0,-121r122,0r562,-1372r239,0r563,1372r142,0r0,121r-699,0r0,-121r146,0r-123,-305r-561,0r-125,305r178,0r0,121r-444,0xm424,-547r463,0r-230,-571xm788,-1899r279,0r-297,264r-164,0","w":1589},"\u00c2":{"d":"-16,0r0,-121r122,0r562,-1372r239,0r563,1372r142,0r0,121r-699,0r0,-121r146,0r-123,-305r-561,0r-125,305r178,0r0,121r-444,0xm424,-547r463,0r-230,-571xm618,-1899r308,0r223,264r-164,0r-213,-161r-213,161r-164,0","w":1589},"\u00c3":{"d":"-16,0r0,-121r122,0r562,-1372r239,0r563,1372r142,0r0,121r-699,0r0,-121r146,0r-123,-305r-561,0r-125,305r178,0r0,121r-444,0xm424,-547r463,0r-230,-571xm658,-1726v-76,-23,-138,14,-134,91r-110,0v-4,-160,62,-265,208,-268v87,-2,191,72,272,95v71,20,131,-19,126,-93r110,0v5,160,-61,268,-208,268v-107,0,-174,-66,-264,-93","w":1589},"\u00c4":{"d":"-16,0r0,-121r122,0r562,-1372r239,0r563,1372r142,0r0,121r-699,0r0,-121r146,0r-123,-305r-561,0r-125,305r178,0r0,121r-444,0xm424,-547r463,0r-230,-571xm549,-1630v-78,0,-148,-68,-148,-146v0,-77,70,-147,148,-147v77,0,145,70,145,147v0,78,-66,146,-145,146xm995,-1630v-77,0,-147,-69,-147,-146v0,-77,70,-147,147,-147v78,0,148,70,148,147v0,78,-70,146,-148,146","w":1589},"\u00c5":{"d":"788,-1747v-69,0,-131,61,-131,131v0,70,62,131,131,131v71,0,132,-61,132,-131v0,-70,-62,-131,-132,-131xm1073,-1616v-2,110,-49,185,-121,232r518,1263r142,0r0,121r-699,0r0,-121r146,0r-123,-305r-561,0r-125,305r178,0r0,121r-444,0r0,-121r122,0r519,-1263v-71,-44,-119,-124,-121,-232v-3,-152,132,-285,284,-285v153,0,288,133,285,285xm424,-547r463,0r-228,-571","w":1589},"\u00c6":{"d":"401,-545r465,0r0,-827r-75,0xm676,0r0,-121r190,0r0,-303r-522,0r-143,303r164,0r0,121r-428,0r0,-121r114,0r592,-1251r-201,0r0,-121r1551,0r0,352r-138,0r0,-215r-602,0r0,479r367,0r0,-190r135,0r0,516r-135,0r0,-190r-367,0r0,604r623,0r0,-215r135,0r0,352r-1335,0","w":2118},"\u00c7":{"d":"795,254v73,0,122,-26,123,-92v0,-19,-5,-39,-16,-61v-11,-22,-34,-56,-68,-101r127,0v41,43,71,82,91,118v20,36,30,72,30,107v-3,129,-107,177,-250,176v-72,0,-140,-10,-202,-26r-1,-156v50,19,106,34,166,35xm903,-1520v220,3,400,56,582,129r0,367r-127,0v-26,-125,-73,-220,-142,-282v-69,-62,-159,-93,-272,-93v-145,0,-253,54,-324,161v-71,107,-106,271,-106,493v0,222,35,386,106,493v71,107,179,160,326,160v99,0,181,-28,244,-83v63,-55,108,-139,137,-251r199,0v-76,297,-263,451,-623,455v-489,5,-817,-294,-817,-774v0,-481,328,-782,817,-775","w":1630},"\u00c8":{"d":"96,0r0,-121r191,0r0,-1251r-191,0r0,-121r1342,0r0,352r-138,0r0,-215r-628,0r0,479r391,0r0,-190r137,0r0,516r-137,0r0,-190r-391,0r0,604r647,0r0,-215r137,0r0,352r-1360,0xm799,-1899r182,264r-164,0r-297,-264r279,0","w":1561},"\u00c9":{"d":"96,0r0,-121r191,0r0,-1251r-191,0r0,-121r1342,0r0,352r-138,0r0,-215r-628,0r0,479r391,0r0,-190r137,0r0,516r-137,0r0,-190r-391,0r0,604r647,0r0,-215r137,0r0,352r-1360,0xm831,-1899r279,0r-297,264r-164,0","w":1561},"\u00ca":{"d":"96,0r0,-121r191,0r0,-1251r-191,0r0,-121r1342,0r0,352r-138,0r0,-215r-628,0r0,479r391,0r0,-190r137,0r0,516r-137,0r0,-190r-391,0r0,604r647,0r0,-215r137,0r0,352r-1360,0xm661,-1899r308,0r223,264r-164,0r-213,-161r-213,161r-164,0","w":1561},"\u00cb":{"d":"96,0r0,-121r191,0r0,-1251r-191,0r0,-121r1342,0r0,352r-138,0r0,-215r-628,0r0,479r391,0r0,-190r137,0r0,516r-137,0r0,-190r-391,0r0,604r647,0r0,-215r137,0r0,352r-1360,0xm592,-1630v-78,0,-148,-68,-148,-146v0,-77,70,-147,148,-147v77,0,145,70,145,147v0,77,-67,146,-145,146xm1038,-1630v-77,0,-147,-68,-147,-146v0,-78,69,-147,147,-147v78,0,148,70,148,147v0,78,-70,146,-148,146","w":1561},"\u00cc":{"d":"96,0r0,-121r191,0r0,-1251r-191,0r0,-121r768,0r0,121r-192,0r0,1251r192,0r0,121r-768,0xm463,-1899r182,264r-164,0r-297,-264r279,0","w":958},"\u00cd":{"d":"96,0r0,-121r191,0r0,-1251r-191,0r0,-121r768,0r0,121r-192,0r0,1251r192,0r0,121r-768,0xm495,-1899r279,0r-297,264r-164,0","w":958},"\u00ce":{"d":"96,0r0,-121r191,0r0,-1251r-191,0r0,-121r768,0r0,121r-192,0r0,1251r192,0r0,121r-768,0xm325,-1899r308,0r223,264r-164,0r-213,-161r-213,161r-164,0","w":958},"\u00cf":{"d":"96,0r0,-121r191,0r0,-1251r-191,0r0,-121r768,0r0,121r-192,0r0,1251r192,0r0,121r-768,0xm256,-1630v-78,0,-148,-68,-148,-146v0,-77,70,-147,148,-147v77,0,145,70,145,147v0,77,-67,146,-145,146xm702,-1630v-77,0,-147,-68,-147,-146v0,-78,69,-147,147,-147v78,0,148,70,148,147v0,78,-70,146,-148,146","w":958},"\u00d0":{"d":"686,-121r139,0v156,0,269,-49,341,-149v72,-100,108,-259,108,-478v0,-217,-36,-376,-108,-475v-72,-99,-185,-149,-341,-149r-139,0r0,522r332,0r0,137r-332,0r0,592xm1702,-748v0,498,-312,748,-825,748r-768,0r0,-121r192,0r0,-592r-213,0r0,-137r213,0r0,-522r-192,0r0,-121r768,0v513,-3,825,247,825,745","w":1790},"\u00d1":{"d":"90,0r0,-121r191,0r0,-1251r-191,0r0,-121r467,0r901,1057r0,-936r-190,0r0,-121r522,0r0,121r-191,0r0,1372r-262,0r-915,-1079r0,958r190,0r0,121r-522,0xm822,-1726v-76,-23,-138,14,-134,91r-110,0v-4,-160,62,-265,208,-268v87,-2,191,72,272,95v71,20,131,-19,126,-93r110,0v5,160,-61,268,-208,268v-107,0,-174,-66,-264,-93","w":1872},"\u00d2":{"d":"891,-92v127,0,222,-54,284,-161v62,-107,93,-271,93,-492v0,-221,-31,-386,-93,-493v-62,-107,-157,-161,-284,-161v-127,0,-221,55,-283,163v-62,108,-94,272,-94,491v0,219,32,383,94,491v62,108,156,162,283,162xm1696,-745v0,484,-315,774,-805,774v-491,0,-805,-289,-805,-774v0,-484,315,-775,805,-775v492,0,805,289,805,775xm877,-1899r182,264r-164,0r-297,-264r279,0","w":1784},"\u00d3":{"d":"891,-92v127,0,222,-54,284,-161v62,-107,93,-271,93,-492v0,-221,-31,-386,-93,-493v-62,-107,-157,-161,-284,-161v-127,0,-221,55,-283,163v-62,108,-94,272,-94,491v0,219,32,383,94,491v62,108,156,162,283,162xm1696,-745v0,484,-315,774,-805,774v-491,0,-805,-289,-805,-774v0,-484,315,-775,805,-775v492,0,805,289,805,775xm909,-1899r279,0r-297,264r-164,0","w":1784},"\u00d4":{"d":"891,-92v127,0,222,-54,284,-161v62,-107,93,-271,93,-492v0,-221,-31,-386,-93,-493v-62,-107,-157,-161,-284,-161v-127,0,-221,55,-283,163v-62,108,-94,272,-94,491v0,219,32,383,94,491v62,108,156,162,283,162xm1696,-745v0,484,-315,774,-805,774v-491,0,-805,-289,-805,-774v0,-484,315,-775,805,-775v492,0,805,289,805,775xm739,-1899r308,0r223,264r-164,0r-213,-161r-213,161r-164,0","w":1784},"\u00d5":{"d":"891,-92v127,0,222,-54,284,-161v62,-107,93,-271,93,-492v0,-221,-31,-386,-93,-493v-62,-107,-157,-161,-284,-161v-127,0,-221,55,-283,163v-62,108,-94,272,-94,491v0,219,32,383,94,491v62,108,156,162,283,162xm1696,-745v0,484,-315,774,-805,774v-491,0,-805,-289,-805,-774v0,-484,315,-775,805,-775v492,0,805,289,805,775xm780,-1726v-76,-23,-138,15,-135,91r-110,0v-4,-160,62,-265,208,-268v87,-2,191,72,272,95v71,20,130,-20,126,-93r110,0v6,160,-60,269,-208,268v-106,1,-174,-66,-263,-93","w":1784},"\u00d6":{"d":"891,-92v127,0,222,-54,284,-161v62,-107,93,-271,93,-492v0,-221,-31,-386,-93,-493v-62,-107,-157,-161,-284,-161v-127,0,-221,55,-283,163v-62,108,-94,272,-94,491v0,219,32,383,94,491v62,108,156,162,283,162xm1696,-745v0,484,-315,774,-805,774v-491,0,-805,-289,-805,-774v0,-484,315,-775,805,-775v492,0,805,289,805,775xm670,-1630v-78,0,-148,-68,-148,-146v0,-77,70,-147,148,-147v77,0,145,70,145,147v0,77,-67,146,-145,146xm1116,-1630v-77,0,-147,-68,-147,-146v0,-78,69,-147,147,-147v78,0,148,70,148,147v0,78,-70,146,-148,146","w":1784},"\u00d7":{"d":"1452,-1081r-440,440r440,440r-154,154r-440,-440r-440,440r-154,-154r441,-440r-441,-440r154,-156r440,440r440,-440","w":1716},"\u00d8":{"d":"1212,-1157v-50,-142,-147,-242,-321,-242v-127,0,-221,55,-283,163v-62,108,-94,272,-94,491v0,98,6,185,21,266xm571,-334v54,144,142,242,320,242v130,0,223,-57,287,-167v70,-119,107,-397,86,-641v-3,-34,-10,-64,-19,-93xm891,-1520v223,2,398,56,530,154r203,-203r90,90r-198,199v113,131,179,302,180,535v4,484,-315,778,-805,774v-223,-2,-396,-57,-529,-156r-204,205r-90,-90r200,-201v-115,-128,-181,-300,-182,-532v-4,-484,315,-779,805,-775","w":1784},"\u00d9":{"d":"905,29v-464,0,-645,-173,-645,-635r0,-766r-190,0r0,-121r768,0r0,121r-191,0r0,747v0,186,29,317,87,391v58,74,157,111,298,111v137,0,234,-38,292,-113v58,-75,87,-204,87,-389r0,-747r-190,0r0,-121r520,0r0,121r-191,0r0,768v-5,464,-178,633,-645,633xm928,-1899r182,264r-164,0r-297,-264r279,0","w":1786},"\u00da":{"d":"905,29v-464,0,-645,-173,-645,-635r0,-766r-190,0r0,-121r768,0r0,121r-191,0r0,747v0,186,29,317,87,391v58,74,157,111,298,111v137,0,234,-38,292,-113v58,-75,87,-204,87,-389r0,-747r-190,0r0,-121r520,0r0,121r-191,0r0,768v-5,464,-178,633,-645,633xm960,-1899r279,0r-297,264r-164,0","w":1786},"\u00db":{"d":"905,29v-464,0,-645,-173,-645,-635r0,-766r-190,0r0,-121r768,0r0,121r-191,0r0,747v0,186,29,317,87,391v58,74,157,111,298,111v137,0,234,-38,292,-113v58,-75,87,-204,87,-389r0,-747r-190,0r0,-121r520,0r0,121r-191,0r0,768v-5,464,-178,633,-645,633xm790,-1899r308,0r223,264r-164,0r-213,-161r-213,161r-164,0","w":1786},"\u00dc":{"d":"905,29v-464,0,-645,-173,-645,-635r0,-766r-190,0r0,-121r768,0r0,121r-191,0r0,747v0,186,29,317,87,391v58,74,157,111,298,111v137,0,234,-38,292,-113v58,-75,87,-204,87,-389r0,-747r-190,0r0,-121r520,0r0,121r-191,0r0,768v-5,464,-178,633,-645,633xm721,-1630v-78,0,-148,-68,-148,-146v0,-77,70,-147,148,-147v77,0,145,70,145,147v0,78,-66,146,-145,146xm1167,-1630v-77,0,-147,-69,-147,-146v0,-77,70,-147,147,-147v78,0,148,70,148,147v0,78,-70,146,-148,146","w":1786},"\u00dd":{"d":"352,0r0,-121r201,0r0,-497r-444,-754r-127,0r0,-121r716,0r0,121r-166,0r336,569r334,-569r-149,0r0,-121r428,0r0,121r-127,0r-414,702r0,549r201,0r0,121r-789,0xm747,-1899r279,0r-297,264r-164,0","w":1462},"\u00de":{"d":"96,0r0,-121r191,0r0,-1251r-191,0r0,-121r815,0r0,121r-239,0r0,170r274,0v166,0,298,39,396,118v98,79,147,185,147,318v0,133,-49,238,-147,318v-98,80,-231,120,-396,120r-274,0r0,207r241,0r0,121r-817,0xm1069,-766v0,-184,-107,-316,-285,-315r-112,0r0,632r112,0v178,1,285,-133,285,-317","w":1550},"\u00df":{"d":"983,-84v98,2,171,-64,170,-160v0,-70,-55,-144,-164,-222r-121,-87v-116,-87,-192,-163,-192,-336v0,-89,27,-162,80,-217v53,-55,134,-93,241,-115v-11,-159,-55,-223,-215,-223v-158,0,-206,85,-207,254r0,1190r-505,0r0,-121r151,0r0,-1026v0,-134,47,-236,140,-305v93,-69,230,-104,409,-104v349,1,521,130,559,440v-108,-2,-201,15,-257,46v-74,41,-104,132,-56,208v25,39,137,117,194,157v118,85,193,154,226,207v33,53,49,115,49,187v0,107,-42,190,-125,250v-83,60,-199,90,-348,90v-130,0,-241,-26,-355,-60r0,-258r121,0v17,132,67,203,205,205","w":1556},"\u00e0":{"d":"508,-1638r258,376r-164,0r-373,-376r279,0xm166,-1024v121,-43,253,-68,412,-68v190,0,330,35,418,106v88,71,132,182,132,333r0,532r152,0r0,121r-506,0r0,-135v-84,101,-184,162,-352,164v-216,2,-339,-122,-338,-338v0,-119,42,-209,126,-268v84,-59,209,-89,378,-89r186,0r0,-63v0,-172,-78,-252,-250,-252v-150,0,-213,60,-245,186r-113,0r0,-229xm592,-137v111,1,182,-83,182,-197r0,-213r-133,0v-132,-1,-206,76,-205,209v0,124,41,199,156,201","w":1327},"\u00e1":{"d":"692,-1638r279,0r-373,376r-164,0xm166,-1024v121,-43,253,-68,412,-68v190,0,330,35,418,106v88,71,132,182,132,333r0,532r152,0r0,121r-506,0r0,-135v-84,101,-184,162,-352,164v-216,2,-339,-122,-338,-338v0,-119,42,-209,126,-268v84,-59,209,-89,378,-89r186,0r0,-63v0,-172,-78,-252,-250,-252v-150,0,-213,60,-245,186r-113,0r0,-229xm592,-137v111,1,182,-83,182,-197r0,-213r-133,0v-132,-1,-206,76,-205,209v0,124,41,199,156,201","w":1327},"\u00e2":{"d":"479,-1638r242,0r256,376r-164,0r-213,-225r-213,225r-164,0xm166,-1024v121,-43,253,-68,412,-68v190,0,330,35,418,106v88,71,132,182,132,333r0,532r152,0r0,121r-506,0r0,-135v-84,101,-184,162,-352,164v-216,2,-339,-122,-338,-338v0,-119,42,-209,126,-268v84,-59,209,-89,378,-89r186,0r0,-63v0,-172,-78,-252,-250,-252v-150,0,-213,60,-245,186r-113,0r0,-229xm592,-137v111,1,182,-83,182,-197r0,-213r-133,0v-132,-1,-206,76,-205,209v0,124,41,199,156,201","w":1327},"\u00e3":{"d":"442,-1440v-62,1,-91,60,-90,131r-110,0v-3,-179,48,-313,208,-313v100,0,160,62,228,104v30,18,56,29,80,29v62,-1,91,-60,90,-131r110,0v3,179,-48,313,-208,313v-99,0,-160,-61,-227,-103v-31,-19,-57,-30,-81,-30xm166,-1024v121,-43,253,-68,412,-68v190,0,330,35,418,106v88,71,132,182,132,333r0,532r152,0r0,121r-506,0r0,-135v-84,101,-184,162,-352,164v-216,2,-339,-122,-338,-338v0,-119,42,-209,126,-268v84,-59,209,-89,378,-89r186,0r0,-63v0,-172,-78,-252,-250,-252v-150,0,-213,60,-245,186r-113,0r0,-229xm592,-137v111,1,182,-83,182,-197r0,-213r-133,0v-132,-1,-206,76,-205,209v0,124,41,199,156,201","w":1327},"\u00e4":{"d":"377,-1321v-77,0,-148,-70,-148,-147v0,-78,70,-146,148,-146v78,0,145,68,145,146v0,77,-68,147,-145,147xm823,-1321v-77,0,-147,-70,-147,-147v0,-78,69,-146,147,-146v78,0,148,68,148,146v0,77,-71,147,-148,147xm166,-1024v121,-43,253,-68,412,-68v190,0,330,35,418,106v88,71,132,182,132,333r0,532r152,0r0,121r-506,0r0,-135v-84,101,-184,162,-352,164v-216,2,-339,-122,-338,-338v0,-119,42,-209,126,-268v84,-59,209,-89,378,-89r186,0r0,-63v0,-172,-78,-252,-250,-252v-150,0,-213,60,-245,186r-113,0r0,-229xm592,-137v111,1,182,-83,182,-197r0,-213r-133,0v-132,-1,-206,76,-205,209v0,124,41,199,156,201","w":1327},"\u00e5":{"d":"166,-1024v121,-43,253,-68,412,-68v190,0,330,35,418,106v88,71,132,182,132,333r0,532r152,0r0,121r-506,0r0,-135v-84,101,-184,162,-352,164v-216,2,-339,-122,-338,-338v0,-119,42,-209,126,-268v84,-59,209,-89,378,-89r186,0r0,-63v0,-172,-78,-252,-250,-252v-150,0,-213,60,-245,186r-113,0r0,-229xm592,-137v111,1,182,-83,182,-197r0,-213r-133,0v-132,-1,-206,76,-205,209v0,124,41,199,156,201xm600,-1249v-153,0,-285,-132,-285,-285v0,-153,132,-285,285,-285v153,0,285,132,285,285v0,153,-132,285,-285,285xm731,-1534v0,-70,-61,-131,-131,-131v-71,0,-131,60,-131,131v0,71,60,131,131,131v71,0,131,-60,131,-131","w":1327},"\u00e6":{"d":"1513,-600v0,-140,-13,-238,-39,-294v-26,-56,-70,-85,-133,-85v-61,0,-104,28,-131,83v-27,55,-40,166,-39,296r342,0xm578,-1092v186,0,313,52,397,156v92,-93,204,-156,373,-156v370,0,545,233,554,611r-731,0v-1,138,20,244,62,305v41,61,108,92,201,92v162,-1,250,-92,274,-238r168,0v-60,245,-223,351,-528,351v-190,0,-322,-56,-420,-156v-108,94,-238,154,-424,156v-255,1,-420,-101,-420,-338v0,-120,43,-210,128,-269v85,-59,213,-88,386,-88r186,0r0,-63v1,-156,-105,-252,-264,-250v-147,1,-210,61,-241,184r-113,0r0,-229v121,-43,253,-68,412,-68xm604,-115v121,0,180,-87,180,-215r0,-217r-133,0v-147,0,-215,74,-215,223v0,140,38,209,168,209","w":1997},"\u00e7":{"d":"567,254v73,0,122,-26,123,-92v0,-19,-5,-39,-16,-61v-11,-22,-34,-56,-68,-101r127,0v41,43,71,82,91,118v20,36,30,72,30,107v-3,129,-107,177,-250,176v-72,0,-140,-10,-202,-26r-1,-156v50,19,106,34,166,35xm739,-84v154,-1,234,-100,250,-248r166,0v-49,236,-197,359,-475,361v-368,2,-596,-200,-596,-561v0,-354,224,-563,582,-560v171,1,316,34,454,84r0,295r-112,0v-20,-164,-87,-266,-256,-266v-99,0,-168,33,-210,100v-42,67,-63,182,-63,347v0,161,20,275,61,344v41,69,107,104,199,104","w":1247},"\u00e8":{"d":"559,-1638r258,376r-164,0r-373,-376r279,0xm821,-600v0,-140,-13,-238,-39,-294v-26,-56,-70,-85,-133,-85v-61,0,-104,28,-131,83v-27,55,-40,166,-39,296r342,0xm84,-532v0,-351,218,-562,571,-560v371,2,546,233,555,611r-731,0v-1,138,20,244,62,305v41,61,108,92,200,92v162,-1,253,-93,277,-238r166,0v-60,245,-224,350,-529,351v-364,2,-571,-200,-571,-561","w":1303},"\u00e9":{"d":"743,-1638r279,0r-373,376r-164,0xm821,-600v0,-140,-13,-238,-39,-294v-26,-56,-70,-85,-133,-85v-61,0,-104,28,-131,83v-27,55,-40,166,-39,296r342,0xm84,-532v0,-351,218,-562,571,-560v371,2,546,233,555,611r-731,0v-1,138,20,244,62,305v41,61,108,92,200,92v162,-1,253,-93,277,-238r166,0v-60,245,-224,350,-529,351v-364,2,-571,-200,-571,-561","w":1303},"\u00ea":{"d":"530,-1638r242,0r256,376r-164,0r-213,-225r-213,225r-164,0xm821,-600v0,-140,-13,-238,-39,-294v-26,-56,-70,-85,-133,-85v-61,0,-104,28,-131,83v-27,55,-40,166,-39,296r342,0xm84,-532v0,-351,218,-562,571,-560v371,2,546,233,555,611r-731,0v-1,138,20,244,62,305v41,61,108,92,200,92v162,-1,253,-93,277,-238r166,0v-60,245,-224,350,-529,351v-364,2,-571,-200,-571,-561","w":1303},"\u00eb":{"d":"428,-1321v-77,0,-148,-70,-148,-147v0,-78,70,-146,148,-146v78,0,145,68,145,146v0,77,-68,147,-145,147xm874,-1321v-77,0,-147,-70,-147,-147v0,-78,69,-146,147,-146v78,0,148,68,148,146v0,77,-71,147,-148,147xm821,-600v0,-140,-13,-238,-39,-294v-26,-56,-70,-85,-133,-85v-61,0,-104,28,-131,83v-27,55,-40,166,-39,296r342,0xm84,-532v0,-351,218,-562,571,-560v371,2,546,233,555,611r-731,0v-1,138,20,244,62,305v41,61,108,92,200,92v162,-1,253,-93,277,-238r166,0v-60,245,-224,350,-529,351v-364,2,-571,-200,-571,-561","w":1303},"\u00ec":{"d":"297,-1638r258,376r-164,0r-373,-376r279,0xm575,-121r152,0r0,121r-657,0r0,-121r151,0r0,-821r-151,0r0,-121r505,0r0,942","w":778},"\u00ed":{"d":"481,-1638r279,0r-373,376r-164,0xm575,-121r152,0r0,121r-657,0r0,-121r151,0r0,-821r-151,0r0,-121r505,0r0,942","w":778},"\u00ee":{"d":"268,-1638r242,0r256,376r-164,0r-213,-225r-213,225r-164,0xm575,-121r152,0r0,121r-657,0r0,-121r151,0r0,-821r-151,0r0,-121r505,0r0,942","w":778},"\u00ef":{"d":"166,-1321v-77,0,-148,-70,-148,-147v0,-78,70,-146,148,-146v78,0,145,68,145,146v0,77,-68,147,-145,147xm612,-1321v-77,0,-147,-70,-147,-147v0,-78,69,-146,147,-146v78,0,148,68,148,146v0,77,-71,147,-148,147xm575,-121r152,0r0,121r-657,0r0,-121r151,0r0,-821r-151,0r0,-121r505,0r0,942","w":778},"\u00f0":{"d":"319,-1556v182,22,340,70,465,145r330,-154r47,103r-266,125v125,99,222,217,289,351v67,134,100,277,100,429v0,367,-230,586,-600,586v-348,0,-600,-202,-600,-537v0,-332,284,-576,648,-526v29,4,58,10,87,18v-30,-90,-74,-159,-133,-225r-319,149r-50,-100r279,-131v-79,-57,-185,-96,-305,-123xm887,-508v0,-144,-17,-270,-49,-383v-52,-20,-95,-37,-154,-37v-74,0,-127,32,-158,96v-31,64,-47,171,-47,324v0,156,16,266,47,329v31,63,84,95,158,95v74,0,126,-31,157,-94v31,-63,46,-173,46,-330","w":1366},"\u00f1":{"d":"569,-1440v-62,1,-91,60,-90,131r-110,0v-3,-179,48,-313,208,-313v100,0,160,62,228,104v30,18,56,29,80,29v62,-1,91,-60,90,-131r110,0v3,179,-48,313,-208,313v-99,0,-160,-61,-227,-103v-31,-19,-57,-30,-81,-30xm928,-1092v250,0,362,156,362,416r0,555r152,0r0,121r-635,0r0,-121r129,0r0,-565v0,-90,-11,-153,-34,-188v-23,-35,-63,-52,-120,-52v-71,0,-124,26,-157,78v-33,52,-50,136,-50,250r0,477r130,0r0,121r-635,0r0,-121r151,0r0,-821r-151,0r0,-121r505,0r0,150v81,-118,168,-179,353,-179","w":1489},"\u00f2":{"d":"592,-1638r258,376r-164,0r-373,-376r279,0xm684,-84v75,0,128,-32,158,-96v30,-64,45,-181,45,-352v0,-171,-15,-288,-45,-352v-30,-64,-83,-95,-158,-95v-75,0,-128,33,-159,97v-31,64,-46,181,-46,350v0,169,15,286,46,351v31,65,84,97,159,97xm1284,-532v0,354,-238,561,-600,561v-363,0,-600,-206,-600,-561v0,-356,237,-560,600,-560v364,0,600,204,600,560","w":1366},"\u00f3":{"d":"776,-1638r279,0r-373,376r-164,0xm684,-84v75,0,128,-32,158,-96v30,-64,45,-181,45,-352v0,-171,-15,-288,-45,-352v-30,-64,-83,-95,-158,-95v-75,0,-128,33,-159,97v-31,64,-46,181,-46,350v0,169,15,286,46,351v31,65,84,97,159,97xm1284,-532v0,354,-238,561,-600,561v-363,0,-600,-206,-600,-561v0,-356,237,-560,600,-560v364,0,600,204,600,560","w":1366},"\u00f4":{"d":"563,-1638r242,0r256,376r-164,0r-213,-225r-213,225r-164,0xm684,-84v75,0,128,-32,158,-96v30,-64,45,-181,45,-352v0,-171,-15,-288,-45,-352v-30,-64,-83,-95,-158,-95v-75,0,-128,33,-159,97v-31,64,-46,181,-46,350v0,169,15,286,46,351v31,65,84,97,159,97xm1284,-532v0,354,-238,561,-600,561v-363,0,-600,-206,-600,-561v0,-356,237,-560,600,-560v364,0,600,204,600,560","w":1366},"\u00f5":{"d":"526,-1440v-62,1,-91,60,-90,131r-110,0v-3,-179,48,-313,208,-313v100,0,160,62,228,104v30,18,56,29,80,29v62,-1,91,-60,90,-131r110,0v3,179,-48,313,-208,313v-99,0,-160,-61,-227,-103v-31,-19,-57,-30,-81,-30xm684,-84v75,0,128,-32,158,-96v30,-64,45,-181,45,-352v0,-171,-15,-288,-45,-352v-30,-64,-83,-95,-158,-95v-75,0,-128,33,-159,97v-31,64,-46,181,-46,350v0,169,15,286,46,351v31,65,84,97,159,97xm1284,-532v0,354,-238,561,-600,561v-363,0,-600,-206,-600,-561v0,-356,237,-560,600,-560v364,0,600,204,600,560","w":1366},"\u00f6":{"d":"461,-1321v-77,0,-148,-70,-148,-147v0,-78,70,-146,148,-146v78,0,145,68,145,146v0,77,-68,147,-145,147xm907,-1321v-77,0,-147,-70,-147,-147v0,-78,69,-146,147,-146v78,0,148,68,148,146v0,77,-71,147,-148,147xm684,-84v75,0,128,-32,158,-96v30,-64,45,-181,45,-352v0,-171,-15,-288,-45,-352v-30,-64,-83,-95,-158,-95v-75,0,-128,33,-159,97v-31,64,-46,181,-46,350v0,169,15,286,46,351v31,65,84,97,159,97xm1284,-532v0,354,-238,561,-600,561v-363,0,-600,-206,-600,-561v0,-356,237,-560,600,-560v364,0,600,204,600,560","w":1366},"\u00f7":{"d":"858,-862v-79,0,-149,-70,-149,-150v0,-79,70,-149,149,-149v80,0,150,70,150,149v0,80,-70,150,-150,150xm858,-123v-79,0,-149,-70,-149,-149v0,-80,70,-150,149,-150v80,0,150,70,150,150v0,79,-70,149,-150,149xm217,-756r1282,0r0,228r-1282,0r0,-228","w":1716},"\u00f8":{"d":"868,-801v-21,-108,-68,-178,-184,-178v-73,0,-125,31,-156,95v-31,64,-47,174,-47,331r0,137xm500,-262v18,107,69,178,184,178v73,0,124,-31,155,-94v31,-63,46,-173,46,-330r0,-141xm684,-1092v157,1,283,35,377,99r168,-168r86,86r-164,162v83,91,132,214,133,381v2,354,-238,564,-600,561v-157,-1,-276,-36,-377,-99r-172,172r-84,-86r164,-163v-81,-94,-130,-218,-131,-385v-2,-356,237,-563,600,-560","w":1366},"\u00f9":{"d":"615,-1638r258,376r-164,0r-373,-376r279,0xm561,29v-250,0,-362,-156,-362,-416r0,-555r-152,0r0,-121r506,0r0,621v0,132,11,216,33,252v22,36,62,53,121,53v71,0,124,-26,157,-79v33,-53,49,-136,49,-251r0,-475r-129,0r0,-121r484,0r0,942r151,0r0,121r-506,0r0,-150v-80,118,-168,179,-352,179","w":1489},"\u00fa":{"d":"799,-1638r279,0r-373,376r-164,0xm561,29v-250,0,-362,-156,-362,-416r0,-555r-152,0r0,-121r506,0r0,621v0,132,11,216,33,252v22,36,62,53,121,53v71,0,124,-26,157,-79v33,-53,49,-136,49,-251r0,-475r-129,0r0,-121r484,0r0,942r151,0r0,121r-506,0r0,-150v-80,118,-168,179,-352,179","w":1489},"\u00fb":{"d":"586,-1638r242,0r256,376r-164,0r-213,-225r-213,225r-164,0xm561,29v-250,0,-362,-156,-362,-416r0,-555r-152,0r0,-121r506,0r0,621v0,132,11,216,33,252v22,36,62,53,121,53v71,0,124,-26,157,-79v33,-53,49,-136,49,-251r0,-475r-129,0r0,-121r484,0r0,942r151,0r0,121r-506,0r0,-150v-80,118,-168,179,-352,179","w":1489},"\u00fc":{"d":"484,-1321v-77,0,-148,-70,-148,-147v0,-78,70,-146,148,-146v78,0,145,68,145,146v0,77,-68,147,-145,147xm930,-1321v-77,0,-147,-70,-147,-147v0,-78,69,-146,147,-146v78,0,148,68,148,146v0,77,-71,147,-148,147xm561,29v-250,0,-362,-156,-362,-416r0,-555r-152,0r0,-121r506,0r0,621v0,132,11,216,33,252v22,36,62,53,121,53v71,0,124,-26,157,-79v33,-53,49,-136,49,-251r0,-475r-129,0r0,-121r484,0r0,942r151,0r0,121r-506,0r0,-150v-80,118,-168,179,-352,179","w":1489},"\u00fd":{"d":"688,-1638r279,0r-373,376r-164,0xm523,406v-103,77,-295,48,-423,6r0,-222r113,1v4,97,42,150,137,151v43,0,77,-14,105,-36v31,-25,70,-108,96,-171r-463,-1077r-115,0r0,-121r613,0r0,121r-127,0r270,629r252,-629r-141,0r0,-121r399,0r0,121r-129,0r-471,1182v-32,78,-71,133,-116,166","w":1190},"\u00fe":{"d":"553,-584r0,105v0,124,15,214,47,269v32,55,83,83,154,83v73,0,124,-29,154,-88v30,-59,44,-164,44,-317v0,-153,-14,-258,-44,-316v-30,-58,-81,-88,-154,-88v-71,0,-122,28,-154,83v-32,55,-47,145,-47,269xm862,29v-157,-1,-252,-58,-309,-164r0,440r164,0r0,121r-670,0r0,-121r152,0r0,-1741r-152,0r0,-120r506,0r0,628v57,-106,152,-163,309,-164v314,-1,488,232,488,560v0,329,-173,562,-488,561","w":1432},"\u00ff":{"d":"373,-1321v-77,0,-148,-70,-148,-147v0,-78,70,-146,148,-146v78,0,145,68,145,146v0,77,-68,147,-145,147xm819,-1321v-77,0,-147,-70,-147,-147v0,-78,69,-146,147,-146v78,0,148,68,148,146v0,77,-71,147,-148,147xm523,406v-103,77,-295,48,-423,6r0,-222r113,1v4,97,42,150,137,151v43,0,77,-14,105,-36v31,-25,70,-108,96,-171r-463,-1077r-115,0r0,-121r613,0r0,121r-127,0r270,629r252,-629r-141,0r0,-121r399,0r0,121r-129,0r-471,1182v-32,78,-71,133,-116,166","w":1190},"\u0152":{"d":"506,-748v0,396,156,624,532,627r127,0r0,-1251r-127,0v-372,2,-532,234,-532,624xm2312,0r-1321,0v-256,-1,-424,-25,-579,-109v-201,-109,-326,-336,-326,-639v0,-302,126,-526,326,-636v155,-85,320,-108,579,-109r1303,0r0,352r-137,0r0,-215r-605,0r0,479r367,0r0,-190r137,0r0,516r-137,0r0,-190r-367,0r0,604r623,0r0,-215r137,0r0,352","w":2417},"\u0153":{"d":"684,-84v75,0,128,-32,158,-96v30,-64,45,-181,45,-352v0,-171,-15,-288,-45,-352v-30,-64,-83,-95,-158,-95v-75,0,-128,33,-159,97v-31,64,-46,181,-46,350v0,169,15,286,46,351v31,65,84,97,159,97xm1624,-600v0,-140,-14,-238,-40,-294v-26,-56,-70,-85,-132,-85v-60,0,-102,28,-129,82v-27,54,-40,166,-39,297r340,0xm684,-1092v182,2,308,57,401,156v92,-98,203,-156,379,-156v365,0,542,238,551,610r-731,1v-1,139,19,246,61,306v41,61,107,91,199,91v162,-1,253,-93,277,-238r166,0v-51,230,-220,351,-500,351v-185,-1,-310,-55,-402,-156v-90,100,-232,154,-417,156v-351,3,-584,-215,-584,-561v0,-356,237,-563,600,-560","w":2105},"\u0178":{"d":"352,0r0,-121r201,0r0,-497r-444,-754r-127,0r0,-121r716,0r0,121r-166,0r336,569r334,-569r-149,0r0,-121r428,0r0,121r-127,0r-414,702r0,549r201,0r0,121r-789,0xm508,-1630v-78,0,-148,-68,-148,-146v0,-77,70,-147,148,-147v77,0,145,70,145,147v0,77,-67,146,-145,146xm954,-1630v-77,0,-147,-68,-147,-146v0,-78,69,-147,147,-147v78,0,148,70,148,147v0,78,-70,146,-148,146","w":1462},"\u02c6":{"d":"391,-1638r242,0r256,376r-164,0r-213,-225r-213,225r-164,0","w":1024},"\u02dc":{"d":"354,-1440v-62,1,-91,60,-90,131r-110,0v-3,-179,48,-313,208,-313v100,0,160,62,228,104v30,18,56,29,80,29v62,-1,91,-60,90,-131r110,0v3,179,-48,313,-208,313v-99,0,-160,-61,-227,-103v-31,-19,-57,-30,-81,-30","w":1024},"\u2013":{"d":"110,-664r804,0r0,240r-804,0r0,-240","w":1024},"\u2014":{"d":"110,-664r1828,0r0,240r-1828,0r0,-240","w":2048},"\u2018":{"d":"594,-1384v-134,92,-192,224,-184,450r-269,0v15,-301,134,-466,348,-586","w":713},"\u2019":{"d":"98,-1042v135,-92,191,-223,183,-451r270,0v-15,304,-134,464,-348,586","w":713},"\u201a":{"d":"61,131v135,-92,191,-223,183,-450r270,0v-15,301,-134,465,-348,585","w":713},"\u201c":{"d":"1059,-1384v-134,92,-193,224,-185,450r-270,0v15,-302,136,-465,350,-586xm594,-1384v-134,92,-192,224,-184,450r-269,0v15,-301,134,-466,348,-586","w":1178},"\u201d":{"d":"563,-1042v135,-92,189,-224,182,-451r271,0v-15,304,-134,464,-348,586xm98,-1042v135,-92,191,-223,183,-451r270,0v-15,304,-134,464,-348,586","w":1178},"\u201e":{"d":"524,131v134,-92,193,-224,185,-450r270,0v-15,301,-134,465,-348,585xm61,131v135,-92,191,-223,183,-450r270,0v-15,301,-134,465,-348,585","w":1178},"\u2022":{"d":"322,-622v-35,-86,-35,-193,0,-279v35,-86,110,-159,195,-193v86,-35,192,-36,277,1v124,53,220,162,220,331v0,170,-99,281,-222,334v-85,37,-191,36,-277,0v-86,-36,-157,-108,-193,-194","w":1309},"\u2026":{"d":"1692,29v-102,0,-191,-89,-191,-191v0,-101,89,-190,191,-190v101,0,190,89,190,190v0,102,-89,191,-190,191xm1024,29v-101,0,-190,-89,-190,-191v0,-101,89,-190,190,-190v101,0,190,89,190,190v0,102,-89,191,-190,191xm356,29v-101,0,-190,-89,-190,-191v0,-101,89,-190,190,-190v102,0,191,89,191,190v0,102,-89,191,-191,191","w":2048},"\u2039":{"d":"627,-1069r0,147r-240,322r240,321r0,148r-469,-385r0,-168","w":819},"\u203a":{"d":"193,-1069r469,385r0,168r-469,385r0,-148r239,-321r-239,-322r0,-147","w":819},"\u20ac":{"d":"569,-729r4,80r338,0r-53,119r-276,0v13,148,44,259,94,332v50,73,119,110,207,110v75,0,137,-28,185,-86v48,-58,81,-142,99,-252r162,0v-46,276,-204,455,-506,455v-169,0,-309,-49,-421,-146v-112,-97,-185,-235,-220,-413r-190,0r53,-119r121,0v-4,-64,-4,-129,0,-193r-174,0r53,-119r137,0v35,-178,108,-316,220,-413v112,-97,252,-146,421,-146v190,0,322,56,477,129r0,367r-118,0v-27,-131,-64,-227,-112,-288v-48,-61,-112,-91,-189,-91v-87,0,-155,36,-204,109v-49,73,-82,184,-97,333r471,0r-54,119r-423,0"},"\u2122":{"d":"238,-1493r565,0r0,180r-76,0r0,-98r-131,0r0,416r86,0r0,80r-324,0r0,-80r86,0r0,-416r-131,0r0,98r-75,0r0,-180xm1143,-1493r166,293r166,-293r245,0r0,82r-86,0r0,416r86,0r0,80r-323,0r0,-80r86,0r0,-359r-162,285r-113,0r-161,-285r0,359r86,0r0,80r-256,0r0,-80r84,0r0,-416r-84,0r0,-82r266,0","w":2048}}});
