/*!
 * The following copyright notice may not be removed under any circumstances.
 * 
 * Copyright:
 * Copyright (c) 2003 by Bitstream, Inc. All Rights Reserved.
 * DejaVu changes are in public domain
 * 
 * 
 * Manufacturer:
 * DejaVu fonts team
 * 
 * Vendor URL:
 * http://dejavu.sourceforge.net
 * 
 * License information:
 * http://dejavu.sourceforge.net/wiki/index.php/License
 */
Cufon.registerFont({"w":1282,"face":{"font-family":"DejaVu Serif Condensed","font-weight":700,"font-style":"italic","font-stretch":"semi-condensed","units-per-em":"2048","panose-1":"2 6 8 6 5 3 5 11 2 4","ascent":"1556","descent":"-492","x-height":"29","bbox":"-306 -1922.62 2222 483","underline-thickness":"90","underline-position":"-85","slope":"-11","unicode-range":"U+0020-U+2122"},"glyphs":{" ":{"w":641},"!":{"d":"160,-27v-90,-133,35,-325,178,-325v93,0,154,90,137,190v-16,93,-104,191,-204,191v-47,0,-85,-18,-111,-56xm369,-1493r337,0r-254,842r-33,190r-125,0r33,-190","w":809},"\"":{"d":"389,-1493r0,555r-213,0r0,-555r213,0xm785,-1493r0,555r-213,0r0,-555r213,0","w":960},"#":{"d":"922,-872r-238,0r-63,274r238,0xm820,-1470r-86,385r237,0r87,-385r199,0r-87,385r249,0r0,213r-297,0r-62,274r256,0r0,215r-303,0r-86,383r-199,0r86,-383r-237,0r-87,383r-200,0r86,-383r-251,0r0,-215r295,0r63,-274r-254,0r0,-213r304,0r86,-385r201,0","w":1544},"$":{"d":"235,-350v-12,183,70,270,252,266r71,-405v-143,-37,-242,-87,-296,-150v-54,-63,-69,-149,-51,-258v39,-236,221,-386,487,-393r47,-269r109,0r-47,269v139,9,254,38,357,88r-48,272r-109,0v9,-153,-72,-245,-220,-247r-65,372v155,39,258,93,312,159v54,66,70,159,49,279v-42,246,-226,389,-507,396r-47,270r-109,0r47,-270v-150,-4,-275,-38,-391,-88r51,-291r108,0xm678,-1178v-96,12,-180,69,-193,156v-18,115,39,151,134,184xm596,-84v117,-13,195,-67,214,-172v9,-49,1,-90,-22,-122v-23,-32,-66,-58,-127,-79"},"%":{"d":"516,-1419v-39,0,-68,24,-96,69v-38,61,-101,373,-82,473v9,47,32,70,71,70v39,0,67,-25,95,-70v38,-61,102,-373,83,-473v-9,-46,-32,-69,-71,-69xm533,-1520v235,0,329,151,283,406v-23,131,-71,232,-144,302v-73,70,-166,105,-281,105v-234,0,-329,-153,-283,-407v23,-131,71,-232,144,-302v73,-70,167,-104,281,-104xm1354,-1520r155,0r-1112,1549r-154,0xm1359,-784v234,0,329,151,283,405v-24,131,-71,233,-144,303v-73,70,-166,105,-281,105v-234,0,-328,-154,-282,-408v24,-130,70,-231,143,-301v73,-70,167,-104,281,-104xm1342,-684v-39,0,-69,25,-96,70v-38,62,-102,373,-82,472v9,47,32,70,71,70v39,0,67,-25,95,-70v38,-62,104,-373,84,-472v-9,-46,-33,-70,-72,-70","w":1751},"&":{"d":"1465,-795v-53,188,-130,337,-244,459r148,215r153,0r-22,121r-431,0r-91,-131v-124,95,-267,160,-465,160v-180,0,-313,-43,-400,-128v-87,-85,-119,-204,-91,-352v46,-246,188,-376,406,-477v-38,-76,-65,-145,-49,-246v42,-273,347,-386,685,-334v58,9,123,20,195,35r-55,312r-116,0v8,-147,-36,-239,-175,-238v-130,1,-219,77,-229,201v-5,62,71,184,137,280r330,482v90,-93,149,-211,186,-359r21,-120r286,0r-21,120r-158,0xm344,-427v-3,172,112,303,280,298v118,-3,202,-44,286,-100r-405,-588v-89,100,-158,215,-161,390","w":1664},"'":{"d":"389,-1493r0,555r-213,0r0,-555r213,0","w":564},"(":{"d":"612,319v-188,-83,-318,-203,-390,-358v-72,-155,-89,-348,-48,-579v87,-485,344,-769,766,-938r-21,120v-106,64,-191,158,-255,284v-64,126,-115,304,-156,534v-40,229,-50,406,-30,532v20,126,71,221,155,285","w":872},")":{"d":"-70,319r21,-120v106,-64,191,-159,255,-285v64,-126,115,-303,155,-532v40,-230,51,-408,31,-534v-20,-126,-72,-220,-155,-284r21,-120v189,88,319,209,391,362v72,153,87,345,47,576v-85,479,-348,777,-766,937","w":872},"*":{"d":"923,-1212r-324,168r324,170r-88,155r-295,-239r24,389r-164,0r24,-389r-295,239r-89,-155r325,-170r-325,-168r89,-158r295,242r-24,-392r164,0r-24,392r295,-242","w":963},"+":{"d":"876,-1284r0,526r473,0r0,230r-473,0r0,526r-207,0r0,-526r-474,0r0,-230r474,0r0,-526r207,0","w":1544},",":{"d":"-9,197v138,-107,221,-233,258,-430r15,-86r256,0v-54,317,-209,517,-454,657","w":641},"-":{"d":"124,-684r565,0r-48,270r-565,0","w":765},".":{"d":"176,-27v-91,-134,36,-325,178,-325v94,0,155,90,138,190v-16,94,-104,191,-205,191v-47,0,-85,-18,-111,-56","w":641},"\/":{"d":"621,-1493r199,0r-768,1683r-199,0","w":673},"0":{"d":"527,-88v72,0,128,-36,167,-109v39,-73,85,-255,136,-548v51,-291,70,-473,56,-547v-14,-74,-57,-111,-129,-111v-72,0,-127,36,-167,109v-40,73,-85,256,-136,549v-51,293,-70,475,-56,548v14,73,57,109,129,109xm506,29v-179,0,-305,-66,-377,-199v-72,-133,-87,-325,-43,-575v44,-250,125,-442,244,-575v119,-133,268,-200,447,-200v179,0,305,67,377,200v72,133,86,325,42,575v-44,250,-125,442,-244,575v-119,133,-267,199,-446,199"},"1":{"d":"120,0r21,-121r252,0r211,-1208r-312,184r26,-149r377,-226r284,0r-245,1399r253,0r-21,121r-846,0"},"2":{"d":"307,-1124r-108,0r56,-322v139,-44,280,-74,448,-74v171,0,297,38,379,116v82,78,112,186,87,325v-17,99,-59,187,-125,265v-66,78,-185,171,-352,279r-422,273r636,0r31,-176r124,0r-77,438r-994,0r43,-244r226,-153v193,-130,325,-241,397,-332v72,-91,120,-198,141,-320v20,-115,13,-203,-19,-263v-32,-60,-89,-91,-171,-91v-71,0,-132,23,-183,71v-51,48,-90,117,-117,208"},"3":{"d":"625,-1403v-162,2,-248,109,-287,252r-109,0r53,-299v146,-41,292,-70,460,-70v162,0,281,32,356,96v75,64,103,157,82,277v-33,187,-161,296,-352,332v214,38,321,159,277,412v-50,291,-299,434,-656,432v-167,-1,-304,-33,-442,-80r58,-328r108,0v-19,182,53,291,224,291v201,0,311,-138,343,-324v36,-210,-46,-339,-240,-338r-59,0r21,-120v217,12,328,-86,360,-271v29,-167,-40,-264,-197,-262"},"4":{"d":"1043,0r-739,0r21,-121r200,0r47,-272r-561,0r21,-115r739,-1012r338,0r-174,998r230,0r-22,129r-231,0r-47,272r200,0xm595,-522r126,-725r-527,725r401,0"},"5":{"d":"550,-883v-115,0,-178,56,-244,129r-90,0r130,-739r827,0r-46,262r-719,0r-58,328v81,-60,179,-101,305,-103v318,-5,502,191,445,519v-54,311,-282,517,-637,516v-168,-1,-298,-32,-431,-82r57,-326r108,0v-26,188,33,290,206,291v88,0,159,-32,213,-98v54,-66,94,-166,117,-301v23,-133,19,-231,-11,-297v-30,-66,-87,-99,-172,-99"},"6":{"d":"1083,-1196v-5,-133,-75,-207,-210,-207v-107,0,-191,41,-253,122v-62,81,-109,213,-142,396v81,-62,177,-102,307,-104v279,-2,406,200,353,502v-54,308,-255,515,-598,516v-184,0,-313,-62,-386,-185v-73,-123,-88,-303,-46,-542v47,-271,136,-476,265,-614v164,-174,386,-240,674,-193v60,10,124,25,191,45r-46,264r-109,0xm540,-88v62,0,110,-30,147,-88v37,-58,68,-159,93,-303v25,-144,29,-245,13,-303v-16,-58,-55,-88,-117,-88v-62,0,-112,30,-148,88v-36,58,-67,159,-92,303v-25,144,-29,245,-13,303v16,58,55,88,117,88"},"7":{"d":"1216,-1239r-771,1239r-183,0r751,-1210r-663,0r-35,202r-123,0r84,-485r984,0"},"8":{"d":"865,-795v196,35,298,165,258,398v-48,281,-279,426,-619,426v-176,0,-303,-37,-384,-110v-81,-73,-110,-179,-86,-316v38,-219,178,-360,397,-398v-161,-43,-256,-139,-223,-335v43,-261,253,-392,567,-390v162,0,280,33,354,100v74,67,101,163,78,290v-33,185,-157,291,-342,335xm858,-1126v18,-105,20,-178,4,-218v-16,-40,-52,-59,-107,-59v-56,0,-99,19,-128,59v-29,40,-53,113,-72,218v-18,105,-19,177,-3,216v16,39,50,58,106,58v56,0,99,-19,128,-58v29,-39,54,-111,72,-216xm768,-414v21,-122,22,-206,2,-252v-20,-46,-63,-69,-132,-69v-69,0,-120,23,-156,69v-36,46,-65,130,-86,252v-22,123,-24,209,-4,256v20,47,64,70,133,70v68,0,121,-23,157,-70v36,-47,65,-133,86,-256"},"9":{"d":"744,-1403v-62,0,-112,29,-148,87v-36,58,-67,160,-92,304v-25,144,-30,246,-14,304v16,58,54,87,116,87v62,0,111,-29,148,-87v37,-58,68,-160,93,-304v25,-144,29,-246,13,-304v-16,-58,-54,-87,-116,-87xm199,-295v6,133,76,207,212,207v105,0,189,-40,251,-122v62,-82,110,-215,143,-398v-82,63,-177,104,-308,106v-278,2,-406,-200,-352,-502v55,-309,252,-514,597,-516v184,0,313,62,386,185v73,123,88,304,47,542v-47,271,-136,477,-265,615v-164,174,-387,239,-675,192v-60,-10,-124,-25,-191,-45r46,-264r109,0"},":":{"d":"252,-680v-89,-133,36,-324,178,-324v93,0,155,91,138,191v-16,93,-104,188,-205,188v-47,0,-86,-17,-111,-55xm138,-27v-90,-133,35,-325,178,-325v93,0,154,90,137,190v-16,93,-104,191,-204,191v-47,0,-85,-18,-111,-56","w":680},";":{"d":"279,-680v-90,-133,35,-324,177,-324v93,0,155,91,138,191v-16,93,-103,188,-204,188v-47,0,-86,-17,-111,-55xm-44,188v138,-105,221,-231,257,-428r16,-88r256,0v-56,315,-210,519,-454,658","w":680},"<":{"d":"1349,-979r-881,338r881,336r0,239r-1154,-464r0,-226r1154,-463r0,240","w":1544},"=":{"d":"195,-528r1154,0r0,227r-1154,0r0,-227xm195,-983r1154,0r0,227r-1154,0r0,-227","w":1544},">":{"d":"195,-979r0,-240r1154,463r0,226r-1154,464r0,-239r881,-336","w":1544},"?":{"d":"232,-27v-90,-134,36,-325,178,-325v94,0,156,90,139,190v-16,93,-105,191,-206,191v-47,0,-85,-18,-111,-56xm243,-1452v136,-39,265,-66,420,-68v285,-2,444,138,395,426v-46,270,-240,430,-534,453r-36,205r-125,0r52,-299v180,-59,274,-177,310,-381v31,-177,-11,-291,-166,-291v-66,0,-121,22,-165,66v-44,44,-75,109,-96,196r-108,0","w":1080},"@":{"d":"1046,-296v58,-67,86,-171,105,-284v26,-154,-20,-284,-152,-286v-59,0,-112,30,-159,88v-47,58,-79,136,-96,235v-17,99,-11,177,14,236v53,125,207,104,288,11xm1301,188v-148,95,-312,168,-524,168v-252,0,-422,-98,-536,-252v-115,-155,-166,-376,-119,-647v47,-269,175,-491,345,-647v163,-150,354,-250,638,-250v224,0,382,71,492,195v121,137,182,312,139,569v-32,184,-104,328,-217,430v-120,108,-263,158,-453,154r26,-148v-60,83,-148,147,-275,148v-239,2,-337,-186,-289,-451v25,-140,76,-251,155,-331v79,-80,176,-119,291,-119v115,0,192,59,224,147r22,-125r197,0r-130,742v191,-55,311,-230,348,-449v35,-214,-16,-357,-118,-473v-86,-98,-227,-162,-404,-162v-178,0,-314,57,-429,139v-188,134,-330,362,-376,631v-37,208,-8,401,74,531v91,144,235,241,452,241v175,0,312,-58,432,-135","w":1843},"A":{"d":"-145,0r21,-121r110,0r746,-1372r215,0r267,1372r127,0r-21,121r-629,0r21,-121r132,0r-58,-305r-505,0r-165,305r160,0r-21,121r-400,0xm347,-547r416,0r-107,-571","w":1430},"B":{"d":"-44,0r21,-121r172,0r219,-1251r-172,0r21,-121r796,0v164,0,281,31,353,92v72,61,97,154,75,277v-35,190,-179,285,-391,309v133,14,230,54,290,120v60,66,80,154,61,263v-26,148,-95,257,-208,327v-113,70,-276,105,-490,105r-747,0xm626,-870r118,0v206,0,319,-80,349,-254v32,-191,-67,-247,-261,-248r-118,0xm495,-121r129,0v237,-1,356,-104,392,-311v39,-223,-65,-318,-282,-318r-129,0","w":1557},"C":{"d":"1271,-1024v-2,-233,-87,-375,-307,-375v-131,0,-238,54,-320,161v-82,107,-143,271,-182,493v-39,222,-35,386,10,493v45,107,133,160,265,160v89,0,167,-28,233,-83v66,-55,123,-139,168,-251r180,0v-63,154,-147,268,-252,343v-105,75,-234,112,-389,112v-448,0,-686,-301,-600,-774v43,-238,141,-428,297,-567v208,-186,496,-255,818,-176v83,20,168,54,257,97r-64,367r-114,0","w":1467},"D":{"d":"495,-121r125,0v141,0,252,-50,335,-150v83,-100,143,-259,181,-477v38,-217,33,-374,-14,-474v-47,-100,-142,-150,-283,-150r-125,0xm-44,0r21,-121r172,0r219,-1251r-172,0r21,-121r689,0v471,-3,701,255,615,745v-42,242,-138,428,-289,556v-151,128,-346,192,-587,192r-689,0","w":1598},"E":{"d":"-44,0r21,-121r172,0r219,-1251r-172,0r21,-121r1208,0r-62,352r-124,0r38,-215r-566,0r-83,479r352,0r33,-190r123,0r-90,516r-124,0r34,-190r-352,0r-106,604r582,0r38,-215r123,0r-61,352r-1224,0","w":1404},"F":{"d":"-44,0r21,-121r172,0r219,-1251r-172,0r21,-121r1198,0r-62,352r-123,0r38,-215r-555,0r-84,479r342,0r33,-190r123,0r-90,516r-123,0r33,-190r-341,0r-109,620r212,0r-21,121r-732,0","w":1308},"G":{"d":"1317,-1024v-9,-251,-90,-375,-336,-375v-139,0,-251,52,-334,157v-83,105,-145,271,-184,497v-39,224,-37,389,7,495v44,106,131,158,263,158v112,-1,199,-30,272,-76r72,-410r-162,0r21,-120r484,0r-100,573v-192,90,-386,151,-637,154v-455,5,-692,-295,-606,-774v43,-240,141,-430,297,-568v156,-138,349,-207,580,-207v217,0,384,51,541,129r-64,367r-114,0","w":1574},"H":{"d":"-44,0r21,-121r172,0r219,-1251r-172,0r21,-121r691,0r-21,121r-173,0r-88,502r535,0r88,-502r-172,0r21,-121r691,0r-21,121r-173,0r-219,1251r173,0r-21,121r-691,0r21,-121r172,0r107,-612r-535,0r-107,612r173,0r-21,121r-691,0","w":1741},"I":{"d":"-44,0r21,-121r172,0r219,-1251r-172,0r21,-121r691,0r-21,121r-173,0r-219,1251r173,0r-21,121r-691,0","w":862},"J":{"d":"-291,358r41,-235r117,0v-13,114,10,182,111,182v59,0,104,-25,136,-75v32,-50,59,-142,83,-279r231,-1323r-195,0r21,-121r716,0r-21,121r-172,0r-233,1331v-56,307,-199,467,-543,467v-114,0,-207,-28,-292,-68","w":872},"K":{"d":"-44,0r21,-121r172,0r219,-1251r-172,0r21,-121r691,0r-21,121r-173,0r-95,545r665,-545r-144,0r21,-121r501,0r-21,121r-179,0r-563,461r518,790r132,0r-21,121r-455,0r-472,-725r-106,604r173,0r-21,121r-691,0","w":1602},"L":{"d":"-44,0r21,-121r172,0r219,-1251r-172,0r21,-121r691,0r-21,121r-173,0r-216,1235r529,0r42,-236r121,0r-65,373r-1169,0","w":1296},"M":{"d":"-53,0r21,-121r171,0r219,-1251r-171,0r21,-121r554,0r216,958r553,-958r553,0r-21,121r-172,0r-218,1251r171,0r-21,121r-691,0r21,-121r171,0r200,-1139r-599,1041r-228,0r-233,-1041r-199,1139r171,0r-21,121r-468,0","w":2040},"N":{"d":"-50,0r22,-121r171,0r219,-1251r-172,0r22,-121r420,0r626,1057r164,-936r-171,0r21,-121r470,0r-22,121r-171,0r-240,1372r-236,0r-635,-1079r-168,958r171,0r-21,121r-470,0","w":1684},"O":{"d":"688,-92v114,0,208,-54,283,-161v75,-107,131,-271,170,-492v39,-221,40,-386,3,-493v-37,-107,-113,-161,-228,-161v-114,0,-209,55,-284,163v-75,108,-131,272,-169,491v-38,219,-39,383,-2,491v37,108,113,162,227,162xm666,29v-450,0,-675,-296,-588,-774v44,-241,139,-431,292,-569v153,-138,342,-206,567,-206v451,0,676,296,589,775v-44,241,-139,431,-292,568v-153,137,-342,206,-568,206","w":1605},"P":{"d":"-44,0r21,-121r172,0r219,-1251r-172,0r21,-121r765,0v278,-5,459,156,412,436v-43,258,-267,442,-565,439r-247,0r-87,497r217,0r-21,121r-735,0xm603,-739r101,0v78,0,145,-29,202,-87v57,-58,92,-135,110,-231v34,-181,-38,-316,-201,-315r-101,0","w":1386},"Q":{"d":"970,-1520v377,0,607,207,607,579v0,305,-103,546,-257,712v-122,132,-276,214,-464,245v25,38,59,65,102,82v99,39,189,58,270,58r173,0r-43,246r-154,0v-151,0,-274,-38,-367,-115v-67,-55,-114,-141,-143,-258v-375,-3,-599,-206,-602,-578v0,-61,6,-126,18,-196v42,-241,139,-431,292,-569v153,-138,343,-206,568,-206xm720,-92v115,0,209,-54,284,-161v75,-107,131,-271,170,-492v19,-113,29,-212,29,-295v0,-79,-9,-145,-27,-198v-37,-107,-112,-161,-227,-161v-114,0,-208,55,-283,163v-75,108,-133,272,-171,491v-32,182,-48,343,-2,491v34,109,113,162,227,162","w":1605},"R":{"d":"975,-729v113,20,165,83,197,192r123,416r138,0r-21,121r-442,0r-135,-451v-25,-93,-51,-153,-75,-179v-32,-36,-97,-41,-169,-38r-96,547r173,0r-21,121r-691,0r21,-121r172,0r219,-1251r-172,0r21,-121r767,0v156,0,270,35,343,105v73,70,98,168,75,296v-39,219,-191,331,-427,363xm612,-788r118,0v184,-2,283,-123,313,-293v32,-184,-41,-291,-211,-291r-118,0","w":1531},"S":{"d":"1084,-1102v0,-211,-100,-296,-314,-297v-171,0,-280,64,-305,205v-11,62,-1,109,23,142v43,60,284,121,403,155v119,35,200,89,243,162v43,73,54,174,32,303v-53,303,-275,462,-635,461v-197,-1,-355,-40,-507,-101r62,-354r115,0v-5,227,107,334,334,334v182,1,300,-78,325,-232v11,-60,2,-106,-24,-140v-50,-65,-266,-113,-381,-148v-125,-37,-207,-90,-249,-156v-42,-66,-52,-160,-31,-283v48,-285,260,-470,587,-469v183,1,343,36,494,88r-58,330r-114,0","w":1331},"T":{"d":"203,0r21,-121r179,0r216,-1235r-368,0r-42,236r-123,0r65,-373r1332,0r-65,373r-121,0r41,-236r-371,0r-216,1235r179,0r-21,121r-706,0","w":1371},"U":{"d":"346,-1372r-171,0r21,-121r691,0r-21,121r-172,0r-130,747v-33,186,-29,317,10,391v39,74,121,111,248,111v124,0,219,-38,284,-113v65,-75,113,-204,145,-389r131,-747r-171,0r21,-121r468,0r-21,121r-172,0r-134,768v-40,228,-113,391,-219,488v-106,97,-264,145,-473,145v-423,0,-548,-181,-469,-635","w":1607},"V":{"d":"1587,-1493r-21,121r-113,0r-747,1372r-214,0r-266,-1372r-127,0r21,-121r630,0r-21,121r-131,0r190,989r538,-989r-160,0r21,-121r400,0","w":1430},"W":{"d":"1440,0r-232,0r-114,-1087r-495,1087r-232,0r-143,-1372r-131,0r21,-121r638,0r-22,121r-144,0r97,917r471,-1038r255,0r111,1055r425,-934r-160,0r21,-121r416,0r-21,121r-138,0","w":2070},"X":{"d":"595,-575r-360,454r166,0r-21,121r-477,0r21,-121r165,0r454,-571r-301,-680r-124,0r22,-121r667,0r-21,121r-147,0r186,420r331,-420r-156,0r21,-121r468,0r-21,121r-166,0r-426,536r316,715r127,0r-21,121r-671,0r21,-121r150,0","w":1430},"Y":{"d":"186,0r21,-121r181,0r87,-497r-267,-754r-115,0r21,-121r645,0r-21,121r-150,0r203,569r400,-569r-134,0r21,-121r385,0r-21,121r-114,0r-495,702r-96,549r180,0r-21,121r-710,0","w":1315},"Z":{"d":"-62,0r24,-141r1015,-1215r-644,0r-39,223r-123,0r63,-360r1166,0r-24,141r-1006,1215r679,0r37,-209r123,0r-61,346r-1210,0","w":1345},"[":{"d":"390,-1556r510,0r-21,120r-191,0r-278,1586r192,0r-21,120r-510,0","w":872},"\\":{"d":"346,-1493r180,1683r-200,0r-179,-1683r199,0","w":673},"]":{"d":"801,-1556r-319,1826r-511,0r21,-120r191,0r278,-1586r-192,0r21,-120r511,0","w":872},"^":{"d":"876,-1493r482,557r-192,0r-394,-315r-394,315r-192,0r489,-557r201,0","w":1544},"_":{"d":"922,293r0,190r-922,0r0,-190r922,0","w":921},"`":{"d":"488,-1638r165,376r-147,0r-269,-376r251,0","w":921},"a":{"d":"757,-876v-2,-40,-20,-60,-54,-60v-81,0,-160,53,-239,160v-36,49,-69,156,-98,321v-21,123,-24,209,-9,257v15,48,52,71,110,71v55,0,100,-28,135,-83v35,-55,64,-145,85,-269xm1063,-1031r-158,910r120,-2r-21,123r-400,0r23,-135v-66,109,-157,164,-274,164v-245,0,-340,-202,-289,-477v27,-148,96,-288,211,-416v136,-152,296,-228,478,-228v180,0,283,20,310,61","w":1194},"b":{"d":"637,29v-139,0,-215,-56,-249,-164r-24,135r-318,0r251,-1436r-137,0r21,-120r455,0r-110,628v67,-100,155,-162,307,-164v230,-4,361,159,357,398v-4,241,-84,449,-205,573v-97,99,-212,150,-348,150xm841,-761v0,-109,-35,-175,-132,-175v-64,0,-113,29,-153,83v-49,66,-87,239,-108,374v-10,67,-17,123,-17,170v-2,109,36,183,136,182v65,0,116,-29,153,-88v37,-59,69,-164,96,-317v17,-95,25,-171,25,-229","w":1288},"c":{"d":"409,-314v0,143,48,230,178,230v64,0,119,-21,165,-64v46,-43,81,-104,103,-184r150,0v-44,121,-106,212,-187,272v-81,60,-183,89,-304,89v-283,2,-452,-141,-452,-417v0,-245,90,-434,224,-556v150,-137,369,-177,609,-127v65,14,131,35,196,63r-51,295r-101,0v13,-157,-35,-266,-184,-266v-89,0,-158,33,-207,100v-49,67,-88,182,-117,347v-15,86,-22,159,-22,218","w":1122},"d":{"d":"366,-304v0,109,35,178,133,177v63,0,113,-28,152,-83v39,-55,68,-145,90,-269v14,-79,36,-197,36,-274v0,-111,-37,-184,-137,-183v-66,0,-117,30,-154,88v-37,58,-68,163,-95,316v-17,94,-25,170,-25,228xm570,-1092v138,0,216,56,250,164r89,-508r-137,0r21,-120r455,0r-272,1556r-318,0r23,-135v-67,100,-156,162,-308,164v-229,4,-357,-160,-353,-398v4,-242,84,-451,204,-574v96,-99,210,-149,346,-149","w":1288},"e":{"d":"430,-519v221,6,344,-98,344,-313v0,-98,-37,-147,-112,-147v-57,0,-102,29,-136,89v-34,60,-65,184,-96,371xm491,29v-275,2,-430,-139,-430,-408v0,-246,89,-444,223,-565v109,-98,241,-148,399,-148v115,0,212,24,291,74v94,60,136,144,114,266v-38,216,-264,333,-679,352v-4,23,-6,58,-6,105v1,141,63,211,186,211v158,0,248,-103,290,-238r150,0v-90,227,-239,348,-538,351","w":1172},"f":{"d":"915,-1290v8,-93,-22,-156,-110,-154v-48,0,-85,21,-115,58v-47,59,-70,215,-89,323r241,0r-21,121r-241,0r-170,971v-24,139,-73,229,-148,269v-116,61,-240,91,-371,91r21,-112v48,0,86,-19,114,-57v28,-38,50,-101,65,-187r171,-975r-143,0r22,-121r142,0r23,-133v40,-232,196,-360,464,-360v106,0,201,14,285,38r-39,228r-101,0","w":792},"g":{"d":"889,-876v-3,-40,-24,-60,-63,-60v-109,0,-198,53,-266,160v-43,67,-78,174,-103,321v-21,123,-23,209,-5,257v18,48,61,71,126,71v63,0,114,-28,152,-83v38,-55,68,-145,89,-269xm188,135v-4,147,70,207,218,207v99,0,172,-26,222,-78v50,-52,87,-145,110,-278r21,-121v-73,109,-177,164,-312,164v-270,0,-400,-188,-348,-477v32,-181,124,-337,276,-468v136,-117,303,-176,504,-176v161,0,277,32,349,96r-172,982v-29,164,-97,279,-204,346v-181,113,-376,147,-617,106v-63,-11,-128,-27,-193,-49r44,-254r102,0","w":1288},"h":{"d":"839,-804v1,-82,-30,-121,-109,-122v-65,0,-117,26,-156,78v-39,52,-68,136,-88,250r-105,598r-318,0r251,-1436r-142,0r21,-120r461,0r-113,643v89,-111,172,-177,349,-179v177,-2,267,100,266,281v0,41,-4,86,-13,135r-97,555r137,0r-21,121r-456,0r120,-686v9,-47,13,-86,13,-118","w":1340},"i":{"d":"412,-1174v-95,0,-158,-85,-140,-190v17,-96,103,-191,207,-192v93,-1,155,87,137,192v-16,94,-103,190,-204,190xm403,-121r136,0r-21,121r-455,0r165,-942r-136,0r21,-121r454,0","w":700},"j":{"d":"443,-1174v-95,0,-158,-85,-140,-190v17,-97,102,-192,207,-192v92,0,155,88,137,192v-17,93,-103,190,-204,190xm-169,245v-1,67,27,96,92,97v44,0,77,-16,100,-47v23,-31,41,-88,56,-170r187,-1067r-136,0r21,-121r454,0r-207,1188v-39,221,-204,331,-469,330v-85,-1,-163,-17,-235,-39r40,-226r101,1v-3,20,-4,38,-4,54","w":666},"k":{"d":"381,0r-318,0r251,-1436r-136,0r21,-120r455,0r-175,999r453,-385r-114,0r21,-121r259,0r-21,121r-289,246r302,575r104,0r-22,121r-351,0r-263,-500r-105,88","w":1277},"l":{"d":"403,-121r136,0r-21,121r-455,0r251,-1436r-136,0r21,-120r455,0","w":700},"m":{"d":"912,-1092v161,0,238,67,267,203v57,-71,114,-123,171,-155v57,-32,120,-48,189,-48v181,0,268,94,268,277v0,42,-4,88,-13,139r-97,555r137,0r-22,121r-455,0r109,-623v15,-87,23,-153,23,-198v0,-76,-29,-105,-100,-105v-56,0,-103,24,-143,72v-40,48,-68,118,-84,207r-113,647r-318,0r109,-623v15,-86,22,-151,22,-196v0,-78,-28,-107,-99,-107v-57,0,-105,24,-145,72v-40,48,-67,118,-83,207r-113,647r-319,0r165,-942r-136,0r21,-121r455,0r-26,150v84,-106,168,-179,330,-179","w":1950},"n":{"d":"879,-804v2,-83,-29,-121,-109,-122v-64,0,-115,26,-154,78v-39,52,-69,136,-89,250r-105,598r-319,0r165,-942r-136,0r21,-121r455,0r-26,150v90,-112,171,-177,349,-179v177,-2,267,100,266,281v0,41,-4,86,-13,135r-97,555r136,0r-21,121r-455,0r120,-686v8,-47,12,-86,12,-118","w":1340},"o":{"d":"403,-270v0,114,36,187,134,186v67,0,120,-32,159,-96v39,-64,72,-181,102,-352v19,-111,30,-200,30,-266v0,-109,-35,-182,-134,-181v-68,0,-121,33,-160,97v-39,64,-73,181,-103,350v-19,109,-28,197,-28,262xm714,-1092v281,0,455,146,455,421v0,245,-90,428,-229,551v-113,100,-254,149,-422,149v-280,0,-455,-148,-455,-423v0,-244,91,-429,229,-550v113,-99,253,-148,422,-148","w":1229},"p":{"d":"916,-761v0,-109,-35,-175,-132,-175v-63,0,-114,28,-152,83v-38,55,-68,145,-90,269v-14,79,-36,198,-36,275v0,110,36,183,137,182v65,0,116,-29,153,-88v37,-59,69,-164,96,-317v16,-95,24,-171,24,-229xm712,29v-138,0,-215,-56,-249,-164r-98,561r-319,0r240,-1368r-137,0r21,-121r455,0r-23,135v67,-100,155,-162,307,-164v229,-4,360,159,356,398v-4,242,-84,449,-205,573v-96,99,-211,150,-348,150","w":1288},"q":{"d":"1226,-996r-227,1296r145,2r-22,122r-464,2r98,-561v-73,109,-177,164,-312,164v-270,0,-399,-188,-347,-477v33,-181,123,-337,275,-468v136,-117,304,-176,504,-176v161,0,278,32,350,96xm886,-876v-3,-40,-24,-60,-63,-60v-109,0,-198,53,-266,160v-43,67,-77,174,-103,321v-21,123,-23,209,-4,257v19,48,60,71,125,71v63,0,113,-28,151,-83v38,-55,69,-145,91,-269","w":1288},"r":{"d":"575,-874v84,-142,202,-238,417,-214v26,3,57,8,91,13r-56,317r-102,0v14,-98,-21,-168,-116,-168v-69,0,-131,34,-183,102v-52,68,-88,162,-109,283r-95,541r-319,0r165,-942r-146,0r22,-121r464,0","w":971},"s":{"d":"111,-677v0,-282,191,-415,479,-415v131,0,267,21,410,64r-48,268r-102,0v18,-141,-52,-219,-200,-219v-136,0,-212,45,-228,135v-14,80,17,110,108,137r124,37v119,35,195,76,228,120v47,63,59,135,43,228v-46,253,-226,351,-536,351v-118,0,-248,-20,-390,-60r51,-297r102,0v-11,151,64,246,212,244v159,-3,237,-55,239,-192v0,-18,-8,-37,-23,-57v-31,-42,-167,-71,-238,-93v-94,-29,-156,-63,-186,-106v-30,-43,-45,-92,-45,-145","w":1037},"t":{"d":"769,-260v-52,206,-127,289,-373,289v-131,0,-217,-23,-256,-69v-44,-51,-42,-159,-26,-251r114,-651r-138,0r21,-121r138,0r58,-330r319,0r-58,330r265,0r-21,121r-265,0r-114,651v-11,59,-16,104,-16,134v-1,55,20,73,71,73v39,0,70,-14,94,-43v24,-29,41,-73,52,-133r135,0","w":851},"u":{"d":"463,-250v0,83,30,113,107,113v64,0,115,-26,154,-79v39,-53,69,-136,89,-251r104,-596r320,0r-165,942r136,0r-21,121r-456,0r26,-150v-89,112,-170,177,-348,179v-178,2,-267,-100,-266,-281v0,-41,4,-86,13,-135r97,-555r-136,0r21,-121r455,0r-108,621v-15,83,-22,147,-22,192","w":1340},"v":{"d":"574,0r-256,0r-174,-942r-105,0r21,-121r389,0r147,793v15,0,73,-70,168,-214v89,-135,152,-289,191,-458r-106,0r22,-123r214,2v1,166,-58,360,-179,583v-115,211,-225,371,-332,480","w":1071},"w":{"d":"1185,-300v5,-5,52,-65,135,-182v87,-121,145,-275,179,-460r-125,2r21,-123r245,0v-34,255,-89,447,-164,578v-117,203,-232,365,-347,485r-219,0r-86,-666r-321,666r-218,0r-125,-942r-104,0r21,-121r392,0r92,696r336,-696r190,0","w":1586},"x":{"d":"673,-678r314,-385r128,0r-409,500r207,442r127,0r-21,121r-408,0r-187,-401r-330,401r-128,0r422,-518r-200,-424r-107,0r21,-121r390,0","w":1098},"y":{"d":"102,235v-2,90,56,110,143,110v67,0,134,-24,202,-72r-256,-1215r-104,0r21,-121r391,0r215,1028v168,-282,228,-474,310,-905r-128,-1r21,-121r258,-1v-15,85,-33,183,-55,293v-53,271,-113,469,-180,594v-175,327,-334,520,-475,580v-80,34,-177,51,-292,51v-57,0,-126,-14,-208,-43r39,-222r101,1v-2,16,-3,31,-3,44","w":1071},"z":{"d":"812,-1005v58,0,145,-41,176,-60r90,2r-21,119r-631,749v21,8,39,18,56,29v75,46,138,68,186,68v72,0,162,-48,270,-145r-28,158v-107,112,-208,168,-304,168v-49,0,-112,-25,-189,-68v-86,-49,-145,-73,-179,-73v-58,0,-145,41,-177,60r-89,-2r21,-121r628,-748v-19,-7,-37,-17,-54,-28v-75,-46,-138,-68,-185,-68v-72,0,-162,48,-270,145r27,-158v107,-112,208,-168,304,-168v50,0,113,25,189,68v86,49,146,73,180,73","w":1046},"{":{"d":"876,213r-22,121v-132,1,-362,-2,-414,-24v-71,-30,-126,-80,-126,-178v0,-116,43,-298,62,-417v31,-196,2,-262,-177,-266r-55,0r21,-121v103,4,195,-10,241,-58v38,-39,67,-107,84,-208r44,-250v23,-127,35,-189,94,-258v35,-42,82,-67,133,-86v61,-22,287,-25,424,-24r-21,120r-93,0v-67,0,-115,16,-145,47v-30,31,-53,93,-70,183v-31,161,-51,403,-131,496v-37,45,-97,78,-178,98v152,51,187,110,149,325r-48,271v-25,169,-14,225,135,229r93,0","w":1185},"|":{"d":"431,-1565r0,2048r-193,0r0,-2048r193,0","w":670},"}":{"d":"23,213r91,0v67,0,116,-16,146,-47v30,-31,52,-92,69,-182v31,-161,51,-402,131,-495v37,-45,97,-78,180,-101v-153,-45,-187,-113,-150,-324r47,-270v27,-170,14,-226,-134,-230r-91,0r21,-120v132,-1,361,2,413,24v71,30,126,81,126,178v0,114,-43,297,-62,416v-31,196,-3,262,175,266r56,0r-21,121v-103,-4,-194,9,-240,57v-37,39,-68,108,-85,209r-43,250v-24,126,-36,190,-94,258v-36,43,-83,68,-134,87v-60,22,-285,25,-422,24","w":1185},"~":{"d":"1349,-831r0,206v-56,57,-111,101,-168,127v-142,65,-238,51,-397,-17v-90,-39,-223,-83,-283,-83v-46,0,-94,12,-144,36v-50,24,-104,60,-162,109r0,-206v58,-58,114,-101,170,-127v140,-64,238,-52,395,16v91,40,222,84,283,84v46,0,95,-12,145,-36v50,-24,104,-60,161,-109","w":1544},"\u00a0":{"w":641},"\u00a1":{"d":"648,-1464v90,134,-34,323,-177,323v-94,0,-154,-87,-137,-188v16,-93,103,-191,203,-191v47,0,85,18,111,56xm440,0r-337,0r252,-842r34,-190r125,0r-33,190","w":809},"\u00a2":{"d":"589,-94r153,-875v-62,17,-112,58,-150,125v-38,67,-69,171,-94,312v-25,141,-30,244,-16,311v14,67,50,109,107,127xm697,-88v126,-26,194,-116,229,-244r149,0v-67,190,-189,323,-397,355r-49,276r-109,0r48,-270v-327,-5,-484,-209,-424,-561v56,-327,266,-549,620,-560r46,-264r109,0r-47,269v104,11,185,41,290,79r-52,295r-101,0v10,-157,-29,-248,-156,-266"},"\u00a3":{"d":"1200,-1202r-108,0v15,-120,-27,-204,-135,-205v-70,0,-125,25,-164,75v-39,50,-69,132,-89,249r-47,268r317,0r-22,121r-316,0r-98,557r378,0r40,-228r123,0r-64,365r-1016,0r22,-121r173,0r100,-573r-173,0r21,-121r174,0r48,-277v51,-286,229,-428,562,-428v108,0,210,17,323,35"},"\u00a4":{"d":"391,-641v0,117,84,219,197,219v111,0,197,-104,197,-219v0,-115,-86,-219,-197,-219v-111,0,-197,104,-197,219xm588,-213v-79,0,-141,-23,-196,-55r-188,207r-136,-154r188,-209v-34,-59,-54,-127,-54,-217v0,-88,21,-159,54,-217r-188,-205r138,-158r186,211v53,-36,113,-59,196,-59v80,0,140,25,199,59r184,-211r137,154r-188,205v31,65,53,135,53,221v0,90,-19,156,-53,215r188,211r-140,154r-187,-211v-50,37,-111,59,-193,59","w":1172},"\u00a5":{"d":"163,0r21,-121r171,0r61,-346r-363,0r20,-117r363,0r10,-59r-31,-135r-308,0r21,-117r257,0r-117,-477r-123,0r21,-121r624,0r-21,121r-153,0r136,551r327,-551r-136,0r21,-121r392,0r-21,121r-121,0r-283,477r263,0r-20,117r-315,0r-68,116r-14,78r363,0r-21,117r-362,0r-61,346r171,0r-21,121r-683,0"},"\u00a6":{"d":"431,-1432r0,758r-193,0r0,-758r193,0xm431,-408r0,758r-193,0r0,-758r193,0","w":670},"\u00a7":{"d":"146,-90v-10,125,42,171,167,172v105,0,172,-53,187,-143v5,-31,2,-58,-10,-80v-28,-48,-143,-113,-201,-152v-100,-68,-168,-127,-201,-183v-69,-118,-23,-291,54,-374v44,-47,101,-88,175,-117v-81,-56,-122,-130,-100,-264v31,-186,198,-291,424,-289v109,1,208,20,308,45r-42,240r-107,0v14,-117,-42,-172,-156,-172v-99,0,-165,54,-179,141v-5,31,-3,58,10,80v29,49,141,113,200,152v101,67,169,126,202,182v70,119,22,294,-54,377v-44,48,-101,88,-174,117v80,58,120,129,98,264v-31,189,-198,291,-427,289v-117,-1,-218,-19,-322,-45r42,-240r106,0xm397,-901v-53,39,-94,86,-108,156v-7,41,0,78,21,112v43,70,177,143,257,197v53,-40,97,-87,110,-156v7,-40,0,-77,-22,-111v-44,-69,-178,-143,-258,-198","w":963},"\u00a8":{"d":"323,-1365v-71,-104,28,-248,137,-249v71,-1,119,69,105,146v-13,70,-78,147,-155,147v-36,0,-66,-14,-87,-44xm726,-1365v-71,-103,26,-248,135,-249v71,-1,121,69,108,146v-12,70,-82,148,-158,147v-36,0,-65,-14,-85,-44","w":921},"\u00a9":{"d":"666,-1430v155,-72,355,-72,510,0v157,73,302,235,364,404v63,171,64,397,0,568v-63,169,-207,330,-364,403v-155,72,-355,72,-510,0v-157,-73,-299,-234,-362,-403v-64,-171,-63,-397,0,-568v62,-169,205,-331,362,-404xm1124,-1288v-123,-56,-282,-57,-404,0v-124,58,-239,186,-289,320v-51,135,-51,317,0,452v50,133,163,262,288,319v122,56,284,57,406,1v123,-56,237,-187,287,-320v51,-135,51,-317,0,-452v-50,-134,-164,-263,-288,-320xm953,-399v106,0,151,-81,175,-181r124,0v-30,176,-132,278,-329,279v-234,1,-378,-194,-378,-440v0,-254,144,-445,387,-443v117,1,205,32,294,76r0,223r-95,0v-12,-110,-68,-200,-178,-200v-62,0,-109,31,-147,91v-70,110,-70,394,0,504v37,59,84,91,147,91","w":1843},"\u00aa":{"d":"295,-1106v-21,111,-15,273,103,249v107,-21,178,-153,197,-279v7,-43,20,-100,20,-145v0,-83,-36,-154,-119,-136v-45,9,-86,43,-123,99v-37,56,-62,127,-78,212xm479,-1520v86,-19,147,20,168,88r16,-89r145,0r-104,592r104,0r-27,150r-248,0r23,-129v-59,94,-135,175,-271,175v-114,0,-170,-93,-167,-219v4,-171,58,-322,137,-422v62,-79,137,-128,224,-146xm36,-639r718,0r-23,135r-719,0","w":897},"\u00ab":{"d":"1060,-1069r-25,147r-272,322r159,321r-26,148r-354,-385r29,-168xm646,-1069r-25,147r-273,322r160,321r-26,148r-354,-385r29,-168","w":1152},"\u00ac":{"d":"195,-903r1154,0r0,616r-206,0r0,-389r-948,0r0,-227","w":1544},"\u00ad":{"d":"124,-684r565,0r-48,270r-565,0","w":765},"\u00ae":{"d":"1224,-954v0,121,-63,189,-175,200v51,17,85,55,107,105r90,215r54,0r0,82r-201,0r-105,-254v-19,-45,-38,-76,-56,-90v-21,-18,-57,-23,-99,-21r0,283r77,0r0,82r-332,0r0,-82r78,0r0,-643r-78,0r0,-82r408,0v137,-2,232,74,232,205xm1047,-938v0,-91,-56,-140,-148,-139r-60,0r0,278r60,0v92,1,148,-48,148,-139xm666,-1430v155,-72,355,-72,510,0v157,73,302,235,364,404v63,171,64,397,0,568v-63,169,-207,330,-364,403v-155,72,-355,72,-510,0v-157,-73,-299,-234,-362,-403v-64,-171,-63,-397,0,-568v62,-169,205,-331,362,-404xm1124,-1288v-123,-56,-282,-57,-404,0v-124,58,-239,186,-289,320v-51,135,-51,317,0,452v50,133,163,262,288,319v122,56,284,57,406,1v123,-56,237,-187,287,-320v51,-135,51,-317,0,-452v-50,-134,-164,-263,-288,-320","w":1843},"\u00af":{"d":"320,-1548r566,0r-32,188r-567,0","w":921},"\u00b0":{"d":"160,-1200v0,-216,199,-407,415,-308v107,49,185,155,185,308v0,152,-78,258,-184,306v-216,97,-416,-88,-416,-306xm616,-1200v0,-90,-69,-172,-155,-172v-87,0,-155,82,-155,172v0,91,66,170,155,170v87,0,155,-81,155,-170","w":921},"\u00b1":{"d":"195,-227r1154,0r0,227r-1154,0r0,-227xm876,-1284r0,358r473,0r0,228r-473,0r0,358r-207,0r0,-358r-474,0r0,-228r474,0r0,-358r207,0","w":1544},"\u00b2":{"d":"370,-1436v-87,0,-149,73,-169,152r-85,0r35,-195v148,-48,415,-67,521,23v52,44,72,102,59,178v-9,55,-35,103,-75,146v-87,93,-324,213,-461,294r373,0r16,-96r90,0r-43,250r-627,0r24,-133r130,-84v127,-82,210,-146,248,-193v38,-47,62,-101,73,-163v19,-104,-16,-179,-109,-179","w":807},"\u00b3":{"d":"135,-911v-9,103,29,159,127,159v114,-1,175,-66,193,-168v19,-109,-35,-168,-141,-167r-37,0r15,-84v113,6,186,-39,202,-132v15,-86,-28,-134,-112,-133v-87,1,-142,61,-160,137r-86,1r32,-183v92,-21,180,-39,277,-39v108,0,187,17,237,52v50,35,69,87,57,153v-19,105,-104,163,-218,182v125,19,205,81,181,220v-31,177,-185,246,-408,245v-105,0,-196,-16,-280,-43r35,-200r86,0","w":807},"\u00b4":{"d":"717,-1638r251,0r-402,376r-148,0","w":921},"\u00b5":{"d":"508,-251v0,83,31,114,107,114v64,0,116,-26,155,-79v39,-53,68,-137,88,-251r104,-596r318,0r-164,942r136,0r-21,121r-455,0r22,-125v-43,55,-83,95,-120,119v-37,24,-77,35,-121,35v-46,-1,-74,-17,-104,-41r-77,438r-318,0r239,-1368r-137,0r22,-121r455,0r-104,596v-17,95,-25,167,-25,216","w":1349},"\u00b6":{"d":"538,-649v-237,-18,-375,-162,-332,-422v39,-238,234,-422,503,-422r499,0r-22,125r-102,0r-273,1565r-137,0r274,-1565r-147,0r-274,1565r-137,0","w":1172},"\u00b7":{"d":"176,-578v-91,-133,35,-323,178,-323v94,0,155,90,139,190v-15,93,-106,189,-206,189v-47,0,-85,-18,-111,-56","w":641},"\u00b8":{"d":"233,219v61,30,168,54,229,11v34,-25,52,-72,36,-129v-6,-22,-20,-56,-43,-101r115,0v46,70,83,127,69,225v-17,118,-115,177,-256,176v-64,0,-123,-10,-177,-26","w":921},"\u00b9":{"d":"73,-684r16,-94r148,0r107,-613r-182,101r18,-105r222,-125r204,0r-130,742r148,0r-17,94r-534,0","w":807},"\u00ba":{"d":"36,-639r719,0r-24,135r-718,0xm428,-823v45,0,82,-24,110,-71v28,-47,53,-125,72,-234v19,-109,22,-188,10,-235v-12,-47,-40,-71,-85,-71v-47,0,-84,23,-112,70v-28,47,-52,125,-71,236v-19,110,-22,188,-11,235v11,47,40,70,87,70xm412,-737v-244,0,-380,-140,-337,-391v39,-232,213,-392,475,-392v244,0,380,141,337,392v-39,232,-212,391,-475,391","w":921},"\u00bb":{"d":"256,-1069r354,385r-29,168r-489,385r26,-148r271,-321r-159,-322xm670,-1069r354,385r-29,168r-489,385r26,-148r272,-321r-160,-322","w":1152},"\u00bc":{"d":"73,-684r16,-94r148,0r107,-613r-182,101r18,-105r222,-125r204,0r-130,742r148,0r-17,94r-534,0xm1649,-16r-466,0r17,-94r112,0r21,-121r-326,0r15,-88r434,-533r227,0r-92,527r132,0r-16,94r-133,0r-21,121r113,0xm1350,-325r58,-334r-274,334r216,0xm1440,-1520r153,0r-1111,1549r-153,0","w":1922},"\u00bd":{"d":"1368,-768v-87,0,-149,73,-169,152r-85,0r35,-195v148,-48,415,-67,521,23v52,44,72,102,59,178v-9,55,-35,103,-75,146v-87,93,-324,213,-461,294r373,0r16,-96r90,0r-43,250r-627,0r24,-133r130,-84v127,-82,210,-146,248,-193v38,-47,62,-101,73,-163v19,-104,-16,-179,-109,-179xm73,-684r16,-94r148,0r107,-613r-182,101r18,-105r222,-125r204,0r-130,742r148,0r-17,94r-534,0xm1440,-1520r153,0r-1111,1549r-153,0","w":1922},"\u00be":{"d":"135,-911v-9,103,29,159,127,159v114,-1,175,-66,193,-168v19,-109,-35,-168,-141,-167r-37,0r15,-84v113,6,186,-39,202,-132v15,-86,-28,-134,-112,-133v-87,1,-142,61,-160,137r-86,1r32,-183v92,-21,180,-39,277,-39v108,0,187,17,237,52v50,35,69,87,57,153v-19,105,-104,163,-218,182v125,19,205,81,181,220v-31,177,-185,246,-408,245v-105,0,-196,-16,-280,-43r35,-200r86,0xm1649,-16r-466,0r17,-94r112,0r21,-121r-326,0r15,-88r434,-533r227,0r-92,527r132,0r-16,94r-133,0r-21,121r113,0xm1350,-325r58,-334r-274,334r216,0xm1440,-1520r153,0r-1111,1549r-153,0","w":1922},"\u00bf":{"d":"848,-1464v90,134,-34,323,-178,323v-94,0,-154,-88,-137,-188v16,-93,102,-191,203,-191v47,0,86,18,112,56xm837,-39v-136,39,-265,66,-420,68v-285,2,-444,-138,-395,-426v46,-270,240,-430,534,-453r36,-205r125,0r-52,299v-178,59,-274,178,-310,381v-31,178,11,291,167,291v65,0,120,-22,164,-66v44,-44,75,-109,96,-196r108,0","w":1080},"\u00c0":{"d":"-145,0r21,-121r110,0r746,-1372r215,0r267,1372r127,0r-21,121r-629,0r21,-121r132,0r-58,-305r-505,0r-165,305r160,0r-21,121r-400,0xm347,-547r416,0r-107,-571xm855,-1899r117,264r-148,0r-220,-264r251,0","w":1430},"\u00c1":{"d":"-145,0r21,-121r110,0r746,-1372r215,0r267,1372r127,0r-21,121r-629,0r21,-121r132,0r-58,-305r-505,0r-165,305r160,0r-21,121r-400,0xm347,-547r416,0r-107,-571xm924,-1899r251,0r-314,264r-148,0","w":1430},"\u00c2":{"d":"-145,0r21,-121r110,0r746,-1372r215,0r267,1372r127,0r-21,121r-629,0r21,-121r132,0r-58,-305r-505,0r-165,305r160,0r-21,121r-400,0xm347,-547r416,0r-107,-571xm750,-1899r277,0r154,264r-147,0r-163,-161r-221,161r-147,0","w":1430},"\u00c3":{"d":"-145,0r21,-121r110,0r746,-1372r215,0r267,1372r127,0r-21,121r-629,0r21,-121r132,0r-58,-305r-505,0r-165,305r160,0r-21,121r-400,0xm347,-547r416,0r-107,-571xm768,-1726v-73,-25,-130,24,-137,91r-99,0v11,-88,42,-155,83,-202v72,-81,187,-80,281,-21v38,24,74,55,130,55v57,0,90,-44,98,-98r99,0v-14,85,-42,156,-84,202v-51,56,-125,80,-209,57v-47,-14,-110,-66,-162,-84","w":1430},"\u00c4":{"d":"-145,0r21,-121r110,0r746,-1372r215,0r267,1372r127,0r-21,121r-629,0r21,-121r132,0r-58,-305r-505,0r-165,305r160,0r-21,121r-400,0xm347,-547r416,0r-107,-571xm574,-1673v-48,-67,-14,-158,37,-206v56,-52,143,-64,185,0v68,102,-26,249,-135,249v-37,0,-66,-14,-87,-43xm976,-1673v-46,-67,-14,-159,37,-206v56,-52,141,-62,186,0v72,102,-28,249,-137,249v-36,0,-66,-14,-86,-43","w":1430},"\u00c5":{"d":"849,-1747v-99,1,-187,131,-123,223v39,56,118,46,168,0v46,-43,74,-124,32,-184v-19,-26,-45,-39,-77,-39xm-181,0r21,-121r110,0r688,-1263v-56,-45,-84,-127,-68,-232v21,-139,156,-285,305,-285v141,0,236,135,207,285v-20,104,-72,182,-149,232r245,1263r128,0r-21,121r-630,0r22,-121r131,0r-57,-305r-505,0r-166,305r160,0r-21,121r-400,0xm311,-547r417,0r-106,-571","w":1430},"\u00c6":{"d":"326,-545r418,0r145,-827r-68,0xm478,0r21,-121r171,0r53,-303r-470,0r-182,303r148,0r-21,121r-385,0r21,-121r102,0r752,-1251r-181,0r21,-121r1396,0r-61,352r-124,0r37,-215r-542,0r-83,479r330,0r33,-190r122,0r-91,516r-121,0r33,-190r-330,0r-106,604r561,0r37,-215r122,0r-62,352r-1201,0","w":1906},"\u00c7":{"d":"415,219v61,30,168,54,229,11v34,-25,52,-72,36,-129v-6,-22,-20,-56,-43,-101r115,0v46,70,83,127,69,225v-17,118,-115,177,-256,176v-64,0,-123,-10,-177,-26xm1271,-1024v-2,-233,-87,-375,-307,-375v-131,0,-238,54,-320,161v-82,107,-143,271,-182,493v-39,222,-35,386,10,493v45,107,133,160,265,160v89,0,167,-28,233,-83v66,-55,123,-139,168,-251r180,0v-63,154,-147,268,-252,343v-105,75,-234,112,-389,112v-448,0,-686,-301,-600,-774v43,-238,141,-428,297,-567v208,-186,496,-255,818,-176v83,20,168,54,257,97r-64,367r-114,0","w":1467},"\u00c8":{"d":"-44,0r21,-121r172,0r219,-1251r-172,0r21,-121r1208,0r-62,352r-124,0r38,-215r-566,0r-83,479r352,0r33,-190r123,0r-90,516r-124,0r34,-190r-352,0r-106,604r582,0r38,-215r123,0r-61,352r-1224,0xm894,-1899r117,264r-148,0r-220,-264r251,0","w":1404},"\u00c9":{"d":"-44,0r21,-121r172,0r219,-1251r-172,0r21,-121r1208,0r-62,352r-124,0r38,-215r-566,0r-83,479r352,0r33,-190r123,0r-90,516r-124,0r34,-190r-352,0r-106,604r582,0r38,-215r123,0r-61,352r-1224,0xm963,-1899r251,0r-314,264r-148,0","w":1404},"\u00ca":{"d":"-44,0r21,-121r172,0r219,-1251r-172,0r21,-121r1208,0r-62,352r-124,0r38,-215r-566,0r-83,479r352,0r33,-190r123,0r-90,516r-124,0r34,-190r-352,0r-106,604r582,0r38,-215r123,0r-61,352r-1224,0xm789,-1899r277,0r154,264r-147,0r-163,-161r-221,161r-147,0","w":1404},"\u00cb":{"d":"-44,0r21,-121r172,0r219,-1251r-172,0r21,-121r1208,0r-62,352r-124,0r38,-215r-566,0r-83,479r352,0r33,-190r123,0r-90,516r-124,0r34,-190r-352,0r-106,604r582,0r38,-215r123,0r-61,352r-1224,0xm652,-1673v-48,-67,-15,-158,36,-206v56,-52,141,-63,185,0v46,67,15,158,-36,206v-55,51,-140,61,-185,0xm1053,-1673v-47,-67,-15,-158,37,-206v56,-52,141,-62,186,0v72,102,-28,249,-137,249v-36,0,-65,-14,-86,-43","w":1404},"\u00cc":{"d":"-44,0r21,-121r172,0r219,-1251r-172,0r21,-121r691,0r-21,121r-173,0r-219,1251r173,0r-21,121r-691,0xm591,-1899r117,264r-148,0r-220,-264r251,0","w":862},"\u00cd":{"d":"-44,0r21,-121r172,0r219,-1251r-172,0r21,-121r691,0r-21,121r-173,0r-219,1251r173,0r-21,121r-691,0xm660,-1899r251,0r-314,264r-148,0","w":862},"\u00ce":{"d":"-44,0r21,-121r172,0r219,-1251r-172,0r21,-121r691,0r-21,121r-173,0r-219,1251r173,0r-21,121r-691,0xm486,-1899r277,0r154,264r-147,0r-163,-161r-221,161r-147,0","w":862},"\u00cf":{"d":"-44,0r21,-121r172,0r219,-1251r-172,0r21,-121r691,0r-21,121r-173,0r-219,1251r173,0r-21,121r-691,0xm280,-1673v-48,-67,-15,-158,36,-206v56,-52,141,-63,185,0v46,67,15,158,-36,206v-55,51,-140,61,-185,0xm681,-1673v-47,-67,-15,-158,37,-206v57,-52,141,-62,186,0v72,102,-28,249,-137,249v-36,0,-65,-14,-86,-43","w":862},"\u00d0":{"d":"508,-121r125,0v141,0,251,-49,333,-149v82,-100,142,-259,181,-478v38,-217,34,-376,-13,-475v-47,-99,-141,-149,-282,-149r-125,0r-91,522r298,0r-24,137r-298,0xm-32,0r21,-121r172,0r104,-592r-192,0r24,-137r192,0r91,-522r-172,0r21,-121r691,0v470,-3,698,255,612,745v-42,242,-138,428,-288,556v-150,128,-345,192,-585,192r-691,0","w":1611},"\u00d1":{"d":"-50,0r22,-121r171,0r219,-1251r-172,0r22,-121r420,0r626,1057r164,-936r-171,0r21,-121r470,0r-22,121r-171,0r-240,1372r-236,0r-635,-1079r-168,958r171,0r-21,121r-470,0xm914,-1726v-73,-25,-129,24,-136,91r-99,0v11,-88,42,-155,83,-202v72,-81,187,-80,281,-21v38,24,74,55,130,55v57,0,90,-44,98,-98r99,0v-14,85,-42,156,-84,202v-51,56,-126,81,-210,57v-48,-14,-109,-66,-162,-84","w":1684},"\u00d2":{"d":"688,-92v114,0,208,-54,283,-161v75,-107,131,-271,170,-492v39,-221,40,-386,3,-493v-37,-107,-113,-161,-228,-161v-114,0,-209,55,-284,163v-75,108,-131,272,-169,491v-38,219,-39,383,-2,491v37,108,113,162,227,162xm666,29v-450,0,-675,-296,-588,-774v44,-241,139,-431,292,-569v153,-138,342,-206,567,-206v451,0,676,296,589,775v-44,241,-139,431,-292,568v-153,137,-342,206,-568,206xm964,-1899r117,264r-148,0r-220,-264r251,0","w":1605},"\u00d3":{"d":"688,-92v114,0,208,-54,283,-161v75,-107,131,-271,170,-492v39,-221,40,-386,3,-493v-37,-107,-113,-161,-228,-161v-114,0,-209,55,-284,163v-75,108,-131,272,-169,491v-38,219,-39,383,-2,491v37,108,113,162,227,162xm666,29v-450,0,-675,-296,-588,-774v44,-241,139,-431,292,-569v153,-138,342,-206,567,-206v451,0,676,296,589,775v-44,241,-139,431,-292,568v-153,137,-342,206,-568,206xm1033,-1899r251,0r-314,264r-148,0","w":1605},"\u00d4":{"d":"688,-92v114,0,208,-54,283,-161v75,-107,131,-271,170,-492v39,-221,40,-386,3,-493v-37,-107,-113,-161,-228,-161v-114,0,-209,55,-284,163v-75,108,-131,272,-169,491v-38,219,-39,383,-2,491v37,108,113,162,227,162xm666,29v-450,0,-675,-296,-588,-774v44,-241,139,-431,292,-569v153,-138,342,-206,567,-206v451,0,676,296,589,775v-44,241,-139,431,-292,568v-153,137,-342,206,-568,206xm859,-1899r277,0r154,264r-147,0r-163,-161r-221,161r-147,0","w":1605},"\u00d5":{"d":"688,-92v114,0,208,-54,283,-161v75,-107,131,-271,170,-492v39,-221,40,-386,3,-493v-37,-107,-113,-161,-228,-161v-114,0,-209,55,-284,163v-75,108,-131,272,-169,491v-38,219,-39,383,-2,491v37,108,113,162,227,162xm666,29v-450,0,-675,-296,-588,-774v44,-241,139,-431,292,-569v153,-138,342,-206,567,-206v451,0,676,296,589,775v-44,241,-139,431,-292,568v-153,137,-342,206,-568,206xm876,-1726v-73,-25,-129,24,-136,91r-99,0v11,-88,42,-155,83,-202v72,-81,187,-80,281,-21v38,24,74,55,130,55v57,0,90,-44,98,-98r99,0v-14,85,-42,156,-84,202v-51,56,-126,81,-210,57v-48,-14,-109,-66,-162,-84","w":1605},"\u00d6":{"d":"688,-92v114,0,208,-54,283,-161v75,-107,131,-271,170,-492v39,-221,40,-386,3,-493v-37,-107,-113,-161,-228,-161v-114,0,-209,55,-284,163v-75,108,-131,272,-169,491v-38,219,-39,383,-2,491v37,108,113,162,227,162xm666,29v-450,0,-675,-296,-588,-774v44,-241,139,-431,292,-569v153,-138,342,-206,567,-206v451,0,676,296,589,775v-44,241,-139,431,-292,568v-153,137,-342,206,-568,206xm722,-1673v-48,-67,-15,-158,36,-206v56,-52,141,-63,185,0v46,67,15,158,-36,206v-55,51,-140,61,-185,0xm1123,-1673v-47,-67,-15,-158,37,-206v57,-52,141,-62,186,0v72,102,-28,249,-137,249v-36,0,-65,-14,-86,-43","w":1605},"\u00d7":{"d":"1307,-1081r-396,440r396,440r-139,154r-396,-440r-396,440r-138,-154r396,-440r-396,-440r138,-156r396,440r396,-440","w":1544},"\u00d8":{"d":"1163,-1157v-20,-145,-94,-242,-247,-242v-114,0,-209,55,-284,163v-75,108,-131,272,-169,491v-16,88,-27,173,-28,266xm442,-334v23,148,90,242,246,242v117,0,211,-57,287,-167v83,-121,163,-384,189,-641v3,-34,3,-64,0,-93xm937,-1520v198,0,347,54,450,154r219,-203r65,90r-213,199v85,140,106,318,68,535v-42,241,-139,431,-292,568v-153,137,-342,206,-568,206v-197,0,-345,-56,-448,-156r-220,205r-65,-90r215,-201v-86,-136,-109,-316,-71,-532v42,-241,140,-431,293,-569v153,-138,342,-206,567,-206","w":1605},"\u00d9":{"d":"346,-1372r-171,0r21,-121r691,0r-21,121r-172,0r-130,747v-33,186,-29,317,10,391v39,74,121,111,248,111v124,0,219,-38,284,-113v65,-75,113,-204,145,-389r131,-747r-171,0r21,-121r468,0r-21,121r-172,0r-134,768v-40,228,-113,391,-219,488v-106,97,-264,145,-473,145v-423,0,-548,-181,-469,-635xm1010,-1899r117,264r-148,0r-220,-264r251,0","w":1607},"\u00da":{"d":"346,-1372r-171,0r21,-121r691,0r-21,121r-172,0r-130,747v-33,186,-29,317,10,391v39,74,121,111,248,111v124,0,219,-38,284,-113v65,-75,113,-204,145,-389r131,-747r-171,0r21,-121r468,0r-21,121r-172,0r-134,768v-40,228,-113,391,-219,488v-106,97,-264,145,-473,145v-423,0,-548,-181,-469,-635xm1079,-1899r251,0r-314,264r-148,0","w":1607},"\u00db":{"d":"346,-1372r-171,0r21,-121r691,0r-21,121r-172,0r-130,747v-33,186,-29,317,10,391v39,74,121,111,248,111v124,0,219,-38,284,-113v65,-75,113,-204,145,-389r131,-747r-171,0r21,-121r468,0r-21,121r-172,0r-134,768v-40,228,-113,391,-219,488v-106,97,-264,145,-473,145v-423,0,-548,-181,-469,-635xm905,-1899r277,0r154,264r-147,0r-163,-161r-221,161r-147,0","w":1607},"\u00dc":{"d":"346,-1372r-171,0r21,-121r691,0r-21,121r-172,0r-130,747v-33,186,-29,317,10,391v39,74,121,111,248,111v124,0,219,-38,284,-113v65,-75,113,-204,145,-389r131,-747r-171,0r21,-121r468,0r-21,121r-172,0r-134,768v-40,228,-113,391,-219,488v-106,97,-264,145,-473,145v-423,0,-548,-181,-469,-635xm768,-1673v-48,-67,-15,-158,36,-206v56,-52,141,-63,185,0v46,67,15,158,-36,206v-55,51,-140,61,-185,0xm1169,-1673v-47,-67,-15,-158,37,-206v57,-52,141,-62,186,0v72,102,-28,249,-137,249v-36,0,-65,-14,-86,-43","w":1607},"\u00dd":{"d":"186,0r21,-121r181,0r87,-497r-267,-754r-115,0r21,-121r645,0r-21,121r-150,0r203,569r400,-569r-134,0r21,-121r385,0r-21,121r-114,0r-495,702r-96,549r180,0r-21,121r-710,0xm887,-1899r251,0r-314,264r-148,0","w":1315},"\u00de":{"d":"-44,0r21,-121r172,0r219,-1251r-172,0r21,-121r733,0r-21,121r-215,0r-30,170r247,0v278,-5,459,156,413,436v-43,257,-268,441,-566,438r-246,0r-37,207r217,0r-21,121r-735,0xm553,-449r101,0v78,0,146,-29,202,-86v56,-57,93,-134,110,-231v34,-181,-38,-316,-202,-315r-101,0","w":1395},"\u00df":{"d":"617,-289v-8,134,26,204,149,205v96,1,167,-73,181,-160v11,-70,-24,-144,-109,-222r-94,-87v-90,-87,-142,-169,-114,-336v32,-189,157,-291,347,-332v19,-158,-10,-223,-154,-223v-65,0,-117,20,-153,60v-36,40,-62,104,-78,194r-213,1219v-25,139,-74,229,-149,269v-115,61,-239,91,-370,91r20,-112v48,0,86,-19,114,-57v28,-38,50,-101,65,-187r207,-1180v48,-269,247,-410,566,-409v310,1,446,127,426,440v-177,-4,-308,42,-334,180v-5,27,-2,51,8,74v17,43,103,116,147,157v91,84,146,153,167,207v20,53,24,115,11,187v-37,217,-225,342,-485,340v-116,-1,-211,-26,-309,-60r45,-258r109,0","w":1400},"\u00e0":{"d":"567,-1638r165,376r-147,0r-269,-376r251,0xm757,-876v-2,-40,-20,-60,-54,-60v-81,0,-160,53,-239,160v-36,49,-69,156,-98,321v-21,123,-24,209,-9,257v15,48,52,71,110,71v55,0,100,-28,135,-83v35,-55,64,-145,85,-269xm1063,-1031r-158,910r120,-2r-21,123r-400,0r23,-135v-66,109,-157,164,-274,164v-245,0,-340,-202,-289,-477v27,-148,96,-288,211,-416v136,-152,296,-228,478,-228v180,0,283,20,310,61","w":1194},"\u00e1":{"d":"796,-1638r251,0r-402,376r-148,0xm757,-876v-2,-40,-20,-60,-54,-60v-81,0,-160,53,-239,160v-36,49,-69,156,-98,321v-21,123,-24,209,-9,257v15,48,52,71,110,71v55,0,100,-28,135,-83v35,-55,64,-145,85,-269xm1063,-1031r-158,910r120,-2r-21,123r-400,0r23,-135v-66,109,-157,164,-274,164v-245,0,-340,-202,-289,-477v27,-148,96,-288,211,-416v136,-152,296,-228,478,-228v180,0,283,20,310,61","w":1194},"\u00e2":{"d":"570,-1638r218,0r164,376r-148,0r-152,-225r-231,225r-148,0xm757,-876v-2,-40,-20,-60,-54,-60v-81,0,-160,53,-239,160v-36,49,-69,156,-98,321v-21,123,-24,209,-9,257v15,48,52,71,110,71v55,0,100,-28,135,-83v35,-55,64,-145,85,-269xm1063,-1031r-158,910r120,-2r-21,123r-400,0r23,-135v-66,109,-157,164,-274,164v-245,0,-340,-202,-289,-477v27,-148,96,-288,211,-416v136,-152,296,-228,478,-228v180,0,283,20,310,61","w":1194},"\u00e3":{"d":"528,-1440v-61,0,-93,66,-103,131r-99,0v14,-102,47,-185,89,-237v53,-65,130,-96,216,-64v41,15,88,62,123,92v23,19,46,29,67,29v62,0,93,-66,104,-131r99,0v-16,100,-46,186,-89,238v-53,65,-130,94,-216,62v-41,-16,-88,-61,-123,-90v-23,-20,-46,-30,-68,-30xm757,-876v-2,-40,-20,-60,-54,-60v-81,0,-160,53,-239,160v-36,49,-69,156,-98,321v-21,123,-24,209,-9,257v15,48,52,71,110,71v55,0,100,-28,135,-83v35,-55,64,-145,85,-269xm1063,-1031r-158,910r120,-2r-21,123r-400,0r23,-135v-66,109,-157,164,-274,164v-245,0,-340,-202,-289,-477v27,-148,96,-288,211,-416v136,-152,296,-228,478,-228v180,0,283,20,310,61","w":1194},"\u00e4":{"d":"402,-1365v-71,-104,28,-248,137,-249v71,-1,119,69,105,146v-13,70,-78,147,-155,147v-36,0,-66,-14,-87,-44xm804,-1365v-71,-103,27,-248,136,-249v71,-1,121,69,108,146v-12,70,-82,148,-158,147v-36,0,-66,-14,-86,-44xm757,-876v-2,-40,-20,-60,-54,-60v-81,0,-160,53,-239,160v-36,49,-69,156,-98,321v-21,123,-24,209,-9,257v15,48,52,71,110,71v55,0,100,-28,135,-83v35,-55,64,-145,85,-269xm1063,-1031r-158,910r120,-2r-21,123r-400,0r23,-135v-66,109,-157,164,-274,164v-245,0,-340,-202,-289,-477v27,-148,96,-288,211,-416v136,-152,296,-228,478,-228v180,0,283,20,310,61","w":1194},"\u00e5":{"d":"757,-876v-2,-40,-20,-60,-54,-60v-81,0,-160,53,-239,160v-36,49,-69,156,-98,321v-21,123,-24,209,-9,257v15,48,52,71,110,71v55,0,100,-28,135,-83v35,-55,64,-145,85,-269xm1063,-1031r-158,910r120,-2r-21,123r-400,0r23,-135v-66,109,-157,164,-274,164v-245,0,-340,-202,-289,-477v27,-148,96,-288,211,-416v136,-152,296,-228,478,-228v180,0,283,20,310,61xm428,-1534v23,-139,154,-285,305,-285v141,0,233,132,207,285v-23,140,-155,285,-306,285v-141,0,-231,-133,-206,-285xm706,-1665v-99,0,-185,133,-122,224v38,56,118,45,167,-1v46,-43,74,-124,32,-184v-19,-26,-44,-39,-77,-39","w":1194},"\u00e6":{"d":"975,-519v225,-1,343,-101,343,-312v0,-99,-37,-148,-111,-148v-57,0,-100,30,-133,85v-33,56,-77,228,-99,375xm348,-288v0,109,28,161,118,161v56,0,101,-28,136,-83v35,-55,64,-145,86,-269r69,-397v-2,-40,-20,-60,-54,-60v-81,0,-160,53,-239,160v-36,49,-64,132,-85,249v-21,117,-31,197,-31,239xm353,29v-196,0,-303,-136,-303,-339v0,-202,72,-382,215,-542v143,-160,306,-240,488,-240v131,0,221,11,270,32v249,-84,619,-5,615,252v0,18,-2,37,-5,56v-38,216,-264,333,-679,352v-4,23,-6,45,-6,66v0,167,62,250,185,250v159,0,248,-103,291,-238r149,0v-90,229,-239,351,-542,351v-141,0,-249,-37,-322,-111v-88,74,-207,111,-356,111","w":1717},"\u00e7":{"d":"265,219v61,30,168,54,229,11v34,-25,52,-72,36,-129v-6,-22,-20,-56,-43,-101r115,0v46,70,83,127,69,225v-17,118,-115,177,-256,176v-64,0,-123,-10,-177,-26xm409,-314v0,143,48,230,178,230v64,0,119,-21,165,-64v46,-43,81,-104,103,-184r150,0v-44,121,-106,212,-187,272v-81,60,-183,89,-304,89v-283,2,-452,-141,-452,-417v0,-245,90,-434,224,-556v150,-137,369,-177,609,-127v65,14,131,35,196,63r-51,295r-101,0v13,-157,-35,-266,-184,-266v-89,0,-158,33,-207,100v-49,67,-88,182,-117,347v-15,86,-22,159,-22,218","w":1122},"\u00e8":{"d":"613,-1638r165,376r-147,0r-269,-376r251,0xm430,-519v221,6,344,-98,344,-313v0,-98,-37,-147,-112,-147v-57,0,-102,29,-136,89v-34,60,-65,184,-96,371xm491,29v-275,2,-430,-139,-430,-408v0,-246,89,-444,223,-565v109,-98,241,-148,399,-148v115,0,212,24,291,74v94,60,136,144,114,266v-38,216,-264,333,-679,352v-4,23,-6,58,-6,105v1,141,63,211,186,211v158,0,248,-103,290,-238r150,0v-90,227,-239,348,-538,351","w":1172},"\u00e9":{"d":"842,-1638r251,0r-402,376r-148,0xm430,-519v221,6,344,-98,344,-313v0,-98,-37,-147,-112,-147v-57,0,-102,29,-136,89v-34,60,-65,184,-96,371xm491,29v-275,2,-430,-139,-430,-408v0,-246,89,-444,223,-565v109,-98,241,-148,399,-148v115,0,212,24,291,74v94,60,136,144,114,266v-38,216,-264,333,-679,352v-4,23,-6,58,-6,105v1,141,63,211,186,211v158,0,248,-103,290,-238r150,0v-90,227,-239,348,-538,351","w":1172},"\u00ea":{"d":"616,-1638r218,0r164,376r-148,0r-152,-225r-231,225r-148,0xm430,-519v221,6,344,-98,344,-313v0,-98,-37,-147,-112,-147v-57,0,-102,29,-136,89v-34,60,-65,184,-96,371xm491,29v-275,2,-430,-139,-430,-408v0,-246,89,-444,223,-565v109,-98,241,-148,399,-148v115,0,212,24,291,74v94,60,136,144,114,266v-38,216,-264,333,-679,352v-4,23,-6,58,-6,105v1,141,63,211,186,211v158,0,248,-103,290,-238r150,0v-90,227,-239,348,-538,351","w":1172},"\u00eb":{"d":"448,-1365v-71,-104,28,-248,137,-249v71,-1,119,69,105,146v-13,70,-78,147,-155,147v-36,0,-66,-14,-87,-44xm850,-1365v-71,-103,27,-248,136,-249v71,-1,121,69,108,146v-12,70,-82,148,-158,147v-36,0,-66,-14,-86,-44xm430,-519v221,6,344,-98,344,-313v0,-98,-37,-147,-112,-147v-57,0,-102,29,-136,89v-34,60,-65,184,-96,371xm491,29v-275,2,-430,-139,-430,-408v0,-246,89,-444,223,-565v109,-98,241,-148,399,-148v115,0,212,24,291,74v94,60,136,144,114,266v-38,216,-264,333,-679,352v-4,23,-6,58,-6,105v1,141,63,211,186,211v158,0,248,-103,290,-238r150,0v-90,227,-239,348,-538,351","w":1172},"\u00ec":{"d":"377,-1638r165,376r-147,0r-269,-376r251,0xm446,-121r136,0r-21,121r-455,0r165,-942r-136,0r21,-121r454,0","w":700},"\u00ed":{"d":"606,-1638r251,0r-402,376r-148,0xm446,-121r136,0r-21,121r-455,0r165,-942r-136,0r21,-121r454,0","w":700},"\u00ee":{"d":"380,-1638r218,0r164,376r-148,0r-152,-225r-231,225r-148,0xm446,-121r136,0r-21,121r-455,0r165,-942r-136,0r21,-121r454,0","w":700},"\u00ef":{"d":"212,-1365v-71,-104,28,-248,137,-249v71,-1,119,69,105,146v-13,70,-78,147,-155,147v-36,0,-66,-14,-87,-44xm614,-1365v-71,-103,27,-248,136,-249v71,-1,121,69,108,146v-12,70,-82,148,-158,147v-36,0,-66,-14,-86,-44xm446,-121r136,0r-21,121r-455,0r165,-942r-136,0r21,-121r454,0","w":700},"\u00f0":{"d":"425,-1556v158,22,293,69,393,145r324,-154r24,103r-261,125v171,176,271,438,214,780v-31,184,-105,327,-219,431v-114,104,-255,155,-424,155v-318,0,-506,-207,-446,-537v28,-153,95,-282,210,-381v133,-116,273,-169,466,-145v25,4,49,10,74,18v-10,-91,-39,-160,-80,-225r-313,149r-28,-100r274,-131v-62,-57,-151,-96,-252,-123xm776,-891v-43,-20,-80,-37,-132,-37v-67,0,-120,32,-159,96v-39,64,-72,171,-99,324v-27,156,-33,266,-16,329v17,63,59,95,126,95v67,0,117,-33,158,-94v54,-82,114,-355,123,-532v3,-64,3,-124,-1,-181","w":1229},"\u00f1":{"d":"643,-1440v-61,0,-93,66,-103,131r-99,0v14,-102,47,-185,89,-237v53,-65,130,-96,216,-64v41,15,88,62,123,92v23,19,46,29,67,29v62,0,93,-66,104,-131r99,0v-16,100,-46,186,-89,238v-53,65,-130,94,-216,62v-41,-16,-88,-61,-123,-90v-23,-20,-46,-30,-68,-30xm879,-804v2,-83,-29,-121,-109,-122v-64,0,-115,26,-154,78v-39,52,-69,136,-89,250r-105,598r-319,0r165,-942r-136,0r21,-121r455,0r-26,150v90,-112,171,-177,349,-179v177,-2,267,100,266,281v0,41,-4,86,-13,135r-97,555r136,0r-21,121r-455,0r120,-686v8,-47,12,-86,12,-118","w":1340},"\u00f2":{"d":"643,-1638r165,376r-147,0r-269,-376r251,0xm403,-270v0,114,36,187,134,186v67,0,120,-32,159,-96v39,-64,72,-181,102,-352v19,-111,30,-200,30,-266v0,-109,-35,-182,-134,-181v-68,0,-121,33,-160,97v-39,64,-73,181,-103,350v-19,109,-28,197,-28,262xm714,-1092v281,0,455,146,455,421v0,245,-90,428,-229,551v-113,100,-254,149,-422,149v-280,0,-455,-148,-455,-423v0,-244,91,-429,229,-550v113,-99,253,-148,422,-148","w":1229},"\u00f3":{"d":"872,-1638r251,0r-402,376r-148,0xm403,-270v0,114,36,187,134,186v67,0,120,-32,159,-96v39,-64,72,-181,102,-352v19,-111,30,-200,30,-266v0,-109,-35,-182,-134,-181v-68,0,-121,33,-160,97v-39,64,-73,181,-103,350v-19,109,-28,197,-28,262xm714,-1092v281,0,455,146,455,421v0,245,-90,428,-229,551v-113,100,-254,149,-422,149v-280,0,-455,-148,-455,-423v0,-244,91,-429,229,-550v113,-99,253,-148,422,-148","w":1229},"\u00f4":{"d":"646,-1638r218,0r164,376r-148,0r-152,-225r-231,225r-148,0xm403,-270v0,114,36,187,134,186v67,0,120,-32,159,-96v39,-64,72,-181,102,-352v19,-111,30,-200,30,-266v0,-109,-35,-182,-134,-181v-68,0,-121,33,-160,97v-39,64,-73,181,-103,350v-19,109,-28,197,-28,262xm714,-1092v281,0,455,146,455,421v0,245,-90,428,-229,551v-113,100,-254,149,-422,149v-280,0,-455,-148,-455,-423v0,-244,91,-429,229,-550v113,-99,253,-148,422,-148","w":1229},"\u00f5":{"d":"604,-1440v-61,0,-93,66,-103,131r-99,0v14,-102,47,-185,89,-237v53,-65,130,-96,216,-64v41,15,88,62,123,92v23,19,46,29,67,29v62,0,93,-66,104,-131r99,0v-16,100,-46,186,-89,238v-53,65,-130,94,-216,62v-41,-16,-88,-61,-123,-90v-23,-20,-46,-30,-68,-30xm403,-270v0,114,36,187,134,186v67,0,120,-32,159,-96v39,-64,72,-181,102,-352v19,-111,30,-200,30,-266v0,-109,-35,-182,-134,-181v-68,0,-121,33,-160,97v-39,64,-73,181,-103,350v-19,109,-28,197,-28,262xm714,-1092v281,0,455,146,455,421v0,245,-90,428,-229,551v-113,100,-254,149,-422,149v-280,0,-455,-148,-455,-423v0,-244,91,-429,229,-550v113,-99,253,-148,422,-148","w":1229},"\u00f6":{"d":"478,-1365v-71,-104,28,-248,137,-249v71,-1,119,69,105,146v-13,70,-78,147,-155,147v-36,0,-66,-14,-87,-44xm880,-1365v-71,-103,27,-248,136,-249v71,-1,121,69,108,146v-12,70,-82,148,-158,147v-36,0,-66,-14,-86,-44xm403,-270v0,114,36,187,134,186v67,0,120,-32,159,-96v39,-64,72,-181,102,-352v19,-111,30,-200,30,-266v0,-109,-35,-182,-134,-181v-68,0,-121,33,-160,97v-39,64,-73,181,-103,350v-19,109,-28,197,-28,262xm714,-1092v281,0,455,146,455,421v0,245,-90,428,-229,551v-113,100,-254,149,-422,149v-280,0,-455,-148,-455,-423v0,-244,91,-429,229,-550v113,-99,253,-148,422,-148","w":1229},"\u00f7":{"d":"772,-862v-74,0,-134,-73,-134,-150v0,-76,60,-149,134,-149v75,0,135,72,135,149v0,78,-60,150,-135,150xm772,-123v-74,0,-134,-73,-134,-149v0,-77,60,-150,134,-150v75,0,135,72,135,150v0,77,-60,149,-135,149xm195,-756r1154,0r0,228r-1154,0r0,-228","w":1544},"\u00f8":{"d":"829,-801v0,-110,-33,-178,-135,-178v-66,0,-119,31,-158,95v-39,64,-72,174,-99,331r-24,137xm403,-262v-2,110,34,178,135,178v65,0,118,-31,156,-94v38,-63,71,-173,99,-330r24,-141xm714,-1092v139,0,248,34,322,99r181,-168r62,86r-176,162v63,97,79,224,53,381v-54,324,-280,560,-638,561v-140,0,-242,-35,-322,-99r-185,172r-61,-86r177,-163v-61,-100,-77,-229,-51,-385v53,-325,279,-559,638,-560","w":1229},"\u00f9":{"d":"664,-1638r165,376r-147,0r-269,-376r251,0xm463,-250v0,83,30,113,107,113v64,0,115,-26,154,-79v39,-53,69,-136,89,-251r104,-596r320,0r-165,942r136,0r-21,121r-456,0r26,-150v-89,112,-170,177,-348,179v-178,2,-267,-100,-266,-281v0,-41,4,-86,13,-135r97,-555r-136,0r21,-121r455,0r-108,621v-15,83,-22,147,-22,192","w":1340},"\u00fa":{"d":"893,-1638r251,0r-402,376r-148,0xm463,-250v0,83,30,113,107,113v64,0,115,-26,154,-79v39,-53,69,-136,89,-251r104,-596r320,0r-165,942r136,0r-21,121r-456,0r26,-150v-89,112,-170,177,-348,179v-178,2,-267,-100,-266,-281v0,-41,4,-86,13,-135r97,-555r-136,0r21,-121r455,0r-108,621v-15,83,-22,147,-22,192","w":1340},"\u00fb":{"d":"667,-1638r218,0r164,376r-148,0r-152,-225r-231,225r-148,0xm463,-250v0,83,30,113,107,113v64,0,115,-26,154,-79v39,-53,69,-136,89,-251r104,-596r320,0r-165,942r136,0r-21,121r-456,0r26,-150v-89,112,-170,177,-348,179v-178,2,-267,-100,-266,-281v0,-41,4,-86,13,-135r97,-555r-136,0r21,-121r455,0r-108,621v-15,83,-22,147,-22,192","w":1340},"\u00fc":{"d":"499,-1365v-71,-104,28,-248,137,-249v71,-1,119,69,105,146v-13,70,-78,147,-155,147v-36,0,-66,-14,-87,-44xm902,-1365v-71,-103,26,-248,135,-249v71,-1,121,69,108,146v-12,70,-82,148,-158,147v-36,0,-65,-14,-85,-44xm463,-250v0,83,30,113,107,113v64,0,115,-26,154,-79v39,-53,69,-136,89,-251r104,-596r320,0r-165,942r136,0r-21,121r-456,0r26,-150v-89,112,-170,177,-348,179v-178,2,-267,-100,-266,-281v0,-41,4,-86,13,-135r97,-555r-136,0r21,-121r455,0r-108,621v-15,83,-22,147,-22,192","w":1340},"\u00fd":{"d":"793,-1638r251,0r-402,376r-148,0xm102,235v-2,90,56,110,143,110v67,0,134,-24,202,-72r-256,-1215r-104,0r21,-121r391,0r215,1028v168,-282,228,-474,310,-905r-128,-1r21,-121r258,-1v-15,85,-33,183,-55,293v-53,271,-113,469,-180,594v-175,327,-334,520,-475,580v-80,34,-177,51,-292,51v-57,0,-126,-14,-208,-43r39,-222r101,1v-2,16,-3,31,-3,44","w":1071},"\u00fe":{"d":"876,-761v0,-108,-35,-175,-133,-175v-63,0,-112,29,-152,83v-49,66,-87,239,-108,374v-11,67,-18,123,-18,170v0,110,38,183,137,182v65,0,117,-29,154,-88v37,-59,68,-164,95,-317v17,-95,25,-171,25,-229xm672,29v-139,0,-216,-56,-250,-164r-98,561r-318,0r325,-1862r-136,0r21,-120r455,0r-110,628v67,-100,155,-162,307,-164v229,-4,360,158,356,398v-4,242,-83,449,-204,573v-97,99,-212,150,-348,150","w":1288},"\u00ff":{"d":"399,-1365v-71,-104,28,-248,137,-249v71,-1,119,69,105,146v-13,70,-78,147,-155,147v-36,0,-66,-14,-87,-44xm802,-1365v-71,-103,26,-248,135,-249v71,-1,121,69,108,146v-12,70,-82,148,-158,147v-36,0,-65,-14,-85,-44xm102,235v-2,90,56,110,143,110v67,0,134,-24,202,-72r-256,-1215r-104,0r21,-121r391,0r215,1028v168,-282,228,-474,310,-905r-128,-1r21,-121r258,-1v-15,85,-33,183,-55,293v-53,271,-113,469,-180,594v-175,327,-334,520,-475,580v-80,34,-177,51,-292,51v-57,0,-126,-14,-208,-43r39,-222r101,1v-2,16,-3,31,-3,44","w":1071},"\u0152":{"d":"939,-121r219,-1251r-114,0v-159,0,-287,52,-386,157v-99,105,-166,260,-202,467v-37,209,-24,366,37,470v61,104,172,157,332,157r114,0xm1950,0r-1189,0v-227,-1,-376,-24,-502,-109v-166,-112,-232,-344,-181,-639v49,-285,193,-518,404,-636v147,-82,300,-108,540,-109r1173,0r-61,352r-124,0r38,-215r-545,0r-83,479r330,0r33,-190r123,0r-90,516r-123,0r33,-190r-330,0r-106,604r561,0r37,-215r124,0","w":2175},"\u0153":{"d":"500,29v-264,0,-437,-158,-437,-423v0,-244,91,-429,229,-550v113,-99,248,-148,406,-148v157,0,274,37,353,112v100,-75,213,-112,339,-112v126,0,225,23,298,68v103,65,144,155,124,272v-38,216,-265,333,-680,352v-3,23,-5,58,-5,105v1,141,62,211,185,211v159,0,248,-103,291,-238r149,0v-90,228,-240,351,-542,351v-141,0,-247,-37,-320,-110v-104,73,-234,110,-390,110xm1491,-762v20,-112,-4,-217,-106,-217v-57,0,-102,28,-133,86v-34,62,-66,187,-99,374v196,6,308,-75,338,-243xm402,-292v0,132,28,208,135,208v67,0,121,-32,159,-96v38,-64,69,-167,94,-308v25,-141,38,-236,38,-286v0,-130,-25,-205,-134,-205v-68,0,-121,33,-160,97v-39,64,-71,166,-95,305v-25,139,-37,234,-37,285","w":1894},"\u0178":{"d":"186,0r21,-121r181,0r87,-497r-267,-754r-115,0r21,-121r645,0r-21,121r-150,0r203,569r400,-569r-134,0r21,-121r385,0r-21,121r-114,0r-495,702r-96,549r180,0r-21,121r-710,0xm576,-1673v-48,-67,-15,-158,36,-206v56,-52,141,-63,185,0v46,67,15,158,-36,206v-55,51,-140,61,-185,0xm977,-1673v-47,-67,-15,-158,37,-206v57,-52,141,-62,186,0v72,102,-28,249,-137,249v-36,0,-65,-14,-86,-43","w":1315},"\u02c6":{"d":"491,-1638r218,0r164,376r-148,0r-152,-225r-231,225r-148,0","w":921},"\u02dc":{"d":"449,-1440v-61,0,-93,66,-103,131r-99,0v14,-102,47,-185,89,-237v53,-65,130,-96,216,-64v41,15,88,62,123,92v23,19,46,29,67,29v62,0,93,-66,104,-131r99,0v-16,100,-46,186,-89,238v-53,65,-130,94,-216,62v-41,-16,-88,-61,-123,-90v-23,-20,-46,-30,-68,-30","w":921},"\u2013":{"d":"120,-664r724,0r-42,240r-724,0","w":921},"\u2014":{"d":"120,-664r1645,0r-42,240r-1645,0","w":1843},"\u2018":{"d":"562,-1384v-144,97,-215,238,-244,450r-242,0v60,-284,191,-460,415,-586","w":641},"\u2019":{"d":"61,-1042v145,-97,213,-237,243,-451r243,0v-62,287,-190,457,-416,586","w":641},"\u201a":{"d":"27,131v145,-97,213,-239,244,-450r243,0v-62,284,-191,458,-416,585","w":641},"\u201c":{"d":"981,-1384v-146,96,-215,239,-246,450r-243,0v62,-285,192,-458,418,-586xm562,-1384v-144,97,-215,238,-244,450r-242,0v60,-284,191,-460,415,-586","w":1060},"\u201d":{"d":"479,-1042v146,-97,211,-239,243,-451r244,0v-62,287,-190,457,-416,586xm61,-1042v145,-97,213,-237,243,-451r243,0v-62,287,-190,457,-416,586","w":1060},"\u201e":{"d":"444,131v144,-97,216,-238,245,-450r243,0v-60,284,-191,458,-415,585xm27,131v145,-97,213,-239,244,-450r243,0v-62,284,-191,458,-416,585","w":1060},"\u2022":{"d":"290,-622v-31,-86,-31,-193,0,-279v30,-85,98,-158,176,-193v77,-35,171,-36,248,1v115,55,199,167,199,331v0,165,-85,279,-200,334v-77,37,-172,36,-249,0v-78,-36,-143,-109,-174,-194","w":1178},"\u2026":{"d":"1378,-27v-90,-134,35,-325,178,-325v93,0,156,90,138,190v-16,93,-104,191,-205,191v-47,0,-85,-18,-111,-56xm778,-27v-90,-134,35,-325,177,-325v93,0,155,90,138,190v-16,93,-105,191,-205,191v-47,0,-84,-18,-110,-56xm176,-27v-91,-134,36,-325,178,-325v94,0,155,90,138,190v-16,94,-104,191,-205,191v-47,0,-85,-18,-111,-56","w":1843},"\u2039":{"d":"646,-1069r-25,147r-273,322r160,321r-26,148r-354,-385r29,-168","w":737},"\u203a":{"d":"256,-1069r354,385r-29,168r-489,385r26,-148r271,-321r-159,-322","w":737},"\u20ac":{"d":"605,29v-319,0,-483,-224,-479,-559r-171,0r69,-119r109,0v1,-5,1,-12,2,-22v5,-35,8,-60,11,-74r20,-97r-156,0r68,-119r124,0v62,-178,152,-316,270,-413v164,-135,370,-185,600,-115v66,20,136,53,211,98r-64,367r-106,0v-1,-131,-18,-227,-51,-288v-33,-61,-85,-91,-154,-91v-78,0,-145,36,-202,109v-57,73,-106,184,-146,333r424,0r-70,119r-381,0v-10,51,-22,86,-27,143r-7,50r304,0r-69,119r-248,0v-14,148,-5,259,27,332v32,73,88,110,167,110v67,0,126,-28,180,-86v54,-58,99,-142,134,-252r146,0v-49,149,-119,262,-210,339v-91,77,-199,116,-325,116"},"\u2122":{"d":"214,-1493r509,0r0,180r-69,0r0,-98r-118,0r0,416r78,0r0,80r-292,0r0,-80r78,0r0,-416r-118,0r0,98r-68,0r0,-180xm1029,-1493r149,293r150,-293r220,0r0,82r-77,0r0,416r77,0r0,80r-291,0r0,-80r78,0r0,-359r-146,285r-102,0r-145,-285r0,359r78,0r0,80r-231,0r0,-80r76,0r0,-416r-76,0r0,-82r240,0","w":1843}}});
